{"learner":{"attributes":{"best_iteration":"52","best_score":"0.4771872217315264"},"feature_names":["fixed_acidity","volatile_acidity","citric_acid","residual_sugar","chlorides","free_sulfur_dioxide","total_sulfur_dioxide","density","pH","sulphates","alcohol"],"feature_types":["float","float","float","float","float","float","float","float","float","float","float"],"gradient_booster":{"model":{"gbtree_model_param":{"num_parallel_tree":"1","num_trees":"53"},"iteration_indptr":[0,1,2,3,4,5,6,7,8,9,10,11,12,13,14,15,16,17,18,19,20,21,22,23,24,25,26,27,28,29,30,31,32,33,34,35,36,37,38,39,40,41,42,43,44,45,46,47,48,49,50,51,52,53],"tree_info":[0,0,0,0,0,0,0,0,0,0,0,0,0,0,0,0,0,0,0,0,0,0,0,0,0,0,0,0,0,0,0,0,0,0,0,0,0,0,0,0,0,0,0,0,0,0,0,0,0,0,0,0,0],"trees":[{"base_weights":[-5.766866E-5,-2.8128654E-1,4.6562627E-1,-4.247739E-1,-4.7747556E-2,7.9368815E-2,6.894787E-1,-7.386151E-2,-1.560912E-1,6.7954354E-2,-4.1860152E-2,5.5987585E-2,-4.8434984E-2,9.462377E-2,1.9690114E-1],"categories":[],"categories_nodes":[],"categories_segments":[],"categories_sizes":[],"default_left":[0,0,0,0,0,0,0,0,0,0,0,0,0,0,0],"id":0,"left_children":[1,3,5,7,9,11,13,-1,-1,-1,-1,-1,-1,-1,-1],"loss_changes":[1.5060835E2,2.4006306E1,3.7384468E1,8.471184E0,1.722488E1,1.0386473E1,1.70242E1,0E0,0E0,0E0,0E0,0E0,0E0,0E0,0E0],"parents":[2147483647,0,0,1,1,2,2,3,3,4,4,5,5,6,6],"right_children":[2,4,6,8,10,12,14,-1,-1,-1,-1,-1,-1,-1,-1],"split_conditions":[1.1922725E-1,-1.0710191E-1,-1.6611499E-1,1.2412004E0,-6.582015E-1,3.7529662E-1,1.1048334E0,-7.386151E-2,-1.560912E-1,6.7954354E-2,-4.1860152E-2,5.5987585E-2,-4.8434984E-2,9.462377E-2,1.9690114E-1],"split_indices":[10,9,9,1,1,1,10,0,0,0,0,0,0,0,0],"split_type":[0,0,0,0,0,0,0,0,0,0,0,0,0,0,0],"sum_hessian":[1.148E3,7.16E2,4.32E2,4.43E2,2.73E2,1.59E2,2.73E2,3.85E2,5.8E1,8E1,1.93E2,9.8E1,6.1E1,1.59E2,1.14E2],"tree_param":{"num_deleted":"0","num_feature":"11","num_nodes":"15","size_leaf_vector":"1"}},{"base_weights":[-5.065236E-3,-1.5549068E-1,5.3506494E-1,2.9935545E-1,-2.3836349E-1,3.3838278E-1,7.698514E-1,1.7333264E-2,1.5641466E-1,-8.4404044E-2,-2.4779301E-2,-2.1774394E-3,9.187772E-2,2.0200145E-1,9.975882E-2],"categories":[],"categories_nodes":[],"categories_segments":[],"categories_sizes":[],"default_left":[0,0,0,0,0,0,0,0,0,0,0,0,0,0,0],"id":1,"left_children":[1,3,5,7,9,11,13,-1,-1,-1,-1,-1,-1,-1,-1],"loss_changes":[9.4738655E1,3.4448624E1,1.1468788E1,1.4408525E1,1.6177181E1,5.921919E0,6.9822617E0,0E0,0E0,0E0,0E0,0E0,0E0,0E0,0E0],"parents":[2147483647,0,0,1,1,2,2,3,3,4,4,5,5,6,6],"right_children":[2,4,6,8,10,12,14,-1,-1,-1,-1,-1,-1,-1,-1],"split_conditions":[8.2323164E-1,-9.09593E-1,1.8796347E-1,3.5389537E-1,-4.6118036E-1,-9.8798394E-1,-7.455592E-1,1.7333264E-2,1.5641466E-1,-8.4404044E-2,-2.4779301E-2,-2.1774394E-3,9.187772E-2,2.0200145E-1,9.975882E-2],"split_indices":[10,1,9,10,9,0,7,0,0,0,0,0,0,0,0],"split_type":[0,0,0,0,0,0,0,0,0,0,0,0,0,0,0],"sum_hessian":[1.164E3,9.11E2,2.53E2,1.4E2,7.71E2,1.39E2,1.14E2,9.8E1,4.2E1,2.95E2,4.76E2,3.6E1,1.03E2,5.9E1,5.5E1],"tree_param":{"num_deleted":"0","num_feature":"11","num_nodes":"15","size_leaf_vector":"1"}},{"base_weights":[7.2040264E-3,-2.6892364E-1,2.1481106E-1,-2.8574237E-1,4.3464482E-1,-5.9863944E-2,3.8203394E-1,-3.7475463E-2,-7.45323E-2,9.7676385E-3,2.388097E-1,-5.4810042E-3,-2.0847563E-1,1.1469904E-1,4.231176E-2],"categories":[],"categories_nodes":[],"categories_segments":[],"categories_sizes":[],"default_left":[0,0,0,0,0,0,0,0,0,0,0,0,0,0,0],"id":2,"left_children":[1,3,5,7,9,11,13,-1,-1,-1,-1,-1,-1,-1,-1],"loss_changes":[6.6384E1,6.0052605E0,3.0383884E1,4.0853767E0,3.4574811E0,7.976163E0,1.3293461E1,0E0,0E0,0E0,0E0,0E0,0E0,0E0,0E0],"parents":[2147483647,0,0,1,1,2,2,3,3,4,4,5,5,6,6],"right_children":[2,4,6,8,10,12,14,-1,-1,-1,-1,-1,-1,-1,-1],"split_conditions":[-3.970426E-1,2.4591987E0,-2.2512805E-1,1.6183885E-2,9.551335E-1,2.7495492E0,-5.46472E-1,-3.7475463E-2,-7.45323E-2,9.7676385E-3,2.388097E-1,-5.4810042E-3,-2.0847563E-1,1.1469904E-1,4.231176E-2],"split_indices":[10,0,9,6,9,1,1,0,0,0,0,0,0,0,0],"split_type":[0,0,0,0,0,0,0,0,0,0,0,0,0,0,0],"sum_hessian":[1.156E3,4.96E2,6.6E2,4.85E2,1.1E1,2.5E2,4.1E2,2.29E2,2.56E2,8E0,3E0,2.43E2,7E0,1.92E2,2.18E2],"tree_param":{"num_deleted":"0","num_feature":"11","num_nodes":"15","size_leaf_vector":"1"}},{"base_weights":[-9.02827E-3,-9.5696956E-2,4.6336624E-1,-2.2223577E-1,8.865626E-2,2.3051944E-1,5.837559E-1,-2.7059183E-2,-8.8977836E-2,5.182776E-2,-4.6664547E-2,9.0902105E-2,9.98017E-3,1.2551254E-1,-6.771298E-2],"categories":[],"categories_nodes":[],"categories_segments":[],"categories_sizes":[],"default_left":[0,0,0,0,0,0,0,0,0,0,0,0,0,0,0],"id":3,"left_children":[1,3,5,7,9,11,13,-1,-1,-1,-1,-1,-1,-1,-1],"loss_changes":[4.7536842E1,2.2904312E1,4.9112587E0,1.1205849E1,2.2017183E1,2.5261075E0,4.9801292E0,0E0,0E0,0E0,0E0,0E0,0E0,0E0,0E0],"parents":[2147483647,0,0,1,1,2,2,3,3,4,4,5,5,6,6],"right_children":[2,4,6,8,10,12,14,-1,-1,-1,-1,-1,-1,-1,-1],"split_conditions":[1.1048334E0,-4.808883E-2,-2.2512805E-1,7.104852E-1,1.3781975E-1,-6.3026917E-1,2.6890109E0,-2.7059183E-2,-8.8977836E-2,5.182776E-2,-4.6664547E-2,9.0902105E-2,9.98017E-3,1.2551254E-1,-6.771298E-2],"split_indices":[10,9,9,1,6,1,0,0,0,0,0,0,0,0,0],"split_type":[0,0,0,0,0,0,0,0,0,0,0,0,0,0,0],"sum_hessian":[1.159E3,9.8E2,1.79E2,5.81E2,3.99E2,6.2E1,1.17E2,4.19E2,1.62E2,2.61E2,1.38E2,2.7E1,3.5E1,1.12E2,5E0],"tree_param":{"num_deleted":"0","num_feature":"11","num_nodes":"15","size_leaf_vector":"1"}},{"base_weights":[-4.717629E-3,-1.5318383E-1,2.0204051E-1,-1.6799878E-1,4.6658063E-1,-6.53707E-2,2.93334E-1,-4.6046026E-2,-5.613978E-3,3.6019802E-3,1.6269358E-1,3.3330437E-2,-5.0546344E-2,6.2653385E-2,-1.0421442E-1],"categories":[],"categories_nodes":[],"categories_segments":[],"categories_sizes":[],"default_left":[0,0,0,0,0,0,0,0,0,0,0,0,0,0,0],"id":4,"left_children":[1,3,5,7,9,11,13,-1,-1,-1,-1,-1,-1,-1,-1],"loss_changes":[3.5546913E1,6.266903E0,1.183502E1,5.7320843E0,2.475005E0,5.4326515E0,6.023527E0,0E0,0E0,0E0,0E0,0E0,0E0,0E0,0E0],"parents":[2147483647,0,0,1,1,2,2,3,3,4,4,5,5,6,6],"right_children":[2,4,6,8,10,12,14,-1,-1,-1,-1,-1,-1,-1,-1],"split_conditions":[7.229363E-2,2.4591987E0,-4.021673E-1,-4.9090987E-1,3.0598962E-1,-4.3689113E-2,1.8711308E0,-4.6046026E-2,-5.613978E-3,3.6019802E-3,1.6269358E-1,3.3330437E-2,-5.0546344E-2,6.2653385E-2,-1.0421442E-1],"split_indices":[10,0,9,10,9,1,6,0,0,0,0,0,0,0,0],"split_type":[0,0,0,0,0,0,0,0,0,0,0,0,0,0,0],"sum_hessian":[1.156E3,6.73E2,4.83E2,6.58E2,1.5E1,1.23E2,3.6E2,4.55E2,2.03E2,7E0,8E0,5.5E1,6.8E1,3.52E2,8E0],"tree_param":{"num_deleted":"0","num_feature":"11","num_nodes":"15","size_leaf_vector":"1"}},{"base_weights":[5.0478224E-3,-5.5764355E-2,3.2990283E-1,1.656287E-1,-1.2593088E-1,5.135628E-1,2.3910683E-1,4.382459E-2,-9.1936044E-2,-1.9071406E-2,-7.8144915E-2,3.8037516E-2,1.3915502E-1,1.2400023E-1,3.5501532E-2],"categories":[],"categories_nodes":[],"categories_segments":[],"categories_sizes":[],"default_left":[0,0,0,0,0,0,0,0,0,0,0,0,0,0,0],"id":5,"left_children":[1,3,5,7,9,11,13,-1,-1,-1,-1,-1,-1,-1,-1],"loss_changes":[2.305289E1,1.5291153E1,2.9455109E0,8.02848E0,6.010273E0,3.4030485E0,2.8227916E0,0E0,0E0,0E0,0E0,0E0,0E0,0E0,0E0],"parents":[2147483647,0,0,1,1,2,2,3,3,4,4,5,5,6,6],"right_children":[2,4,6,8,10,12,14,-1,-1,-1,-1,-1,-1,-1,-1],"split_conditions":[1.1048334E0,-6.582015E-1,-8.048582E-1,1.1109067E0,1.4087948E0,-4.6118036E-1,-1.5625144E0,4.382459E-2,-9.1936044E-2,-1.9071406E-2,-7.8144915E-2,3.8037516E-2,1.3915502E-1,1.2400023E-1,3.5501532E-2],"split_indices":[10,1,6,6,1,9,0,0,0,0,0,0,0,0,0],"split_type":[0,0,0,0,0,0,0,0,0,0,0,0,0,0,0],"sum_hessian":[1.165E3,9.82E2,1.83E2,2.36E2,7.46E2,5.9E1,1.24E2,2.18E2,1.8E1,6.7E2,7.6E1,2.2E1,3.7E1,1.6E1,1.08E2],"tree_param":{"num_deleted":"0","num_feature":"11","num_nodes":"15","size_leaf_vector":"1"}},{"base_weights":[2.2074294E-3,-1.4984001E-1,1.0320246E-1,-1.6268197E-1,4.4303197E-1,-1.4431683E-3,2.5051352E-1,-2.6876241E-2,-7.1090154E-2,1.348386E-1,-1.4451551E-2,2.7092908E-2,-2.1664185E-2,7.161011E-2,-1.6269794E-4],"categories":[],"categories_nodes":[],"categories_segments":[],"categories_sizes":[],"default_left":[0,0,0,0,0,0,0,0,0,0,0,0,0,0,0],"id":6,"left_children":[1,3,5,7,9,11,13,-1,-1,-1,-1,-1,-1,-1,-1],"loss_changes":[1.765955E1,3.5667324E0,1.0652445E1,2.4072113E0,1.2398646E0,5.9407907E0,7.7570267E0,0E0,0E0,0E0,0E0,0E0,0E0,0E0,0E0],"parents":[2147483647,0,0,1,1,2,2,3,3,4,4,5,5,6,6],"right_children":[2,4,6,8,10,12,14,-1,-1,-1,-1,-1,-1,-1,-1],"split_conditions":[-4.9090987E-1,2.4591987E0,1.8796347E-1,1.5974501E0,-1.3395333E-1,-4.3689113E-2,1.3781975E-1,-2.6876241E-2,-7.1090154E-2,1.348386E-1,-1.4451551E-2,2.7092908E-2,-2.1664185E-2,7.161011E-2,-1.6269794E-4],"split_indices":[10,0,9,6,3,1,6,0,0,0,0,0,0,0,0],"split_type":[0,0,0,0,0,0,0,0,0,0,0,0,0,0,0],"sum_hessian":[1.148E3,4.58E2,6.9E2,4.49E2,9E0,4.04E2,2.86E2,3.93E2,5.6E1,6E0,3E0,1.77E2,2.27E2,2E2,8.6E1],"tree_param":{"num_deleted":"0","num_feature":"11","num_nodes":"15","size_leaf_vector":"1"}},{"base_weights":[3.824713E-3,-5.129775E-2,2.0423469E-1,-5.76382E-4,-2.26582E-1,2.5024863E-3,2.5720224E-1,9.4275E-3,-5.6073736E-2,-2.1132147E-2,-8.177975E-2,1.814597E-2,-1.1804774E-1,5.4131526E-2,-1.4152347E-1],"categories":[],"categories_nodes":[],"categories_segments":[],"categories_sizes":[],"default_left":[0,0,0,0,0,0,0,0,0,0,0,0,0,0,0],"id":7,"left_children":[1,3,5,7,9,11,13,-1,-1,-1,-1,-1,-1,-1,-1],"loss_changes":[1.2803009E1,8.081477E0,2.6706705E0,9.4383E0,4.454173E0,2.82524E0,2.761962E0,0E0,0E0,0E0,0E0,0E0,0E0,0E0,0E0],"parents":[2147483647,0,0,1,1,2,2,3,3,4,4,5,5,6,6],"right_children":[2,4,6,8,10,12,14,-1,-1,-1,-1,-1,-1,-1,-1],"split_conditions":[8.2323164E-1,7.104852E-1,-6.0502E-1,2.238752E-1,3.167512E-1,-8.091609E-1,2.803917E0,9.4275E-3,-5.6073736E-2,-2.1132147E-2,-8.177975E-2,1.814597E-2,-1.1804774E-1,5.4131526E-2,-1.4152347E-1],"split_indices":[10,1,4,4,8,7,0,0,0,0,0,0,0,0,0],"split_type":[0,0,0,0,0,0,0,0,0,0,0,0,0,0,0],"sum_hessian":[1.157E3,9.08E2,2.49E2,7.05E2,2.03E2,5.2E1,1.97E2,6.03E2,1.02E2,1.23E2,8E1,4.6E1,6E0,1.95E2,2E0],"tree_param":{"num_deleted":"0","num_feature":"11","num_nodes":"15","size_leaf_vector":"1"}},{"base_weights":[2.198578E-3,-1.321971E-1,6.723705E-2,-1.5552261E-1,2.512612E-1,1.3342522E-1,-6.091315E-2,-8.319088E-2,-2.623084E-2,1.2890992E-1,1.269874E-2,5.5180103E-2,1.0083045E-2,-3.2064957E-3,-6.595506E-2],"categories":[],"categories_nodes":[],"categories_segments":[],"categories_sizes":[],"default_left":[0,0,0,0,0,0,0,0,0,0,0,0,0,0,0],"id":8,"left_children":[1,3,5,7,9,11,13,-1,-1,-1,-1,-1,-1,-1,-1],"loss_changes":[1.0104616E1,3.4111018E0,6.615627E0,2.2047338E0,1.5837042E0,6.0651026E0,3.2044587E0,0E0,0E0,0E0,0E0,0E0,0E0,0E0,0E0],"parents":[2147483647,0,0,1,1,2,2,3,3,4,4,5,5,6,6],"right_children":[2,4,6,8,10,12,14,-1,-1,-1,-1,-1,-1,-1,-1],"split_conditions":[-4.6118036E-1,1.7619041E0,1.3781975E-1,-5.625125E-1,1.8557713E0,-6.582015E-1,1.8711308E0,-8.319088E-2,-2.623084E-2,1.2890992E-1,1.269874E-2,5.5180103E-2,1.0083045E-2,-3.2064957E-3,-6.595506E-2],"split_indices":[9,10,6,4,10,1,6,0,0,0,0,0,0,0,0],"split_type":[0,0,0,0,0,0,0,0,0,0,0,0,0,0,0],"sum_hessian":[1.154E3,3.76E2,7.78E2,3.55E2,2.1E1,5.13E2,2.65E2,2.9E1,3.26E2,6E0,1.5E1,1.88E2,3.25E2,2.28E2,3.7E1],"tree_param":{"num_deleted":"0","num_feature":"11","num_nodes":"15","size_leaf_vector":"1"}},{"base_weights":[1.3544983E-3,-1.0464315E-1,6.1315335E-2,-8.439659E-2,-4.122545E-1,1.9177109E-1,-3.5001503E-3,-4.351328E-2,-6.997008E-3,4.3280482E-2,-1.01563394E-1,8.4670894E-2,2.6636317E-2,2.601632E-2,-2.0093037E-2],"categories":[],"categories_nodes":[],"categories_segments":[],"categories_sizes":[],"default_left":[0,0,0,0,0,0,0,0,0,0,0,0,0,0,0],"id":9,"left_children":[1,3,5,7,9,11,13,-1,-1,-1,-1,-1,-1,-1,-1],"loss_changes":[7.194722E0,2.5124898E0,6.1140366E0,2.525737E0,1.6117921E0,3.2000227E0,6.2822037E0,0E0,0E0,0E0,0E0,0E0,0E0,0E0,0E0],"parents":[2147483647,0,0,1,1,2,2,3,3,4,4,5,5,6,6],"right_children":[2,4,6,8,10,12,14,-1,-1,-1,-1,-1,-1,-1,-1],"split_conditions":[-5.847771E-1,1.3814527E0,-3.311766E-1,-4.0641014E-2,-5.596401E-1,-8.9608514E-1,-6.236561E-1,-4.351328E-2,-6.997008E-3,4.3280482E-2,-1.01563394E-1,8.4670894E-2,2.6636317E-2,2.601632E-2,-2.0093037E-2],"split_indices":[10,2,8,7,3,6,7,0,0,0,0,0,0,0,0],"split_type":[0,0,0,0,0,0,0,0,0,0,0,0,0,0,0],"sum_hessian":[1.13E3,4.08E2,7.22E2,3.84E2,2.4E1,2.39E2,4.83E2,1.03E2,2.81E2,3E0,2.1E1,4.7E1,1.92E2,2.03E2,2.8E2],"tree_param":{"num_deleted":"0","num_feature":"11","num_nodes":"15","size_leaf_vector":"1"}},{"base_weights":[5.4863845E-3,-1.4758982E-1,4.0520195E-2,-1.3420653E-1,-2.1150589E-1,5.7673592E-2,-2.7536917E-1,-3.1680994E-2,5.0796997E-2,1.9319838E-2,-2.1059057E-2,-7.807251E-2,-2.0691192E-2],"categories":[],"categories_nodes":[],"categories_segments":[],"categories_sizes":[],"default_left":[0,0,0,0,0,0,0,0,0,0,0,0,0],"id":10,"left_children":[1,3,5,7,-1,9,11,-1,-1,-1,-1,-1,-1],"loss_changes":[6.2483287E0,2.5006976E0,5.152691E0,2.0598626E0,0E0,5.719466E0,9.282899E-1,0E0,0E0,0E0,0E0,0E0,0E0],"parents":[2147483647,0,0,1,1,2,2,3,3,5,5,6,6],"right_children":[2,4,6,8,-1,10,12,-1,-1,-1,-1,-1,-1],"split_conditions":[-6.9723266E-1,1.7328894E0,1.8711308E0,1.5333198E0,-2.1150589E-1,1.8136775E-1,2.5401282E0,-3.1680994E-2,5.0796997E-2,1.9319838E-2,-2.1059057E-2,-7.807251E-2,-2.0691192E-2],"split_indices":[9,4,6,3,0,4,6,0,0,0,0,0,0],"split_type":[0,0,0,0,0,0,0,0,0,0,0,0,0],"sum_hessian":[1.163E3,2.16E2,9.47E2,2.14E2,2E0,8.99E2,4.8E1,2.02E2,1.2E1,7.26E2,1.73E2,2.8E1,2E1],"tree_param":{"num_deleted":"0","num_feature":"11","num_nodes":"13","size_leaf_vector":"1"}},{"base_weights":[-7.867974E-3,4.093535E-2,-1.0345226E-1,1.22754574E-1,-3.343655E-2,-3.318424E-1,-5.3325277E-2,-4.047035E-2,3.0300427E-2,3.432414E-2,-1.9008921E-2,5.623074E-3,-8.446678E-2,-1.3214138E-2,1.2536411E-1],"categories":[],"categories_nodes":[],"categories_segments":[],"categories_sizes":[],"default_left":[0,0,0,0,0,0,0,0,0,0,0,0,0,0,0],"id":11,"left_children":[1,3,5,7,9,11,13,-1,-1,-1,-1,-1,-1,-1,-1],"loss_changes":[5.3827853E0,4.653083E0,4.4472227E0,3.4326062E0,5.0822153E0,2.2919931E0,2.8240795E0,0E0,0E0,0E0,0E0,0E0,0E0,0E0,0E0],"parents":[2147483647,0,0,1,1,2,2,3,3,4,4,5,5,6,6],"right_children":[2,4,6,8,10,12,14,-1,-1,-1,-1,-1,-1,-1,-1],"split_conditions":[3.7529662E-1,-3.1831476E-1,-4.532184E-1,-9.8798394E-1,-5.7595485E-1,-1.3401219E0,1.9976583E0,-4.047035E-2,3.0300427E-2,3.432414E-2,-1.9008921E-2,5.623074E-3,-8.446678E-2,-1.3214138E-2,1.2536411E-1],"split_indices":[1,6,3,0,7,2,2,0,0,0,0,0,0,0,0],"split_type":[0,0,0,0,0,0,0,0,0,0,0,0,0,0,0],"sum_hessian":[1.152E3,7.63E2,3.89E2,3.63E2,4E2,6.9E1,3.2E2,2.9E1,3.34E2,9.2E1,3.08E2,1.4E1,5.5E1,3.15E2,5E0],"tree_param":{"num_deleted":"0","num_feature":"11","num_nodes":"15","size_leaf_vector":"1"}},{"base_weights":[-4.0159505E-4,-1.2758921E-1,2.2759123E-2,3.433588E-1,-1.5748768E-1,9.7490594E-2,-1.871561E-2,-6.959572E-3,1.1288389E-1,-2.867627E-2,-1.7804883E-1,5.417773E-2,8.725236E-3,-6.0236584E-2,-5.3558766E-4],"categories":[],"categories_nodes":[],"categories_segments":[],"categories_sizes":[],"default_left":[0,0,0,0,0,0,0,0,0,0,0,0,0,0,0],"id":12,"left_children":[1,3,5,7,9,11,13,-1,-1,-1,-1,-1,-1,-1,-1],"loss_changes":[3.4229274E0,2.5745056E0,3.0486019E0,9.391918E-1,1.619225E0,3.266517E0,2.8667583E0,0E0,0E0,0E0,0E0,0E0,0E0,0E0,0E0],"parents":[2147483647,0,0,1,1,2,2,3,3,4,4,5,5,6,6],"right_children":[2,4,6,8,10,12,14,-1,-1,-1,-1,-1,-1,-1,-1],"split_conditions":[-7.5624573E-1,-1.0492549E0,-2.7914718E-1,-5.596401E-1,1.7328894E0,-2.0159104E-1,-8.7307787E-1,-6.959572E-3,1.1288389E-1,-2.867627E-2,-1.7804883E-1,5.417773E-2,8.725236E-3,-6.0236584E-2,-5.3558766E-4],"split_indices":[9,1,7,3,4,8,0,0,0,0,0,0,0,0,0],"split_type":[0,0,0,0,0,0,0,0,0,0,0,0,0,0,0],"sum_hessian":[1.16E3,1.78E2,9.82E2,1E1,1.68E2,3.5E2,6.32E2,4E0,6E0,1.66E2,2E0,8.2E1,2.68E2,3.3E1,5.99E2],"tree_param":{"num_deleted":"0","num_feature":"11","num_nodes":"15","size_leaf_vector":"1"}},{"base_weights":[2.0046097E-3,-3.9023463E-2,8.164839E-2,4.8874134E-1,-4.598972E-2,1.4517027E-1,-9.111039E-2,-2.4958229E-2,1.5390223E-1,-2.313015E-1,-8.594209E-3,2.4195874E-2,1.216503E-1,-2.4046037E-2,1.3630037E-1],"categories":[],"categories_nodes":[],"categories_segments":[],"categories_sizes":[],"default_left":[0,0,0,0,0,0,0,0,0,0,0,0,0,0,0],"id":13,"left_children":[1,3,5,7,9,11,13,-1,-1,-1,-1,-1,-1,-1,-1],"loss_changes":[3.7674963E0,2.8203278E0,4.3150206E0,1.8186421E0,2.4712276E0,3.141489E0,2.466758E0,0E0,0E0,0E0,0E0,0E0,0E0,0E0,0E0],"parents":[2147483647,0,0,1,1,2,2,3,3,4,4,5,5,6,6],"right_children":[2,4,6,8,10,12,14,-1,-1,-1,-1,-1,-1,-1,-1],"split_conditions":[1.8796347E-1,-1.8862034E0,3.2027355E-1,-6.7864436E-1,-1.8050513E0,1.8525848E0,3.5502996E0,-2.4958229E-2,1.5390223E-1,-2.313015E-1,-8.594209E-3,2.4195874E-2,1.216503E-1,-2.4046037E-2,1.3630037E-1],"split_indices":[9,8,6,10,10,3,5,0,0,0,0,0,0,0,0],"split_type":[0,0,0,0,0,0,0,0,0,0,0,0,0,0,0],"sum_hessian":[1.151E3,7.6E2,3.91E2,9E0,7.51E2,2.86E2,1.05E2,3E0,6E0,1E0,7.5E2,2.73E2,1.3E1,1.02E2,3E0],"tree_param":{"num_deleted":"0","num_feature":"11","num_nodes":"15","size_leaf_vector":"1"}},{"base_weights":[9.2572234E-5,3.5289714E-1,-7.6785353E-3,1.8541297E-1,6.3004535E-1,1.8525437E-3,-2.620408E-1,6.562997E-2,-4.4557095E-2,-5.608654E-2,1.5578185E-1,-2.1794084E-2,6.0318303E-3,-3.0143294E-2,-1.4048283E-1],"categories":[],"categories_nodes":[],"categories_segments":[],"categories_sizes":[],"default_left":[0,0,0,0,0,0,0,0,0,0,0,0,0,0,0],"id":14,"left_children":[1,3,5,7,9,11,13,-1,-1,-1,-1,-1,-1,-1,-1],"loss_changes":[3.1803195E0,1.0436296E0,2.752119E0,1.0636114E0,1.438267E0,3.4383254E0,1.9041293E0,0E0,0E0,0E0,0E0,0E0,0E0,0E0,0E0],"parents":[2147483647,0,0,1,1,2,2,3,3,4,4,5,5,6,6],"right_children":[2,4,6,8,10,12,14,-1,-1,-1,-1,-1,-1,-1,-1],"split_conditions":[-2.0599933E0,6.9937326E-2,1.8069851E0,2.3251076E0,-7.699311E-1,-8.6637884E-1,1.8136775E-1,6.562997E-2,-4.4557095E-2,-5.608654E-2,1.5578185E-1,-2.1794084E-2,6.0318303E-3,-3.0143294E-2,-1.4048283E-1],"split_indices":[7,9,8,10,1,10,4,0,0,0,0,0,0,0,0],"split_type":[0,0,0,0,0,0,0,0,0,0,0,0,0,0,0],"sum_hessian":[1.158E3,2.4E1,1.134E3,1.6E1,8E0,1.094E3,4E1,1.2E1,4E0,1E0,7E0,2.22E2,8.72E2,3.3E1,7E0],"tree_param":{"num_deleted":"0","num_feature":"11","num_nodes":"15","size_leaf_vector":"1"}},{"base_weights":[8.93867E-4,-3.37564E-2,6.885252E-2,-2.0599194E-1,-3.1090396E-2,1.1664303E-1,-9.5395125E-2,-4.8893164E-3,-7.6672904E-2,2.7987242E-2,-8.203095E-2,1.2428041E-1,-2.2155344E-2],"categories":[],"categories_nodes":[],"categories_segments":[],"categories_sizes":[],"default_left":[0,0,0,0,0,0,0,0,0,0,0,0,0],"id":15,"left_children":[1,3,5,-1,7,9,11,-1,-1,-1,-1,-1,-1],"loss_changes":[2.7056181E0,1.989104E0,3.0567243E0,0E0,1.7693651E0,3.7509046E0,1.0390797E0,0E0,0E0,0E0,0E0,0E0,0E0],"parents":[2147483647,0,0,1,1,2,2,4,4,5,5,6,6],"right_children":[2,4,6,-1,8,10,12,-1,-1,-1,-1,-1,-1],"split_conditions":[1.8796347E-1,-1.8050513E0,1.8136775E-1,-2.0599194E-1,2.7495492E0,1.810313E0,-1.0481299E0,-4.8893164E-3,-7.6672904E-2,2.7987242E-2,-8.203095E-2,1.2428041E-1,-2.2155344E-2],"split_indices":[9,10,4,0,1,6,6,0,0,0,0,0,0],"split_type":[0,0,0,0,0,0,0,0,0,0,0,0,0],"sum_hessian":[1.147E3,7.6E2,3.87E2,1E0,7.59E2,3E2,8.7E1,7.46E2,1.3E1,2.88E2,1.2E1,1E0,8.6E1],"tree_param":{"num_deleted":"0","num_feature":"11","num_nodes":"13","size_leaf_vector":"1"}},{"base_weights":[3.3000177E-3,-1.4954512E-1,1.7548852E-2,2.1605333E-2,-2.583005E-1,1.1340544E-1,-8.99587E-3,-1.5967011E-2,9.934756E-2,-1.4872506E-1,-3.1614814E-2,1.0617292E-1,1.8765109E-2,-3.3599845E-4,-1.0077939E-1],"categories":[],"categories_nodes":[],"categories_segments":[],"categories_sizes":[],"default_left":[0,0,0,0,0,0,0,0,0,0,0,0,0,0,0],"id":16,"left_children":[1,3,5,7,9,11,13,-1,-1,-1,-1,-1,-1,-1,-1],"loss_changes":[2.5028133E0,1.8297067E0,2.6752756E0,1.9193645E0,2.800994E0,1.8138189E0,2.9825573E0,0E0,0E0,0E0,0E0,0E0,0E0,0E0,0E0],"parents":[2147483647,0,0,1,1,2,2,3,3,4,4,5,5,6,6],"right_children":[2,4,6,8,10,12,14,-1,-1,-1,-1,-1,-1,-1,-1],"split_conditions":[-5.95114E-1,-4.1373646E-1,-6.236561E-1,-4.9875134E-1,-1.13472E0,-2.3037994E0,2.0013635E0,-1.5967011E-2,9.934756E-2,-1.4872506E-1,-3.1614814E-2,1.0617292E-1,1.8765109E-2,-3.3599845E-4,-1.0077939E-1],"split_indices":[3,4,7,4,2,7,8,0,0,0,0,0,0,0,0],"split_type":[0,0,0,0,0,0,0,0,0,0,0,0,0,0,0],"sum_hessian":[1.147E3,9.7E1,1.05E3,3.8E1,5.9E1,2.27E2,8.23E2,3.2E1,6E0,9E0,5E1,9E0,2.18E2,8.12E2,1.1E1],"tree_param":{"num_deleted":"0","num_feature":"11","num_nodes":"15","size_leaf_vector":"1"}},{"base_weights":[-1.3745879E-3,1.3045508E-1,-1.7627979E-2,-2.0253815E-1,2.1001211E-1,-1.8357375E-3,-1.5527132E-1,-1.2837575E-1,8.393591E-3,3.4051333E-2,1.21263646E-1,6.0274097E-4,-1.276472E-1,-1.5979381E-1,-2.5753174E-2],"categories":[],"categories_nodes":[],"categories_segments":[],"categories_sizes":[],"default_left":[0,0,0,0,0,0,0,0,0,0,0,0,0,0,0],"id":17,"left_children":[1,3,5,7,9,11,13,-1,-1,-1,-1,-1,-1,-1,-1],"loss_changes":[2.4792364E0,3.4070134E0,2.2386227E0,2.712475E0,1.5195694E0,2.8566458E0,1.7056394E0,0E0,0E0,0E0,0E0,0E0,0E0,0E0,0E0],"parents":[2147483647,0,0,1,1,2,2,3,3,4,4,5,5,6,6],"right_children":[2,4,6,8,10,12,14,-1,-1,-1,-1,-1,-1,-1,-1],"split_conditions":[-1.1889168E0,-1.6079025E0,1.2684928E0,-4.9875134E-1,1.8846682E0,2.2293866E0,-2.4693384E0,-1.2837575E-1,8.393591E-3,3.4051333E-2,1.21263646E-1,6.0274097E-4,-1.276472E-1,-1.5979381E-1,-2.5753174E-2],"split_indices":[1,1,7,4,0,0,8,0,0,0,0,0,0,0,0],"split_type":[0,0,0,0,0,0,0,0,0,0,0,0,0,0,0],"sum_hessian":[1.155E3,1.26E2,1.029E3,2.4E1,1.02E2,9.24E2,1.05E2,8E0,1.6E1,9.4E1,8E0,9.18E2,6E0,3E0,1.02E2],"tree_param":{"num_deleted":"0","num_feature":"11","num_nodes":"15","size_leaf_vector":"1"}},{"base_weights":[-8.052859E-3,-1.3637517E-1,-5.724397E-3,-1.8278384E-1,-4.153609E-3,4.75836E-2,-1.8954466E-3],"categories":[],"categories_nodes":[],"categories_segments":[],"categories_sizes":[],"default_left":[0,0,0,0,0,0,0],"id":18,"left_children":[1,-1,3,-1,5,-1,-1],"loss_changes":[1.8223794E0,0E0,1.6524651E0,0E0,1.4971447E0,0E0,0E0],"parents":[2147483647,0,0,2,2,4,4],"right_children":[2,-1,4,-1,6,-1,-1],"split_conditions":[-1.5824288E0,-1.3637517E-1,-1.8050513E0,-1.8278384E-1,-2.0599933E0,4.75836E-2,-1.8954466E-3],"split_indices":[9,0,10,0,7,0,0],"split_type":[0,0,0,0,0,0,0],"sum_hessian":[1.163E3,3E0,1.16E3,1E0,1.159E3,2.4E1,1.135E3],"tree_param":{"num_deleted":"0","num_feature":"11","num_nodes":"7","size_leaf_vector":"1"}},{"base_weights":[3.8600792E-4,8.129577E-3,-2.1077731E-1,-7.589602E-2,2.3803357E-2,9.2176534E-2,-2.759316E-1,-2.974376E-2,8.39015E-3,9.262105E-3,-1.1289169E-2,-1.784721E-1,-3.109841E-2],"categories":[],"categories_nodes":[],"categories_segments":[],"categories_sizes":[],"default_left":[0,0,0,0,0,0,0,0,0,0,0,0,0],"id":19,"left_children":[1,3,5,7,9,-1,11,-1,-1,-1,-1,-1,-1],"loss_changes":[1.8952262E0,1.4742111E0,1.9213946E0,1.5166588E0,1.7058437E0,0E0,2.682457E0,0E0,0E0,0E0,0E0,0E0,0E0],"parents":[2147483647,0,0,1,1,2,2,3,3,4,4,6,6],"right_children":[2,4,6,8,10,-1,12,-1,-1,-1,-1,-1,-1],"split_conditions":[1.8069851E0,-7.5624573E-1,-1.0481299E0,1.6183885E-2,1.07335E0,9.2176534E-2,-9.5690304E-1,-2.974376E-2,8.39015E-3,9.262105E-3,-1.1289169E-2,-1.784721E-1,-3.109841E-2],"split_indices":[8,9,6,6,2,0,6,0,0,0,0,0,0],"split_type":[0,0,0,0,0,0,0,0,0,0,0,0,0],"sum_hessian":[1.157E3,1.117E3,4E1,1.75E2,9.42E2,3E0,3.7E1,1.08E2,6.7E1,7.36E2,2.06E2,5E0,3.2E1],"tree_param":{"num_deleted":"0","num_feature":"11","num_nodes":"13","size_leaf_vector":"1"}},{"base_weights":[9.250766E-3,1.9612864E-2,-1.0514815E-1,1.11052375E-2,2.3286267E-1,3.3187413E-1,-1.4282626E-1,3.5600325E-3,-5.1748544E-2,1.0923405E-1,-2.3641267E-3,-1.3710404E-2,1.1716805E-1,-3.526717E-2,5.593848E-2],"categories":[],"categories_nodes":[],"categories_segments":[],"categories_sizes":[],"default_left":[0,0,0,0,0,0,0,0,0,0,0,0,0,0,0],"id":20,"left_children":[1,3,5,7,9,11,13,-1,-1,-1,-1,-1,-1,-1,-1],"loss_changes":[1.3842536E0,1.9386612E0,1.6446193E0,1.8654155E0,3.1495628E0,8.537178E-1,1.3235778E0,0E0,0E0,0E0,0E0,0E0,0E0,0E0,0E0],"parents":[2147483647,0,0,1,1,2,2,3,3,4,4,5,5,6,6],"right_children":[2,4,6,8,10,12,14,-1,-1,-1,-1,-1,-1,-1,-1],"split_conditions":[1.5974501E0,1.8880588E0,-1.2447816E0,1.93631E0,2.526589E0,-1.719632E0,3.0796041E0,3.5600325E-3,-5.1748544E-2,1.0923405E-1,-2.3641267E-3,-1.3710404E-2,1.1716805E-1,-3.526717E-2,5.593848E-2],"split_indices":[6,3,1,7,3,1,9,0,0,0,0,0,0,0,0],"split_type":[0,0,0,0,0,0,0,0,0,0,0,0,0,0,0],"sum_hessian":[1.165E3,1.069E3,9.6E1,1.029E3,4E1,7E0,8.9E1,1.005E3,2.4E1,1.7E1,2.3E1,3E0,4E0,8.3E1,6E0],"tree_param":{"num_deleted":"0","num_feature":"11","num_nodes":"15","size_leaf_vector":"1"}},{"base_weights":[2.1258893E-3,-1.6373257E-1,3.5614863E-3,-1.1199138E-1,5.537353E-3,-1.5449732E-3,1.5727475E-2],"categories":[],"categories_nodes":[],"categories_segments":[],"categories_sizes":[],"default_left":[0,0,0,0,0,0,0],"id":21,"left_children":[1,-1,3,-1,5,-1,-1],"loss_changes":[1.3497375E0,0E0,1.274646E0,0E0,1.1048319E0,0E0,0E0],"parents":[2147483647,0,0,2,2,4,4],"right_children":[2,-1,4,-1,6,-1,-1],"split_conditions":[-1.8050513E0,-1.6373257E-1,-1.5824288E0,-1.1199138E-1,1.1048334E0,-1.5449732E-3,1.5727475E-2],"split_indices":[10,0,9,0,10,0,0],"split_type":[0,0,0,0,0,0,0],"sum_hessian":[1.142E3,1E0,1.141E3,3E0,1.138E3,9.64E2,1.74E2],"tree_param":{"num_deleted":"0","num_feature":"11","num_nodes":"7","size_leaf_vector":"1"}},{"base_weights":[-7.747823E-3,-5.6486456E-3,-1.20395444E-1,1.8700887E-2,-5.8401536E-2,-9.4145074E-2,4.750997E-3,-9.193994E-3,-1.1961805E-1],"categories":[],"categories_nodes":[],"categories_segments":[],"categories_sizes":[],"default_left":[0,0,0,0,0,0,0,0,0],"id":22,"left_children":[1,3,-1,5,7,-1,-1,-1,-1],"loss_changes":[1.4173801E0,1.4602935E0,0E0,1.935649E0,2.3810997E0,0E0,0E0,0E0,0E0],"parents":[2147483647,0,0,1,1,3,3,4,4],"right_children":[2,4,-1,6,8,-1,-1,-1,-1],"split_conditions":[4.125337E0,4.4633678E-1,-1.20395444E-1,-8.0795735E-1,2.7495492E0,-9.4145074E-2,4.750997E-3,-9.193994E-3,-1.1961805E-1],"split_indices":[0,8,0,3,1,0,0,0,0],"split_type":[0,0,0,0,0,0,0,0,0],"sum_hessian":[1.138E3,1.135E3,3E0,7.77E2,3.58E2,7E0,7.7E2,3.51E2,7E0],"tree_param":{"num_deleted":"0","num_feature":"11","num_nodes":"9","size_leaf_vector":"1"}},{"base_weights":[6.91749E-3,-5.623495E-2,2.7646169E-2,-1.4454198E-1,-9.433718E-3,3.990417E-2,-1.224689E-1,-3.4256395E-2,1.0667067E-1,-6.8780826E-3,5.613857E-2,1.224587E-2,-1.1711524E-2,-4.640717E-2,8.877677E-3],"categories":[],"categories_nodes":[],"categories_segments":[],"categories_sizes":[],"default_left":[0,0,0,0,0,0,0,0,0,0,0,0,0,0,0],"id":23,"left_children":[1,3,5,7,9,11,13,-1,-1,-1,-1,-1,-1,-1,-1],"loss_changes":[1.5148356E0,1.1806395E0,1.6076236E0,1.8859181E0,1.370886E0,1.6959561E0,1.2169145E0,0E0,0E0,0E0,0E0,0E0,0E0,0E0,0E0],"parents":[2147483647,0,0,1,1,2,2,3,3,4,4,5,5,6,6],"right_children":[2,4,6,8,10,12,14,-1,-1,-1,-1,-1,-1,-1,-1],"split_conditions":[-5.792065E-1,-5.615865E-1,1.5062233E0,1.5333198E0,7.293644E-1,2.238752E-1,1.03623874E-1,-3.4256395E-2,1.0667067E-1,-6.8780826E-3,5.613857E-2,1.224587E-2,-1.1711524E-2,-4.640717E-2,8.877677E-3],"split_indices":[9,6,6,3,10,4,0,0,0,0,0,0,0,0,0],"split_type":[0,0,0,0,0,0,0,0,0,0,0,0,0,0,0],"sum_hessian":[1.155E3,2.85E2,8.7E2,9.8E1,1.87E2,8.05E2,6.5E1,9.5E1,3E0,1.73E2,1.4E1,6.62E2,1.43E2,3.9E1,2.6E1],"tree_param":{"num_deleted":"0","num_feature":"11","num_nodes":"15","size_leaf_vector":"1"}},{"base_weights":[-1.3025647E-3,-6.5524564E-3,1.7786957E-1,1.591442E-3,-3.2596645E-1,-1.6923963E-1,3.8427672E-1,-1.4375868E-2,3.4250722E-3,-8.214792E-2,-2.5940079E-3,2.7582947E-2,-7.569009E-2,1.02551244E-1,-1.1150383E-1],"categories":[],"categories_nodes":[],"categories_segments":[],"categories_sizes":[],"default_left":[0,0,0,0,0,0,0,0,0,0,0,0,0,0,0],"id":24,"left_children":[1,3,5,7,9,11,13,-1,-1,-1,-1,-1,-1,-1,-1],"loss_changes":[1.09042E0,2.9295547E0,2.429347E0,1.2555078E0,7.3761606E-1,8.8757414E-1,2.8269024E0,0E0,0E0,0E0,0E0,0E0,0E0,0E0,0E0],"parents":[2147483647,0,0,1,1,2,2,3,3,4,4,5,5,6,6],"right_children":[2,4,6,8,10,12,14,-1,-1,-1,-1,-1,-1,-1,-1],"split_conditions":[1.9976583E0,1.6895554E0,1.289504E-1,-8.1562483E-1,1.6183019E0,2.8260767E-2,2.6138637E0,-1.4375868E-2,3.4250722E-3,-8.214792E-2,-2.5940079E-3,2.7582947E-2,-7.569009E-2,1.02551244E-1,-1.1150383E-1],"split_indices":[2,2,9,0,7,7,2,0,0,0,0,0,0,0,0],"split_type":[0,0,0,0,0,0,0,0,0,0,0,0,0,0,0],"sum_hessian":[1.157E3,1.125E3,3.2E1,1.098E3,2.7E1,1.2E1,2E1,1.91E2,9.07E2,2.1E1,6E0,5E0,7E0,1.8E1,2E0],"tree_param":{"num_deleted":"0","num_feature":"11","num_nodes":"15","size_leaf_vector":"1"}},{"base_weights":[1.826943E-3,-7.13319E-2,1.7859833E-2,-8.8622116E-2,4.378045E-1,8.855685E-2,-1.5116028E-2,-4.25666E-2,-9.7050015E-3,-5.347071E-2,1.1997795E-1,7.331364E-2,1.1985644E-2,-2.6051847E-2,3.726263E-3],"categories":[],"categories_nodes":[],"categories_segments":[],"categories_sizes":[],"default_left":[0,0,0,0,0,0,0,0,0,0,0,0,0,0,0],"id":25,"left_children":[1,3,5,7,9,11,13,-1,-1,-1,-1,-1,-1,-1,-1],"loss_changes":[1.3572016E0,1.8698391E0,2.2137377E0,9.957329E-1,9.6045256E-1,2.3816755E0,2.5204103E0,0E0,0E0,0E0,0E0,0E0,0E0,0E0,0E0],"parents":[2147483647,0,0,1,1,2,2,3,3,4,4,5,5,6,6],"right_children":[2,4,6,8,10,12,14,-1,-1,-1,-1,-1,-1,-1,-1],"split_conditions":[-8.6637884E-1,1.3534358E0,-3.959694E-1,-4.532184E-1,-1.160343E0,-9.257639E-1,-7.5308484E-1,-4.25666E-2,-9.7050015E-3,-5.347071E-2,1.1997795E-1,7.331364E-2,1.1985644E-2,-2.6051847E-2,3.726263E-3],"split_indices":[10,8,8,3,0,7,5,0,0,0,0,0,0,0,0],"split_type":[0,0,0,0,0,0,0,0,0,0,0,0,0,0,0],"sum_hessian":[1.155E3,2.07E2,9.48E2,2.01E2,6E0,3.01E2,6.47E2,4.8E1,1.53E2,1E0,5E0,2.7E1,2.74E2,1.46E2,5.01E2],"tree_param":{"num_deleted":"0","num_feature":"11","num_nodes":"15","size_leaf_vector":"1"}},{"base_weights":[7.3668045E-5,4.7592563E-3,-2.6677427E-1,-1.8460209E-2,5.0821025E-2,-4.4784728E-1,2.303706E-1,-1.5936567E-3,-5.2851148E-2,1.9074129E-2,-6.6601955E-3,-3.0283928E-2,-1.2572826E-1,-2.5841776E-2,8.849251E-2],"categories":[],"categories_nodes":[],"categories_segments":[],"categories_sizes":[],"default_left":[0,0,0,0,0,0,0,0,0,0,0,0,0,0,0],"id":26,"left_children":[1,3,5,7,9,11,13,-1,-1,-1,-1,-1,-1,-1,-1],"loss_changes":[1.4491628E0,1.2191325E0,1.9035612E0,1.9526765E0,1.4347601E0,7.0869637E-1,5.1475364E-1,0E0,0E0,0E0,0E0,0E0,0E0,0E0,0E0],"parents":[2147483647,0,0,1,1,2,2,3,3,4,4,5,5,6,6],"right_children":[2,4,6,8,10,12,14,-1,-1,-1,-1,-1,-1,-1,-1],"split_conditions":[2.0013635E0,1.8796347E-1,4.8302886E-1,1.6895554E0,1.3781975E-1,-4.532184E-1,-1.2374209E0,-1.5936567E-3,-5.2851148E-2,1.9074129E-2,-6.6601955E-3,-3.0283928E-2,-1.2572826E-1,-2.5841776E-2,8.849251E-2],"split_indices":[8,9,9,2,6,3,2,0,0,0,0,0,0,0,0],"split_type":[0,0,0,0,0,0,0,0,0,0,0,0,0,0,0],"sum_hessian":[1.157E3,1.138E3,1.9E1,7.57E2,3.81E2,1.4E1,5E0,7.27E2,3E1,2.49E2,1.32E2,6E0,8E0,2E0,3E0],"tree_param":{"num_deleted":"0","num_feature":"11","num_nodes":"15","size_leaf_vector":"1"}},{"base_weights":[-3.3792234E-3,2.2221257E-1,-7.980139E-3,2.6738432E-1,-1.6806062E-1,-1.4587593E-1,-6.6917026E-3,7.800268E-2,1.2108824E-2,-5.0311424E-2,-1.06763844E-4,-1.8387067E-3,6.881767E-2],"categories":[],"categories_nodes":[],"categories_segments":[],"categories_sizes":[],"default_left":[0,0,0,0,0,0,0,0,0,0,0,0,0],"id":27,"left_children":[1,3,5,7,9,-1,11,-1,-1,-1,-1,-1,-1],"loss_changes":[1.1943533E0,4.5041132E-1,1.0426401E0,5.0904393E-1,4.18294E-2,0E0,9.913322E-1,0E0,0E0,0E0,0E0,0E0,0E0],"parents":[2147483647,0,0,1,1,2,2,3,3,4,4,6,6],"right_children":[2,4,6,8,10,-1,12,-1,-1,-1,-1,-1,-1],"split_conditions":[-2.0599933E0,4.057939E-1,-1.8050513E0,1.547814E0,-1.8497796E0,-1.4587593E-1,3.5502996E0,7.800268E-2,1.2108824E-2,-5.0311424E-2,-1.06763844E-4,-1.8387067E-3,6.881767E-2],"split_indices":[7,2,10,8,0,0,5,0,0,0,0,0,0],"split_type":[0,0,0,0,0,0,0,0,0,0,0,0,0],"sum_hessian":[1.148E3,2.2E1,1.126E3,2E1,2E0,1E0,1.125E3,1.2E1,8E0,1E0,1E0,1.118E3,7E0],"tree_param":{"num_deleted":"0","num_feature":"11","num_nodes":"13","size_leaf_vector":"1"}},{"base_weights":[4.4649816E-3,1.781673E-2,-5.2450422E-2,3.5081774E-1,1.2074698E-2,-7.5025E-2,2.6408044E-1,-9.251134E-3,1.0710215E-1,-1.3826822E-2,6.087529E-3,-8.461289E-4,-4.231372E-2,1.3343555E-1,-1.5756397E-2],"categories":[],"categories_nodes":[],"categories_segments":[],"categories_sizes":[],"default_left":[0,0,0,0,0,0,0,0,0,0,0,0,0,0,0],"id":28,"left_children":[1,3,5,7,9,11,13,-1,-1,-1,-1,-1,-1,-1,-1],"loss_changes":[8.8776135E-1,1.8046131E0,1.6061249E0,1.1981571E0,1.3904421E0,2.0097404E0,2.1256652E0,0E0,0E0,0E0,0E0,0E0,0E0,0E0,0E0],"parents":[2147483647,0,0,1,1,2,2,3,3,4,4,5,5,6,6],"right_children":[2,4,6,8,10,12,14,-1,-1,-1,-1,-1,-1,-1,-1],"split_conditions":[1.07335E0,-1.2887815E0,1.8289459E0,-4.532184E-1,-7.5624573E-1,-3.959694E-1,-1.0492549E0,-9.251134E-3,1.0710215E-1,-1.3826822E-2,6.087529E-3,-8.461289E-4,-4.231372E-2,1.3343555E-1,-1.5756397E-2],"split_indices":[2,10,5,3,9,8,1,0,0,0,0,0,0,0,0],"split_type":[0,0,0,0,0,0,0,0,0,0,0,0,0,0,0],"sum_hessian":[1.166E3,9.45E2,2.21E2,1.5E1,9.3E2,2.07E2,1.4E1,5E0,1E1,1.71E2,7.59E2,1.37E2,7E1,6E0,8E0],"tree_param":{"num_deleted":"0","num_feature":"11","num_nodes":"15","size_leaf_vector":"1"}},{"base_weights":[-6.1770496E-3,-1.1223143E-1,3.6825791E-3,5.2692616E-1,-1.3823567E-1,-1.3120376E-1,4.944056E-3,-1.8985271E-2,1.531705E-1,-1.5383986E-2,-9.662343E-2,5.025206E-2,3.1825353E-4],"categories":[],"categories_nodes":[],"categories_segments":[],"categories_sizes":[],"default_left":[0,0,0,0,0,0,0,0,0,0,0,0,0],"id":29,"left_children":[1,3,5,7,9,-1,11,-1,-1,-1,-1,-1,-1],"loss_changes":[1.1924622E0,1.6850585E0,8.7205786E-1,6.670073E-1,1.9506253E0,0E0,8.609578E-1,0E0,0E0,0E0,0E0,0E0,0E0],"parents":[2147483647,0,0,1,1,2,2,3,3,4,4,6,6],"right_children":[2,4,6,8,10,-1,12,-1,-1,-1,-1,-1,-1],"split_conditions":[-5.95114E-1,-1.8214105E0,-1.8050513E0,-1.261883E-1,7.138967E-1,-1.3120376E-1,-1.5625144E0,-1.8985271E-2,1.531705E-1,-1.5383986E-2,-9.662343E-2,5.025206E-2,3.1825353E-4],"split_indices":[3,8,10,0,2,0,0,0,0,0,0,0,0],"split_type":[0,0,0,0,0,0,0,0,0,0,0,0,0],"sum_hessian":[1.139E3,9.6E1,1.043E3,3E0,9.3E1,1E0,1.042E3,1E0,2E0,8E1,1.3E1,1.3E1,1.029E3],"tree_param":{"num_deleted":"0","num_feature":"11","num_nodes":"13","size_leaf_vector":"1"}},{"base_weights":[3.1823288E-3,-6.877056E-2,1.990853E-2,-3.2905784E-1,-4.0531766E-2,3.8254336E-2,-6.850508E-2,9.800284E-2,-8.8213235E-2,2.720519E-3,-3.1006267E-2,1.0722387E-2,-2.4215741E-2,-2.3879243E-2,1.9604849E-2],"categories":[],"categories_nodes":[],"categories_segments":[],"categories_sizes":[],"default_left":[0,0,0,0,0,0,0,0,0,0,0,0,0,0,0],"id":30,"left_children":[1,3,5,7,9,11,13,-1,-1,-1,-1,-1,-1,-1,-1],"loss_changes":[1.3781713E0,1.5743057E0,1.5094761E0,2.1427295E0,1.2169876E0,1.8906605E0,1.3676822E0,0E0,0E0,0E0,0E0,0E0,0E0,0E0,0E0],"parents":[2147483647,0,0,1,1,2,2,3,3,4,4,5,5,6,6],"right_children":[2,4,6,8,10,12,14,-1,-1,-1,-1,-1,-1,-1,-1],"split_conditions":[-7.581718E-1,-9.87312E-1,2.238752E-1,-1.5193793E0,-1.586918E-1,1.5974501E0,6.5462047E-1,9.800284E-2,-8.8213235E-2,2.720519E-3,-3.1006267E-2,1.0722387E-2,-2.4215741E-2,-2.3879243E-2,1.9604849E-2],"split_indices":[0,6,4,7,4,6,1,0,0,0,0,0,0,0,0],"split_type":[0,0,0,0,0,0,0,0,0,0,0,0,0,0,0],"sum_hessian":[1.143E3,2.15E2,9.28E2,2E1,1.95E2,7.69E2,1.59E2,2E0,1.8E1,1.33E2,6.2E1,7.02E2,6.7E1,1.22E2,3.7E1],"tree_param":{"num_deleted":"0","num_feature":"11","num_nodes":"15","size_leaf_vector":"1"}},{"base_weights":[-5.8077304E-3,-1.749272E-1,-1.3760767E-3,-4.0597555E-1,3.817305E-2,8.226205E-3,-8.945777E-2,4.4817734E-3,-1.1591404E-1,-5.599728E-2,4.1648857E-2,8.032158E-2,8.496721E-4,-8.1203375E-3,-7.029342E-2],"categories":[],"categories_nodes":[],"categories_segments":[],"categories_sizes":[],"default_left":[0,0,0,0,0,0,0,0,0,0,0,0,0,0,0],"id":31,"left_children":[1,3,5,7,9,11,13,-1,-1,-1,-1,-1,-1,-1,-1],"loss_changes":[8.511674E-1,1.4433546E0,9.37866E-1,1.0541008E0,9.2406183E-1,1.5631047E0,1.3810118E0,0E0,0E0,0E0,0E0,0E0,0E0,0E0,0E0],"parents":[2147483647,0,0,1,1,2,2,3,3,4,4,5,5,6,6],"right_children":[2,4,6,8,10,12,14,-1,-1,-1,-1,-1,-1,-1,-1],"split_conditions":[-1.6079025E0,3.0598962E-1,1.2684928E0,-8.352672E-1,-1.8364134E-1,-2.4045455E0,3.81544E-1,4.4817734E-3,-1.1591404E-1,-5.599728E-2,4.1648857E-2,8.032158E-2,8.496721E-4,-8.1203375E-3,-7.029342E-2],"split_indices":[1,9,7,6,0,8,8,0,0,0,0,0,0,0,0],"split_type":[0,0,0,0,0,0,0,0,0,0,0,0,0,0,0],"sum_hessian":[1.135E3,2.8E1,1.107E3,1.3E1,1.5E1,9.99E2,1.08E2,4E0,9E0,5E0,1E1,9E0,9.9E2,9.2E1,1.6E1],"tree_param":{"num_deleted":"0","num_feature":"11","num_nodes":"15","size_leaf_vector":"1"}},{"base_weights":[3.6873608E-3,5.4624192E-3,-1.04264095E-1,-3.995403E-2,2.0903997E-2,-1.7418314E-3,-2.6385918E-2,6.129034E-3,-1.886331E-2],"categories":[],"categories_nodes":[],"categories_segments":[],"categories_sizes":[],"default_left":[0,0,0,0,0,0,0,0,0],"id":32,"left_children":[1,3,-1,5,7,-1,-1,-1,-1],"loss_changes":[1.1062405E0,8.2907254E-1,0E0,8.609804E-1,9.9283224E-1,0E0,0E0,0E0,0E0],"parents":[2147483647,0,0,1,1,3,3,4,4],"right_children":[2,4,-1,6,8,-1,-1,-1,-1],"split_conditions":[4.125337E0,-5.792065E-1,-1.04264095E-1,3.7276968E-1,1.5355041E0,-1.7418314E-3,-2.6385918E-2,6.129034E-3,-1.886331E-2],"split_indices":[0,9,0,7,2,0,0,0,0],"split_type":[0,0,0,0,0,0,0,0,0],"sum_hessian":[1.183E3,1.18E3,3E0,2.99E2,8.81E2,2.24E2,7.5E1,8.13E2,6.8E1],"tree_param":{"num_deleted":"0","num_feature":"11","num_nodes":"9","size_leaf_vector":"1"}},{"base_weights":[-1.0456981E-3,-4.1817892E-3,3.2434753E-1,-6.8320404E-3,2.686924E-1,5.1509964E-1,-7.120492E-2,-7.9425576E-5,-2.6543021E-2,-3.1202769E-2,8.94918E-2,4.0073704E-2,1.278141E-1],"categories":[],"categories_nodes":[],"categories_segments":[],"categories_sizes":[],"default_left":[0,0,0,0,0,0,0,0,0,0,0,0,0],"id":33,"left_children":[1,3,5,7,9,11,-1,-1,-1,-1,-1,-1,-1],"loss_changes":[1.1759092E0,8.2699007E-1,1.6109946E0,9.1611E-1,9.0496594E-1,2.2310758E-1,0E0,0E0,0E0,0E0,0E0,0E0,0E0],"parents":[2147483647,0,0,1,1,2,2,3,3,4,4,5,5],"right_children":[2,4,6,8,10,12,-1,-1,-1,-1,-1,-1,-1],"split_conditions":[2.2544105E0,3.9648004E0,7.977257E-1,1.6042774E0,-2.410944E-1,-5.311775E-1,-7.120492E-2,-7.9425576E-5,-2.6543021E-2,-3.1202769E-2,8.94918E-2,4.0073704E-2,1.278141E-1],"split_indices":[2,9,4,9,0,6,0,0,0,0,0,0,0],"split_type":[0,0,0,0,0,0,0,0,0,0,0,0,0],"sum_hessian":[1.15E3,1.14E3,1E1,1.13E3,1E1,8E0,2E0,1.076E3,5.4E1,3E0,7E0,3E0,5E0],"tree_param":{"num_deleted":"0","num_feature":"11","num_nodes":"13","size_leaf_vector":"1"}},{"base_weights":[-6.117039E-4,-1.1548839E-1,3.9026845E-4,8.2275085E-3,-7.467826E-2,-1.0299779E-3,3.0365873E-2,-6.8701155E-2,5.413108E-3],"categories":[],"categories_nodes":[],"categories_segments":[],"categories_sizes":[],"default_left":[0,0,0,0,0,0,0,0,0],"id":34,"left_children":[1,-1,3,5,7,-1,-1,-1,-1],"loss_changes":[6.666224E-1,0E0,6.783706E-1,2.006326E0,2.990614E0,0E0,0E0,0E0,0E0],"parents":[2147483647,0,0,2,2,3,3,4,4],"right_children":[2,-1,4,6,8,-1,-1,-1,-1],"split_conditions":[-1.8050513E0,-1.1548839E-1,1.425044E0,9.6541953E-1,-1.6611499E-1,-1.0299779E-3,3.0365873E-2,-6.8701155E-2,5.413108E-3],"split_indices":[10,0,0,0,9,0,0,0,0],"split_type":[0,0,0,0,0,0,0,0,0],"sum_hessian":[1.152E3,1E0,1.151E3,1.043E3,1.08E2,9.55E2,8.8E1,2.9E1,7.9E1],"tree_param":{"num_deleted":"0","num_feature":"11","num_nodes":"9","size_leaf_vector":"1"}},{"base_weights":[-1.1035356E-3,-2.8977979E-2,3.7069637E-2,-3.8411483E-2,1.4889129E-1,5.4209564E-2,-1.8729824E-1,-6.7748427E-3,-8.851497E-2,-1.07436575E-1,6.3018456E-2,-1.3209581E-4,1.9339811E-2,3.477907E-2,-5.360487E-2],"categories":[],"categories_nodes":[],"categories_segments":[],"categories_sizes":[],"default_left":[0,0,0,0,0,0,0,0,0,0,0,0,0,0,0],"id":35,"left_children":[1,3,5,7,9,11,13,-1,-1,-1,-1,-1,-1,-1,-1],"loss_changes":[1.235379E0,1.1316108E0,1.8945212E0,1.1549714E0,4.046153E0,1.0631821E0,1.0671294E0,0E0,0E0,0E0,0E0,0E0,0E0,0E0,0E0],"parents":[2147483647,0,0,1,1,2,2,3,3,4,4,5,5,6,6],"right_children":[2,4,6,8,10,12,14,-1,-1,-1,-1,-1,-1,-1,-1],"split_conditions":[-1.16184354E-1,1.5763891E0,1.5484567E0,1.4367272E0,-9.9216175E-1,-5.847771E-1,-5.242319E-2,-6.7748427E-3,-8.851497E-2,-1.07436575E-1,6.3018456E-2,-1.3209581E-4,1.9339811E-2,3.477907E-2,-5.360487E-2],"split_indices":[4,1,1,1,5,10,4,0,0,0,0,0,0,0,0],"split_type":[0,0,0,0,0,0,0,0,0,0,0,0,0,0,0],"sum_hessian":[1.159E3,6.7E2,4.89E2,6.37E2,3.3E1,4.55E2,3.4E1,6.31E2,6E0,6E0,2.7E1,1.99E2,2.56E2,6E0,2.8E1],"tree_param":{"num_deleted":"0","num_feature":"11","num_nodes":"15","size_leaf_vector":"1"}},{"base_weights":[1.9273518E-3,3.817367E-2,-2.0197745E-2,2.5056455E-1,2.3575824E-2,-2.013342E-1,-9.465611E-3,6.573676E-2,-3.4904137E-2,1.722478E-2,-8.251294E-3,-5.2957065E-2,2.7123818E-2,5.6942116E-2,-3.040438E-3],"categories":[],"categories_nodes":[],"categories_segments":[],"categories_sizes":[],"default_left":[0,0,0,0,0,0,0,0,0,0,0,0,0,0,0],"id":36,"left_children":[1,3,5,7,9,11,13,-1,-1,-1,-1,-1,-1,-1,-1],"loss_changes":[9.2462134E-1,1.3489895E0,1.3899846E0,9.8716724E-1,1.6661586E0,8.911128E-1,1.1468098E0,0E0,0E0,0E0,0E0,0E0,0E0,0E0,0E0],"parents":[2147483647,0,0,1,1,2,2,3,3,4,4,5,5,6,6],"right_children":[2,4,6,8,10,12,14,-1,-1,-1,-1,-1,-1,-1,-1],"split_conditions":[-2.7914718E-1,-1.0785389E0,-2.0494525E-1,2.635671E-1,-4.158135E-1,5.4162985E-1,-6.0502E-1,6.573676E-2,-3.4904137E-2,1.722478E-2,-8.251294E-3,-5.2957065E-2,2.7123818E-2,5.6942116E-2,-3.040438E-3],"split_indices":[7,6,7,1,2,10,4,0,0,0,0,0,0,0,0],"split_type":[0,0,0,0,0,0,0,0,0,0,0,0,0,0,0],"sum_hessian":[1.151E3,4.36E2,7.15E2,2.7E1,4.09E2,3.9E1,6.76E2,2.3E1,4E0,2.08E2,2.01E2,3.3E1,6E0,1.2E1,6.64E2],"tree_param":{"num_deleted":"0","num_feature":"11","num_nodes":"15","size_leaf_vector":"1"}},{"base_weights":[-5.7350453E-3,-1.5615761E-2,7.4454054E-2,-9.22388E-2,-2.5351567E-3,4.093172E-1,3.56148E-2,-3.909685E-2,1.3682329E-3,1.3223656E-3,-5.2018143E-2,1.4514654E-2,1.221421E-1,5.3528942E-2,-2.7216992E-3],"categories":[],"categories_nodes":[],"categories_segments":[],"categories_sizes":[],"default_left":[0,0,0,0,0,0,0,0,0,0,0,0,0,0,0],"id":37,"left_children":[1,3,5,7,9,11,13,-1,-1,-1,-1,-1,-1,-1,-1],"loss_changes":[9.0996027E-1,1.024092E0,1.6241574E0,1.5255411E0,2.0607386E0,8.373122E-1,1.3056678E0,0E0,0E0,0E0,0E0,0E0,0E0,0E0,0E0],"parents":[2147483647,0,0,1,1,2,2,3,3,4,4,5,5,6,6],"right_children":[2,4,6,8,10,12,14,-1,-1,-1,-1,-1,-1,-1,-1],"split_conditions":[1.350792E0,-8.7307787E-1,-1.3006463E0,-8.366945E-2,1.7439834E0,-1.719632E0,-4.562439E-1,-3.909685E-2,1.3682329E-3,1.3223656E-3,-5.2018143E-2,1.4514654E-2,1.221421E-1,5.3528942E-2,-2.7216992E-3],"split_indices":[5,0,1,5,1,1,4,0,0,0,0,0,0,0,0],"split_type":[0,0,0,0,0,0,0,0,0,0,0,0,0,0,0],"sum_hessian":[1.146E3,1.021E3,1.25E2,1.48E2,8.73E2,1.2E1,1.13E2,7.2E1,7.6E1,8.44E2,2.9E1,5E0,7E0,1.9E1,9.4E1],"tree_param":{"num_deleted":"0","num_feature":"11","num_nodes":"15","size_leaf_vector":"1"}},{"base_weights":[3.201444E-4,-1.6305071E-1,4.1756453E-3,-4.0535587E-1,-1.9378344E-2,3.468638E-1,2.064052E-3,2.1799325E-3,-1.1706164E-1,2.1963788E-2,-7.545101E-2,1.6122699E-1,2.7192561E-2,-1.5809864E-2,2.2342897E-3],"categories":[],"categories_nodes":[],"categories_segments":[],"categories_sizes":[],"default_left":[0,0,0,0,0,0,0,0,0,0,0,0,0,0,0],"id":38,"left_children":[1,3,5,7,9,11,13,-1,-1,-1,-1,-1,-1,-1,-1],"loss_changes":[7.3763627E-1,9.320839E-1,8.27103E-1,7.554412E-1,8.736903E-1,5.6842077E-1,8.4155965E-1,0E0,0E0,0E0,0E0,0E0,0E0,0E0,0E0],"parents":[2147483647,0,0,1,1,2,2,3,3,4,4,5,5,6,6],"right_children":[2,4,6,8,10,12,14,-1,-1,-1,-1,-1,-1,-1,-1],"split_conditions":[-1.6079025E0,-4.9875134E-1,-8.789052E-1,-1.7207844E0,-2.2245297E-1,-1.0513111E0,-9.8798394E-1,2.1799325E-3,-1.1706164E-1,2.1963788E-2,-7.545101E-2,1.6122699E-1,2.7192561E-2,-1.5809864E-2,2.2342897E-3],"split_indices":[1,4,3,7,4,9,0,0,0,0,0,0,0,0,0],"split_type":[0,0,0,0,0,0,0,0,0,0,0,0,0,0,0],"sum_hessian":[1.169E3,2.6E1,1.143E3,9E0,1.7E1,6E0,1.137E3,3E0,6E0,1.3E1,4E0,1E0,5E0,1.14E2,1.023E3],"tree_param":{"num_deleted":"0","num_feature":"11","num_nodes":"15","size_leaf_vector":"1"}},{"base_weights":[-6.0949083E-3,1.687532E-1,-9.799824E-3,2.884076E-1,1.1245988E-3,-2.858643E-1,-6.5838834E-3,1.1004448E-2,1.0278653E-1,6.9991305E-2,-2.3055533E-2,6.0554553E-2,-7.202969E-2,3.8568985E-2,-2.450975E-3],"categories":[],"categories_nodes":[],"categories_segments":[],"categories_sizes":[],"default_left":[0,0,0,0,0,0,0,0,0,0,0,0,0,0,0],"id":39,"left_children":[1,3,5,7,9,11,13,-1,-1,-1,-1,-1,-1,-1,-1],"loss_changes":[7.492122E-1,4.8105556E-1,1.0022277E0,7.0860183E-1,4.869952E-1,6.774863E-1,1.2679063E0,0E0,0E0,0E0,0E0,0E0,0E0,0E0,0E0],"parents":[2147483647,0,0,1,1,2,2,3,3,4,4,5,5,6,6],"right_children":[2,4,6,8,10,12,14,-1,-1,-1,-1,-1,-1,-1,-1],"split_conditions":[-2.0599933E0,-3.4679672E-1,-1.1393569E0,-7.370096E-1,-2.6638383E-1,-7.5379604E-1,-1.0785389E0,1.1004448E-2,1.0278653E-1,6.9991305E-2,-2.3055533E-2,6.0554553E-2,-7.202969E-2,3.8568985E-2,-2.450975E-3],"split_indices":[7,3,6,3,8,4,6,0,0,0,0,0,0,0,0],"split_type":[0,0,0,0,0,0,0,0,0,0,0,0,0,0,0],"sum_hessian":[1.153E3,2.3E1,1.13E3,1.3E1,1E1,1.2E1,1.118E3,7E0,6E0,2E0,8E0,1E0,1.1E1,3E1,1.088E3],"tree_param":{"num_deleted":"0","num_feature":"11","num_nodes":"15","size_leaf_vector":"1"}},{"base_weights":[-7.4079033E-4,4.8014763E-4,-9.362262E-2,-2.6395977E-3,3.560831E-1,-2.0552958E-4,-9.203529E-2,1.8192634E-2,1.0353384E-1],"categories":[],"categories_nodes":[],"categories_segments":[],"categories_sizes":[],"default_left":[0,0,0,0,0,0,0,0,0],"id":40,"left_children":[1,3,-1,5,7,-1,-1,-1,-1],"loss_changes":[6.570229E-1,1.2756298E0,0E0,8.4030735E-1,3.8130808E-1,0E0,0E0,0E0,0E0],"parents":[2147483647,0,0,1,1,3,3,4,4],"right_children":[2,4,-1,6,8,-1,-1,-1,-1],"split_conditions":[2.6652143E0,2.2544105E0,-9.362262E-2,4.125337E0,1.0352868E0,-2.0552958E-4,-9.203529E-2,1.8192634E-2,1.0353384E-1],"split_indices":[2,2,0,0,7,0,0,0,0],"split_type":[0,0,0,0,0,0,0,0,0],"sum_hessian":[1.15E3,1.148E3,2E0,1.139E3,9E0,1.136E3,3E0,4E0,5E0],"tree_param":{"num_deleted":"0","num_feature":"11","num_nodes":"9","size_leaf_vector":"1"}},{"base_weights":[9.418677E-3,4.3158375E-2,-9.404292E-3,8.859157E-2,-4.2013064E-2,3.68517E-2,-6.7160554E-2,3.3511084E-2,-4.0482655E-3,4.062409E-3,-3.6824536E-2,3.1500015E-2,1.9783643E-3,-5.9750717E-2,-9.591463E-3],"categories":[],"categories_nodes":[],"categories_segments":[],"categories_sizes":[],"default_left":[0,0,0,0,0,0,0,0,0,0,0,0,0,0,0],"id":41,"left_children":[1,3,5,7,9,11,13,-1,-1,-1,-1,-1,-1,-1,-1],"loss_changes":[7.307494E-1,1.5980014E0,1.9767675E0,2.315141E0,1.2791475E0,1.3352876E0,1.4488459E0,0E0,0E0,0E0,0E0,0E0,0E0,0E0,0E0],"parents":[2147483647,0,0,1,1,2,2,3,3,4,4,5,5,6,6],"right_children":[2,4,6,8,10,12,14,-1,-1,-1,-1,-1,-1,-1,-1],"split_conditions":[-4.158135E-1,7.6635E-1,-2.0159104E-1,-1.9667889E-1,-1.6611499E-1,-6.873526E-2,-1.3679826E-1,3.3511084E-2,-4.0482655E-3,4.062409E-3,-3.6824536E-2,3.1500015E-2,1.9783643E-3,-5.9750717E-2,-9.591463E-3],"split_indices":[2,1,8,6,9,0,8,0,0,0,0,0,0,0,0],"split_type":[0,0,0,0,0,0,0,0,0,0,0,0,0,0,0],"sum_hessian":[1.149E3,4.11E2,7.38E2,2.68E2,1.43E2,4.1E2,3.28E2,1.55E2,1.13E2,1E2,4.3E1,7.4E1,3.36E2,2.4E1,3.04E2],"tree_param":{"num_deleted":"0","num_feature":"11","num_nodes":"15","size_leaf_vector":"1"}},{"base_weights":[-9.4502885E-3,-7.39402E-2,-6.006352E-4,-9.988178E-2,4.295127E-1,7.22649E-2,-1.0647564E-2,-1.275938E-2,-8.040927E-2,1.3489763E-1,-2.4390126E-2,2.1808377E-2,-5.5401783E-2,-4.2244847E-6,-2.430875E-2],"categories":[],"categories_nodes":[],"categories_segments":[],"categories_sizes":[],"default_left":[0,0,0,0,0,0,0,0,0,0,0,0,0,0,0],"id":42,"left_children":[1,3,5,7,9,11,13,-1,-1,-1,-1,-1,-1,-1,-1],"loss_changes":[6.574174E-1,1.8582911E0,7.4309343E-1,1.4245256E0,1.027919E0,1.6101694E0,1.0511587E0,0E0,0E0,0E0,0E0,0E0,0E0,0E0,0E0],"parents":[2147483647,0,0,1,1,2,2,3,3,4,4,5,5,6,6],"right_children":[2,4,6,8,10,12,14,-1,-1,-1,-1,-1,-1,-1,-1],"split_conditions":[-9.9216175E-1,1.309212E0,-8.048582E-1,1.1574033E0,-1.261883E-1,1.3534358E0,9.6573746E-1,-1.275938E-2,-8.040927E-2,1.3489763E-1,-2.4390126E-2,2.1808377E-2,-5.5401783E-2,-4.2244847E-6,-2.430875E-2],"split_indices":[5,9,6,1,0,8,3,0,0,0,0,0,0,0,0],"split_type":[0,0,0,0,0,0,0,0,0,0,0,0,0,0,0],"sum_hessian":[1.151E3,1.38E2,1.013E3,1.32E2,6E0,1.22E2,8.91E2,1.19E2,1.3E1,4E0,2E0,1.11E2,1.1E1,8.14E2,7.7E1],"tree_param":{"num_deleted":"0","num_feature":"11","num_nodes":"15","size_leaf_vector":"1"}},{"base_weights":[-1.1583843E-3,-7.320286E-3,9.4323225E-2,3.6500458E-4,-1.2411894E-1,-2.6863503E-1,1.6779178E-1,-2.0706593E-3,2.1866066E-2,-9.042027E-2,-1.4217028E-2,1.0248649E-2,-1.4534266E-1,6.595061E-2,8.75351E-3],"categories":[],"categories_nodes":[],"categories_segments":[],"categories_sizes":[],"default_left":[0,0,0,0,0,0,0,0,0,0,0,0,0,0,0],"id":43,"left_children":[1,3,5,7,9,11,13,-1,-1,-1,-1,-1,-1,-1,-1],"loss_changes":[6.696425E-1,9.596134E-1,1.8850298E0,1.1737268E0,1.1158767E0,1.7955906E0,1.1506202E0,0E0,0E0,0E0,0E0,0E0,0E0,0E0,0E0],"parents":[2147483647,0,0,1,1,2,2,3,3,4,4,5,5,6,6],"right_children":[2,4,6,8,10,12,14,-1,-1,-1,-1,-1,-1,-1,-1],"split_conditions":[1.8846682E0,1.2684928E0,-4.6118036E-1,8.232813E-1,-9.9216175E-1,-5.2019346E-1,2.2293866E0,-2.0706593E-3,2.1866066E-2,-9.042027E-2,-1.4217028E-2,1.0248649E-2,-1.4534266E-1,6.595061E-2,8.75351E-3],"split_indices":[0,7,9,7,5,9,0,0,0,0,0,0,0,0,0],"split_type":[0,0,0,0,0,0,0,0,0,0,0,0,0,0,0],"sum_hessian":[1.136E3,1.068E3,6.8E1,1.003E3,6.5E1,1.1E1,5.7E1,9.14E2,8.9E1,8E0,5.7E1,7E0,4E0,2.4E1,3.3E1],"tree_param":{"num_deleted":"0","num_feature":"11","num_nodes":"15","size_leaf_vector":"1"}},{"base_weights":[4.4811717E-3,-2.1263442E-3,9.5984265E-2,2.9433698E-3,-3.1542888E-1,1.8557139E-1,-6.7420736E-2,1.9781934E-3,-2.0178823E-2,-9.6168615E-2,-3.0310927E-2,4.7271244E-2,-9.150863E-2,-1.1744914E-1,3.6896174E-3],"categories":[],"categories_nodes":[],"categories_segments":[],"categories_sizes":[],"default_left":[0,0,0,0,0,0,0,0,0,0,0,0,0,0,0],"id":44,"left_children":[1,3,5,7,9,11,13,-1,-1,-1,-1,-1,-1,-1,-1],"loss_changes":[6.912713E-1,1.6957023E0,1.1397132E0,7.592114E-1,3.879472E-1,1.7411659E0,1.2606628E0,0E0,0E0,0E0,0E0,0E0,0E0,0E0,0E0],"parents":[2147483647,0,0,1,1,2,2,3,3,4,4,5,5,6,6],"right_children":[2,4,6,8,10,12,14,-1,-1,-1,-1,-1,-1,-1,-1],"split_conditions":[1.4623721E0,1.1785809E0,9.284529E-1,1.5868546E0,-6.8322235E-1,1.1911858E0,2.0322286E-1,1.9781934E-3,-2.0178823E-2,-9.6168615E-2,-3.0310927E-2,4.7271244E-2,-9.150863E-2,-1.1744914E-1,3.6896174E-3],"split_indices":[3,3,6,2,6,9,5,0,0,0,0,0,0,0,0],"split_type":[0,0,0,0,0,0,0,0,0,0,0,0,0,0,0],"sum_hessian":[1.142E3,1.066E3,7.6E1,1.05E3,1.6E1,4.9E1,2.7E1,9.85E2,6.5E1,7E0,9E0,4.6E1,3E0,3E0,2.4E1],"tree_param":{"num_deleted":"0","num_feature":"11","num_nodes":"15","size_leaf_vector":"1"}},{"base_weights":[4.836907E-3,-1.8466198E-1,7.4899704E-3,1.0478735E-2,-4.3705416E-1,1.3231215E-1,3.8847455E-3,-4.6476316E-2,5.9963074E-2,-1.6808176E-2,-9.637658E-2,3.9371237E-2,-1.1144644E-1,6.368784E-3,-2.6229748E-3],"categories":[],"categories_nodes":[],"categories_segments":[],"categories_sizes":[],"default_left":[0,0,0,0,0,0,0,0,0,0,0,0,0,0,0],"id":45,"left_children":[1,3,5,7,9,11,13,-1,-1,-1,-1,-1,-1,-1,-1],"loss_changes":[5.825651E-1,7.926116E-1,5.129497E-1,7.7235544E-1,7.027805E-2,1.533886E0,5.279954E-1,0E0,0E0,0E0,0E0,0E0,0E0,0E0,0E0],"parents":[2147483647,0,0,1,1,2,2,3,3,4,4,5,5,6,6],"right_children":[2,4,6,8,10,12,14,-1,-1,-1,-1,-1,-1,-1,-1],"split_conditions":[-1.1393569E0,-5.792065E-1,-1.0785389E0,-8.152588E-1,-1.6079025E0,1.3814527E0,-4.158135E-1,-4.6476316E-2,5.9963074E-2,-1.6808176E-2,-9.637658E-2,3.9371237E-2,-1.1144644E-1,6.368784E-3,-2.6229748E-3],"split_indices":[6,9,6,9,1,2,2,0,0,0,0,0,0,0,0],"split_type":[0,0,0,0,0,0,0,0,0,0,0,0,0,0,0],"sum_hessian":[1.155E3,1.5E1,1.14E3,9E0,6E0,3.1E1,1.109E3,5E0,4E0,1E0,5E0,2.9E1,2E0,4.19E2,6.9E2],"tree_param":{"num_deleted":"0","num_feature":"11","num_nodes":"15","size_leaf_vector":"1"}},{"base_weights":[-3.477911E-3,2.7054848E-2,-3.6765028E-2,-3.1782713E-2,5.8806144E-2,-1.682598E-2,-1.5108779E-1,9.935369E-3,-1.8225774E-2,2.2701072E-2,-6.4281146E-3,-5.1447405E-3,3.933366E-2,-4.265964E-2,5.396858E-2],"categories":[],"categories_nodes":[],"categories_segments":[],"categories_sizes":[],"default_left":[0,0,0,0,0,0,0,0,0,0,0,0,0,0,0],"id":46,"left_children":[1,3,5,7,9,11,13,-1,-1,-1,-1,-1,-1,-1,-1],"loss_changes":[1.1748761E0,1.1283747E0,1.258014E0,1.0294011E0,1.9537361E0,9.016761E-1,2.2048314E0,0E0,0E0,0E0,0E0,0E0,0E0,0E0,0E0],"parents":[2147483647,0,0,1,1,2,2,3,3,4,4,5,5,6,6],"right_children":[2,4,6,8,10,12,14,-1,-1,-1,-1,-1,-1,-1,-1],"split_conditions":[-1.261883E-1,-3.822706E-1,2.5195843E-1,1.2175654E-2,-2.7531648E-2,2.6680532E0,3.9815512E-1,9.935369E-3,-1.8225774E-2,2.2701072E-2,-6.4281146E-3,-5.1447405E-3,3.933366E-2,-4.265964E-2,5.396858E-2],"split_indices":[0,3,8,1,3,4,3,0,0,0,0,0,0,0,0],"split_type":[0,0,0,0,0,0,0,0,0,0,0,0,0,0,0],"sum_hessian":[1.154E3,6.02E2,5.52E2,2.11E2,3.91E2,4.71E2,8.1E1,8.9E1,1.22E2,2.44E2,1.47E2,4.53E2,1.8E1,7.1E1,1E1],"tree_param":{"num_deleted":"0","num_feature":"11","num_nodes":"15","size_leaf_vector":"1"}},{"base_weights":[-5.360718E-3,-1.1439739E-2,8.443711E-2,-6.8822526E-3,-3.032502E-1,1.3661264E-1,-2.3154896E-1,3.828808E-2,-2.1151765E-3,-8.8085525E-2,-1.8774426E-2,5.3306837E-2,-2.8959676E-3,-9.124642E-2,2.5863439E-2],"categories":[],"categories_nodes":[],"categories_segments":[],"categories_sizes":[],"default_left":[0,0,0,0,0,0,0,0,0,0,0,0,0,0,0],"id":47,"left_children":[1,3,5,7,9,11,13,-1,-1,-1,-1,-1,-1,-1,-1],"loss_changes":[6.456536E-1,1.4701368E0,1.2681382E0,8.0121523E-1,4.4692922E-1,1.2798202E0,9.508846E-1,0E0,0E0,0E0,0E0,0E0,0E0,0E0,0E0],"parents":[2147483647,0,0,1,1,2,2,3,3,4,4,5,5,6,6],"right_children":[2,4,6,8,10,12,14,-1,-1,-1,-1,-1,-1,-1,-1],"split_conditions":[1.4623721E0,1.1785809E0,1.0141466E0,-2.0805817E0,7.543795E-1,2.526589E0,6.813767E-1,3.828808E-2,-2.1151765E-3,-8.8085525E-2,-1.8774426E-2,5.3306837E-2,-2.8959676E-3,-9.124642E-2,2.5863439E-2],"split_indices":[3,3,9,8,7,3,5,0,0,0,0,0,0,0,0],"split_type":[0,0,0,0,0,0,0,0,0,0,0,0,0,0,0],"sum_hessian":[1.18E3,1.106E3,7.4E1,1.09E3,1.6E1,6.4E1,1E1,1.9E1,1.071E3,9E0,7E0,3.4E1,3E1,6E0,4E0],"tree_param":{"num_deleted":"0","num_feature":"11","num_nodes":"15","size_leaf_vector":"1"}},{"base_weights":[1.88949E-3,-7.086038E-2,8.740439E-3,1.4884345E-2,-2.2132711E-1,2.506657E-1,5.7050507E-3,-2.3215977E-2,2.2718027E-2,7.421541E-2,-5.341769E-2,7.484624E-2,-4.37706E-3,1.8254276E-3,-3.5697475E-2],"categories":[],"categories_nodes":[],"categories_segments":[],"categories_sizes":[],"default_left":[0,0,0,0,0,0,0,0,0,0,0,0,0,0,0],"id":48,"left_children":[1,3,5,7,9,11,13,-1,-1,-1,-1,-1,-1,-1,-1],"loss_changes":[5.732875E-1,1.2805653E0,7.703583E-1,8.4050894E-1,1.075042E0,4.4600278E-1,6.5653425E-1,0E0,0E0,0E0,0E0,0E0,0E0,0E0,0E0],"parents":[2147483647,0,0,1,1,2,2,3,3,4,4,5,5,6,6],"right_children":[2,4,6,8,10,12,14,-1,-1,-1,-1,-1,-1,-1,-1],"split_conditions":[-5.95114E-1,-2.2245297E-1,-1.5625144E0,-6.432657E-1,-1.4974467E0,-3.4679672E-1,2.3251076E0,-2.3215977E-2,2.2718027E-2,7.421541E-2,-5.341769E-2,7.484624E-2,-4.37706E-3,1.8254276E-3,-3.5697475E-2],"split_indices":[3,4,0,0,8,3,10,0,0,0,0,0,0,0,0],"split_type":[0,0,0,0,0,0,0,0,0,0,0,0,0,0,0],"sum_hessian":[1.148E3,9.8E1,1.05E3,6.3E1,3.5E1,1.2E1,1.038E3,2.7E1,3.6E1,2E0,3.3E1,8E0,4E0,1.02E3,1.8E1],"tree_param":{"num_deleted":"0","num_feature":"11","num_nodes":"15","size_leaf_vector":"1"}},{"base_weights":[-8.510401E-4,-9.487672E-2,7.044372E-3,-1.8384716E-2,-3.2699397E-1,-1.4137456E-1,1.3003324E-2,-3.8561832E-2,1.2730385E-2,-1.0725838E-1,2.1262765E-2,-3.9383035E-2,1.5596539E-2,5.4232784E-2,2.03576E-3],"categories":[],"categories_nodes":[],"categories_segments":[],"categories_sizes":[],"default_left":[0,0,0,0,0,0,0,0,0,0,0,0,0,0,0],"id":49,"left_children":[1,3,5,7,9,11,13,-1,-1,-1,-1,-1,-1,-1,-1],"loss_changes":[8.529108E-1,1.5741935E0,9.39325E-1,9.85298E-1,2.0522044E0,5.148688E-1,7.410043E-1,0E0,0E0,0E0,0E0,0E0,0E0,0E0,0E0],"parents":[2147483647,0,0,1,1,2,2,3,3,4,4,5,5,6,6],"right_children":[2,4,6,8,10,12,14,-1,-1,-1,-1,-1,-1,-1,-1],"split_conditions":[-6.0502E-1,-2.0490113E-1,-1.1103243E0,-7.1363133E-1,5.084948E-1,5.9395427E-1,-5.837662E-1,-3.8561832E-2,1.2730385E-2,-1.0725838E-1,2.1262765E-2,-3.9383035E-2,1.5596539E-2,5.4232784E-2,2.03576E-3],"split_indices":[4,3,9,6,2,6,4,0,0,0,0,0,0,0,0],"split_type":[0,0,0,0,0,0,0,0,0,0,0,0,0,0,0],"sum_hessian":[1.147E3,8.8E1,1.059E3,6.7E1,2.1E1,4E1,1.019E3,2.1E1,4.6E1,1.4E1,7E0,3.2E1,8E0,1E1,1.009E3],"tree_param":{"num_deleted":"0","num_feature":"11","num_nodes":"15","size_leaf_vector":"1"}},{"base_weights":[3.3562118E-3,4.4625034E-3,-8.436816E-2,2.0953692E-3,3.0432966E-1,6.330595E-5,5.084126E-2,-2.829199E-2,7.554717E-2],"categories":[],"categories_nodes":[],"categories_segments":[],"categories_sizes":[],"default_left":[0,0,0,0,0,0,0,0,0],"id":50,"left_children":[1,3,-1,5,7,-1,-1,-1,-1],"loss_changes":[5.437738E-1,8.156619E-1,0E0,5.120664E-1,3.479479E-1,0E0,0E0,0E0,0E0],"parents":[2147483647,0,0,1,1,3,3,4,4],"right_children":[2,4,-1,6,8,-1,-1,-1,-1],"split_conditions":[2.6652143E0,2.2544105E0,-8.436816E-2,3.5502996E0,-4.532184E-1,6.330595E-5,5.084126E-2,-2.829199E-2,7.554717E-2],"split_indices":[2,2,0,5,3,0,0,0,0],"split_type":[0,0,0,0,0,0,0,0,0],"sum_hessian":[1.151E3,1.149E3,2E0,1.141E3,8E0,1.134E3,7E0,1E0,7E0],"tree_param":{"num_deleted":"0","num_feature":"11","num_nodes":"9","size_leaf_vector":"1"}},{"base_weights":[4.6038423E-3,-1.2060156E-1,7.798867E-3,-3.1756797E-1,5.9281647E-2,5.9333753E-2,-2.6254319E-3,-6.270472E-3,-9.461861E-2,-3.7530743E-2,3.7716884E-2,-1.0093679E-2,2.3012903E-2,-1.05088554E-1,3.106926E-5],"categories":[],"categories_nodes":[],"categories_segments":[],"categories_sizes":[],"default_left":[0,0,0,0,0,0,0,0,0,0,0,0,0,0,0],"id":51,"left_children":[1,3,5,7,9,11,13,-1,-1,-1,-1,-1,-1,-1,-1],"loss_changes":[4.6618044E-1,1.0463235E0,6.098949E-1,6.083592E-1,5.4625934E-1,1.1746042E0,1.3739594E0,0E0,0E0,0E0,0E0,0E0,0E0,0E0,0E0],"parents":[2147483647,0,0,1,1,2,2,3,3,4,4,5,5,6,6],"right_children":[2,4,6,8,10,12,14,-1,-1,-1,-1,-1,-1,-1,-1],"split_conditions":[-1.6079025E0,3.0598962E-1,-4.349902E-1,-1.7207844E0,-1.8364134E-1,-7.744493E-1,-8.0795735E-1,-6.270472E-3,-9.461861E-2,-3.7530743E-2,3.7716884E-2,-1.0093679E-2,2.3012903E-2,-1.05088554E-1,3.106926E-5],"split_indices":[1,9,4,7,0,6,3,0,0,0,0,0,0,0,0],"split_type":[0,0,0,0,0,0,0,0,0,0,0,0,0,0,0],"sum_hessian":[1.162E3,2.8E1,1.134E3,1.3E1,1.5E1,1.9E2,9.44E2,5E0,8E0,5E0,1E1,6.4E1,1.26E2,4E0,9.4E2],"tree_param":{"num_deleted":"0","num_feature":"11","num_nodes":"15","size_leaf_vector":"1"}},{"base_weights":[-1.4115239E-3,-9.319728E-2,-6.1820657E-4,-1.714932E-2,2.143546E-2,-5.1788394E-3,2.5840674E-2,3.6365265E-4,2.7027523E-2],"categories":[],"categories_nodes":[],"categories_segments":[],"categories_sizes":[],"default_left":[0,0,0,0,0,0,0,0,0],"id":52,"left_children":[1,-1,3,5,7,-1,-1,-1,-1],"loss_changes":[4.3239582E-1,0E0,4.2801017E-1,8.621158E-1,1.1217046E0,0E0,0E0,0E0,0E0],"parents":[2147483647,0,0,2,2,3,3,4,4],"right_children":[2,-1,4,6,8,-1,-1,-1,-1],"split_conditions":[-1.8050513E0,-9.319728E-2,-1.16184354E-1,1.5484567E0,8.2323164E-1,-5.1788394E-3,2.5840674E-2,3.6365265E-4,2.7027523E-2],"split_indices":[10,0,4,1,10,0,0,0,0],"split_type":[0,0,0,0,0,0,0,0,0],"sum_hessian":[1.173E3,1E0,1.172E3,6.7E2,5.02E2,6.33E2,3.7E1,4.29E2,7.3E1],"tree_param":{"num_deleted":"0","num_feature":"11","num_nodes":"9","size_leaf_vector":"1"}}]},"name":"gbtree"},"learner_model_param":{"base_score":"5.655981E0","boost_from_average":"1","num_class":"0","num_feature":"11","num_target":"1"},"objective":{"name":"reg:squarederror","reg_loss_param":{"scale_pos_weight":"1"}}},"version":[2,0,0]}