{"learner":{"attributes":{"best_iteration":"0","best_score":"77539.72848134204"},"feature_names":["longitude","latitude","housing_median_age","total_rooms","total_bedrooms","population","households","median_income"],"feature_types":["float","float","float","float","float","float","float","float"],"gradient_booster":{"model":{"gbtree_model_param":{"num_parallel_tree":"1","num_trees":"1"},"iteration_indptr":[0,1],"tree_info":[0],"trees":[{"base_weights":[-7.662208E1,-3.1542893E4,1.2865412E5,-7.114449E4,3.7521868E3,9.070866E4,2.2101555E5,-4.871454E4,-9.269488E4,-8.536133E3,5.1852996E4,7.730944E4,1.6622411E5,1.6692778E5,2.4854719E5,1.7988365E4,-5.7468254E4,-5.235339E4,-1.0280713E5,-2.2207346E4,1.1819384E4,1.0750132E5,2.9483594E4,5.6797582E4,1.1325585E5,1.1806468E5,1.7075731E5,1.1801372E5,1.9638488E5,7.703802E4,2.2768017E5],"categories":[],"categories_nodes":[],"categories_segments":[],"categories_sizes":[],"default_left":[0,0,0,0,0,0,0,0,0,0,0,0,0,0,0,0,0,0,0,0,0,0,0,0,0,0,0,0,0,0,0],"id":0,"left_children":[1,3,5,7,9,11,13,15,17,19,21,23,25,27,29,-1,-1,-1,-1,-1,-1,-1,-1,-1,-1,-1,-1,-1,-1,-1,-1],"loss_changes":[4.6647598E13,1.2934967E13,7.907576E12,2.1034812E12,2.8931787E12,1.6111664E12,9.38356E11,2.2260057E12,1.6461385E12,1.3638274E12,1.2815067E12,9.3279067E11,1.736185E11,3.844457E11,2.9169077E11,0E0,0E0,0E0,0E0,0E0,0E0,0E0,0E0,0E0,0E0,0E0,0E0,0E0,0E0,0E0,0E0],"parents":[2147483647,0,0,1,1,2,2,3,3,4,4,5,5,6,6,7,7,8,8,9,9,10,10,11,11,12,12,13,13,14,14],"right_children":[2,4,6,8,10,12,14,16,18,20,22,24,26,28,30,-1,-1,-1,-1,-1,-1,-1,-1,-1,-1,-1,-1,-1,-1,-1,-1],"split_conditions":[6.6446215E-1,-4.2356107E-1,1.6525788E0,-5.252405E-1,8.232265E-1,6.6431034E-1,2.0577319E0,6.337485E-1,-1.0533134E0,1.0755427E-1,-1.3927222E0,1.2933258E0,9.59497E-1,-1.3027044E-1,-1.0459307E0,1.7988365E4,-5.7468254E4,-5.235339E4,-1.0280713E5,-2.2207346E4,1.1819384E4,1.0750132E5,2.9483594E4,5.6797582E4,1.1325585E5,1.1806468E5,1.7075731E5,1.1801372E5,1.9638488E5,7.703802E4,2.2768017E5],"split_indices":[7,7,7,1,2,2,7,0,0,7,0,7,7,2,3,0,0,0,0,0,0,0,0,0,0,0,0,0,0,0,0],"split_type":[0,0,0,0,0,0,0,0,0,0,0,0,0,0,0,0,0,0,0,0,0,0,0,0,0,0,0,0,0,0,0],"sum_hessian":[1.1514E4,9.253E3,2.261E3,4.36E3,4.893E3,1.604E3,6.57E2,2.138E3,2.222E3,3.898E3,9.95E2,1.364E3,2.4E2,2.24E2,4.33E2,3.86E2,1.752E3,8.55E2,1.367E3,2.234E3,1.664E3,2.18E2,7.77E2,1.057E3,3.07E2,9.9E1,1.41E2,1.34E2,9E1,1.2E1,4.21E2],"tree_param":{"num_deleted":"0","num_feature":"8","num_nodes":"31","size_leaf_vector":"1"}}]},"name":"gbtree"},"learner_model_param":{"base_score":"2.0635262E5","boost_from_average":"1","num_class":"0","num_feature":"8","num_target":"1"},"objective":{"name":"reg:squarederror","reg_loss_param":{"scale_pos_weight":"1"}}},"version":[2,0,0]}