{"learner":{"attributes":{"best_iteration":"99","best_score":"0.19470695295742796"},"feature_names":["fixed_acidity","volatile_acidity","citric_acid","residual_sugar","chlorides","free_sulfur_dioxide","total_sulfur_dioxide","density","pH","sulphates","alcohol"],"feature_types":["float","float","float","float","float","float","float","float","float","float","float"],"gradient_booster":{"model":{"gbtree_model_param":{"num_parallel_tree":"1","num_trees":"100"},"iteration_indptr":[0,1,2,3,4,5,6,7,8,9,10,11,12,13,14,15,16,17,18,19,20,21,22,23,24,25,26,27,28,29,30,31,32,33,34,35,36,37,38,39,40,41,42,43,44,45,46,47,48,49,50,51,52,53,54,55,56,57,58,59,60,61,62,63,64,65,66,67,68,69,70,71,72,73,74,75,76,77,78,79,80,81,82,83,84,85,86,87,88,89,90,91,92,93,94,95,96,97,98,99,100],"tree_info":[0,0,0,0,0,0,0,0,0,0,0,0,0,0,0,0,0,0,0,0,0,0,0,0,0,0,0,0,0,0,0,0,0,0,0,0,0,0,0,0,0,0,0,0,0,0,0,0,0,0,0,0,0,0,0,0,0,0,0,0,0,0,0,0,0,0,0,0,0,0,0,0,0,0,0,0,0,0,0,0,0,0,0,0,0,0,0,0,0,0,0,0,0,0,0,0,0,0,0,0],"trees":[{"base_weights":[5.3997287E-3,-2.683165E-1,4.8438844E-1,-4.1117713E-1,-2.9303456E-2,6.413559E-2,7.3046714E-1,-5.6730586E-1,-3.1335714E-1,3.814271E-1,-1.9867885E-1,-1.1129309E-1,4.2526296E-1,5.280188E-1,9.9710965E-1,6.720095E-2,-5.7979816E-1,-3.8181368E-1,-1.7314792E-2,5.2018344E-2,6.354185E-1,-3.4989774E-2,-5.371243E-1,-5.7617642E-2,-8.799842E-2,5.6276125E-1,-5.0891876E-2,1.7707106E-1,6.6006E-1,1.0279354E0,8.014202E-3,-3.5749894E-1,-6.2673324E-1,-2.4409243E-1,-4.540418E-1,1.5075529E-1,-5.9634644E-1,4.0961704E-1,-1.0572102E-1,1.7601657E-1,7.275335E-1,-8.6381234E-2,6.7601657E-1,-5.6813234E-1,8.014202E-3,-4.1092944E-1,3.910438E-2,2.544177E-1,7.5620854E-1,-5.247849E-2,2.948734E-2,3.006635E-1,-3.2398343E-1,8.46855E-1,4.0578595E-1,1.0531251E0,-1.0398737E-1,2.2934597E-2,-3.2799054E-2,-5.2318204E-2,9.617043E-4,-7.86323E-2,-5.423813E-2,-6.1953764E-2,-1.1678141E-2,-3.5860494E-2,-6.645816E-2,2.3951834E-2,-2.7655521E-2,-2.1331755E-2,-8.799842E-2,5.280168E-2,-3.2799054E-2,-5.247849E-2,1.0123203E-3,-3.2799054E-2,2.948734E-2,9.7084135E-2,4.4142958E-2,-4.2479413E-4,-4.3426767E-2,-1.0398737E-2,9.533491E-2,-7.023265E-2,-3.897418E-2,2.2934597E-2,-3.2799054E-2,-7.90383E-2,9.617043E-4,4.704942E-2,-1.4286145E-2,4.0961705E-2,-4.665089E-3,2.580142E-2,8.2490675E-2,3.6588497E-2,-8.2799055E-2,-5.466509E-2,2.2934597E-2,-4.3732073E-2,9.035658E-2,-4.3732073E-2,4.5757946E-2,1.1448544E-1,7.9601824E-2,-3.2799054E-2,1.7200947E-2],"categories":[],"categories_nodes":[],"categories_segments":[],"categories_sizes":[],"default_left":[0,0,0,0,0,0,0,0,0,0,0,0,0,0,0,0,0,0,0,0,0,0,0,0,0,0,0,0,0,0,0,0,0,0,0,0,0,0,0,0,0,0,0,0,0,0,0,0,0,0,0,0,0,0,0,0,0,0,0,0,0,0,0,0,0,0,0,0,0,0,0,0,0,0,0,0,0,0,0,0,0,0,0,0,0,0,0,0,0,0,0,0,0,0,0,0,0,0,0,0,0,0,0,0,0,0,0],"id":0,"left_children":[1,3,5,7,9,11,13,15,17,19,21,23,25,27,29,-1,31,33,35,37,39,41,43,45,-1,47,49,51,53,55,57,59,61,63,65,67,69,71,73,75,77,79,81,83,85,87,89,91,93,-1,-1,95,97,99,101,103,105,-1,-1,-1,-1,-1,-1,-1,-1,-1,-1,-1,-1,-1,-1,-1,-1,-1,-1,-1,-1,-1,-1,-1,-1,-1,-1,-1,-1,-1,-1,-1,-1,-1,-1,-1,-1,-1,-1,-1,-1,-1,-1,-1,-1,-1,-1,-1,-1,-1,-1],"loss_changes":[1.3267912E2,2.1977692E1,3.800997E1,5.977051E0,1.6911154E1,8.726566E0,1.1997177E1,2.7738457E0,5.0598965E0,5.907303E0,9.509975E0,3.7864628E0,2.9748116E0,6.0926247E0,3.010231E0,0E0,1.3722878E0,1.9084854E0,4.761161E0,1.8483416E0,1.5646553E0,4.3335347E0,9.5116043E-1,3.0232959E0,0E0,1.8952951E0,1.957158E0,2.4506183E0,4.2635765E0,2.8467407E0,3.7269738E-1,1.768954E0,1.2562256E0,3.3691282E0,2.413988E0,1.5075567E0,1.00734E0,1.0465102E0,1.1218734E0,5.7595307E-1,1.8686161E0,3.141192E0,1.8297E0,9.95039E-1,3.7269738E-1,3.0395803E0,5.56209E0,7.1999377E-1,5.05888E-1,0E0,0E0,2.5849366E0,1.1110396E0,4.400612E0,2.0778108E0,1.3055954E0,2.4188995E-1,0E0,0E0,0E0,0E0,0E0,0E0,0E0,0E0,0E0,0E0,0E0,0E0,0E0,0E0,0E0,0E0,0E0,0E0,0E0,0E0,0E0,0E0,0E0,0E0,0E0,0E0,0E0,0E0,0E0,0E0,0E0,0E0,0E0,0E0,0E0,0E0,0E0,0E0,0E0,0E0,0E0,0E0,0E0,0E0,0E0,0E0,0E0,0E0,0E0,0E0],"parents":[2147483647,0,0,1,1,2,2,3,3,4,4,5,5,6,6,7,7,8,8,9,9,10,10,11,11,12,12,13,13,14,14,16,16,17,17,18,18,19,19,20,20,21,21,22,22,23,23,25,25,26,26,27,27,28,28,29,29,30,30,31,31,32,32,33,33,34,34,35,35,36,36,37,37,38,38,39,39,40,40,41,41,42,42,43,43,44,44,45,45,46,46,47,47,48,48,51,51,52,52,53,53,54,54,55,55,56,56],"right_children":[2,4,6,8,10,12,14,16,18,20,22,24,26,28,30,-1,32,34,36,38,40,42,44,46,-1,48,50,52,54,56,58,60,62,64,66,68,70,72,74,76,78,80,82,84,86,88,90,92,94,-1,-1,96,98,100,102,104,106,-1,-1,-1,-1,-1,-1,-1,-1,-1,-1,-1,-1,-1,-1,-1,-1,-1,-1,-1,-1,-1,-1,-1,-1,-1,-1,-1,-1,-1,-1,-1,-1,-1,-1,-1,-1,-1,-1,-1,-1,-1,-1,-1,-1,-1,-1,-1,-1,-1,-1],"split_conditions":[1.1922725E-1,-1.0710191E-1,-1.6611499E-1,-6.9723266E-1,-6.582015E-1,1.3864352E0,1.1048334E0,-8.789052E-1,-2.0930812E-1,-5.847771E-1,2.898646E-1,2.162969E0,1.547814E0,-6.432657E-1,2.6890109E0,6.720095E-2,-3.788777E-1,-2.2708786E-1,2.517425E-1,-2.2245297E-1,-1.5520378E0,1.9421213E0,2.692173E0,-9.8798394E-1,-8.799842E-2,-6.382196E-1,-5.615865E-1,2.898646E-1,-7.419987E-1,1.4454054E0,2.803917E0,-6.7864436E-1,-5.919955E-1,-4.532184E-1,2.517425E-1,7.104852E-1,-4.3474248E-1,7.88368E-1,-1.586918E-1,-1.3074334E-1,6.6957736E-1,1.1760659E-1,-7.1363133E-1,-2.0159104E-1,2.1852997E-1,-8.366945E-2,-4.1373646E-1,-4.9060723E-1,-1.496173E0,-5.247849E-2,2.948734E-2,2.1350367E0,-1.3743807E-1,-1.8872263E0,-2.4693384E0,2.9885364E-1,-1.5050614E0,2.2934597E-2,-3.2799054E-2,-5.2318204E-2,9.617043E-4,-7.86323E-2,-5.423813E-2,-6.1953764E-2,-1.1678141E-2,-3.5860494E-2,-6.645816E-2,2.3951834E-2,-2.7655521E-2,-2.1331755E-2,-8.799842E-2,5.280168E-2,-3.2799054E-2,-5.247849E-2,1.0123203E-3,-3.2799054E-2,2.948734E-2,9.7084135E-2,4.4142958E-2,-4.2479413E-4,-4.3426767E-2,-1.0398737E-2,9.533491E-2,-7.023265E-2,-3.897418E-2,2.2934597E-2,-3.2799054E-2,-7.90383E-2,9.617043E-4,4.704942E-2,-1.4286145E-2,4.0961705E-2,-4.665089E-3,2.580142E-2,8.2490675E-2,3.6588497E-2,-8.2799055E-2,-5.466509E-2,2.2934597E-2,-4.3732073E-2,9.035658E-2,-4.3732073E-2,4.5757946E-2,1.1448544E-1,7.9601824E-2,-3.2799054E-2,1.7200947E-2],"split_indices":[10,9,9,9,1,10,10,3,10,10,6,1,8,0,0,0,1,6,2,4,1,0,6,0,0,9,6,6,1,6,0,10,6,3,2,1,1,3,4,7,7,4,6,8,0,5,4,1,1,0,0,1,4,1,8,5,0,0,0,0,0,0,0,0,0,0,0,0,0,0,0,0,0,0,0,0,0,0,0,0,0,0,0,0,0,0,0,0,0,0,0,0,0,0,0,0,0,0,0,0,0,0,0,0,0,0,0],"split_type":[0,0,0,0,0,0,0,0,0,0,0,0,0,0,0,0,0,0,0,0,0,0,0,0,0,0,0,0,0,0,0,0,0,0,0,0,0,0,0,0,0,0,0,0,0,0,0,0,0,0,0,0,0,0,0,0,0,0,0,0,0,0,0,0,0,0,0,0,0,0,0,0,0,0,0,0,0,0,0,0,0,0,0,0,0,0,0,0,0,0,0,0,0,0,0,0,0,0,0,0,0,0,0,0,0,0,0],"sum_hessian":[1.01E3,6.43E2,3.67E2,4.02E2,2.41E2,1.36E2,2.31E2,1.53E2,2.49E2,7E1,1.71E2,9.2E1,4.4E1,1.33E2,9.8E1,1E0,1.52E2,2.02E2,4.7E1,3.1E1,3.9E1,1.16E2,5.5E1,8.7E1,5E0,3.4E1,1E1,3.7E1,9.6E1,9.5E1,3E0,2.8E1,1.24E2,7.1E1,1.31E2,3.7E1,1E1,9E0,2.2E1,7E0,3.2E1,1.09E2,7E0,5.2E1,3E0,1.8E1,6.9E1,1.4E1,2E1,4E0,6E0,3E1,7E0,5.4E1,4.2E1,9.3E1,2E0,2E0,1E0,1.9E1,9E0,4E1,8.4E1,1.7E1,5.4E1,9.2E1,3.9E1,3.1E1,6E0,5E0,5E0,8E0,1E0,4E0,1.8E1,1E0,6E0,1.6E1,1.6E1,8.9E1,2E1,2E0,5E0,2.8E1,2.4E1,2E0,1E0,9E0,9E0,2E1,4.9E1,9E0,5E0,3E0,1.7E1,2.9E1,1E0,5E0,2E0,2E0,5.2E1,2E0,4E1,6.6E1,2.7E1,1E0,1E0],"tree_param":{"num_deleted":"0","num_feature":"11","num_nodes":"107","size_leaf_vector":"1"}},{"base_weights":[-1.4012523E-2,-1.8305132E-1,5.8287454E-1,-7.5358644E-2,-5.3855246E-1,2.5955993E-1,7.6615417E-1,-2.6561362E-1,1.1149004E-1,-9.8257786E-1,-4.6714643E-1,5.1659286E-1,-5.026251E-2,9.6278346E-1,5.749673E-1,-5.804056E-2,-3.7167057E-1,-2.0313181E-1,2.3158084E-1,-4.0939713E-1,-1.1827372E0,-5.401837E-1,-2.5075895E-1,5.6311584E-1,-7.884715E-2,-4.1243836E-1,1.9328232E-1,1.1461468E0,6.4680463E-1,2.8519645E-1,7.032232E-1,-1.2600815E-1,6.002524E-1,1.5705161E-1,-3.9987922E-1,4.3381935E-1,-2.6428777E-1,2.8711218E-1,-3.9145225E-1,2.2191174E-2,-6.568187E-2,-7.315465E-2,-1.552645E0,-4.8102856E-2,-5.699773E-1,-5.810926E-1,-5.304122E-2,6.52627E-1,1.8456416E-1,7.313595E-2,-5.803911E-1,-1.4397115E-1,5.425334E-1,1.1476683E-2,1.1679709E0,3.6684936E-1,9.895075E-1,3.2631877E-1,-3.508694E-2,8.0456704E-1,1.2962839E-1,-5.7250977E-2,-6.149018E-3,1.6003044E-2,1.2205777E-1,-4.252256E-2,3.3369385E-2,-5.418796E-2,-3.1466052E-2,-2.8867437E-2,5.7827193E-2,4.5603212E-2,-3.0819977E-2,2.4129502E-2,1.08988486E-1,5.2267313E-2,-5.297419E-2,-3.2777812E-2,-1.6647811E-1,-4.6654154E-2,2.9626865E-2,-7.176494E-2,-5.0869383E-2,6.7372323E-4,-7.172638E-2,1.6218377E-2,-2.2459645E-2,8.384937E-2,3.9557047E-2,-3.2084752E-2,2.7637074E-2,2.5424898E-2,-3.256581E-2,-6.648525E-2,1.7434193E-2,2.7240157E-2,-2.9612312E-2,9.550066E-2,2.989305E-2,1.3220859E-2,1.19000874E-1,2.3927836E-2,5.6084987E-2,1.2170453E-1,-9.878795E-3,-3.0612445E-2,3.6712606E-2,5.3300183E-2,1.0519049E-1,2.2372967E-2,-3.1159092E-2],"categories":[],"categories_nodes":[],"categories_segments":[],"categories_sizes":[],"default_left":[0,0,0,0,0,0,0,0,0,0,0,0,0,0,0,0,0,0,0,0,0,0,0,0,0,0,0,0,0,0,0,0,0,0,0,0,0,0,0,0,0,0,0,0,0,0,0,0,0,0,0,0,0,0,0,0,0,0,0,0,0,0,0,0,0,0,0,0,0,0,0,0,0,0,0,0,0,0,0,0,0,0,0,0,0,0,0,0,0,0,0,0,0,0,0,0,0,0,0,0,0,0,0,0,0,0,0,0,0,0,0],"id":1,"left_children":[1,3,5,7,9,11,13,15,17,19,21,23,25,27,29,31,33,35,37,39,41,43,45,47,-1,49,51,53,55,57,59,61,63,65,67,69,71,73,75,-1,-1,-1,77,79,81,83,85,87,89,91,93,95,97,-1,99,101,103,105,-1,107,109,-1,-1,-1,-1,-1,-1,-1,-1,-1,-1,-1,-1,-1,-1,-1,-1,-1,-1,-1,-1,-1,-1,-1,-1,-1,-1,-1,-1,-1,-1,-1,-1,-1,-1,-1,-1,-1,-1,-1,-1,-1,-1,-1,-1,-1,-1,-1,-1,-1,-1],"loss_changes":[1.04232475E2,3.0778738E1,1.3311729E1,2.2034378E1,5.4700356E0,6.7152696E0,4.8974E0,6.7369003E0,1.1873179E1,2.383978E0,2.4406548E0,3.2369146E0,3.5197532E0,3.3143997E0,2.62397E0,4.7736087E0,3.090454E0,3.5035956E0,7.9661045E0,1.3953513E0,1.8683491E0,1.7465439E0,2.7776291E0,1.404356E0,0E0,1.3473043E0,2.9049766E0,8.338356E-1,2.3233604E0,7.684078E-1,2.9184818E0,2.7303042E0,2.535479E0,1.2732973E0,2.1650028E0,1.001861E0,2.6710043E0,7.4241943E0,2.6787486E0,0E0,0E0,0E0,6.90485E-1,1.2910085E0,6.6662216E-1,1.2855611E0,1.0702691E0,1.3883343E0,5.52674E-1,4.439322E-1,8.808608E-1,9.0423954E-1,9.2027545E-1,0E0,8.013687E-1,2.8653097E-1,3.0917702E0,7.317853E-1,0E0,2.394743E0,4.4338578E-1,0E0,0E0,0E0,0E0,0E0,0E0,0E0,0E0,0E0,0E0,0E0,0E0,0E0,0E0,0E0,0E0,0E0,0E0,0E0,0E0,0E0,0E0,0E0,0E0,0E0,0E0,0E0,0E0,0E0,0E0,0E0,0E0,0E0,0E0,0E0,0E0,0E0,0E0,0E0,0E0,0E0,0E0,0E0,0E0,0E0,0E0,0E0,0E0,0E0,0E0],"parents":[2147483647,0,0,1,1,2,2,3,3,4,4,5,5,6,6,7,7,8,8,9,9,10,10,11,11,12,12,13,13,14,14,15,15,16,16,17,17,18,18,19,19,20,20,21,21,22,22,23,23,25,25,26,26,27,27,28,28,29,29,30,30,31,31,32,32,33,33,34,34,35,35,36,36,37,37,38,38,42,42,43,43,44,44,45,45,46,46,47,47,48,48,49,49,50,50,51,51,52,52,54,54,55,55,56,56,57,57,59,59,60,60],"right_children":[2,4,6,8,10,12,14,16,18,20,22,24,26,28,30,32,34,36,38,40,42,44,46,48,-1,50,52,54,56,58,60,62,64,66,68,70,72,74,76,-1,-1,-1,78,80,82,84,86,88,90,92,94,96,98,-1,100,102,104,106,-1,108,110,-1,-1,-1,-1,-1,-1,-1,-1,-1,-1,-1,-1,-1,-1,-1,-1,-1,-1,-1,-1,-1,-1,-1,-1,-1,-1,-1,-1,-1,-1,-1,-1,-1,-1,-1,-1,-1,-1,-1,-1,-1,-1,-1,-1,-1,-1,-1,-1,-1,-1],"split_conditions":[8.2323164E-1,7.104852E-1,-1.6611499E-1,-4.9090987E-1,-9.5690304E-1,6.804042E-2,-7.455592E-1,-3.1831476E-1,-4.021673E-1,-4.4875157E-1,-3.6575353E-1,4.442179E0,-6.574541E-1,-5.46472E-1,1.1048334E0,2.3442926E0,-1.2374209E0,-4.562439E-1,1.0500888E0,-3.499753E-1,-6.9723266E-1,-1.1479806E0,-8.1562483E-1,1.3814527E0,-7.884715E-2,-1.0481299E0,-1.045437E0,-1.1356078E0,2.1373732E0,1.2140547E0,1.8557713E0,-9.8798394E-1,3.0598962E-1,-1.3743807E-1,-4.6076217E-1,-1.1356078E0,-1.0492549E0,1.8880588E0,-3.822706E-1,2.2191174E-2,-6.568187E-2,-7.315465E-2,8.501471E-1,-6.873526E-2,-5.311775E-1,-6.8322235E-1,-1.7994551E-1,-2.6638383E-1,-1.4403082E0,-2.0490113E-1,1.4367272E0,-8.8131833E-1,-9.305309E-1,1.1476683E-2,-6.305879E-1,3.944844E-1,1.4454054E0,-1.8872263E0,-3.508694E-2,5.4204196E-1,2.803917E0,-5.7250977E-2,-6.149018E-3,1.6003044E-2,1.2205777E-1,-4.252256E-2,3.3369385E-2,-5.418796E-2,-3.1466052E-2,-2.8867437E-2,5.7827193E-2,4.5603212E-2,-3.0819977E-2,2.4129502E-2,1.08988486E-1,5.2267313E-2,-5.297419E-2,-3.2777812E-2,-1.6647811E-1,-4.6654154E-2,2.9626865E-2,-7.176494E-2,-5.0869383E-2,6.7372323E-4,-7.172638E-2,1.6218377E-2,-2.2459645E-2,8.384937E-2,3.9557047E-2,-3.2084752E-2,2.7637074E-2,2.5424898E-2,-3.256581E-2,-6.648525E-2,1.7434193E-2,2.7240157E-2,-2.9612312E-2,9.550066E-2,2.989305E-2,1.3220859E-2,1.19000874E-1,2.3927836E-2,5.6084987E-2,1.2170453E-1,-9.878795E-3,-3.0612445E-2,3.6712606E-2,5.3300183E-2,1.0519049E-1,2.2372967E-2,-3.1159092E-2],"split_indices":[10,1,9,10,6,1,7,6,9,7,10,3,5,1,10,0,2,4,6,4,9,10,0,2,0,6,0,5,10,3,10,0,9,4,8,5,1,3,3,0,0,0,1,0,6,6,4,8,1,3,1,4,0,0,3,5,6,1,0,9,0,0,0,0,0,0,0,0,0,0,0,0,0,0,0,0,0,0,0,0,0,0,0,0,0,0,0,0,0,0,0,0,0,0,0,0,0,0,0,0,0,0,0,0,0,0,0,0,0,0,0],"split_type":[0,0,0,0,0,0,0,0,0,0,0,0,0,0,0,0,0,0,0,0,0,0,0,0,0,0,0,0,0,0,0,0,0,0,0,0,0,0,0,0,0,0,0,0,0,0,0,0,0,0,0,0,0,0,0,0,0,0,0,0,0,0,0,0,0,0,0,0,0,0,0,0,0,0,0,0,0,0,0,0,0,0,0,0,0,0,0,0,0,0,0,0,0,0,0,0,0,0,0,0,0,0,0,0,0,0,0,0,0,0,0],"sum_hessian":[1.031E3,8.04E2,2.27E2,6.18E2,1.86E2,8.3E1,1.44E2,3.06E2,3.12E2,2.4E1,1.62E2,4.5E1,3.8E1,6.9E1,7.5E1,1.04E2,2.02E2,8.6E1,2.26E2,7E0,1.7E1,1.2E2,4.2E1,4.4E1,1E0,1.5E1,2.3E1,4.2E1,2.7E1,2.4E1,5.1E1,9.5E1,9E0,1E1,1.92E2,7E0,7.9E1,2.08E2,1.8E1,2E0,5E0,9E0,8E0,7E0,1.13E2,1.5E1,2.7E1,3.5E1,9E0,4E0,1.1E1,1.2E1,1.1E1,1E0,4.1E1,1.6E1,1.1E1,2.3E1,1E0,4.3E1,8E0,1.1E1,8.4E1,6E0,3E0,2E0,8E0,7E1,1.22E2,1E0,6E0,4E0,7.5E1,1.98E2,1E1,2E0,1.6E1,1E0,7E0,3E0,4E0,3E1,8.3E1,3E0,1.2E1,1.2E1,1.5E1,1.9E1,1.6E1,1E0,8E0,3E0,1E0,1E1,1E0,3E0,9E0,3E0,8E0,1E0,4E1,1.1E1,5E0,9E0,2E0,1E0,2.2E1,2.2E1,2.1E1,7E0,1E0],"tree_param":{"num_deleted":"0","num_feature":"11","num_nodes":"111","size_leaf_vector":"1"}},{"base_weights":[5.309851E-3,-2.1582763E-1,3.685529E-1,3.377715E-1,-2.62377E-1,5.338574E-2,5.5562603E-1,-9.2665985E-2,6.792819E-1,-4.9225447E-1,-1.9043638E-1,-1.3988973E-1,3.490432E-1,3.7838063E-1,7.945894E-1,-3.0239785E-1,5.51974E-1,9.5658384E-2,8.0199754E-1,6.094954E-2,-5.045656E-1,-2.9338813E-1,-1.3599953E-2,5.572203E-2,-4.2942157E-1,5.255535E-1,1.3022377E-2,6.107868E-1,1.742613E-1,8.328931E-1,-1.2274132E-1,8.975935E-2,-4.2085415E-1,2.4338126E-2,7.7943966E-2,-3.2938935E-2,2.465458E-2,2.4891635E-2,9.825605E-1,-6.822765E-1,-4.3341282E-1,-2.130703E-1,-4.1922945E-1,7.683451E-2,-3.83147E-1,1.4627528E-1,-4.8324353E-1,1.3528235E-1,-5.248668E-1,4.038758E-1,8.727511E-1,1.7714188E-1,-7.28771E-2,1.0040396E0,2.9459944E-1,2.7386668E-1,-1.4421125E-1,8.574053E-1,3.100523E-1,1.9011308E-2,-3.9468195E-2,-2.7902842E-2,2.517134E-2,-5.310147E-2,-1.1636229E-2,1.304162E-1,5.517857E-2,-7.257962E-2,-2.4988709E-2,-3.0747194E-2,-5.2744564E-2,-9.302031E-3,-3.6621224E-2,-2.4407914E-2,-5.197669E-2,1.391114E-2,-3.1070394E-2,-1.3017914E-1,-2.8188635E-2,2.5428915E-2,-2.7880503E-2,1.9881606E-2,-6.0908288E-2,-3.211844E-2,2.9081259E-2,-7.108646E-2,-6.318502E-3,5.3875115E-2,1.5666688E-2,9.475381E-2,1.3722777E-2,4.1616876E-2,-3.7027337E-2,5.373628E-2,1.1562325E-1,-2.1111134E-2,3.9601743E-2,1.4943451E-2,4.9191374E-2,-3.4898948E-2,7.1095444E-2,1.0160967E-1,7.631906E-2,1.3220251E-2,4.4383463E-2],"categories":[],"categories_nodes":[],"categories_segments":[],"categories_sizes":[],"default_left":[0,0,0,0,0,0,0,0,0,0,0,0,0,0,0,0,0,0,0,0,0,0,0,0,0,0,0,0,0,0,0,0,0,0,0,0,0,0,0,0,0,0,0,0,0,0,0,0,0,0,0,0,0,0,0,0,0,0,0,0,0,0,0,0,0,0,0,0,0,0,0,0,0,0,0,0,0,0,0,0,0,0,0,0,0,0,0,0,0,0,0,0,0,0,0,0,0,0,0,0,0,0,0,0,0],"id":2,"left_children":[1,3,5,7,9,11,13,15,17,19,21,23,25,27,29,31,33,35,37,-1,39,41,43,45,47,49,51,53,55,57,59,61,63,-1,-1,-1,-1,-1,65,67,69,71,73,75,77,79,81,83,85,87,89,91,-1,93,95,97,99,101,103,-1,-1,-1,-1,-1,-1,-1,-1,-1,-1,-1,-1,-1,-1,-1,-1,-1,-1,-1,-1,-1,-1,-1,-1,-1,-1,-1,-1,-1,-1,-1,-1,-1,-1,-1,-1,-1,-1,-1,-1,-1,-1,-1,-1,-1,-1],"loss_changes":[8.257501E1,1.655546E1,2.2905518E1,7.4128895E0,9.663395E0,8.391754E0,1.0033989E1,3.2765512E0,1.9286337E0,2.206459E0,8.206743E0,5.0645175E0,3.4332023E0,6.629841E0,3.7213593E0,8.739383E-1,2.3146439E-1,4.660157E-1,2.0523434E0,0E0,1.4618988E0,2.791254E0,5.6105433E0,2.706161E0,2.011344E0,1.2528734E0,2.6856937E0,7.910755E0,2.4820561E0,1.002945E0,5.0042325E-1,3.6886853E-1,4.0781164E-1,0E0,0E0,0E0,0E0,0E0,1.6355247E0,5.336971E-1,1.0457668E0,3.2016401E0,1.8101444E0,3.3014054E0,2.702786E0,2.2288823E0,8.077351E-1,5.1937073E-1,2.6171093E0,9.158673E-1,3.6503935E-1,2.5093415E0,0E0,1.438406E0,2.0325541E0,1.5272832E0,3.5753822E0,6.299286E-1,8.40829E-2,0E0,0E0,0E0,0E0,0E0,0E0,0E0,0E0,0E0,0E0,0E0,0E0,0E0,0E0,0E0,0E0,0E0,0E0,0E0,0E0,0E0,0E0,0E0,0E0,0E0,0E0,0E0,0E0,0E0,0E0,0E0,0E0,0E0,0E0,0E0,0E0,0E0,0E0,0E0,0E0,0E0,0E0,0E0,0E0,0E0,0E0],"parents":[2147483647,0,0,1,1,2,2,3,3,4,4,5,5,6,6,7,7,8,8,9,9,10,10,11,11,12,12,13,13,14,14,15,15,16,16,17,17,18,18,20,20,21,21,22,22,23,23,24,24,25,25,26,26,27,27,28,28,29,29,30,30,31,31,32,32,38,38,39,39,40,40,41,41,42,42,43,43,44,44,45,45,46,46,47,47,48,48,49,49,50,50,51,51,53,53,54,54,55,55,56,56,57,57,58,58],"right_children":[2,4,6,8,10,12,14,16,18,20,22,24,26,28,30,32,34,36,38,-1,40,42,44,46,48,50,52,54,56,58,60,62,64,-1,-1,-1,-1,-1,66,68,70,72,74,76,78,80,82,84,86,88,90,92,-1,94,96,98,100,102,104,-1,-1,-1,-1,-1,-1,-1,-1,-1,-1,-1,-1,-1,-1,-1,-1,-1,-1,-1,-1,-1,-1,-1,-1,-1,-1,-1,-1,-1,-1,-1,-1,-1,-1,-1,-1,-1,-1,-1,-1,-1,-1,-1,-1,-1,-1],"split_conditions":[1.1922725E-1,-1.0492549E0,-1.6611499E-1,-5.847771E-1,-6.9723266E-1,1.1987007E0,1.1048334E0,1.482497E0,-2.2512805E-1,-8.789052E-1,-4.9090987E-1,3.7529662E-1,2.0770234E-1,-7.419987E-1,2.6890109E0,-6.305879E-1,2.9762762E0,-5.596401E-1,-1.5520378E0,6.094954E-2,-6.528134E-1,5.9395427E-1,8.222148E-1,9.64679E-1,3.5389537E-1,9.6573746E-1,-2.7531648E-2,-3.311766E-1,9.635287E-2,5.0017357E-1,1.3204764E0,-1.5050614E0,7.7809423E-1,2.4338126E-2,7.7943966E-2,-3.2938935E-2,2.465458E-2,2.4891635E-2,-5.0076854E-1,-7.5624573E-1,3.7529662E-1,3.1943187E-1,2.031653E-1,7.459991E-1,-9.87312E-1,-2.7914718E-1,-1.1089479E0,-9.305309E-1,8.2323164E-1,-1.3815757E0,1.0228726E0,-1.1860704E0,-7.28771E-2,-1.3844435E0,2.6002812E-1,1.760083E-3,1.2274013E0,-7.744493E-1,1.9463078E0,1.9011308E-2,-3.9468195E-2,-2.7902842E-2,2.517134E-2,-5.310147E-2,-1.1636229E-2,1.304162E-1,5.517857E-2,-7.257962E-2,-2.4988709E-2,-3.0747194E-2,-5.2744564E-2,-9.302031E-3,-3.6621224E-2,-2.4407914E-2,-5.197669E-2,1.391114E-2,-3.1070394E-2,-1.3017914E-1,-2.8188635E-2,2.5428915E-2,-2.7880503E-2,1.9881606E-2,-6.0908288E-2,-3.211844E-2,2.9081259E-2,-7.108646E-2,-6.318502E-3,5.3875115E-2,1.5666688E-2,9.475381E-2,1.3722777E-2,4.1616876E-2,-3.7027337E-2,5.373628E-2,1.1562325E-1,-2.1111134E-2,3.9601743E-2,1.4943451E-2,4.9191374E-2,-3.4898948E-2,7.1095444E-2,1.0160967E-1,7.631906E-2,1.3220251E-2,4.4383463E-2],"split_indices":[10,1,9,10,9,10,10,0,9,3,10,1,1,1,0,3,0,3,1,0,6,6,1,8,10,3,3,8,4,4,3,0,9,0,0,0,0,0,6,9,1,1,7,6,6,7,6,0,10,7,0,2,0,1,10,7,2,6,2,0,0,0,0,0,0,0,0,0,0,0,0,0,0,0,0,0,0,0,0,0,0,0,0,0,0,0,0,0,0,0,0,0,0,0,0,0,0,0,0,0,0,0,0,0,0],"split_type":[0,0,0,0,0,0,0,0,0,0,0,0,0,0,0,0,0,0,0,0,0,0,0,0,0,0,0,0,0,0,0,0,0,0,0,0,0,0,0,0,0,0,0,0,0,0,0,0,0,0,0,0,0,0,0,0,0,0,0,0,0,0,0,0,0,0,0,0,0,0,0,0,0,0,0,0,0,0,0,0,0,0,0,0,0,0,0,0,0,0,0,0,0,0,0,0,0,0,0,0,0,0,0,0,0],"sum_hessian":[1.026E3,6.38E2,3.88E2,4.9E1,5.89E2,1.45E2,2.43E2,2.2E1,2.7E1,1.39E2,4.5E2,8.8E1,5.7E1,1.41E2,1.02E2,1.7E1,5E0,5E0,2.2E1,1E0,1.38E2,2.84E2,1.66E2,5.3E1,3.5E1,3.7E1,2E1,6.5E1,7.6E1,9.8E1,4E0,4E0,1.3E1,3E0,2E0,1E0,4E0,6E0,1.6E1,3.7E1,1.01E2,1.75E2,1.09E2,1.34E2,3.2E1,4.6E1,7E0,5E0,3E1,2.9E1,8E0,1.7E1,3E0,2.8E1,3.7E1,5.8E1,1.8E1,9.3E1,5E0,2E0,2E0,1E0,3E0,9E0,4E0,8E0,8E0,3.3E1,4E0,4.5E1,5.6E1,9.9E1,7.6E1,4.1E1,6.8E1,1.16E2,1.8E1,2E0,3E1,3.7E1,9E0,1E0,6E0,1E0,4E0,2.1E1,9E0,1.8E1,1.1E1,7E0,1E0,1.2E1,5E0,8E0,2E1,6E0,3.1E1,3.8E1,2E1,1.5E1,3E0,3.1E1,6.2E1,3E0,2E0],"tree_param":{"num_deleted":"0","num_feature":"11","num_nodes":"105","size_leaf_vector":"1"}},{"base_weights":[-1.0235766E-2,-1.9438022E-1,3.5175085E-1,-3.0588344E-1,6.2998505E-3,3.1939417E-2,5.3913146E-1,-2.5691757E-1,-6.672451E-1,2.0891874E-1,-2.9666877E-1,3.5648653E-1,-1.8209083E-1,7.146499E-1,3.8691068E-1,-2.1842365E-1,-5.143076E-1,-1.10694E0,-4.410768E-1,1.3049492E-1,6.769819E-1,3.5367823E-1,-3.2777473E-1,8.498148E-2,5.6888777E-1,-5.438023E-1,-2.3819992E-2,8.437556E-1,2.6527926E-1,1.4984857E-1,6.8376565E-1,-2.7215254E-1,1.8374115E-2,-3.6812273E-1,-9.465496E-1,-1.2229346E0,-4.2422414E-1,2.043283E-2,-4.836514E-1,1.9749749E-1,-3.1860986E-1,7.680829E-1,-1.2565152E-1,1.5019107E-2,5.8381345E-2,-9.2025185E-1,-2.9845208E-1,-7.786112E-2,1.9888133E-1,1.6065693E-2,6.277784E-1,-2.3492372E-1,-7.870901E-1,-2.967328E-1,1.7538387E-1,8.9196706E-1,1.1655697E-2,-1.2503016E-1,6.0515875E-1,1.7330372E-1,-7.1082376E-2,1.0641658E0,5.464738E-1,-3.773699E-2,-1.7162135E-2,-4.6291713E-2,7.61442E-3,1.8186634E-2,-4.0276717E-2,-1.1666455E-1,-4.0508635E-2,-1.5352935E-1,-7.967538E-2,1.5650272E-2,-6.699674E-2,2.0478709E-2,-2.6631499E-2,-2.0088393E-2,-5.5205476E-2,3.5344522E-2,-1.0346739E-2,-5.03367E-2,2.2548065E-2,8.2501985E-2,1.894129E-2,1.5333414E-2,-3.4181144E-2,-2.7541447E-2,-1.0433928E-1,-3.4936137E-2,3.7793561E-3,8.485516E-2,-4.211297E-3,1.9589568E-2,7.007134E-2,-3.9056048E-2,-1.4193535E-3,-4.029047E-2,-9.13072E-2,2.785629E-2,-3.921828E-2,3.0827207E-2,-2.784257E-2,3.0399648E-2,9.216466E-2,6.52007E-3,-5.2179206E-2,1.0794445E-1,2.7442683E-2,2.1226805E-2,-3.523074E-2,3.4548522E-3,1.1470882E-1,1.7805342E-2,6.927838E-2],"categories":[],"categories_nodes":[],"categories_segments":[],"categories_sizes":[],"default_left":[0,0,0,0,0,0,0,0,0,0,0,0,0,0,0,0,0,0,0,0,0,0,0,0,0,0,0,0,0,0,0,0,0,0,0,0,0,0,0,0,0,0,0,0,0,0,0,0,0,0,0,0,0,0,0,0,0,0,0,0,0,0,0,0,0,0,0,0,0,0,0,0,0,0,0,0,0,0,0,0,0,0,0,0,0,0,0,0,0,0,0,0,0,0,0,0,0,0,0,0,0,0,0,0,0,0,0,0,0,0,0,0,0,0,0],"id":3,"left_children":[1,3,5,7,9,11,13,15,17,19,21,23,25,27,29,31,33,35,37,39,41,43,45,47,49,51,53,55,57,59,61,63,65,67,69,71,73,75,77,79,81,83,85,-1,-1,87,89,-1,91,-1,93,95,97,99,101,103,-1,105,107,109,-1,111,113,-1,-1,-1,-1,-1,-1,-1,-1,-1,-1,-1,-1,-1,-1,-1,-1,-1,-1,-1,-1,-1,-1,-1,-1,-1,-1,-1,-1,-1,-1,-1,-1,-1,-1,-1,-1,-1,-1,-1,-1,-1,-1,-1,-1,-1,-1,-1,-1,-1,-1,-1,-1],"loss_changes":[6.899257E1,1.5352184E1,2.0897114E1,7.6318016E0,1.5163221E1,9.095091E0,5.6013565E0,3.7517643E0,4.6828957E0,5.344337E0,2.1186638E0,2.9503908E0,4.509669E0,5.6358185E0,8.34231E0,4.343504E0,2.810916E0,8.274555E-1,7.172313E-1,3.9145944E0,1.6320457E0,1.4646429E-1,1.375783E0,2.515565E0,5.963316E-1,1.6186075E0,3.096498E0,2.6306572E0,3.2594595E0,1.4959189E0,2.18643E0,2.8758125E0,1.8147193E0,8.1635857E-1,9.5749474E-1,6.404476E-1,6.756904E-1,2.659906E-1,5.273957E-1,5.293267E0,1.8224176E0,4.697361E-1,2.3332791E-1,0E0,0E0,3.0258179E-2,1.5880623E0,0E0,3.4802048E0,0E0,6.5021706E-1,4.067014E-1,2.6132393E-1,1.4271348E0,2.0759265E0,9.937248E-1,0E0,9.3973756E-1,1.74297E0,1.4469488E0,0E0,1.0702877E0,2.0866957E0,0E0,0E0,0E0,0E0,0E0,0E0,0E0,0E0,0E0,0E0,0E0,0E0,0E0,0E0,0E0,0E0,0E0,0E0,0E0,0E0,0E0,0E0,0E0,0E0,0E0,0E0,0E0,0E0,0E0,0E0,0E0,0E0,0E0,0E0,0E0,0E0,0E0,0E0,0E0,0E0,0E0,0E0,0E0,0E0,0E0,0E0,0E0,0E0,0E0,0E0,0E0,0E0],"parents":[2147483647,0,0,1,1,2,2,3,3,4,4,5,5,6,6,7,7,8,8,9,9,10,10,11,11,12,12,13,13,14,14,15,15,16,16,17,17,18,18,19,19,20,20,21,21,22,22,23,23,24,24,25,25,26,26,27,27,28,28,29,29,30,30,31,31,32,32,33,33,34,34,35,35,36,36,37,37,38,38,39,39,40,40,41,41,42,42,45,45,46,46,48,48,50,50,51,51,52,52,53,53,54,54,55,55,57,57,58,58,59,59,61,61,62,62],"right_children":[2,4,6,8,10,12,14,16,18,20,22,24,26,28,30,32,34,36,38,40,42,44,46,48,50,52,54,56,58,60,62,64,66,68,70,72,74,76,78,80,82,84,86,-1,-1,88,90,-1,92,-1,94,96,98,100,102,104,-1,106,108,110,-1,112,114,-1,-1,-1,-1,-1,-1,-1,-1,-1,-1,-1,-1,-1,-1,-1,-1,-1,-1,-1,-1,-1,-1,-1,-1,-1,-1,-1,-1,-1,-1,-1,-1,-1,-1,-1,-1,-1,-1,-1,-1,-1,-1,-1,-1,-1,-1,-1,-1,-1,-1,-1,-1],"split_conditions":[3.5389537E-1,-4.808883E-2,-1.6611499E-1,1.2412004E0,1.3781975E-1,-1.5541865E-1,-7.140663E-1,9.192985E-1,-1.0833695E0,1.8846682E0,-1.3006463E0,1.1048334E0,-8.487156E-1,1.0741079E-1,1.1048334E0,-2.0930812E-1,9.5972806E-2,1.0759209E-1,-4.562439E-1,1.1760508E0,1.1911858E0,3.908891E-1,-6.305879E-1,-6.0502E-1,-1.496173E0,-6.5015674E-1,-5.792065E-1,5.0017357E-1,-1.8364134E-1,2.1350367E0,-1.5193793E0,-5.792065E-1,-9.33285E-1,-9.9229807E-1,-4.661925E-1,-2.7584893E-1,1.4367272E0,-1.1282211E-2,-9.1431165E-1,2.0770234E-1,1.2526847E0,-6.551405E-1,2.2868395E0,1.5019107E-2,5.8381345E-2,-7.699311E-1,1.0228726E0,-7.786112E-2,-4.1373646E-1,1.6065693E-2,-1.1356078E0,1.0109661E0,-8.742719E-1,3.167512E-1,-5.6986487E-1,-1.719632E0,1.1655697E-2,1.7333151E0,-1.3006463E0,7.339645E-1,-7.1082376E-2,-6.582015E-1,-2.0490113E-1,-3.773699E-2,-1.7162135E-2,-4.6291713E-2,7.61442E-3,1.8186634E-2,-4.0276717E-2,-1.1666455E-1,-4.0508635E-2,-1.5352935E-1,-7.967538E-2,1.5650272E-2,-6.699674E-2,2.0478709E-2,-2.6631499E-2,-2.0088393E-2,-5.5205476E-2,3.5344522E-2,-1.0346739E-2,-5.03367E-2,2.2548065E-2,8.2501985E-2,1.894129E-2,1.5333414E-2,-3.4181144E-2,-2.7541447E-2,-1.0433928E-1,-3.4936137E-2,3.7793561E-3,8.485516E-2,-4.211297E-3,1.9589568E-2,7.007134E-2,-3.9056048E-2,-1.4193535E-3,-4.029047E-2,-9.13072E-2,2.785629E-2,-3.921828E-2,3.0827207E-2,-2.784257E-2,3.0399648E-2,9.216466E-2,6.52007E-3,-5.2179206E-2,1.0794445E-1,2.7442683E-2,2.1226805E-2,-3.523074E-2,3.4548522E-3,1.1470882E-1,1.7805342E-2,6.927838E-2],"split_indices":[10,9,9,1,6,1,1,2,2,0,1,10,5,6,10,10,1,5,4,2,9,0,3,4,1,7,9,4,0,1,7,9,9,9,5,3,1,0,8,1,0,8,0,0,0,1,0,0,4,0,5,10,9,8,2,1,0,5,1,4,0,1,3,0,0,0,0,0,0,0,0,0,0,0,0,0,0,0,0,0,0,0,0,0,0,0,0,0,0,0,0,0,0,0,0,0,0,0,0,0,0,0,0,0,0,0,0,0,0,0,0,0,0,0,0],"split_type":[0,0,0,0,0,0,0,0,0,0,0,0,0,0,0,0,0,0,0,0,0,0,0,0,0,0,0,0,0,0,0,0,0,0,0,0,0,0,0,0,0,0,0,0,0,0,0,0,0,0,0,0,0,0,0,0,0,0,0,0,0,0,0,0,0,0,0,0,0,0,0,0,0,0,0,0,0,0,0,0,0,0,0,0,0,0,0,0,0,0,0,0,0,0,0,0,0,0,0,0,0,0,0,0,0,0,0,0,0,0,0,0,0,0,0],"sum_hessian":[1.033E3,6.85E2,3.48E2,4.4E2,2.45E2,1.29E2,2.19E2,3.89E2,5.1E1,1.47E2,9.8E1,5.1E1,7.8E1,1E2,1.19E2,3.4E2,4.9E1,1.6E1,3.5E1,1.27E2,2E1,4E0,9.4E1,2.3E1,2.8E1,2.3E1,5.5E1,7.7E1,2.3E1,6.7E1,5.2E1,2.77E2,6.3E1,3.8E1,1.1E1,1.3E1,3E0,3E0,3.2E1,1.11E2,1.6E1,1.8E1,2E0,3E0,1E0,3E0,9.1E1,2E0,2.1E1,4E0,2.4E1,1.1E1,1.2E1,2.3E1,3.2E1,7.2E1,5E0,1.1E1,1.2E1,6.6E1,1E0,1.2E1,4E1,1.34E2,1.43E2,6E0,5.7E1,2E0,3.6E1,7E0,4E0,6E0,7E0,1E0,2E0,2E0,1E0,7E0,2.5E1,7.3E1,3.8E1,1.2E1,4E0,1.6E1,2E0,1E0,1E0,1E0,2E0,7.9E1,1.2E1,5E0,1.6E1,4E0,2E1,6E0,5E0,4E0,8E0,3E0,2E1,2.5E1,7E0,4E0,6.8E1,8E0,3E0,4E0,8E0,6.2E1,4E0,1E0,1.1E1,1.2E1,2.8E1],"tree_param":{"num_deleted":"0","num_feature":"11","num_nodes":"115","size_leaf_vector":"1"}},{"base_weights":[-5.440277E-3,-2.0090142E-1,3.103186E-1,-3.329534E-1,-7.5951256E-2,-7.0740946E-2,4.3327248E-1,-2.5123784E-1,-4.3735602E-1,1.9648108E-1,-1.6869171E-1,2.98965E-1,-2.352251E-1,2.974151E-1,6.1313343E-1,-4.2258927E-1,-8.661438E-2,-7.9428095E-1,-4.0815857E-1,5.816127E-3,3.9165452E-1,-1.1553905E-1,-3.9381206E-1,3.926213E-1,-6.748155E-2,-1.6164716E-1,-1.1152622E0,5.055445E-1,1.4666907E-1,9.219895E-1,4.8896936E-1,-3.8509104E-1,-1.3191773E-1,3.062385E-1,-1.6301146E-1,-1.0772214E-1,-3.5248432E-2,-3.5124862E-1,-5.3909576E-1,7.883598E-2,-4.5761228E-2,4.9971825E-1,-2.0461471E-1,-6.399045E-2,-4.866001E-1,9.750283E-2,-4.3035737E-1,6.878819E-1,1.9037202E-1,-3.4748814E-1,-3.0461312E-3,-1.2982148E-1,-1.9172573E-2,7.998987E-1,2.7065367E-1,1.8148595E-1,-5.511486E-1,9.5096153E-1,-3.1529428E-3,6.148711E-1,2.2139269E-1,5.978892E-2,-4.0436994E-2,4.9600434E-2,-3.396187E-2,-2.2571651E-2,3.981961E-2,-4.000253E-2,-1.8230142E-2,-4.5121893E-2,-1.1293059E-1,-2.8551418E-2,1.7031873E-2,7.5035477E-3,6.438378E-2,1.3204082E-2,-3.6568508E-2,-2.069718E-2,5.046399E-3,-6.1086863E-2,2.8745973E-2,2.7821971E-2,-2.223239E-2,2.0782446E-2,-4.5050036E-2,9.522257E-2,1.8022414E-2,-9.411514E-3,2.535438E-2,1.8081665E-3,-6.456437E-2,-1.701344E-2,2.5973871E-2,9.177404E-2,1.5593498E-2,8.792798E-3,6.57453E-2,2.604461E-2,-4.111622E-3,-7.986703E-2,2.1946907E-2,9.796166E-2,2.6726723E-4,4.1238897E-2,7.496529E-2,6.4250017E-3,5.012658E-2],"categories":[],"categories_nodes":[],"categories_segments":[],"categories_sizes":[],"default_left":[0,0,0,0,0,0,0,0,0,0,0,0,0,0,0,0,0,0,0,0,0,0,0,0,0,0,0,0,0,0,0,0,0,0,0,0,0,0,0,0,0,0,0,0,0,0,0,0,0,0,0,0,0,0,0,0,0,0,0,0,0,0,0,0,0,0,0,0,0,0,0,0,0,0,0,0,0,0,0,0,0,0,0,0,0,0,0,0,0,0,0,0,0,0,0,0,0,0,0,0,0,0,0,0,0,0,0],"id":4,"left_children":[1,3,5,7,9,11,13,15,17,19,21,23,25,27,29,31,33,35,37,39,41,43,45,47,-1,49,51,53,55,57,59,61,-1,63,65,-1,-1,67,69,71,-1,73,75,77,79,81,83,85,87,89,91,-1,-1,93,95,97,99,101,-1,103,105,-1,-1,-1,-1,-1,-1,-1,-1,-1,-1,-1,-1,-1,-1,-1,-1,-1,-1,-1,-1,-1,-1,-1,-1,-1,-1,-1,-1,-1,-1,-1,-1,-1,-1,-1,-1,-1,-1,-1,-1,-1,-1,-1,-1,-1,-1],"loss_changes":[6.2953587E1,1.0369656E1,1.8303223E1,2.5007057E0,8.2444315E0,5.908158E0,7.0260963E0,4.8716717E0,1.061842E0,3.0863795E0,2.862175E0,3.0009673E0,4.158059E0,5.259548E0,4.38113E0,2.3497353E0,2.751074E0,7.4531555E-1,7.4209595E-1,1.4911736E0,2.7440863E0,3.7561424E0,8.679023E-1,1.5411015E0,0E0,1.8558393E0,5.959158E-1,4.692522E0,2.5296082E0,9.9687004E-1,2.9632015E0,1.814683E0,0E0,2.006877E0,2.7643616E0,0E0,0E0,6.687355E-1,1.357605E0,1.315235E0,0E0,2.0938683E0,4.2786193E-1,2.8742933E0,2.4841905E0,2.9304725E-1,6.463852E-1,1.304544E0,3.473503E-1,3.172578E0,1.5809798E0,0E0,0E0,2.2093525E0,2.8399966E0,1.6980715E0,1.1290064E0,9.212723E-1,0E0,1.3828869E0,1.3311739E0,0E0,0E0,0E0,0E0,0E0,0E0,0E0,0E0,0E0,0E0,0E0,0E0,0E0,0E0,0E0,0E0,0E0,0E0,0E0,0E0,0E0,0E0,0E0,0E0,0E0,0E0,0E0,0E0,0E0,0E0,0E0,0E0,0E0,0E0,0E0,0E0,0E0,0E0,0E0,0E0,0E0,0E0,0E0,0E0,0E0,0E0],"parents":[2147483647,0,0,1,1,2,2,3,3,4,4,5,5,6,6,7,7,8,8,9,9,10,10,11,11,12,12,13,13,14,14,15,15,16,16,17,17,18,18,19,19,20,20,21,21,22,22,23,23,25,25,26,26,27,27,28,28,29,29,30,30,31,31,33,33,34,34,37,37,38,38,39,39,41,41,42,42,43,43,44,44,45,45,46,46,47,47,48,48,49,49,50,50,53,53,54,54,55,55,56,56,57,57,59,59,60,60],"right_children":[2,4,6,8,10,12,14,16,18,20,22,24,26,28,30,32,34,36,38,40,42,44,46,48,-1,50,52,54,56,58,60,62,-1,64,66,-1,-1,68,70,72,-1,74,76,78,80,82,84,86,88,90,92,-1,-1,94,96,98,100,102,-1,104,106,-1,-1,-1,-1,-1,-1,-1,-1,-1,-1,-1,-1,-1,-1,-1,-1,-1,-1,-1,-1,-1,-1,-1,-1,-1,-1,-1,-1,-1,-1,-1,-1,-1,-1,-1,-1,-1,-1,-1,-1,-1,-1,-1,-1,-1,-1],"split_conditions":[1.1922725E-1,-3.4315422E-1,-4.021673E-1,8.1262134E-2,-6.582015E-1,-7.419987E-1,1.1048334E0,-6.9723266E-1,-9.5690304E-1,-5.847771E-1,9.436574E-1,1.817111E0,2.6378195E0,-7.419987E-1,-8.048582E-1,6.702033E-1,-1.2374209E0,-1.3395333E-1,-5.2019346E-1,1.1109067E0,1.353295E0,1.4830213E0,-2.4045455E0,-1.0785389E0,-6.748155E-2,7.293644E-1,-4.7090656E-1,-2.6638383E-1,2.1350367E0,2.8883111E0,-6.4485663E-1,-8.789052E-1,-1.3191773E-1,6.825528E-1,3.886104E-2,-1.0772214E-1,-3.5248432E-2,8.762827E-1,1.7697622E0,-8.9608514E-1,-4.5761228E-2,1.289504E-1,-9.375254E-1,2.4026625E-1,1.1321727E0,9.7691126E-2,-1.2374209E0,7.652471E-1,-6.0502E-1,4.4776264E-1,-5.919955E-1,-1.2982148E-1,-1.9172573E-2,1.1337977E-2,8.961204E-1,1.6011404E-1,-1.0771073E-1,1.8846682E0,-3.1529428E-3,4.8302886E-1,7.1908116E-1,5.978892E-2,-4.0436994E-2,4.9600434E-2,-3.396187E-2,-2.2571651E-2,3.981961E-2,-4.000253E-2,-1.8230142E-2,-4.5121893E-2,-1.1293059E-1,-2.8551418E-2,1.7031873E-2,7.5035477E-3,6.438378E-2,1.3204082E-2,-3.6568508E-2,-2.069718E-2,5.046399E-3,-6.1086863E-2,2.8745973E-2,2.7821971E-2,-2.223239E-2,2.0782446E-2,-4.5050036E-2,9.522257E-2,1.8022414E-2,-9.411514E-3,2.535438E-2,1.8081665E-3,-6.456437E-2,-1.701344E-2,2.5973871E-2,9.177404E-2,1.5593498E-2,8.792798E-3,6.57453E-2,2.604461E-2,-4.111622E-3,-7.986703E-2,2.1946907E-2,9.796166E-2,2.6726723E-4,4.1238897E-2,7.496529E-2,6.4250017E-3,5.012658E-2],"split_indices":[10,9,9,7,1,1,10,9,6,10,6,3,1,1,6,4,2,3,9,6,7,8,8,6,0,10,0,8,1,10,7,3,0,1,7,0,0,7,0,6,0,9,1,7,9,2,2,2,4,10,6,0,0,4,9,4,2,0,0,9,9,0,0,0,0,0,0,0,0,0,0,0,0,0,0,0,0,0,0,0,0,0,0,0,0,0,0,0,0,0,0,0,0,0,0,0,0,0,0,0,0,0,0,0,0,0,0],"split_type":[0,0,0,0,0,0,0,0,0,0,0,0,0,0,0,0,0,0,0,0,0,0,0,0,0,0,0,0,0,0,0,0,0,0,0,0,0,0,0,0,0,0,0,0,0,0,0,0,0,0,0,0,0,0,0,0,0,0,0,0,0,0,0,0,0,0,0,0,0,0,0,0,0,0,0,0,0,0,0,0,0,0,0,0,0,0,0,0,0,0,0,0,0,0,0,0,0,0,0,0,0,0,0,0,0,0,0],"sum_hessian":[1.018E3,6.29E2,3.89E2,3.05E2,3.24E2,9.5E1,2.94E2,1.73E2,1.32E2,8.2E1,2.42E2,2.9E1,6.6E1,1.69E2,1.25E2,8.4E1,8.9E1,8E0,1.24E2,4.2E1,4E1,1.97E2,4.5E1,2.7E1,2E0,6.2E1,4E0,7E1,9.9E1,3.4E1,9.1E1,8.2E1,2E0,1.4E1,7.5E1,4E0,4E0,8.9E1,3.5E1,3.7E1,5E0,3.4E1,6E0,1.74E2,2.3E1,3E0,4.2E1,1E1,1.7E1,2.8E1,3.4E1,3E0,1E0,3E1,4E1,9.5E1,4E0,3.3E1,1E0,6.1E1,3E1,1E0,8.1E1,1.1E1,3E0,6.8E1,7E0,6.8E1,2.1E1,3.2E1,3E0,7E0,3E1,9E0,2.5E1,2E0,4E0,7.7E1,9.7E1,2E1,3E0,2E0,1E0,1E0,4.1E1,6E0,4E0,3E0,1.4E1,1.3E1,1.5E1,2.1E1,1.3E1,2.5E1,5E0,2.8E1,1.2E1,7E1,2.5E1,3E0,1E0,3.2E1,1E0,2.6E1,3.5E1,2E1,1E1],"tree_param":{"num_deleted":"0","num_feature":"11","num_nodes":"107","size_leaf_vector":"1"}},{"base_weights":[1.0898443E-2,-1.7909317E-1,2.6634997E-1,6.037456E-2,-2.3745508E-1,1.12682685E-1,4.476064E-1,-2.6142395E-1,2.0091568E-1,-2.0827489E-1,-4.880847E-1,1.4243217E-1,-1.0712857E0,4.8397794E-1,-4.949E-2,3.3161737E-2,-3.0606216E-1,2.7318305E-1,-6.1240386E-2,-1.03183106E-1,-2.8310788E-1,-6.9172597E-1,-2.6492006E-1,-4.788717E-2,2.8132555E-1,-1.2126871E-1,-1.821394E-2,5.046944E-1,-2.5270605E-1,-3.9459327E-1,9.178543E-2,5.9640765E-1,1.0304537E-1,-2.7466733E-2,-3.5921016E-1,-3.4705335E-1,-1.6756518E-1,-4.689726E-2,-8.939611E-1,1.3886738E-1,-3.997407E-1,6.926048E-2,-4.0210053E-1,2.495941E-2,3.6321998E-1,3.92495E-1,6.752705E-1,1.2024657E-2,-4.69244E-2,-6.1436888E-2,-2.1624623E-2,3.4924794E-2,-1.8862342E-2,6.8822674E-2,-8.065415E-3,1.4611055E-2,-3.2237634E-2,-1.3334888E-2,2.0657951E-2,-4.8445802E-2,7.7503966E-3,-3.6549978E-2,-3.380699E-3,-1.901449E-3,-2.9450629E-2,-1.1294683E-1,-5.6438893E-2,-2.7290855E-2,3.5815947E-2,3.2737094E-3,-4.5254614E-2,-3.245458E-2,1.8823085E-2,-4.6597313E-2,2.216228E-2,2.6607627E-2,-1.5712623E-2,5.5970885E-2,2.7480388E-2,5.241065E-2,2.3977345E-2,6.930547E-2,2.3358823E-3],"categories":[],"categories_nodes":[],"categories_segments":[],"categories_sizes":[],"default_left":[0,0,0,0,0,0,0,0,0,0,0,0,0,0,0,0,0,0,0,0,0,0,0,0,0,0,0,0,0,0,0,0,0,0,0,0,0,0,0,0,0,0,0,0,0,0,0,0,0,0,0,0,0,0,0,0,0,0,0,0,0,0,0,0,0,0,0,0,0,0,0,0,0,0,0,0,0,0,0,0,0,0,0],"id":5,"left_children":[1,3,5,7,9,11,13,15,17,19,21,23,25,27,-1,-1,29,31,-1,33,35,37,39,41,43,-1,-1,45,47,49,51,53,55,57,59,61,63,-1,65,67,69,71,73,75,77,79,81,-1,-1,-1,-1,-1,-1,-1,-1,-1,-1,-1,-1,-1,-1,-1,-1,-1,-1,-1,-1,-1,-1,-1,-1,-1,-1,-1,-1,-1,-1,-1,-1,-1,-1,-1,-1],"loss_changes":[5.018296E1,8.301985E0,1.2232819E1,5.343957E0,3.3868446E0,8.605972E0,7.164158E0,1.0544989E0,4.9869685E0,3.3445873E0,2.043579E0,6.2254844E0,5.3348064E-1,3.103527E0,0E0,0E0,1.233762E0,4.1179867E0,0E0,3.4795127E0,1.7889538E0,7.0697117E-1,1.4164828E0,4.1773753E0,2.8462486E0,0E0,0E0,3.3712845E0,5.4097533E-1,9.646425E-1,5.712397E-1,1.6718559E0,9.8146635E-1,3.4969318E0,2.2801447E0,9.121666E-1,1.7104046E0,0E0,2.939396E-1,7.298391E-1,4.487214E-1,3.6217875E0,1.0992408E0,1.5345407E0,1.6355848E0,2.2260227E0,8.417473E-1,0E0,0E0,0E0,0E0,0E0,0E0,0E0,0E0,0E0,0E0,0E0,0E0,0E0,0E0,0E0,0E0,0E0,0E0,0E0,0E0,0E0,0E0,0E0,0E0,0E0,0E0,0E0,0E0,0E0,0E0,0E0,0E0,0E0,0E0,0E0,0E0],"parents":[2147483647,0,0,1,1,2,2,3,3,4,4,5,5,6,6,7,7,8,8,9,9,10,10,11,11,12,12,13,13,16,16,17,17,19,19,20,20,21,21,22,22,23,23,24,24,27,27,28,28,29,29,30,30,31,31,32,32,33,33,34,34,35,35,36,36,38,38,39,39,40,40,41,41,42,42,43,43,44,44,45,45,46,46],"right_children":[2,4,6,8,10,12,14,16,18,20,22,24,26,28,-1,-1,30,32,-1,34,36,38,40,42,44,-1,-1,46,48,50,52,54,56,58,60,62,64,-1,66,68,70,72,74,76,78,80,82,-1,-1,-1,-1,-1,-1,-1,-1,-1,-1,-1,-1,-1,-1,-1,-1,-1,-1,-1,-1,-1,-1,-1,-1,-1,-1,-1,-1,-1,-1,-1,-1,-1,-1,-1,-1],"split_conditions":[7.229363E-2,-6.582015E-1,1.8796347E-1,-4.021673E-1,1.3808624E0,2.7495492E0,1.810313E0,-8.266172E-1,1.1109067E0,-2.2708786E-1,-2.0490113E-1,7.293644E-1,-4.1345352E-1,2.631558E0,-4.949E-2,3.3161737E-2,-3.6575353E-1,-2.4370669E-1,-6.1240386E-2,7.104852E-1,-5.847771E-1,-7.212705E-3,-2.2245297E-1,3.25917E-2,-9.8798394E-1,-1.2126871E-1,-1.821394E-2,1.1048334E0,9.6573746E-1,-3.1094798E-1,-2.617621E-1,-2.0490113E-1,1.6183019E0,-4.661925E-1,6.6957736E-1,1.3534358E0,-2.0159104E-1,-4.689726E-2,4.4633678E-1,1.6043215E0,1.5205244E0,-6.9723266E-1,1.0366852E0,-1.3901553E0,-9.09593E-1,-6.582015E-1,9.4650173E-1,1.2024657E-2,-4.69244E-2,-6.1436888E-2,-2.1624623E-2,3.4924794E-2,-1.8862342E-2,6.8822674E-2,-8.065415E-3,1.4611055E-2,-3.2237634E-2,-1.3334888E-2,2.0657951E-2,-4.8445802E-2,7.7503966E-3,-3.6549978E-2,-3.380699E-3,-1.901449E-3,-2.9450629E-2,-1.1294683E-1,-5.6438893E-2,-2.7290855E-2,3.5815947E-2,3.2737094E-3,-4.5254614E-2,-3.245458E-2,1.8823085E-2,-4.6597313E-2,2.216228E-2,2.6607627E-2,-1.5712623E-2,5.5970885E-2,2.7480388E-2,5.241065E-2,2.3977345E-2,6.930547E-2,2.3358823E-3],"split_indices":[10,1,9,9,1,1,6,2,6,6,3,10,0,0,0,0,10,4,0,1,10,8,4,4,0,0,0,10,3,7,2,3,7,5,7,8,8,0,8,1,1,9,3,0,1,1,4,0,0,0,0,0,0,0,0,0,0,0,0,0,0,0,0,0,0,0,0,0,0,0,0,0,0,0,0,0,0,0,0,0,0,0,0],"split_type":[0,0,0,0,0,0,0,0,0,0,0,0,0,0,0,0,0,0,0,0,0,0,0,0,0,0,0,0,0,0,0,0,0,0,0,0,0,0,0,0,0,0,0,0,0,0,0,0,0,0,0,0,0,0,0,0,0,0,0,0,0,0,0,0,0,0,0,0,0,0,0,0,0,0,0,0,0,0,0,0,0,0,0],"sum_hessian":[1.032E3,5.92E2,4.4E2,1.16E2,4.76E2,2.39E2,2.01E2,3.5E1,8.1E1,4.28E2,4.8E1,2.34E2,5E0,1.94E2,7E0,2E0,3.3E1,7.5E1,6E0,1.79E2,2.49E2,2.4E1,2.4E1,9.9E1,1.35E2,4E0,1E0,1.89E2,5E0,2.7E1,6E0,2.5E1,5E1,1.39E2,4E1,1.59E2,9E1,1.3E1,1.1E1,6E0,1.8E1,7.5E1,2.4E1,3.3E1,1.02E2,1.16E2,7.3E1,2E0,3E0,1.1E1,1.6E1,3E0,3E0,2.2E1,3E0,4.6E1,4E0,9.6E1,4.3E1,3.1E1,9E0,1.5E2,9E0,4.2E1,4.8E1,5E0,6E0,2E0,4E0,2E0,1.6E1,1.7E1,5.8E1,2.2E1,2E0,1.4E1,1.9E1,3E1,7.2E1,6.1E1,5.5E1,7.1E1,2E0],"tree_param":{"num_deleted":"0","num_feature":"11","num_nodes":"83","size_leaf_vector":"1"}},{"base_weights":[-6.866641E-3,-1.1009229E-1,3.5468537E-1,-2.2325766E-1,5.4502252E-2,2.0948446E-1,5.158685E-1,-1.682585E-1,-3.5290343E-1,2.963307E-1,-8.703367E-2,-2.6711777E-2,3.042772E-1,6.789498E-1,3.6662546E-1,-1.1593535E-1,-4.1939494E-1,-4.8309585E-1,-2.3553558E-1,-9.905028E-2,4.3835205E-1,1.0783482E-2,-3.18714E-1,-1.3328548E-1,4.1862378E-1,2.4658182E-1,9.1194254E-1,8.9936835E-1,4.4937295E-1,-2.975599E-1,4.3621174E-1,6.652063E-2,-1.9502962E-1,-3.0686235E-1,-8.064426E-1,-5.1052016E-1,2.4470456E-2,-4.3812957E-1,-1.09829895E-1,3.7906367E-2,-4.5326245E-1,8.633955E-1,3.304071E-1,1.3386928E-1,-1.7190896E-1,-2.189877E-1,-7.430413E-1,1.3045458E-1,-2.7896205E-1,6.069541E-3,4.6816263E-2,1.0929782E-1,3.4787866E-1,1.3733745E-2,1.0181538E-1,9.831657E-1,-1.493454E-2,7.499387E-1,1.3817808E-1,-8.991559E-3,-4.3959618E-1,-1.4023931E-1,5.005201E-1,-2.9673994E-2,1.6458383E-2,-3.1216318E-2,-6.141274E-3,-3.5323393E-2,4.600846E-2,-1.5863965E-1,-4.918122E-2,-4.634164E-2,-9.5481984E-2,-4.6422984E-2,1.3328862E-2,-1.0165692E-3,-3.2176916E-2,-2.2379404E-2,2.4082052E-2,-5.6019194E-2,2.0108676E-2,9.624355E-2,8.039697E-3,3.5853744E-2,-4.267257E-2,1.7214902E-2,-2.6087677E-2,-4.148971E-2,2.474558E-3,6.415909E-2,-2.4964422E-2,-4.1260462E-2,-8.729187E-2,1.9422388E-2,-2.536192E-2,-3.9280735E-2,1.1836614E-2,-7.907069E-3,1.8780805E-2,4.471321E-2,-4.4221403E-3,6.78435E-2,1.280999E-1,1.2043E-3,-3.444481E-3,8.209851E-2,-5.130816E-3,-5.6322203E-3,4.0689882E-2,2.627349E-3,-3.976083E-3,-5.850652E-2,-1.5945434E-4,-3.371811E-3,-3.364227E-2,1.9231437E-2,6.127072E-2],"categories":[],"categories_nodes":[],"categories_segments":[],"categories_sizes":[],"default_left":[0,0,0,0,0,0,0,0,0,0,0,0,0,0,0,0,0,0,0,0,0,0,0,0,0,0,0,0,0,0,0,0,0,0,0,0,0,0,0,0,0,0,0,0,0,0,0,0,0,0,0,0,0,0,0,0,0,0,0,0,0,0,0,0,0,0,0,0,0,0,0,0,0,0,0,0,0,0,0,0,0,0,0,0,0,0,0,0,0,0,0,0,0,0,0,0,0,0,0,0,0,0,0,0,0,0,0,0,0,0,0,0,0,0,0,0,0],"id":6,"left_children":[1,3,5,7,9,11,13,15,17,19,21,23,25,27,29,31,33,35,37,39,41,43,45,47,49,51,53,55,57,59,61,63,65,67,69,71,-1,73,75,77,79,81,83,85,87,89,91,93,95,-1,-1,97,99,-1,-1,101,103,105,107,109,111,113,115,-1,-1,-1,-1,-1,-1,-1,-1,-1,-1,-1,-1,-1,-1,-1,-1,-1,-1,-1,-1,-1,-1,-1,-1,-1,-1,-1,-1,-1,-1,-1,-1,-1,-1,-1,-1,-1,-1,-1,-1,-1,-1,-1,-1,-1,-1,-1,-1,-1,-1,-1,-1,-1,-1],"loss_changes":[3.7472458E1,1.4559388E1,5.1110115E0,3.2419987E0,1.0944335E1,2.6725016E0,2.3066463E0,4.2482405E0,1.9796295E0,6.6694202E0,4.5812235E0,1.7169334E0,2.7551875E0,2.0753975E0,2.764236E0,3.9382665E0,2.19164E0,1.4023285E0,1.8364539E0,1.5695562E0,3.7064E0,3.2386322E0,2.3762774E0,1.1505936E0,9.57042E-2,1.0605865E0,4.3607187E-1,1.8534698E0,2.3282723E0,2.4197036E-1,1.9978657E0,3.005505E0,2.954523E0,1.7629223E0,2.164557E0,8.550701E-1,0E0,4.794731E-1,9.894984E-1,1.3283592E0,7.4237037E-1,1.240942E0,1.6651826E0,1.3444363E0,2.7817802E0,1.4792864E0,1.1190891E-1,3.1867212E-1,9.059397E-1,0E0,0E0,5.324601E-1,1.771049E0,0E0,0E0,1.1276207E0,1.993836E-3,7.8215647E-1,7.54645E-1,4.299895E-3,2.539298E-1,1.140426E-1,1.5072718E0,0E0,0E0,0E0,0E0,0E0,0E0,0E0,0E0,0E0,0E0,0E0,0E0,0E0,0E0,0E0,0E0,0E0,0E0,0E0,0E0,0E0,0E0,0E0,0E0,0E0,0E0,0E0,0E0,0E0,0E0,0E0,0E0,0E0,0E0,0E0,0E0,0E0,0E0,0E0,0E0,0E0,0E0,0E0,0E0,0E0,0E0,0E0,0E0,0E0,0E0,0E0,0E0,0E0,0E0],"parents":[2147483647,0,0,1,1,2,2,3,3,4,4,5,5,6,6,7,7,8,8,9,9,10,10,11,11,12,12,13,13,14,14,15,15,16,16,17,17,18,18,19,19,20,20,21,21,22,22,23,23,24,24,25,25,26,26,27,27,28,28,29,29,30,30,31,31,32,32,33,33,34,34,35,35,37,37,38,38,39,39,40,40,41,41,42,42,43,43,44,44,45,45,46,46,47,47,48,48,51,51,52,52,55,55,56,56,57,57,58,58,59,59,60,60,61,61,62,62],"right_children":[2,4,6,8,10,12,14,16,18,20,22,24,26,28,30,32,34,36,38,40,42,44,46,48,50,52,54,56,58,60,62,64,66,68,70,72,-1,74,76,78,80,82,84,86,88,90,92,94,96,-1,-1,98,100,-1,-1,102,104,106,108,110,112,114,116,-1,-1,-1,-1,-1,-1,-1,-1,-1,-1,-1,-1,-1,-1,-1,-1,-1,-1,-1,-1,-1,-1,-1,-1,-1,-1,-1,-1,-1,-1,-1,-1,-1,-1,-1,-1,-1,-1,-1,-1,-1,-1,-1,-1,-1,-1,-1,-1,-1,-1,-1,-1,-1,-1],"split_conditions":[8.2323164E-1,-4.808883E-2,1.8796347E-1,7.104852E-1,-6.582015E-1,-1.045437E0,-7.455592E-1,8.165976E-1,-4.0954167E-1,-5.847771E-1,1.1760659E-1,-2.4370669E-1,1.5420536E0,7.1908116E-1,-5.625125E-1,-4.3995062E-1,9.5972806E-2,2.1792176E0,-8.6637884E-1,2.9885364E-1,-8.4951884E-1,3.7529662E-1,4.4633678E-1,-1.9539905E0,-1.7348735E0,2.0039205E-1,-1.3401219E0,-1.42250825E-2,-4.7749764E-1,-3.4679672E-1,-9.9216175E-1,-9.33285E-1,-4.6118036E-1,1.9976583E0,-1.2887815E0,3.028873E0,2.4470456E-2,2.6378195E0,1.0804977E0,-8.487156E-1,-7.419987E-1,-8.257958E-1,1.749495E0,1.0196798E0,-3.4679672E-1,-1.0481299E0,-5.618233E-1,-3.9248273E-1,-4.562439E-1,6.069541E-3,4.6816263E-2,-7.5624573E-1,1.3101379E0,1.3733745E-2,1.0181538E-1,-4.7749764E-1,-1.8497796E0,1.2551613E0,1.1321727E0,-2.9854745E-1,-6.475274E-1,1.3204764E0,-1.3395333E-1,-2.9673994E-2,1.6458383E-2,-3.1216318E-2,-6.141274E-3,-3.5323393E-2,4.600846E-2,-1.5863965E-1,-4.918122E-2,-4.634164E-2,-9.5481984E-2,-4.6422984E-2,1.3328862E-2,-1.0165692E-3,-3.2176916E-2,-2.2379404E-2,2.4082052E-2,-5.6019194E-2,2.0108676E-2,9.624355E-2,8.039697E-3,3.5853744E-2,-4.267257E-2,1.7214902E-2,-2.6087677E-2,-4.148971E-2,2.474558E-3,6.415909E-2,-2.4964422E-2,-4.1260462E-2,-8.729187E-2,1.9422388E-2,-2.536192E-2,-3.9280735E-2,1.1836614E-2,-7.907069E-3,1.8780805E-2,4.471321E-2,-4.4221403E-3,6.78435E-2,1.280999E-1,1.2043E-3,-3.444481E-3,8.209851E-2,-5.130816E-3,-5.6322203E-3,4.0689882E-2,2.627349E-3,-3.976083E-3,-5.850652E-2,-1.5945434E-4,-3.371811E-3,-3.364227E-2,1.9231437E-2,6.127072E-2],"split_indices":[10,9,9,1,1,0,7,2,6,10,4,4,5,9,4,6,1,4,10,5,8,1,8,7,0,2,2,6,4,3,5,9,9,2,10,1,0,1,6,5,1,1,6,6,3,6,5,4,4,0,0,9,0,0,0,4,0,5,9,0,4,3,3,0,0,0,0,0,0,0,0,0,0,0,0,0,0,0,0,0,0,0,0,0,0,0,0,0,0,0,0,0,0,0,0,0,0,0,0,0,0,0,0,0,0,0,0,0,0,0,0,0,0,0,0,0,0],"split_type":[0,0,0,0,0,0,0,0,0,0,0,0,0,0,0,0,0,0,0,0,0,0,0,0,0,0,0,0,0,0,0,0,0,0,0,0,0,0,0,0,0,0,0,0,0,0,0,0,0,0,0,0,0,0,0,0,0,0,0,0,0,0,0,0,0,0,0,0,0,0,0,0,0,0,0,0,0,0,0,0,0,0,0,0,0,0,0,0,0,0,0,0,0,0,0,0,0,0,0,0,0,0,0,0,0,0,0,0,0,0,0,0,0,0,0,0,0],"sum_hessian":[1.002E3,7.8E2,2.22E2,4.62E2,3.18E2,1.18E2,1.04E2,3.26E2,1.36E2,1.17E2,2.01E2,3.4E1,8.4E1,4.8E1,5.6E1,2.71E2,5.5E1,6.3E1,7.3E1,3.1E1,8.6E1,1.42E2,5.9E1,2.8E1,6E0,7.8E1,6E0,2.3E1,2.5E1,5E0,5.1E1,8.2E1,1.89E2,4.4E1,1.1E1,6.1E1,2E0,2.7E1,4.6E1,2.3E1,8E0,1.6E1,7E1,8.5E1,5.7E1,4.9E1,1E1,1E1,1.8E1,1E0,5E0,3.4E1,4.4E1,1E0,5E0,2.1E1,2E0,1.2E1,1.3E1,2E0,3E0,5E0,4.6E1,1.7E1,6.5E1,1E2,8.9E1,4.2E1,2E0,2E0,9E0,5.7E1,4E0,2.6E1,1E0,3.2E1,1.4E1,1E1,1.3E1,7E0,1E0,1.4E1,2E0,6.8E1,2E0,7.8E1,7E0,2.5E1,3.2E1,1E0,4.8E1,4E0,6E0,9E0,1E0,1.4E1,4E0,1E1,2.4E1,3.5E1,9E0,1.2E1,9E0,1E0,1E0,1.1E1,1E0,8E0,5E0,1E0,1E0,2E0,1E0,4E0,1E0,1.3E1,3.3E1],"tree_param":{"num_deleted":"0","num_feature":"11","num_nodes":"117","size_leaf_vector":"1"}},{"base_weights":[-3.781197E-3,-1.3371469E-1,2.4243873E-1,-2.9785274E-2,-2.3298506E-1,9.654506E-2,4.0165237E-1,-1.270295E-1,1.14833295E-1,-2.018221E-1,-4.8357207E-1,2.9897037E-1,-9.423434E-2,3.1777787E-1,6.9002485E-1,-1.7113513E-1,5.491208E-2,2.653965E-1,-1.4561859E-1,-4.809925E-1,-1.784202E-1,-8.5798925E-1,-3.1312168E-1,5.348082E-1,1.6599104E-1,-1.0067048E-2,-4.1356668E-1,3.4584838E-1,-4.6438314E-2,-2.6872525E-1,7.5248843E-1,-2.5802493E-1,-6.376643E-2,2.0880741E-1,-1.5652937E-1,3.342946E-1,-1.7584991E-1,-6.8926215E-2,-6.837595E-1,1.4118457E-2,-5.1569074E-1,-2.5440666E-1,-6.1852906E-2,-2.5564987E-2,-1.1656617E0,-4.7228393E-1,-7.481185E-2,-4.2215493E-2,5.792959E-1,3.5101438E-1,-5.139249E-2,-2.534106E-1,9.827208E-2,-5.8197135E-1,7.637278E-2,3.8586366E-1,1.8675836E-2,-8.085298E-3,-3.222349E-2,7.77269E-1,-4.502535E-3,-2.820315E-2,3.106196E-2,-2.7276692E-3,-5.4727353E-2,-3.426478E-2,3.0865807E-2,8.60334E-3,-3.817E-2,9.408357E-2,3.0395774E-2,-3.1448197E-2,1.5195768E-3,-1.1297737E-2,5.7076532E-2,-1.940899E-2,-7.428755E-2,-6.76066E-2,-4.132959E-2,-2.3160812E-2,-9.6499674E-2,-8.329788E-3,7.522286E-2,-6.23752E-2,-1.4161561E-1,-7.476598E-2,-3.18187E-2,1.6255353E-2,-3.392695E-2,6.468495E-2,-3.8403631E-3,5.8923364E-2,1.3299755E-2,2.2201575E-3,-6.720769E-2,5.4797917E-3,-4.1093975E-2,1.4854579E-2,-4.241195E-2,-6.932948E-2,9.4420435E-3,2.0327596E-2,-2.7907157E-2,7.0500225E-2,3.449362E-2,3.1728532E-2,-1.6235743E-2,7.9923294E-2,2.6230335E-3],"categories":[],"categories_nodes":[],"categories_segments":[],"categories_sizes":[],"default_left":[0,0,0,0,0,0,0,0,0,0,0,0,0,0,0,0,0,0,0,0,0,0,0,0,0,0,0,0,0,0,0,0,0,0,0,0,0,0,0,0,0,0,0,0,0,0,0,0,0,0,0,0,0,0,0,0,0,0,0,0,0,0,0,0,0,0,0,0,0,0,0,0,0,0,0,0,0,0,0,0,0,0,0,0,0,0,0,0,0,0,0,0,0,0,0,0,0,0,0,0,0,0,0,0,0,0,0,0,0],"id":7,"left_children":[1,3,5,7,9,11,13,15,17,19,21,23,25,27,29,31,33,35,37,39,41,43,45,47,49,51,53,55,-1,57,59,61,63,65,67,69,71,73,75,-1,77,79,81,-1,83,85,87,-1,89,91,93,95,97,99,101,103,105,-1,-1,107,-1,-1,-1,-1,-1,-1,-1,-1,-1,-1,-1,-1,-1,-1,-1,-1,-1,-1,-1,-1,-1,-1,-1,-1,-1,-1,-1,-1,-1,-1,-1,-1,-1,-1,-1,-1,-1,-1,-1,-1,-1,-1,-1,-1,-1,-1,-1,-1,-1],"loss_changes":[3.2600494E1,6.8745737E0,8.137571E0,4.6132927E0,2.5652866E0,7.1726103E0,3.8441582E0,1.5822289E0,5.2149568E0,1.906784E0,2.0926685E0,2.7337666E0,2.5760612E0,3.058755E0,2.4180317E0,1.4575667E0,1.3017387E0,2.612473E0,1.9751647E0,5.693412E-1,2.4909458E0,1.7405539E0,9.8877573E-1,1.6068907E0,2.39108E0,2.0549026E0,1.6946087E0,1.6685562E0,0E0,4.105285E-3,7.266941E-1,1.2752604E0,1.2553716E0,1.372214E0,9.613451E-1,1.0572662E0,3.2259938E-1,1.3043662E0,2.9499054E-2,0E0,8.186054E-2,2.54677E0,2.0354075E0,0E0,6.68869E-2,4.4105768E-1,8.084264E-1,0E0,1.3184052E0,1.5835795E0,1.2939243E0,1.1877624E0,1.4811795E0,1.1949344E0,3.2737067E-1,1.2458324E0,8.623873E-1,0E0,0E0,5.398903E-1,0E0,0E0,0E0,0E0,0E0,0E0,0E0,0E0,0E0,0E0,0E0,0E0,0E0,0E0,0E0,0E0,0E0,0E0,0E0,0E0,0E0,0E0,0E0,0E0,0E0,0E0,0E0,0E0,0E0,0E0,0E0,0E0,0E0,0E0,0E0,0E0,0E0,0E0,0E0,0E0,0E0,0E0,0E0,0E0,0E0,0E0,0E0,0E0,0E0],"parents":[2147483647,0,0,1,1,2,2,3,3,4,4,5,5,6,6,7,7,8,8,9,9,10,10,11,11,12,12,13,13,14,14,15,15,16,16,17,17,18,18,19,19,20,20,21,21,22,22,23,23,24,24,25,25,26,26,27,27,29,29,30,30,31,31,32,32,33,33,34,34,35,35,36,36,37,37,38,38,40,40,41,41,42,42,44,44,45,45,46,46,48,48,49,49,50,50,51,51,52,52,53,53,54,54,55,55,56,56,59,59],"right_children":[2,4,6,8,10,12,14,16,18,20,22,24,26,28,30,32,34,36,38,40,42,44,46,48,50,52,54,56,-1,58,60,62,64,66,68,70,72,74,76,-1,78,80,82,-1,84,86,88,-1,90,92,94,96,98,100,102,104,106,-1,-1,108,-1,-1,-1,-1,-1,-1,-1,-1,-1,-1,-1,-1,-1,-1,-1,-1,-1,-1,-1,-1,-1,-1,-1,-1,-1,-1,-1,-1,-1,-1,-1,-1,-1,-1,-1,-1,-1,-1,-1,-1,-1,-1,-1,-1,-1,-1,-1,-1,-1],"split_conditions":[3.5389537E-1,1.2390518E-1,1.289504E-1,6.9937326E-2,1.6043215E0,-4.3689113E-2,1.6680368E0,-9.9553876E-2,1.3781975E-1,-8.7307787E-1,-1.13472E0,-8.9608514E-1,-2.4734636E-1,1.6278591E0,-1.2382755E0,-6.7864436E-1,-1.7930022E-1,1.8136775E-1,1.4841536E0,-1.6199675E0,-5.847771E-1,-7.212705E-3,-6.382196E-1,-1.1103243E0,-9.257639E-1,-5.792065E-1,1.0366852E0,1.2472923E0,-4.6438314E-2,1.03623874E-1,1.8289459E0,1.7541431E0,2.4512891E-1,-6.305879E-1,-1.0771073E-1,-2.4693384E0,7.5521827E-1,3.2634075E0,-2.410944E-1,1.4118457E-2,-6.574541E-1,1.0228726E0,2.3137455E0,-2.5564987E-2,1.8136775E-1,-7.5308484E-1,-5.242319E-2,-4.2215493E-2,1.9463078E0,-1.3679826E-1,1.6822872E-1,-1.2887714E0,2.1350367E0,1.1760508E0,1.129471E0,-9.791044E-1,4.240158E-1,-8.085298E-3,-3.222349E-2,1.4454054E0,-4.502535E-3,-2.820315E-2,3.106196E-2,-2.7276692E-3,-5.4727353E-2,-3.426478E-2,3.0865807E-2,8.60334E-3,-3.817E-2,9.408357E-2,3.0395774E-2,-3.1448197E-2,1.5195768E-3,-1.1297737E-2,5.7076532E-2,-1.940899E-2,-7.428755E-2,-6.76066E-2,-4.132959E-2,-2.3160812E-2,-9.6499674E-2,-8.329788E-3,7.522286E-2,-6.23752E-2,-1.4161561E-1,-7.476598E-2,-3.18187E-2,1.6255353E-2,-3.392695E-2,6.468495E-2,-3.8403631E-3,5.8923364E-2,1.3299755E-2,2.2201575E-3,-6.720769E-2,5.4797917E-3,-4.1093975E-2,1.4854579E-2,-4.241195E-2,-6.932948E-2,9.4420435E-3,2.0327596E-2,-2.7907157E-2,7.0500225E-2,3.449362E-2,3.1728532E-2,-1.6235743E-2,7.9923294E-2,2.6230335E-3],"split_indices":[10,1,9,9,1,1,10,1,6,0,2,6,7,6,8,10,5,4,2,0,10,8,9,9,7,9,3,7,0,0,5,4,4,3,2,8,4,5,0,0,5,0,3,0,4,5,4,0,2,8,6,2,1,2,1,8,9,0,0,6,0,0,0,0,0,0,0,0,0,0,0,0,0,0,0,0,0,0,0,0,0,0,0,0,0,0,0,0,0,0,0,0,0,0,0,0,0,0,0,0,0,0,0,0,0,0,0,0,0],"split_type":[0,0,0,0,0,0,0,0,0,0,0,0,0,0,0,0,0,0,0,0,0,0,0,0,0,0,0,0,0,0,0,0,0,0,0,0,0,0,0,0,0,0,0,0,0,0,0,0,0,0,0,0,0,0,0,0,0,0,0,0,0,0,0,0,0,0,0,0,0,0,0,0,0,0,0,0,0,0,0,0,0,0,0,0,0,0,0,0,0,0,0,0,0,0,0,0,0,0,0,0,0,0,0,0,0,0,0,0,0],"sum_hessian":[1.017E3,6.66E2,3.51E2,3.26E2,3.4E2,1.84E2,1.67E2,1.95E2,1.31E2,3.04E2,3.6E1,8.9E1,9.5E1,1.31E2,3.6E1,1.57E2,3.8E1,8.3E1,4.8E1,2.2E1,2.82E2,1E1,2.6E1,3.1E1,5.8E1,7.6E1,1.9E1,1.27E2,4E0,2E0,3.4E1,8.6E1,7.1E1,2.2E1,1.6E1,7.2E1,1.1E1,4.3E1,5E0,1E0,2.1E1,1.7E2,1.12E2,4E0,6E0,1.5E1,1.1E1,1E0,3E1,3.1E1,2.7E1,2.3E1,5.3E1,1.4E1,5E0,1.13E2,1.4E1,1E0,1E0,3.3E1,1E0,8.3E1,3E0,6.7E1,4E0,3E0,1.9E1,8E0,8E0,2E0,7E1,6E0,5E0,4.1E1,2E0,1E0,4E0,6E0,1.5E1,1.66E2,4E0,1.1E2,2E0,3E0,3E0,4E0,1.1E1,6E0,5E0,2.7E1,3E0,1.4E1,1.7E1,2.5E1,2E0,8E0,1.5E1,4.9E1,4E0,1.2E1,2E0,4E0,1E0,1.1E1,1.02E2,5E0,9E0,3.2E1,1E0],"tree_param":{"num_deleted":"0","num_feature":"11","num_nodes":"109","size_leaf_vector":"1"}},{"base_weights":[-6.2534364E-4,-1.0733821E-1,2.0285435E-1,-2.3506433E-1,-2.7749721E-2,-4.90487E-2,2.7897605E-1,-2.1763308E-1,-6.950841E-1,-5.6440216E-2,3.44239E-1,1.6015819E-1,-2.5708777E-1,3.7022367E-1,1.8363419E-1,-2.0726572E-1,-1.00558035E-1,-9.663928E-1,-2.8475856E-2,-5.3002103E-3,-2.2092001E-1,-2.7705804E-1,4.7958073E-1,1.9469815E-1,-6.279903E-2,-1.19978726E-1,-5.227359E-1,3.918567E-1,-7.33882E-2,8.074343E-3,3.0423066E-1,-1.5679371E-1,-3.1001267E-1,-1.1231897E-1,-1.6960263E-2,2.737829E-2,-3.9579097E-2,3.2007343E-1,-2.6923797E-1,-6.497052E-2,7.169187E-2,7.321159E-1,2.624162E-1,-2.5409013E-1,2.500831E-1,-2.583913E-1,2.163149E-1,-9.7800925E-2,-6.829298E-1,4.8678052E-1,2.7413896E-1,-2.0478673E-1,1.5183112E-1,3.8742724E-1,-2.6875917E-2,-2.5183374E-2,-4.5332513E-3,-2.5960365E-2,-6.0719687E-2,6.743484E-3,-2.5853533E-2,4.4793695E-2,-2.874856E-2,-1.1107206E-1,-2.4599746E-2,2.7179321E-2,-2.6430607E-2,8.4373794E-2,3.25843E-2,1.1465183E-2,6.401052E-2,-3.875891E-2,1.399529E-2,5.529946E-2,1.7361654E-2,-1.6766155E-2,-7.468826E-2,2.914222E-2,-1.9227171E-2,-2.2297729E-2,2.0145226E-2,-8.387328E-2,-3.5938025E-2,4.022823E-2,6.5665565E-2,1.4552454E-2,4.2970967E-2,-1.1378024E-2,-6.0862254E-2,-6.1941664E-3,2.567634E-2,2.934221E-2,5.7956744E-2,1.7761832E-2,-3.443846E-2],"categories":[],"categories_nodes":[],"categories_segments":[],"categories_sizes":[],"default_left":[0,0,0,0,0,0,0,0,0,0,0,0,0,0,0,0,0,0,0,0,0,0,0,0,0,0,0,0,0,0,0,0,0,0,0,0,0,0,0,0,0,0,0,0,0,0,0,0,0,0,0,0,0,0,0,0,0,0,0,0,0,0,0,0,0,0,0,0,0,0,0,0,0,0,0,0,0,0,0,0,0,0,0,0,0,0,0,0,0,0,0,0,0,0,0],"id":8,"left_children":[1,3,5,7,9,11,13,15,17,19,21,23,25,27,29,31,-1,33,-1,35,37,39,41,43,-1,45,47,49,-1,51,53,55,57,-1,-1,59,-1,61,63,-1,65,67,69,71,73,75,77,79,81,83,85,87,89,91,93,-1,-1,-1,-1,-1,-1,-1,-1,-1,-1,-1,-1,-1,-1,-1,-1,-1,-1,-1,-1,-1,-1,-1,-1,-1,-1,-1,-1,-1,-1,-1,-1,-1,-1,-1,-1,-1,-1,-1,-1],"loss_changes":[2.2343666E1,6.855209E0,6.801733E0,1.9255743E0,4.469878E0,3.6536002E0,2.298338E0,1.8419809E0,7.267351E-1,3.26249E0,2.6554942E0,1.2656186E0,1.4670389E0,3.583727E0,2.85575E0,1.2426672E0,0E0,4.34175E-1,0E0,3.8007498E0,2.4910283E0,8.263427E-1,1.1789227E0,1.0826445E0,0E0,1.4057646E0,8.8621736E-1,1.3862476E0,0E0,1.7447054E0,2.2141676E0,1.7788472E0,1.0558109E0,0E0,0E0,3.1669302E0,0E0,7.5025254E-1,1.3890672E0,0E0,3.4077114E-1,2.2391272E-1,7.6374555E-1,3.1726593E-1,7.610073E-1,8.0551124E-1,3.322227E-1,2.3221639E-1,2.0267534E-1,7.98048E-1,1.1980109E0,7.760395E-1,7.78581E-1,9.8591995E-1,1.1649569E0,0E0,0E0,0E0,0E0,0E0,0E0,0E0,0E0,0E0,0E0,0E0,0E0,0E0,0E0,0E0,0E0,0E0,0E0,0E0,0E0,0E0,0E0,0E0,0E0,0E0,0E0,0E0,0E0,0E0,0E0,0E0,0E0,0E0,0E0,0E0,0E0,0E0,0E0,0E0,0E0],"parents":[2147483647,0,0,1,1,2,2,3,3,4,4,5,5,6,6,7,7,8,8,9,9,10,10,11,11,12,12,13,13,14,14,15,15,17,17,19,19,20,20,21,21,22,22,23,23,25,25,26,26,27,27,29,29,30,30,31,31,32,32,35,35,37,37,38,38,40,40,41,41,42,42,43,43,44,44,45,45,46,46,47,47,48,48,49,49,50,50,51,51,52,52,53,53,54,54],"right_children":[2,4,6,8,10,12,14,16,18,20,22,24,26,28,30,32,-1,34,-1,36,38,40,42,44,-1,46,48,50,-1,52,54,56,58,-1,-1,60,-1,62,64,-1,66,68,70,72,74,76,78,80,82,84,86,88,90,92,94,-1,-1,-1,-1,-1,-1,-1,-1,-1,-1,-1,-1,-1,-1,-1,-1,-1,-1,-1,-1,-1,-1,-1,-1,-1,-1,-1,-1,-1,-1,-1,-1,-1,-1,-1,-1,-1,-1,-1,-1],"split_conditions":[3.5389537E-1,-4.6118036E-1,-4.021673E-1,5.4268104E-1,1.9421213E0,6.804042E-2,-4.703596E-1,1.8717779E0,-5.858126E-1,2.4512891E-1,-2.2512805E-1,4.442179E0,-1.3395333E-1,1.8557129E0,3.0598962E-1,3.7276968E-1,-1.00558035E-1,-2.7584893E-1,-2.8475856E-2,1.810313E0,-9.264941E-1,2.2293866E0,-1.0492549E0,6.0420805E-1,-6.279903E-2,1.2925678E0,-9.33285E-1,-5.46472E-1,-7.33882E-2,7.293644E-1,-7.3676914E-2,-7.5624573E-1,-5.2019346E-1,-1.1231897E-1,-1.6960263E-2,7.6635E-1,-3.9579097E-2,6.01055E-1,-1.8050513E0,-6.497052E-2,2.4017456E0,-1.3395333E-1,2.917334E-1,2.1852997E-1,-1.0785389E0,-2.7914718E-1,-8.7796766E-1,-1.0833695E0,1.3864352E0,4.3416146E-2,1.1048334E0,8.9988625E-1,-6.475274E-1,1.6680368E0,6.8518114E-1,-2.5183374E-2,-4.5332513E-3,-2.5960365E-2,-6.0719687E-2,6.743484E-3,-2.5853533E-2,4.4793695E-2,-2.874856E-2,-1.1107206E-1,-2.4599746E-2,2.7179321E-2,-2.6430607E-2,8.4373794E-2,3.25843E-2,1.1465183E-2,6.401052E-2,-3.875891E-2,1.399529E-2,5.529946E-2,1.7361654E-2,-1.6766155E-2,-7.468826E-2,2.914222E-2,-1.9227171E-2,-2.2297729E-2,2.0145226E-2,-8.387328E-2,-3.5938025E-2,4.022823E-2,6.5665565E-2,1.4552454E-2,4.2970967E-2,-1.1378024E-2,-6.0862254E-2,-6.1941664E-3,2.567634E-2,2.934221E-2,5.7956744E-2,1.7761832E-2,-3.443846E-2],"split_indices":[10,9,9,4,0,1,6,8,0,4,9,3,3,1,9,7,0,3,0,6,6,0,1,10,0,10,9,1,0,10,4,9,9,0,0,1,0,9,10,0,0,3,3,0,6,7,2,2,10,3,10,8,4,10,6,0,0,0,0,0,0,0,0,0,0,0,0,0,0,0,0,0,0,0,0,0,0,0,0,0,0,0,0,0,0,0,0,0,0,0,0,0,0,0,0],"split_type":[0,0,0,0,0,0,0,0,0,0,0,0,0,0,0,0,0,0,0,0,0,0,0,0,0,0,0,0,0,0,0,0,0,0,0,0,0,0,0,0,0,0,0,0,0,0,0,0,0,0,0,0,0,0,0,0,0,0,0,0,0,0,0,0,0,0,0,0,0,0,0,0,0,0,0,0,0,0,0,0,0,0,0,0,0,0,0,0,0,0,0,0,0,0,0],"sum_hessian":[1.027E3,6.74E2,3.53E2,2.58E2,4.16E2,8.2E1,2.71E2,2.5E2,8E0,3.87E2,2.9E1,4.1E1,4.1E1,1.37E2,1.34E2,2.48E2,2E0,4E0,4E0,2.96E2,9.1E1,5E0,2.4E1,4E1,1E0,2.8E1,1.3E1,1.35E2,2E0,5.5E1,7.9E1,1.68E2,8E1,3E0,1E0,2.74E2,2.2E1,7E0,8.4E1,2E0,3E0,1E1,1.4E1,4E0,3.6E1,2E1,8E0,4E0,9E0,7.3E1,6.2E1,2.2E1,3.3E1,6.3E1,1.6E1,9E1,7.8E1,7E1,1E1,2.41E2,3.3E1,6E0,1E0,1E0,8.3E1,2E0,1E0,7E0,3E0,1.1E1,3E0,3E0,1E0,6E0,3E1,1.8E1,2E0,7E0,1E0,3E0,1E0,5E0,4E0,5.1E1,2.2E1,3.5E1,2.7E1,1.9E1,3E0,1.1E1,2.2E1,4.4E1,1.9E1,1E1,6E0],"tree_param":{"num_deleted":"0","num_feature":"11","num_nodes":"95","size_leaf_vector":"1"}},{"base_weights":[-1.2464528E-3,-1.14487596E-1,2.1193601E-1,-1.1205854E-2,-2.131252E-1,3.681033E-1,1.0302847E-1,-1.2528262E-1,9.675352E-2,-6.0455525E-1,-1.9549936E-1,4.3026033E-1,8.5122794E-2,-1.2502691E-1,1.9264081E-1,-2.5842196E-1,-4.2490337E-2,1.5406045E-1,-1.5777862E-1,-1.2402254E-1,-1.0673704E0,-4.2738372E-1,-1.7290388E-1,4.84653E-1,-4.532405E-3,-3.645756E-2,6.2736785E-1,1.2797338E-1,-2.6821056E-1,-1.4385322E-1,2.3997475E-1,-2.869522E-1,2.1273959E-1,3.8795326E-2,-2.2803101E-1,6.911036E-4,2.8254977E-1,1.0209029E-1,-3.511334E-1,-4.659663E-2,3.344128E-1,-2.6706671E-2,-1.1562432E-1,-5.637224E-1,-1.6543111E-1,-1.0551846E-1,-1.6633621E-1,1.9592804E-1,5.388185E-1,-1.5589714E-1,6.0243733E-2,2.566777E-1,-2.4323575E-1,-8.066058E-3,8.245402E-2,4.103798E-1,-1.9174029E-1,-9.360015E-2,-4.7839993E-1,-4.280061E-1,4.0440974E-1,1.5111245E-1,4.4572395E-1,6.921939E-3,-3.30212E-2,3.9424945E-2,-1.6589498E-2,-2.2380851E-2,1.0970919E-2,-8.769209E-3,-4.999397E-2,-1.8054752E-2,1.0234469E-2,4.9441E-2,1.4284334E-2,-1.38297025E-2,4.456562E-2,6.1655524E-3,-4.065855E-2,5.5666335E-2,-1.661694E-2,-4.572316E-2,-9.4376564E-2,1.5209401E-2,-3.0351479E-2,-2.5569713E-2,-1.0864093E-2,-2.1904374E-2,2.935253E-2,5.7794858E-2,9.0530264E-4,3.0623833E-3,-2.9350122E-2,-2.637806E-3,4.4977784E-2,-3.2170776E-2,1.5173085E-2,1.9251639E-2,6.768853E-2,-2.9320061E-2,1.7655404E-2,3.6693097E-3,-3.7804183E-2,7.467588E-3,-5.5712175E-2,-2.8564382E-2,-6.769103E-2,5.0488472E-2,-9.922004E-3,2.4757823E-2,-4.0512267E-3,5.2380454E-2,1.395498E-3],"categories":[],"categories_nodes":[],"categories_segments":[],"categories_sizes":[],"default_left":[0,0,0,0,0,0,0,0,0,0,0,0,0,0,0,0,0,0,0,0,0,0,0,0,0,0,0,0,0,0,0,0,0,0,0,0,0,0,0,0,0,0,0,0,0,0,0,0,0,0,0,0,0,0,0,0,0,0,0,0,0,0,0,0,0,0,0,0,0,0,0,0,0,0,0,0,0,0,0,0,0,0,0,0,0,0,0,0,0,0,0,0,0,0,0,0,0,0,0,0,0,0,0,0,0,0,0,0,0,0,0,0,0],"id":9,"left_children":[1,3,5,7,9,11,13,15,17,19,21,23,25,27,29,31,33,35,37,39,41,43,45,47,49,51,53,55,57,59,61,63,65,67,69,71,73,75,77,-1,79,-1,-1,81,83,-1,85,87,89,91,-1,93,95,-1,-1,97,99,101,103,105,107,109,111,-1,-1,-1,-1,-1,-1,-1,-1,-1,-1,-1,-1,-1,-1,-1,-1,-1,-1,-1,-1,-1,-1,-1,-1,-1,-1,-1,-1,-1,-1,-1,-1,-1,-1,-1,-1,-1,-1,-1,-1,-1,-1,-1,-1,-1,-1,-1,-1,-1,-1],"loss_changes":[2.4285994E1,6.690775E0,5.897794E0,3.9777627E0,2.1999702E0,2.4786339E0,4.2544565E0,1.7196159E0,2.4456592E0,2.9811916E0,1.618473E0,2.7691936E0,1.8028839E0,2.1716287E0,2.407732E0,8.6758757E-1,1.4868627E0,2.6798644E0,1.5935013E0,1.409898E0,1.8908358E-1,9.067421E-1,1.5396671E0,1.5208778E0,1.3801516E0,1.4565547E0,7.6452553E-1,2.0650487E0,1.3498697E0,3.1331096E0,2.327764E0,9.011078E-1,3.403076E-1,1.3094893E0,1.1009403E0,1.179162E0,2.119646E0,1.2178775E0,4.3708825E-1,0E0,5.3751904E-1,0E0,0E0,2.9696035E-1,5.284582E-1,0E0,1.4931536E0,7.932969E-1,1.7982616E0,3.1698072E-1,0E0,5.584454E-1,4.827265E-1,0E0,0E0,5.664301E-1,4.628056E-1,8.292097E-1,7.817688E-1,2.6729393E-1,4.0431E-1,1.729156E0,1.3074875E0,0E0,0E0,0E0,0E0,0E0,0E0,0E0,0E0,0E0,0E0,0E0,0E0,0E0,0E0,0E0,0E0,0E0,0E0,0E0,0E0,0E0,0E0,0E0,0E0,0E0,0E0,0E0,0E0,0E0,0E0,0E0,0E0,0E0,0E0,0E0,0E0,0E0,0E0,0E0,0E0,0E0,0E0,0E0,0E0,0E0,0E0,0E0,0E0,0E0,0E0],"parents":[2147483647,0,0,1,1,2,2,3,3,4,4,5,5,6,6,7,7,8,8,9,9,10,10,11,11,12,12,13,13,14,14,15,15,16,16,17,17,18,18,19,19,20,20,21,21,22,22,23,23,24,24,25,25,26,26,27,27,28,28,29,29,30,30,31,31,32,32,33,33,34,34,35,35,36,36,37,37,38,38,40,40,43,43,44,44,46,46,47,47,48,48,49,49,51,51,52,52,55,55,56,56,57,57,58,58,59,59,60,60,61,61,62,62],"right_children":[2,4,6,8,10,12,14,16,18,20,22,24,26,28,30,32,34,36,38,40,42,44,46,48,50,52,54,56,58,60,62,64,66,68,70,72,74,76,78,-1,80,-1,-1,82,84,-1,86,88,90,92,-1,94,96,-1,-1,98,100,102,104,106,108,110,112,-1,-1,-1,-1,-1,-1,-1,-1,-1,-1,-1,-1,-1,-1,-1,-1,-1,-1,-1,-1,-1,-1,-1,-1,-1,-1,-1,-1,-1,-1,-1,-1,-1,-1,-1,-1,-1,-1,-1,-1,-1,-1,-1,-1,-1,-1,-1,-1,-1,-1],"split_conditions":[3.5389537E-1,1.2390518E-1,-6.582015E-1,-6.7864436E-1,-6.6606176E-1,1.0741079E-1,6.0420805E-1,-4.021673E-1,5.635453E-1,-3.499753E-1,-8.7307787E-1,1.5355041E0,2.4983613E0,4.4776264E-1,-9.9216175E-1,1.2175654E-2,9.70649E-1,-4.808883E-2,2.614668E-1,-6.432657E-1,2.0770234E-1,3.2027355E-1,-1.8050513E0,-5.2019346E-1,2.1144805E0,-9.363642E-1,-1.1282211E-2,-1.3743807E-1,6.2668806E-1,1.2925678E0,3.5444343E-1,-1.2887815E0,-6.873526E-2,-5.6541424E-2,2.9885364E-1,-4.7090656E-1,6.1119574E-1,-1.3679826E-1,-9.375254E-1,-4.659663E-2,-2.9854745E-1,-2.6706671E-2,-1.1562432E-1,1.0177414E0,-1.586918E-1,-1.0551846E-1,-6.382196E-1,-5.837662E-1,5.0017357E-1,-1.3395333E-1,6.0243733E-2,-5.596401E-1,-8.816606E-1,-8.066058E-3,8.245402E-2,-4.699521E-1,2.2078563E-1,1.1436394E-1,-4.532184E-1,-9.915745E-3,3.908891E-1,-6.2121534E-1,2.1144805E0,6.921939E-3,-3.30212E-2,3.9424945E-2,-1.6589498E-2,-2.2380851E-2,1.0970919E-2,-8.769209E-3,-4.999397E-2,-1.8054752E-2,1.0234469E-2,4.9441E-2,1.4284334E-2,-1.38297025E-2,4.456562E-2,6.1655524E-3,-4.065855E-2,5.5666335E-2,-1.661694E-2,-4.572316E-2,-9.4376564E-2,1.5209401E-2,-3.0351479E-2,-2.5569713E-2,-1.0864093E-2,-2.1904374E-2,2.935253E-2,5.7794858E-2,9.0530264E-4,3.0623833E-3,-2.9350122E-2,-2.637806E-3,4.4977784E-2,-3.2170776E-2,1.5173085E-2,1.9251639E-2,6.768853E-2,-2.9320061E-2,1.7655404E-2,3.6693097E-3,-3.7804183E-2,7.467588E-3,-5.5712175E-2,-2.8564382E-2,-6.769103E-2,5.0488472E-2,-9.922004E-3,2.4757823E-2,-4.0512267E-3,5.2380454E-2,1.395498E-3],"split_indices":[10,1,1,10,3,6,10,9,6,4,0,2,5,10,5,1,2,9,7,0,1,6,10,9,0,7,0,4,1,10,2,10,0,7,5,0,2,8,1,0,0,0,0,1,4,0,9,4,4,3,0,3,1,0,0,7,3,3,3,4,0,2,0,0,0,0,0,0,0,0,0,0,0,0,0,0,0,0,0,0,0,0,0,0,0,0,0,0,0,0,0,0,0,0,0,0,0,0,0,0,0,0,0,0,0,0,0,0,0,0,0,0,0],"split_type":[0,0,0,0,0,0,0,0,0,0,0,0,0,0,0,0,0,0,0,0,0,0,0,0,0,0,0,0,0,0,0,0,0,0,0,0,0,0,0,0,0,0,0,0,0,0,0,0,0,0,0,0,0,0,0,0,0,0,0,0,0,0,0,0,0,0,0,0,0,0,0,0,0,0,0,0,0,0,0,0,0,0,0,0,0,0,0,0,0,0,0,0,0,0,0,0,0,0,0,0,0,0,0,0,0,0,0,0,0,0,0,0,0],"sum_hessian":[1.004E3,6.56E2,3.48E2,3.21E2,3.35E2,1.42E2,2.06E2,1.56E2,1.65E2,1.3E1,3.22E2,1.16E2,2.6E1,5.8E1,1.48E2,5.9E1,9.7E1,1.35E2,3E1,7E0,6E0,2.7E1,2.95E2,1.03E2,1.3E1,2.2E1,4E0,2.1E1,3.7E1,1.8E1,1.3E2,5.6E1,3E0,6.8E1,2.9E1,6.2E1,7.3E1,1.3E1,1.7E1,4E0,3E0,1E0,5E0,1.7E1,1E1,1E0,2.94E2,1.7E1,8.6E1,1.1E1,2E0,9E0,1.3E1,1E0,3E0,1.1E1,1E1,2.1E1,1.6E1,1.2E1,6E0,9.2E1,3.8E1,6E0,5E1,2E0,1E0,1.4E1,5.4E1,2E1,9E0,2.2E1,4E1,2.8E1,4.5E1,8E0,5E0,2E0,1.5E1,2E0,1E0,1.5E1,2E0,3E0,7E0,1.14E2,1.8E2,3E0,1.4E1,8E1,6E0,5E0,6E0,4E0,5E0,1.1E1,2E0,7E0,4E0,8E0,2E0,1.5E1,6E0,2E0,1.4E1,9E0,3E0,5E0,1E0,6.1E1,3.1E1,3.2E1,6E0],"tree_param":{"num_deleted":"0","num_feature":"11","num_nodes":"113","size_leaf_vector":"1"}},{"base_weights":[1.8010747E-4,-1.467242E-1,1.164146E-1,3.1271607E-2,-1.8695496E-1,-4.826852E-2,2.354706E-1,9.6006945E-2,-4.070635E-1,-7.3623586E-1,-1.7736092E-1,-9.918594E-2,1.5222974E-1,2.5707975E-1,-3.6039647E-2,-1.4818026E-1,1.9555622E-1,-5.895732E-2,-3.0099768E-2,-2.9152095E-2,-1.0837771E-1,-1.592439E-1,-4.801057E-1,-2.775133E-1,-2.9194128E-2,9.306758E-2,4.939073E-1,3.565811E-1,1.7364356E-1,3.6450084E-2,-2.1767342E-1,1.0458482E-1,5.7627475E-1,-1.1736749E-1,-2.5090125E-1,-5.926149E-1,1.1808479E-1,4.5621293E-3,-4.715827E-1,2.61697E-1,-6.9161244E-2,4.0226523E-2,4.1221634E-1,6.3836165E-2,8.851433E-2,3.846644E-1,1.3269265E-2,7.462982E-1,1.4904223E-1,-3.983138E-2,-3.3666396E-3,3.0725E-2,-1.1204625E-2,7.153102E-2,1.8889392E-2,-4.547706E-2,-9.100164E-3,-2.5873763E-2,2.898767E-2,-7.5324E-2,1.1772669E-2,2.5441552E-2,-1.4545369E-2,3.5747446E-2,-3.4873035E-2,-5.973828E-2,-1.9509733E-3,5.1885326E-3,6.377041E-2,-6.011016E-2,-4.1527315E-3,1.1700022E-2,-9.974269E-3,-1.174577E-3,6.2713385E-2,1.2094403E-2,1.182747E-3,1.3811558E-2,4.3186046E-2,-1.6569737E-2,4.1262686E-2,4.2562686E-2,1.0319843E-1,1.0827159E-2,5.0960917E-2],"categories":[],"categories_nodes":[],"categories_segments":[],"categories_sizes":[],"default_left":[0,0,0,0,0,0,0,0,0,0,0,0,0,0,0,0,0,0,0,0,0,0,0,0,0,0,0,0,0,0,0,0,0,0,0,0,0,0,0,0,0,0,0,0,0,0,0,0,0,0,0,0,0,0,0,0,0,0,0,0,0,0,0,0,0,0,0,0,0,0,0,0,0,0,0,0,0,0,0,0,0,0,0,0,0],"id":10,"left_children":[1,3,5,7,9,11,13,15,17,19,21,23,25,27,-1,29,31,-1,-1,-1,-1,33,35,37,39,41,43,45,47,-1,49,51,53,55,57,59,61,63,65,67,69,71,73,-1,75,77,79,81,83,-1,-1,-1,-1,-1,-1,-1,-1,-1,-1,-1,-1,-1,-1,-1,-1,-1,-1,-1,-1,-1,-1,-1,-1,-1,-1,-1,-1,-1,-1,-1,-1,-1,-1,-1,-1],"loss_changes":[1.7433935E1,3.2354174E0,1.11870775E1,2.4226458E0,1.8087168E0,2.4652243E0,4.3546715E0,1.8278184E0,3.5478234E-2,6.11397E-1,1.9145412E0,2.3883376E0,9.44538E-1,2.5947247E0,0E0,8.631543E-1,1.7753582E0,0E0,0E0,0E0,0E0,1.2909212E0,1.4160175E0,2.958231E0,1.6341242E0,7.085767E-1,3.534212E-1,1.392889E0,2.3682694E0,0E0,6.5137225E-1,1.9661833E0,4.034791E-1,2.0758443E0,5.2843904E-1,2.0283542E0,1.8071926E-1,2.9923315E0,1.8082108E0,1.308054E0,1.7830884E0,4.200161E-1,5.540675E-1,0E0,6.0303323E-3,1.4995937E0,9.2603135E-1,2.0203924E-1,2.4439166E0,0E0,0E0,0E0,0E0,0E0,0E0,0E0,0E0,0E0,0E0,0E0,0E0,0E0,0E0,0E0,0E0,0E0,0E0,0E0,0E0,0E0,0E0,0E0,0E0,0E0,0E0,0E0,0E0,0E0,0E0,0E0,0E0,0E0,0E0,0E0,0E0],"parents":[2147483647,0,0,1,1,2,2,3,3,4,4,5,5,6,6,7,7,8,8,9,9,10,10,11,11,12,12,13,13,15,15,16,16,21,21,22,22,23,23,24,24,25,25,26,26,27,27,28,28,30,30,31,31,32,32,33,33,34,34,35,35,36,36,37,37,38,38,39,39,40,40,41,41,42,42,44,44,45,45,46,46,47,47,48,48],"right_children":[2,4,6,8,10,12,14,16,18,20,22,24,26,28,-1,30,32,-1,-1,-1,-1,34,36,38,40,42,44,46,48,-1,50,52,54,56,58,60,62,64,66,68,70,72,74,-1,76,78,80,82,84,-1,-1,-1,-1,-1,-1,-1,-1,-1,-1,-1,-1,-1,-1,-1,-1,-1,-1,-1,-1,-1,-1,-1,-1,-1,-1,-1,-1,-1,-1,-1,-1,-1,-1,-1,-1],"split_conditions":[-4.4397622E-1,-6.582015E-1,-1.6611499E-1,1.1109067E0,-8.0795735E-1,1.3864352E0,1.810313E0,-4.6118036E-1,1.1717247E0,-3.499753E-1,1.1952317E0,-8.487156E-1,9.6573746E-1,-6.582015E-1,-3.6039647E-2,-8.266172E-1,1.9421213E0,-5.895732E-2,-3.0099768E-2,-2.9152095E-2,-1.0837771E-1,3.944844E-1,1.2501988E0,-7.200549E-2,-8.048582E-1,7.7700746E-1,-4.6465197E-1,1.6382049E0,-2.208397E0,3.6450084E-2,-2.8790578E-1,4.946728E-1,-1.3395333E-1,-1.1103243E0,9.6541953E-1,2.4591987E0,1.425044E0,6.625462E-1,3.513975E-1,-4.661925E-1,-7.744493E-1,-4.3689113E-2,-1.719632E0,6.3836165E-2,-1.160343E0,-1.5520378E0,1.9976583E0,-7.752667E-1,1.9463078E0,-3.983138E-2,-3.3666396E-3,3.0725E-2,-1.1204625E-2,7.153102E-2,1.8889392E-2,-4.547706E-2,-9.100164E-3,-2.5873763E-2,2.898767E-2,-7.5324E-2,1.1772669E-2,2.5441552E-2,-1.4545369E-2,3.5747446E-2,-3.4873035E-2,-5.973828E-2,-1.9509733E-3,5.1885326E-3,6.377041E-2,-6.011016E-2,-4.1527315E-3,1.1700022E-2,-9.974269E-3,-1.174577E-3,6.2713385E-2,1.2094403E-2,1.182747E-3,1.3811558E-2,4.3186046E-2,-1.6569737E-2,4.1262686E-2,4.2562686E-2,1.0319843E-1,1.0827159E-2,5.0960917E-2],"split_indices":[10,1,9,6,3,10,6,9,6,4,0,5,3,1,0,2,0,0,0,0,0,5,9,8,6,5,7,2,7,0,6,7,3,9,0,0,0,2,4,5,6,1,1,0,0,1,2,2,2,0,0,0,0,0,0,0,0,0,0,0,0,0,0,0,0,0,0,0,0,0,0,0,0,0,0,0,0,0,0,0,0,0,0,0,0],"split_type":[0,0,0,0,0,0,0,0,0,0,0,0,0,0,0,0,0,0,0,0,0,0,0,0,0,0,0,0,0,0,0,0,0,0,0,0,0,0,0,0,0,0,0,0,0,0,0,0,0,0,0,0,0,0,0,0,0,0,0,0,0,0,0,0,0,0,0,0,0,0,0,0,0,0,0,0,0,0,0,0,0,0,0,0,0],"sum_hessian":[1.019E3,4.5E2,5.69E2,8.3E1,3.67E2,2.39E2,3.3E2,7.3E1,1E1,5E0,3.62E2,1.91E2,4.8E1,3.19E2,1.1E1,2.1E1,5.2E1,2E0,8E0,3E0,2E0,3.43E2,1.9E1,5.3E1,1.38E2,4.2E1,6E0,1.44E2,1.75E2,2E0,1.9E1,4.3E1,9E0,2.37E2,1.06E2,1.6E1,3E0,2.2E1,3.1E1,1.6E1,1.22E2,3.7E1,5E0,4E0,2E0,1.33E2,1.1E1,6E0,1.69E2,9E0,1E1,2.2E1,2.1E1,6E0,3E0,1.6E1,2.21E2,1.05E2,1E0,1.3E1,3E0,2E0,1E0,1.1E1,1.1E1,2.4E1,7E0,1.1E1,5E0,5E0,1.17E2,2.4E1,1.3E1,2E0,3E0,1E0,1E0,2.2E1,1.11E2,8E0,3E0,4E0,2E0,1.53E2,1.6E1],"tree_param":{"num_deleted":"0","num_feature":"11","num_nodes":"85","size_leaf_vector":"1"}},{"base_weights":[-1.3439823E-2,-1.212126E-1,1.3933241E-1,-7.795151E-2,-2.4935536E-1,-7.511079E-2,2.1717888E-1,4.6846415E-3,-1.7060266E-1,-6.6991305E-1,-2.2153209E-1,5.626196E-2,-2.73393E-1,3.020425E-1,1.361892E-1,-5.698968E-2,2.0132369E-1,-1.4814791E-1,-6.681063E-1,-7.756872E-1,-1.9980224E-2,-2.6476574E-1,-3.142125E-2,1.9144323E-1,-1.19980395E-1,-2.249207E-1,-8.931892E-2,3.7123615E-1,4.8946112E-2,7.560582E-1,1.0768429E-1,-9.688324E-2,1.9070107E-1,1.1341143E-1,4.969114E-1,-1.8293889E-1,2.0572805E-1,-2.818478E-1,-1.0804675E-1,-2.2066196E-2,-9.5356494E-2,-2.4359505E-1,-5.6567335E-1,1.704708E-1,-2.7748677E-1,4.074474E-1,1.4072895E-2,-2.1156387E-1,2.3101624E-2,2.8087685E-2,-3.3192706E-1,4.277918E-1,8.42455E-2,-1.4102082E-1,3.3040038E-1,9.5124446E-2,3.718574E-2,5.2254345E-2,3.7263387E-1,-6.4727585E-3,-5.26562E-2,3.63681E-2,-1.7644787E-2,-1.6606225E-2,2.2853931E-2,6.8212315E-3,6.798652E-2,-1.9731799E-3,-2.1990327E-2,-1.616147E-2,3.1446043E-2,-3.5511304E-2,4.223919E-3,-1.8730953E-2,-3.2955762E-2,-8.645442E-2,-2.7321616E-2,-7.3776366E-3,3.686382E-2,2.4582267E-2,-3.415811E-2,5.319142E-2,1.3586903E-2,-4.2991713E-3,2.2810383E-2,-3.252198E-2,8.889398E-3,-1.9124107E-2,1.3961405E-2,3.036055E-2,-2.1650136E-2,-4.948243E-2,-3.277107E-3,4.699709E-2,1.0936476E-2,-2.7279553E-3,7.624891E-2,-4.9506943E-3,-4.2396385E-2,8.875883E-2,1.8766355E-3,1.5157813E-2,-5.409365E-3,4.1544463E-2,-3.702226E-2],"categories":[],"categories_nodes":[],"categories_segments":[],"categories_sizes":[],"default_left":[0,0,0,0,0,0,0,0,0,0,0,0,0,0,0,0,0,0,0,0,0,0,0,0,0,0,0,0,0,0,0,0,0,0,0,0,0,0,0,0,0,0,0,0,0,0,0,0,0,0,0,0,0,0,0,0,0,0,0,0,0,0,0,0,0,0,0,0,0,0,0,0,0,0,0,0,0,0,0,0,0,0,0,0,0,0,0,0,0,0,0,0,0,0,0,0,0,0,0,0,0,0,0,0,0],"id":11,"left_children":[1,3,5,7,9,11,13,15,17,19,21,23,25,27,29,31,33,35,37,39,-1,41,43,45,47,49,-1,51,53,55,57,59,61,63,65,67,69,71,-1,-1,-1,73,75,77,79,81,83,85,87,89,91,93,95,97,99,-1,-1,101,103,-1,-1,-1,-1,-1,-1,-1,-1,-1,-1,-1,-1,-1,-1,-1,-1,-1,-1,-1,-1,-1,-1,-1,-1,-1,-1,-1,-1,-1,-1,-1,-1,-1,-1,-1,-1,-1,-1,-1,-1,-1,-1,-1,-1,-1,-1],"loss_changes":[1.7074305E1,3.3510685E0,7.177886E0,3.4920883E0,1.6418896E0,3.011003E0,2.1238832E0,2.9463477E0,2.3028555E0,2.9254627E-1,1.1834631E0,1.6906961E0,1.1810791E0,2.6612673E0,2.798683E0,1.8465098E0,1.4508202E0,2.586156E0,1.1289749E0,4.8067093E-1,0E0,6.139145E-1,1.4383062E0,1.5267751E0,4.111099E-1,1.2005572E0,0E0,1.9116745E0,1.8644714E0,1.712079E-1,2.286252E0,2.1765733E0,1.7154152E0,1.5180115E0,9.732423E-1,1.13587E0,8.0972034E-1,1.5746555E-1,0E0,0E0,0E0,4.8017693E-1,3.756411E-1,8.0162585E-1,5.200037E-1,5.3617406E-1,2.9071915E-1,6.7773765E-1,3.513566E-1,1.0091718E0,1.4944661E0,1.2916985E0,1.6092643E0,5.227683E-1,2.4142852E0,0E0,0E0,1.3919375E0,1.0124674E0,0E0,0E0,0E0,0E0,0E0,0E0,0E0,0E0,0E0,0E0,0E0,0E0,0E0,0E0,0E0,0E0,0E0,0E0,0E0,0E0,0E0,0E0,0E0,0E0,0E0,0E0,0E0,0E0,0E0,0E0,0E0,0E0,0E0,0E0,0E0,0E0,0E0,0E0,0E0,0E0,0E0,0E0,0E0,0E0,0E0,0E0],"parents":[2147483647,0,0,1,1,2,2,3,3,4,4,5,5,6,6,7,7,8,8,9,9,10,10,11,11,12,12,13,13,14,14,15,15,16,16,17,17,18,18,19,19,21,21,22,22,23,23,24,24,25,25,27,27,28,28,29,29,30,30,31,31,32,32,33,33,34,34,35,35,36,36,37,37,41,41,42,42,43,43,44,44,45,45,46,46,47,47,48,48,49,49,50,50,51,51,52,52,53,53,54,54,57,57,58,58],"right_children":[2,4,6,8,10,12,14,16,18,20,22,24,26,28,30,32,34,36,38,40,-1,42,44,46,48,50,-1,52,54,56,58,60,62,64,66,68,70,72,-1,-1,-1,74,76,78,80,82,84,86,88,90,92,94,96,98,100,-1,-1,102,104,-1,-1,-1,-1,-1,-1,-1,-1,-1,-1,-1,-1,-1,-1,-1,-1,-1,-1,-1,-1,-1,-1,-1,-1,-1,-1,-1,-1,-1,-1,-1,-1,-1,-1,-1,-1,-1,-1,-1,-1,-1,-1,-1,-1,-1,-1],"split_conditions":[7.229363E-2,7.104852E-1,-4.021673E-1,1.6183885E-2,-6.305879E-1,3.7529662E-1,-5.46472E-1,3.0598962E-1,1.482497E0,-8.7796766E-1,7.543795E-1,-6.236561E-1,1.9365708E0,1.0741079E-1,-2.0599933E0,5.428909E-1,1.8846682E0,9.6541953E-1,-5.46472E-1,-3.499753E-1,-1.9980224E-2,1.4830213E0,2.917334E-1,-1.3679826E-1,1.1247003E0,-9.33285E-1,-8.931892E-2,1.3814527E0,-1.3743807E-1,1.0141466E0,1.3301022E0,4.311614E-1,-4.6716395E-1,-6.551405E-1,-7.440403E-1,-7.699311E-1,-7.699311E-1,1.9421213E0,-1.0804675E-1,-2.2066196E-2,-9.5356494E-2,-1.261883E-1,-8.487156E-1,4.4834214E-1,9.2928404E-1,-4.1373646E-1,-7.985606E-1,-5.2019346E-1,6.0420805E-1,-6.432657E-1,-5.0076854E-1,2.238752E-1,9.551335E-1,1.2501988E0,-1.0492549E0,9.5124446E-2,3.718574E-2,-5.185144E-1,2.6138637E0,-6.4727585E-3,-5.26562E-2,3.63681E-2,-1.7644787E-2,-1.6606225E-2,2.2853931E-2,6.8212315E-3,6.798652E-2,-1.9731799E-3,-2.1990327E-2,-1.616147E-2,3.1446043E-2,-3.5511304E-2,4.223919E-3,-1.8730953E-2,-3.2955762E-2,-8.645442E-2,-2.7321616E-2,-7.3776366E-3,3.686382E-2,2.4582267E-2,-3.415811E-2,5.319142E-2,1.3586903E-2,-4.2991713E-3,2.2810383E-2,-3.252198E-2,8.889398E-3,-1.9124107E-2,1.3961405E-2,3.036055E-2,-2.1650136E-2,-4.948243E-2,-3.277107E-3,4.699709E-2,1.0936476E-2,-2.7279553E-3,7.624891E-2,-4.9506943E-3,-4.2396385E-2,8.875883E-2,1.8766355E-3,1.5157813E-2,-5.409365E-3,4.1544463E-2,-3.702226E-2],"split_indices":[10,1,9,6,3,1,1,9,0,2,7,7,8,6,7,1,0,0,1,4,0,8,3,8,2,9,0,2,4,9,2,1,2,8,6,1,1,0,0,0,0,0,5,0,7,4,7,9,10,0,6,4,9,9,1,0,0,2,2,0,0,0,0,0,0,0,0,0,0,0,0,0,0,0,0,0,0,0,0,0,0,0,0,0,0,0,0,0,0,0,0,0,0,0,0,0,0,0,0,0,0,0,0,0,0],"split_type":[0,0,0,0,0,0,0,0,0,0,0,0,0,0,0,0,0,0,0,0,0,0,0,0,0,0,0,0,0,0,0,0,0,0,0,0,0,0,0,0,0,0,0,0,0,0,0,0,0,0,0,0,0,0,0,0,0,0,0,0,0,0,0,0,0,0,0,0,0,0,0,0,0,0,0,0,0,0,0,0,0,0,0,0,0,0,0,0,0,0,0,0,0,0,0,0,0,0,0,0,0,0,0,0,0],"sum_hessian":[1.035E3,6.07E2,4.28E2,4.55E2,1.52E2,1.14E2,3.14E2,2.41E2,2.14E2,8E0,1.44E2,6.9E1,4.5E1,1.52E2,1.62E2,1.84E2,5.7E1,2.06E2,8E0,6E0,2E0,1.17E2,2.7E1,3.9E1,3E1,4.3E1,2E0,1.19E2,3.3E1,6E0,1.56E2,1.59E2,2.5E1,4.5E1,1.2E1,1.88E2,1.8E1,5E0,3E0,2E0,4E0,1.11E2,6E0,1.5E1,1.2E1,1.7E1,2.2E1,1.8E1,1.2E1,1.3E1,3E1,9.9E1,2E1,2E1,1.3E1,3E0,3E0,1.3E2,2.6E1,1.49E2,1E1,1.7E1,8E0,1.3E1,3.2E1,4E0,8E0,3.5E1,1.53E2,4E0,1.4E1,4E0,1E0,6.9E1,4.2E1,2E0,4E0,7E0,8E0,1E0,1.1E1,1.1E1,6E0,1.8E1,4E0,1.3E1,5E0,4E0,8E0,6E0,7E0,1.9E1,1.1E1,8.7E1,1.2E1,1.8E1,2E0,1.6E1,4E0,4E0,9E0,6.7E1,6.3E1,2.5E1,1E0],"tree_param":{"num_deleted":"0","num_feature":"11","num_nodes":"105","size_leaf_vector":"1"}},{"base_weights":[-2.4786536E-3,-4.9886882E-2,2.373332E-1,-1.0423836E-1,6.746462E-2,3.6713135E-1,1.7150709E-1,-7.457038E-2,-2.8383082E-1,1.7247494E-1,-1.2809537E-1,-3.2406107E-2,3.9815763E-1,5.72778E-2,3.1099552E-1,-1.8418184E-1,-3.9438274E-2,-5.7832265E-1,-2.0603387E-1,-1.3555208E-1,2.1622269E-1,-1.5549113E-1,5.477288E-2,6.0156035E-1,2.6474005E-1,1.0702351E-2,4.4165972E-1,3.4812266E-1,-4.1145563E-2,-9.3843535E-2,-1.7042014E-1,-1.9127037E-2,-2.579738E-1,-1.1502632E-1,-7.617772E-1,-7.30147E-1,-1.6186824E-1,-3.256535E-1,1.0143614E-1,4.099451E-1,1.3544877E-1,-1.9988826E-1,1.9767696E-1,4.52786E-1,9.8708116E-2,-4.0383816E-2,3.292617E-1,-1.8487151E-1,8.777335E-2,-2.7043024E-2,6.345495E-2,3.9910722E-1,-9.22819E-2,-2.3189427E-2,3.6837168E-3,1.4570864E-3,-1.7362792E-2,3.5071563E-2,-2.8795524E-2,2.0002795E-2,-3.2256044E-2,-1.0245053E-1,-4.2775653E-2,-8.465578E-2,-1.3225198E-2,-7.73139E-3,-2.7487556E-2,1.0516775E-2,-4.654166E-2,2.1716526E-2,-2.7956327E-2,7.217942E-2,2.6522292E-2,-1.2422139E-2,2.0686792E-2,-1.2265419E-2,-3.421372E-2,-2.1466112E-2,3.131589E-2,5.9686918E-2,-1.2387467E-3,1.6278183E-2,-2.3345351E-2,4.7836535E-2,1.3533882E-2,-2.5093025E-2,4.360342E-2,-2.15009E-2,1.4268425E-2,2.1821023E-3,-6.238556E-3,4.853221E-2,1.7353699E-2,2.3989057E-2,-2.0669451E-2],"categories":[],"categories_nodes":[],"categories_segments":[],"categories_sizes":[],"default_left":[0,0,0,0,0,0,0,0,0,0,0,0,0,0,0,0,0,0,0,0,0,0,0,0,0,0,0,0,0,0,0,0,0,0,0,0,0,0,0,0,0,0,0,0,0,0,0,0,0,0,0,0,0,0,0,0,0,0,0,0,0,0,0,0,0,0,0,0,0,0,0,0,0,0,0,0,0,0,0,0,0,0,0,0,0,0,0,0,0,0,0,0,0,0,0],"id":12,"left_children":[1,3,5,7,9,11,13,15,17,19,21,-1,23,25,27,29,31,33,35,37,39,41,-1,43,45,47,49,51,-1,-1,53,55,57,59,61,63,65,67,69,71,73,75,77,79,-1,81,83,85,87,89,-1,91,93,-1,-1,-1,-1,-1,-1,-1,-1,-1,-1,-1,-1,-1,-1,-1,-1,-1,-1,-1,-1,-1,-1,-1,-1,-1,-1,-1,-1,-1,-1,-1,-1,-1,-1,-1,-1,-1,-1,-1,-1,-1,-1],"loss_changes":[1.1847026E1,5.5560904E0,1.406621E0,3.1490808E0,5.6899776E0,1.351399E0,1.8304923E0,1.9643881E0,1.8053336E0,2.4548979E0,1.8810943E0,0E0,1.3333054E0,1.1589526E0,1.5380101E0,1.1271677E0,1.7217302E0,1.3572707E0,1.4558613E0,1.0692242E0,2.4168134E0,1.5133998E0,0E0,7.5753164E-1,7.023449E-1,9.0553814E-1,6.500156E-1,1.1595211E0,0E0,0E0,1.575681E0,1.8611988E0,7.0321965E-1,4.5682815E-1,6.148405E-1,2.3604822E-1,5.902848E-1,8.3171475E-1,5.457314E-1,1.8846116E0,2.1213303E0,8.808987E-1,5.910165E-1,1.146796E0,0E0,3.125779E-1,7.7378225E-1,8.0669045E-1,7.455986E-1,6.5422542E-3,0E0,7.909169E-1,2.776124E-1,0E0,0E0,0E0,0E0,0E0,0E0,0E0,0E0,0E0,0E0,0E0,0E0,0E0,0E0,0E0,0E0,0E0,0E0,0E0,0E0,0E0,0E0,0E0,0E0,0E0,0E0,0E0,0E0,0E0,0E0,0E0,0E0,0E0,0E0,0E0,0E0,0E0,0E0,0E0,0E0,0E0,0E0],"parents":[2147483647,0,0,1,1,2,2,3,3,4,4,5,5,6,6,7,7,8,8,9,9,10,10,12,12,13,13,14,14,15,15,16,16,17,17,18,18,19,19,20,20,21,21,23,23,24,24,25,25,26,26,27,27,30,30,31,31,32,32,33,33,34,34,35,35,36,36,37,37,38,38,39,39,40,40,41,41,42,42,43,43,45,45,46,46,47,47,48,48,49,49,51,51,52,52],"right_children":[2,4,6,8,10,12,14,16,18,20,22,-1,24,26,28,30,32,34,36,38,40,42,-1,44,46,48,50,52,-1,-1,54,56,58,60,62,64,66,68,70,72,74,76,78,80,-1,82,84,86,88,90,-1,92,94,-1,-1,-1,-1,-1,-1,-1,-1,-1,-1,-1,-1,-1,-1,-1,-1,-1,-1,-1,-1,-1,-1,-1,-1,-1,-1,-1,-1,-1,-1,-1,-1,-1,-1,-1,-1,-1,-1,-1,-1,-1,-1],"split_conditions":[1.1048334E0,1.8796347E-1,-7.744493E-1,1.2412004E0,1.3781975E-1,-1.1697658E0,4.8302886E-1,-8.6637884E-1,-9.5690304E-1,-1.032019E0,3.5502996E0,-3.2406107E-2,-5.2555496E-1,1.5420536E0,2.1144805E0,-1.8050513E0,1.5974501E0,-4.699521E-1,-6.6606176E-1,2.031653E-1,-2.410944E-1,3.0796041E0,5.477288E-2,1.6680368E0,-6.382196E-1,-5.625125E-1,-1.719632E0,1.4862511E0,-4.1145563E-2,-9.3843535E-2,1.6011404E-1,1.6011404E-1,-1.4326539E0,-3.499753E-1,-4.1345352E-1,-8.1562483E-1,-5.242319E-2,-9.5226455E-1,7.6635E-1,-7.699311E-1,-8.352672E-1,1.1109067E0,-6.3026917E-1,1.9463078E0,9.8708116E-2,-1.2887714E0,7.652471E-1,1.6278591E0,-1.3006463E0,-1.2177961E0,6.345495E-2,3.2027355E-1,-1.7923266E0,-2.3189427E-2,3.6837168E-3,1.4570864E-3,-1.7362792E-2,3.5071563E-2,-2.8795524E-2,2.0002795E-2,-3.2256044E-2,-1.0245053E-1,-4.2775653E-2,-8.465578E-2,-1.3225198E-2,-7.73139E-3,-2.7487556E-2,1.0516775E-2,-4.654166E-2,2.1716526E-2,-2.7956327E-2,7.217942E-2,2.6522292E-2,-1.2422139E-2,2.0686792E-2,-1.2265419E-2,-3.421372E-2,-2.1466112E-2,3.131589E-2,5.9686918E-2,-1.2387467E-3,1.6278183E-2,-2.3345351E-2,4.7836535E-2,1.3533882E-2,-2.5093025E-2,4.360342E-2,-2.15009E-2,1.4268425E-2,2.1821023E-3,-6.238556E-3,4.853221E-2,1.7353699E-2,2.3989057E-2,-2.0669451E-2],"split_indices":[10,9,6,1,6,6,9,10,6,2,5,0,8,5,0,10,6,7,3,7,0,9,0,10,9,4,1,9,0,0,4,4,8,4,0,0,4,7,1,1,6,6,1,2,0,2,2,6,1,0,0,6,0,0,0,0,0,0,0,0,0,0,0,0,0,0,0,0,0,0,0,0,0,0,0,0,0,0,0,0,0,0,0,0,0,0,0,0,0,0,0,0,0,0,0],"split_type":[0,0,0,0,0,0,0,0,0,0,0,0,0,0,0,0,0,0,0,0,0,0,0,0,0,0,0,0,0,0,0,0,0,0,0,0,0,0,0,0,0,0,0,0,0,0,0,0,0,0,0,0,0,0,0,0,0,0,0,0,0,0,0,0,0,0,0,0,0,0,0,0,0,0,0,0,0,0,0,0,0,0,0,0,0,0,0,0,0,0,0,0,0,0,0],"sum_hessian":[1.04E3,8.69E2,1.71E2,5.94E2,2.75E2,5.6E1,1.15E2,5.11E2,8.3E1,1.79E2,9.6E1,2E0,5.4E1,6.4E1,5.1E1,1.23E2,3.88E2,1.6E1,6.7E1,2.2E1,1.57E2,9.3E1,3E0,2E1,3.4E1,5.8E1,6E0,4.9E1,2E0,1E0,1.22E2,3.56E2,3.2E1,5E0,1.1E1,4E0,6.3E1,1.2E1,1E1,4.5E1,1.12E2,8.3E1,1E1,1.6E1,4E0,6E0,2.8E1,1.6E1,4.2E1,2E0,4E0,4.4E1,5E0,9.4E1,2.8E1,2.93E2,6.3E1,1E0,3.1E1,2E0,3E0,5E0,6E0,3E0,1E0,3.7E1,2.6E1,3E0,9E0,8E0,2E0,1.3E1,3.2E1,2.4E1,8.8E1,5.5E1,2.8E1,2E0,8E0,1.2E1,4E0,3E0,3E0,1.5E1,1.3E1,1.5E1,1E0,6E0,3.6E1,1E0,1E0,3.1E1,1.3E1,1E0,4E0],"tree_param":{"num_deleted":"0","num_feature":"11","num_nodes":"95","size_leaf_vector":"1"}},{"base_weights":[6.359961E-3,-8.059139E-2,1.18497744E-1,-1.150734E-1,3.0380461E-2,1.3324428E-1,-6.221647E-1,-3.43579E-1,-1.00653835E-1,1.6239808E-1,-6.336835E-2,-7.1654064E-3,1.8006903E-1,-7.5915056E-1,-9.514284E-2,1.1036569E-1,-5.166305E-1,-8.915136E-2,-9.663862E-2,-2.0479815E-1,2.5269502E-1,-4.984173E-2,-2.2464257E-2,7.511E-2,-1.3602535E-1,3.4191915E-1,1.5161034E-1,-8.533687E-2,-9.692097E-3,-1.47779705E-2,5.0654414E-4,1.9397163E-1,-2.3743797E-2,-3.263013E-1,-6.918517E-1,-3.549618E-2,-1.5339105E-1,2.650342E-2,-3.9085716E-1,3.170929E-1,3.8443487E-2,1.9196837E-1,-1.2512486E-1,1.6305004E-1,-7.660046E-2,-1.7606683E-2,-3.060964E-1,5.6900966E-1,1.91705E-1,2.5551733E-1,8.385637E-2,3.292168E-2,-9.609413E-3,-2.1215959E-2,-4.7300946E-2,-7.9692155E-2,-2.1607144E-2,-2.0013105E-2,1.0000257E-3,-3.3621E-2,-1.114464E-2,-4.150417E-2,-9.869051E-3,5.0197233E-2,2.2667883E-2,-2.8732577E-2,2.3724383E-2,-5.056379E-2,2.4210354E-2,-5.098307E-2,-4.3591284E-3,4.5458477E-2,1.050555E-2,-2.9860754E-2,2.0907805E-3,-1.6554264E-2,1.3158689E-2,-4.9399015E-2,1.5202284E-2,2.4501938E-2,7.375857E-2,4.928715E-2,8.332845E-3,9.56788E-3,3.696209E-2,4.6506897E-3,4.2605404E-2],"categories":[],"categories_nodes":[],"categories_segments":[],"categories_sizes":[],"default_left":[0,0,0,0,0,0,0,0,0,0,0,0,0,0,0,0,0,0,0,0,0,0,0,0,0,0,0,0,0,0,0,0,0,0,0,0,0,0,0,0,0,0,0,0,0,0,0,0,0,0,0,0,0,0,0,0,0,0,0,0,0,0,0,0,0,0,0,0,0,0,0,0,0,0,0,0,0,0,0,0,0,0,0,0,0,0,0],"id":13,"left_children":[1,3,5,7,9,11,13,15,17,19,21,23,25,27,29,31,33,-1,35,37,39,-1,41,43,45,47,49,-1,-1,-1,-1,51,-1,53,55,57,59,-1,61,63,65,67,69,71,73,75,77,79,81,83,85,-1,-1,-1,-1,-1,-1,-1,-1,-1,-1,-1,-1,-1,-1,-1,-1,-1,-1,-1,-1,-1,-1,-1,-1,-1,-1,-1,-1,-1,-1,-1,-1,-1,-1,-1,-1],"loss_changes":[1.0091599E1,2.2343645E0,5.019739E0,1.4316711E0,1.7306237E0,2.920434E0,5.7752323E-1,2.099469E0,1.2475424E0,1.97484E0,1.4480166E0,1.1976414E0,1.4819736E0,3.5404873E-1,1.6572516E-2,2.7868384E-1,4.0789223E-1,0E0,1.4484782E0,1.1525891E0,6.362848E-1,0E0,1.6970674E0,9.33048E-1,8.807525E-1,1.5624161E0,1.9850054E0,0E0,0E0,0E0,0E0,3.062457E-1,0E0,8.3847284E-2,2.777195E-1,1.5225322E0,1.6265459E0,0E0,2.263248E-2,4.8797894E-1,8.453227E-1,9.967819E-1,1.6088308E0,6.961701E-1,5.6907886E-1,6.177028E-1,1.6244972E0,8.5700035E-1,9.707509E-1,2.0073085E0,2.2040625E0,0E0,0E0,0E0,0E0,0E0,0E0,0E0,0E0,0E0,0E0,0E0,0E0,0E0,0E0,0E0,0E0,0E0,0E0,0E0,0E0,0E0,0E0,0E0,0E0,0E0,0E0,0E0,0E0,0E0,0E0,0E0,0E0,0E0,0E0,0E0,0E0],"parents":[2147483647,0,0,1,1,2,2,3,3,4,4,5,5,6,6,7,7,8,8,9,9,10,10,11,11,12,12,13,13,14,14,15,15,16,16,18,18,19,19,20,20,22,22,23,23,24,24,25,25,26,26,31,31,33,33,34,34,35,35,36,36,38,38,39,39,40,40,41,41,42,42,43,43,44,44,45,45,46,46,47,47,48,48,49,49,50,50],"right_children":[2,4,6,8,10,12,14,16,18,20,22,24,26,28,30,32,34,-1,36,38,40,-1,42,44,46,48,50,-1,-1,-1,-1,52,-1,54,56,58,60,-1,62,64,66,68,70,72,74,76,78,80,82,84,86,-1,-1,-1,-1,-1,-1,-1,-1,-1,-1,-1,-1,-1,-1,-1,-1,-1,-1,-1,-1,-1,-1,-1,-1,-1,-1,-1,-1,-1,-1,-1,-1,-1,-1,-1,-1],"split_conditions":[7.229363E-2,1.8796347E-1,2.7495492E0,-9.87312E-1,7.1908116E-1,-4.021673E-1,-4.1345352E-1,-6.551405E-1,-1.8050513E0,-1.032019E0,-8.352672E-1,3.7529662E-1,-8.4951884E-1,-8.266172E-1,-1.261883E-1,1.0219995E0,-8.1944525E-1,-8.915136E-2,1.6183885E-2,-4.532184E-1,1.2472923E0,-4.984173E-2,-3.487237E-1,-5.547543E-1,-1.3395333E-1,-7.440403E-1,-7.243587E-1,-8.533687E-2,-9.692097E-3,-1.47779705E-2,5.0654414E-4,2.635671E-1,-2.3743797E-2,-5.283596E-1,-4.1345352E-1,-4.532184E-1,2.898646E-1,2.650342E-2,-6.873526E-2,-3.959694E-1,-5.311775E-1,-8.0795735E-1,-6.305879E-1,-1.0785389E0,-4.7090656E-1,6.0420805E-1,-2.4370669E-1,-1.3395333E-1,-3.822706E-1,1.289504E-1,1.8880588E0,3.292168E-2,-9.609413E-3,-2.1215959E-2,-4.7300946E-2,-7.9692155E-2,-2.1607144E-2,-2.0013105E-2,1.0000257E-3,-3.3621E-2,-1.114464E-2,-4.150417E-2,-9.869051E-3,5.0197233E-2,2.2667883E-2,-2.8732577E-2,2.3724383E-2,-5.056379E-2,2.4210354E-2,-5.098307E-2,-4.3591284E-3,4.5458477E-2,1.050555E-2,-2.9860754E-2,2.0907805E-3,-1.6554264E-2,1.3158689E-2,-4.9399015E-2,1.5202284E-2,2.4501938E-2,7.375857E-2,4.928715E-2,8.332845E-3,9.56788E-3,3.696209E-2,4.6506897E-3,4.2605404E-2],"split_indices":[10,9,1,6,9,9,0,8,10,2,6,1,8,2,0,2,10,0,6,3,7,0,6,7,3,6,7,0,0,0,0,1,0,0,0,3,6,0,0,8,6,3,3,6,0,10,4,3,3,9,3,0,0,0,0,0,0,0,0,0,0,0,0,0,0,0,0,0,0,0,0,0,0,0,0,0,0,0,0,0,0,0,0,0,0,0,0],"split_type":[0,0,0,0,0,0,0,0,0,0,0,0,0,0,0,0,0,0,0,0,0,0,0,0,0,0,0,0,0,0,0,0,0,0,0,0,0,0,0,0,0,0,0,0,0,0,0,0,0,0,0,0,0,0,0,0,0,0,0,0,0,0,0,0,0,0,0,0,0,0,0,0,0,0,0,0,0,0,0,0,0,0,0,0,0,0,0],"sum_hessian":[1.033E3,5.82E2,4.51E2,4.44E2,1.38E2,4.43E2,8E0,2.5E1,4.19E2,5.7E1,8.1E1,1.11E2,3.32E2,6E0,2E0,7E0,1.8E1,1E0,4.18E2,1.1E1,4.6E1,6E0,7.5E1,6.8E1,4.3E1,4.8E1,2.84E2,5E0,1E0,1E0,1E0,6E0,1E0,1E1,8E0,2.02E2,2.16E2,3E0,8E0,3.5E1,1.1E1,2.4E1,5.1E1,4.3E1,2.5E1,2.6E1,1.7E1,1.8E1,3E1,1.11E2,1.73E2,4E0,2E0,7E0,3E0,6E0,2E0,4.3E1,1.59E2,3.9E1,1.77E2,7E0,1E0,1E1,2.5E1,4E0,7E0,1E0,2.3E1,8E0,4.3E1,6E0,3.7E1,7E0,1.8E1,1.3E1,1.3E1,1.2E1,5E0,7E0,1.1E1,7E0,2.3E1,4.7E1,6.4E1,1.57E2,1.6E1],"tree_param":{"num_deleted":"0","num_feature":"11","num_nodes":"87","size_leaf_vector":"1"}},{"base_weights":[2.8690672E-3,-9.974974E-2,8.188241E-2,-1.1040935E-1,3.824461E-1,1.4369863E-3,1.8956457E-1,-9.2451856E-2,-2.8422546E-1,-2.2533005E-2,5.625564E-2,1.2997429E-2,-4.756109E-1,2.0620143E-1,-2.8069338E-2,-1.5008412E-1,-4.525951E-2,-2.2356787E-1,-9.780324E-2,1.21990524E-1,-2.2368325E-2,-1.1382663E-1,-6.6991615E-1,1.73599E-1,4.1574878E-1,-2.8443015E-1,-9.9459775E-2,-3.851581E-2,-7.711804E-2,2.4359489E-2,-2.6926464E-1,2.2746652E-1,-1.23374365E-1,-5.2074704E-2,1.3033186E-1,-1.5497701E-2,4.8122407E-4,-7.4871026E-2,-1.7736984E-2,1.5357037E-1,5.628203E-1,4.9876127E-1,-1.32271E-1,-3.4232188E-2,-1.3038744E-2,-1.1951557E-2,3.449739E-2,-2.3280517E-3,-3.5917602E-2,-3.0821934E-2,2.6197705E-2,-1.7945874E-2,2.8802523E-2,-3.4908872E-2,1.5024026E-2,-2.0633718E-2,-1.2280884E-3,-2.0303763E-2,2.1730138E-2,-1.0826383E-2,1.7655225E-2,6.442578E-2,-8.505845E-3,7.870786E-2,2.948584E-2,3.307088E-3,-2.5352255E-2],"categories":[],"categories_nodes":[],"categories_segments":[],"categories_sizes":[],"default_left":[0,0,0,0,0,0,0,0,0,0,0,0,0,0,0,0,0,0,0,0,0,0,0,0,0,0,0,0,0,0,0,0,0,0,0,0,0,0,0,0,0,0,0,0,0,0,0,0,0,0,0,0,0,0,0,0,0,0,0,0,0,0,0,0,0,0,0],"id":14,"left_children":[1,3,5,7,9,11,13,15,17,-1,-1,19,21,23,-1,25,27,29,-1,31,33,35,37,39,41,43,45,47,-1,-1,49,51,53,55,57,-1,-1,-1,-1,59,61,63,65,-1,-1,-1,-1,-1,-1,-1,-1,-1,-1,-1,-1,-1,-1,-1,-1,-1,-1,-1,-1,-1,-1,-1,-1],"loss_changes":[8.424537E0,2.3655152E0,5.0846376E0,1.3564596E0,1.2214283E0,1.864698E0,2.0216064E0,1.089288E0,1.5068145E0,0E0,0E0,1.2747543E0,4.8611832E-1,1.5879421E0,0E0,1.202724E0,1.0619698E0,8.981564E-1,0E0,2.124352E0,1.1408294E0,2.0273924E-2,6.125021E-2,1.5662284E0,1.5217314E0,3.923378E-1,1.2267215E0,1.0761865E0,0E0,0E0,8.257437E-1,1.4563324E0,1.5964161E0,1.2865916E0,1.2328324E0,0E0,0E0,0E0,0E0,1.2406545E0,5.824156E-1,1.4140077E0,1.0862404E-1,0E0,0E0,0E0,0E0,0E0,0E0,0E0,0E0,0E0,0E0,0E0,0E0,0E0,0E0,0E0,0E0,0E0,0E0,0E0,0E0,0E0,0E0,0E0,0E0],"parents":[2147483647,0,0,1,1,2,2,3,3,4,4,5,5,6,6,7,7,8,8,11,11,12,12,13,13,15,15,16,16,17,17,19,19,20,20,21,21,22,22,23,23,24,24,25,25,26,26,27,27,30,30,31,31,32,32,33,33,34,34,39,39,40,40,41,41,42,42],"right_children":[2,4,6,8,10,12,14,16,18,-1,-1,20,22,24,-1,26,28,30,-1,32,34,36,38,40,42,44,46,48,-1,-1,50,52,54,56,58,-1,-1,-1,-1,60,62,64,66,-1,-1,-1,-1,-1,-1,-1,-1,-1,-1,-1,-1,-1,-1,-1,-1,-1,-1,-1,-1,-1,-1,-1,-1],"split_conditions":[-3.970426E-1,2.4017456E0,1.289504E-1,1.2684928E0,-3.499753E-1,2.7774816E0,1.810313E0,-8.6637884E-1,1.8949573E0,-2.2533005E-2,5.625564E-2,-4.6076217E-1,-3.822706E-1,1.9496386E0,-2.8069338E-2,-4.532184E-1,-4.4397622E-1,-4.349902E-1,-9.780324E-2,1.3675909E0,1.5741696E0,-1.261883E-1,-4.1345352E-1,1.9976583E0,1.7697622E0,4.5714435E-1,1.2238501E0,1.9245766E0,-7.711804E-2,2.4359489E-2,2.6680532E0,-7.752667E-1,-1.6611499E-1,-8.487156E-1,-7.9630345E-1,-1.5497701E-2,4.8122407E-4,-7.4871026E-2,-1.7736984E-2,-1.032019E0,1.1911858E0,5.4204196E-1,1.1760508E0,-3.4232188E-2,-1.3038744E-2,-1.1951557E-2,3.449739E-2,-2.3280517E-3,-3.5917602E-2,-3.0821934E-2,2.6197705E-2,-1.7945874E-2,2.8802523E-2,-3.4908872E-2,1.5024026E-2,-2.0633718E-2,-1.2280884E-3,-2.0303763E-2,2.1730138E-2,-1.0826383E-2,1.7655225E-2,6.442578E-2,-8.505845E-3,7.870786E-2,2.948584E-2,3.307088E-3,-2.5352255E-2],"split_indices":[10,0,9,7,4,1,6,10,2,0,0,8,3,10,0,3,10,4,0,0,10,0,0,2,0,2,8,5,0,0,4,2,9,5,4,0,0,0,0,2,9,9,2,0,0,0,0,0,0,0,0,0,0,0,0,0,0,0,0,0,0,0,0,0,0,0,0],"split_type":[0,0,0,0,0,0,0,0,0,0,0,0,0,0,0,0,0,0,0,0,0,0,0,0,0,0,0,0,0,0,0,0,0,0,0,0,0,0,0,0,0,0,0,0,0,0,0,0,0,0,0,0,0,0,0,0,0,0,0,0,0,0,0,0,0,0,0],"sum_hessian":[1.037E3,4.51E2,5.86E2,4.42E2,9E0,3.36E2,2.5E2,4.02E2,4E1,2E0,7E0,3.29E2,7E0,2.42E2,8E0,1.8E2,2.22E2,3.8E1,2E0,8E1,2.49E2,3E0,4E0,2.11E2,3.1E1,4.8E1,1.32E2,2.21E2,1E0,3E0,3.5E1,5.6E1,2.4E1,2.09E2,4E1,2E0,1E0,3E0,1E0,2.02E2,9E0,2.7E1,4E0,3.4E1,1.4E1,1.27E2,5E0,2.12E2,9E0,3.3E1,2E0,7E0,4.9E1,1.3E1,1.1E1,4.2E1,1.67E2,8E0,3.2E1,1.6E1,1.86E2,8E0,1E0,1E1,1.7E1,2E0,2E0],"tree_param":{"num_deleted":"0","num_feature":"11","num_nodes":"67","size_leaf_vector":"1"}},{"base_weights":[-3.0189408E-3,-5.1825054E-2,1.696433E-1,1.0357063E-1,-9.721121E-2,3.4956556E-2,2.0946476E-1,-2.1143442E-3,2.2689494E-1,-8.320347E-2,-2.7933106E-1,1.0269162E-1,-6.358384E-1,2.5758475E-1,2.3028476E-2,-4.7264212E-1,3.8824096E-2,2.621238E-1,-2.7476741E-2,-1.474026E-1,-4.543894E-2,-6.0982317E-1,-2.003238E-1,1.4189622E-2,4.0713584E-1,-8.1301644E-2,-2.4671428E-2,1.9099966E-1,4.4278648E-1,-1.8154474E-1,1.0552021E-1,-6.1266303E-1,-3.5052937E-2,-3.0524092E-2,4.2737287E-1,4.9534246E-1,2.0868158E-1,-1.5774566E-1,3.1648627E-1,-1.7567798E-1,-1.3497752E-2,-6.9824696E-1,4.5716763E-4,1.214779E-1,-2.7946013E-1,1.8572313E-1,-1.2680095E-1,-3.209145E-2,5.1203233E-1,-2.6108283E-1,2.116938E-1,-4.3414403E-2,4.8024577E-1,-3.1402895E-1,4.02421E-2,-6.0973212E-2,2.0704418E-1,-7.6965094E-3,-7.044096E-2,5.238056E-4,-5.781746E-3,8.199817E-3,-1.6046822E-2,7.151352E-2,1.2215924E-2,6.1615705E-2,-1.5303008E-2,-3.349985E-2,2.5873734E-2,-1.504667E-2,-8.3952405E-2,-1.19683985E-2,4.5544982E-2,-2.2744315E-2,2.6687367E-2,3.0755475E-3,-1.1965208E-2,-8.907342E-3,-7.849303E-2,-3.1771436E-2,3.2082774E-2,-2.6102008E-3,-3.5543423E-2,-1.9338464E-2,2.4519814E-2,-3.350852E-2,1.6153267E-3,-1.5601563E-2,6.0359497E-2,2.533462E-2,-4.5302667E-2,2.553236E-2,1.2254991E-3,5.1648743E-2,7.0251226E-3,-1.4625109E-2,-4.032996E-2,-8.037758E-3,9.049142E-3,-3.4845353E-4,-3.1793E-2,4.324336E-2,4.479235E-3],"categories":[],"categories_nodes":[],"categories_segments":[],"categories_sizes":[],"default_left":[0,0,0,0,0,0,0,0,0,0,0,0,0,0,0,0,0,0,0,0,0,0,0,0,0,0,0,0,0,0,0,0,0,0,0,0,0,0,0,0,0,0,0,0,0,0,0,0,0,0,0,0,0,0,0,0,0,0,0,0,0,0,0,0,0,0,0,0,0,0,0,0,0,0,0,0,0,0,0,0,0,0,0,0,0,0,0,0,0,0,0,0,0,0,0,0,0,0,0,0,0,0,0],"id":15,"left_children":[1,3,5,7,9,11,13,15,17,19,21,23,25,27,29,31,33,35,-1,37,39,41,43,45,47,-1,-1,49,51,53,55,57,59,61,63,65,67,69,71,73,75,77,-1,79,81,83,85,-1,87,89,91,-1,93,95,97,99,101,-1,-1,-1,-1,-1,-1,-1,-1,-1,-1,-1,-1,-1,-1,-1,-1,-1,-1,-1,-1,-1,-1,-1,-1,-1,-1,-1,-1,-1,-1,-1,-1,-1,-1,-1,-1,-1,-1,-1,-1,-1,-1,-1,-1,-1,-1],"loss_changes":[8.680147E0,5.673477E0,1.2101746E0,2.3725817E0,1.5635357E0,2.4734213E0,1.5640478E0,1.9253546E0,1.5565543E0,1.3970585E0,1.0267336E0,1.314475E0,1.4413834E-1,1.6295309E0,6.4355385E-1,4.6869755E-1,2.4919991E0,8.812647E-1,0E0,1.0767026E0,1.520185E0,4.3780923E-1,9.7619784E-1,9.667495E-1,1.0043876E0,0E0,0E0,1.0282371E0,1.3910661E0,3.3585292E-1,4.6900716E-1,2.4067569E-1,3.0544668E-3,1.1682649E0,1.1422453E0,1.1909509E0,1.8828206E0,9.15833E-1,3.5756886E-1,1.710129E0,1.3894931E0,2.997198E-1,0E0,8.0235475E-1,5.6818247E-1,4.5327145E-1,6.604651E-1,0E0,7.058525E-1,6.0848E-1,8.6701775E-1,0E0,4.8377705E-1,4.586047E-2,3.757876E-2,1.613853E-1,6.023176E-1,0E0,0E0,0E0,0E0,0E0,0E0,0E0,0E0,0E0,0E0,0E0,0E0,0E0,0E0,0E0,0E0,0E0,0E0,0E0,0E0,0E0,0E0,0E0,0E0,0E0,0E0,0E0,0E0,0E0,0E0,0E0,0E0,0E0,0E0,0E0,0E0,0E0,0E0,0E0,0E0,0E0,0E0,0E0,0E0,0E0,0E0],"parents":[2147483647,0,0,1,1,2,2,3,3,4,4,5,5,6,6,7,7,8,8,9,9,10,10,11,11,12,12,13,13,14,14,15,15,16,16,17,17,19,19,20,20,21,21,22,22,23,23,24,24,27,27,28,28,29,29,30,30,31,31,32,32,33,33,34,34,35,35,36,36,37,37,38,38,39,39,40,40,41,41,43,43,44,44,45,45,46,46,48,48,49,49,50,50,52,52,53,53,54,54,55,55,56,56],"right_children":[2,4,6,8,10,12,14,16,18,20,22,24,26,28,30,32,34,36,-1,38,40,42,44,46,48,-1,-1,50,52,54,56,58,60,62,64,66,68,70,72,74,76,78,-1,80,82,84,86,-1,88,90,92,-1,94,96,98,100,102,-1,-1,-1,-1,-1,-1,-1,-1,-1,-1,-1,-1,-1,-1,-1,-1,-1,-1,-1,-1,-1,-1,-1,-1,-1,-1,-1,-1,-1,-1,-1,-1,-1,-1,-1,-1,-1,-1,-1,-1,-1,-1,-1,-1,-1,-1],"split_conditions":[8.2323164E-1,-6.582015E-1,-6.0502E-1,3.6500272E-1,1.7719158E0,-6.475274E-1,1.0803256E0,-1.6079025E0,1.749495E0,-4.6118036E-1,-9.9216175E-1,6.01055E-1,-7.744493E-1,3.3343604E-1,-8.257958E-1,1.3301022E0,3.5389537E-1,-5.412588E-1,-2.7476741E-2,1.4830213E0,-4.532184E-1,3.978574E0,-4.562439E-1,5.759223E-1,-1.8872263E0,-8.1301644E-2,-2.4671428E-2,-1.1356078E0,-1.1103243E0,2.0262147E-1,1.1048334E0,-1.3327023E0,-8.7307787E-1,6.1119574E-1,-3.499753E-1,1.0741079E-1,-4.9875134E-1,3.1568887E0,-1.5050614E0,1.2787517E0,5.9395427E-1,-1.0785389E0,4.5716763E-4,-8.388109E-1,-7.1363133E-1,-1.1393569E0,-1.7930022E-1,-3.209145E-2,-1.3401219E0,-1.5050614E0,7.1908116E-1,-4.3414403E-2,1.4328032E0,-4.9115264E-1,-9.9339014E-1,3.9815512E-1,1.3101379E0,-7.6965094E-3,-7.044096E-2,5.238056E-4,-5.781746E-3,8.199817E-3,-1.6046822E-2,7.151352E-2,1.2215924E-2,6.1615705E-2,-1.5303008E-2,-3.349985E-2,2.5873734E-2,-1.504667E-2,-8.3952405E-2,-1.19683985E-2,4.5544982E-2,-2.2744315E-2,2.6687367E-2,3.0755475E-3,-1.1965208E-2,-8.907342E-3,-7.849303E-2,-3.1771436E-2,3.2082774E-2,-2.6102008E-3,-3.5543423E-2,-1.9338464E-2,2.4519814E-2,-3.350852E-2,1.6153267E-3,-1.5601563E-2,6.0359497E-2,2.533462E-2,-4.5302667E-2,2.553236E-2,1.2254991E-3,5.1648743E-2,7.0251226E-3,-1.4625109E-2,-4.032996E-2,-8.037758E-3,9.049142E-3,-3.4845353E-4,-3.1793E-2,4.324336E-2,4.479235E-3],"split_indices":[10,1,4,9,1,4,0,1,6,9,5,9,6,0,1,2,10,4,0,8,3,1,4,8,1,0,0,5,9,4,10,0,0,2,4,6,4,4,0,2,6,6,0,4,6,6,5,0,2,0,9,0,2,7,1,3,0,0,0,0,0,0,0,0,0,0,0,0,0,0,0,0,0,0,0,0,0,0,0,0,0,0,0,0,0,0,0,0,0,0,0,0,0,0,0,0,0,0,0,0,0,0,0],"split_type":[0,0,0,0,0,0,0,0,0,0,0,0,0,0,0,0,0,0,0,0,0,0,0,0,0,0,0,0,0,0,0,0,0,0,0,0,0,0,0,0,0,0,0,0,0,0,0,0,0,0,0,0,0,0,0,0,0,0,0,0,0,0,0,0,0,0,0,0,0,0,0,0,0,0,0,0,0,0,0,0,0,0,0,0,0,0,0,0,0,0,0,0,0,0,0,0,0,0,0,0,0,0,0],"sum_hessian":[1.028E3,8.02E2,2.26E2,1.81E2,6.21E2,5.2E1,1.74E2,9.8E1,8.3E1,5.78E2,4.3E1,4.8E1,4E0,1.38E2,3.6E1,7E0,9.1E1,7.8E1,5E0,2.13E2,3.65E2,7E0,3.6E1,3.8E1,1E1,2E0,2E0,1.03E2,3.5E1,1E1,2.6E1,5E0,2E0,7.8E1,1.3E1,1.3E1,6.5E1,2.09E2,4E0,7.1E1,2.94E2,6E0,1E0,7E0,2.9E1,1.7E1,2.1E1,1E0,9E0,4E0,9.9E1,1E0,3.4E1,6E0,4E0,1E1,1.6E1,1E0,4E0,1E0,1E0,4.2E1,3.6E1,6E0,7E0,1.1E1,2E0,5E0,6E1,2.08E2,1E0,1E0,3E0,6.4E1,7E0,2.08E2,8.6E1,1E0,5E0,2E0,5E0,7E0,2.2E1,2E0,1.5E1,8E0,1.3E1,1E0,8E0,1E0,3E0,8.1E1,1.8E1,3.1E1,3E0,3E0,3E0,1E0,3E0,9E0,1E0,6E0,1E1],"tree_param":{"num_deleted":"0","num_feature":"11","num_nodes":"103","size_leaf_vector":"1"}},{"base_weights":[3.4678061E-3,-5.943963E-2,1.2535228E-1,-2.1104394E-1,-4.181203E-2,-1.741471E-2,1.77989E-1,-4.1441467E-1,-1.4434673E-1,-1.4502097E-2,-1.6146523E-1,1.454598E-1,-1.1756374E-1,2.1698923E-1,-6.468296E-3,-4.9125051E-1,-4.1885614E-2,-2.3628318E-1,-1.5750328E-2,4.1721407E-3,-2.0855434E-1,-8.3306484E-2,-1.4814961E-1,1.7766646E-1,-5.0698996E-2,-1.5428028E-1,4.3503772E-2,3.343419E-1,1.608456E-1,-1.1577107E-1,1.8679944E-1,-1.5719008E-1,-6.5937406E-1,-1.1552381E-2,2.1168392E-3,-1.8181905E-1,-7.021634E-2,1.8828593E-1,-1.2953633E-1,-4.5917675E-2,8.930028E-2,1.6703248E-2,-2.2117339E-1,-2.0748067E-1,3.0860376E-2,3.4538892E-1,4.14176E-2,-2.3374451E-2,-2.6331824E-1,6.672132E-1,2.5109783E-1,1.3316256E-1,4.33821E-1,-1.6623784E-2,-5.095896E-1,3.4076765E-1,-2.5087777E-1,-4.543519E-3,-1.7045403E-2,-1.2017178E-2,-7.117529E-2,-2.0066319E-2,1.8233014E-2,-1.3698781E-2,3.7375413E-2,3.3752657E-2,-1.8317563E-2,-3.1064232E-3,-5.0457325E-2,1.647642E-2,-1.0041193E-2,-4.418769E-2,-2.0539768E-2,2.074932E-2,-2.2519303E-2,-2.029171E-2,2.9583031E-2,-8.618959E-3,4.131994E-2,-4.8629483E-3,3.3929415E-2,-1.804258E-2,6.517487E-3,-1.268018E-2,-4.004823E-2,7.427135E-2,-1.1939502E-2,3.8085356E-2,1.1715791E-2,3.4621406E-2,9.711823E-3,6.3373856E-2,9.496077E-3,-2.2725811E-2,2.3050157E-2,5.2697896E-3,-6.325867E-2,4.1570615E-2,-4.759598E-3,1.7566849E-2,-4.0143143E-2],"categories":[],"categories_nodes":[],"categories_segments":[],"categories_sizes":[],"default_left":[0,0,0,0,0,0,0,0,0,0,0,0,0,0,0,0,0,0,0,0,0,0,0,0,0,0,0,0,0,0,0,0,0,0,0,0,0,0,0,0,0,0,0,0,0,0,0,0,0,0,0,0,0,0,0,0,0,0,0,0,0,0,0,0,0,0,0,0,0,0,0,0,0,0,0,0,0,0,0,0,0,0,0,0,0,0,0,0,0,0,0,0,0,0,0,0,0,0,0,0,0],"id":16,"left_children":[1,3,5,7,9,11,13,15,17,19,21,23,25,27,29,31,33,35,37,39,41,-1,43,45,-1,47,-1,49,51,53,55,57,59,-1,-1,61,-1,63,65,67,69,-1,71,73,75,77,79,81,83,85,87,89,91,93,95,97,99,-1,-1,-1,-1,-1,-1,-1,-1,-1,-1,-1,-1,-1,-1,-1,-1,-1,-1,-1,-1,-1,-1,-1,-1,-1,-1,-1,-1,-1,-1,-1,-1,-1,-1,-1,-1,-1,-1,-1,-1,-1,-1,-1,-1],"loss_changes":[7.9509177E0,1.8191109E0,2.6558194E0,9.032433E-1,2.0040388E0,1.5830263E0,1.8574228E0,4.660244E-1,6.465268E-1,1.8163828E0,8.9605665E-1,8.675645E-1,1.2844942E0,1.349596E0,9.933622E-1,6.8264127E-1,2.1018188E-2,6.842935E-1,5.8158517E-1,1.9570369E0,2.4548328E-1,0E0,1.206559E0,8.0836654E-1,0E0,8.0744636E-1,0E0,1.7167149E0,1.0455215E0,1.1629097E0,1.2310934E0,1.149252E-3,1.6865206E-1,0E0,0E0,2.4244899E-1,0E0,5.9415114E-1,4.6267343E-1,1.9531713E0,2.450337E0,0E0,5.8955193E-2,6.7149043E-1,1.8564051E0,5.0386226E-1,5.7978094E-1,3.8724253E-1,5.296979E-1,8.607354E-1,9.286301E-1,9.954021E-1,8.20493E-1,1.3537103E0,4.482944E-1,3.981297E-1,3.9160937E-1,0E0,0E0,0E0,0E0,0E0,0E0,0E0,0E0,0E0,0E0,0E0,0E0,0E0,0E0,0E0,0E0,0E0,0E0,0E0,0E0,0E0,0E0,0E0,0E0,0E0,0E0,0E0,0E0,0E0,0E0,0E0,0E0,0E0,0E0,0E0,0E0,0E0,0E0,0E0,0E0,0E0,0E0,0E0,0E0],"parents":[2147483647,0,0,1,1,2,2,3,3,4,4,5,5,6,6,7,7,8,8,9,9,10,10,11,11,12,12,13,13,14,14,15,15,16,16,17,17,18,18,19,19,20,20,22,22,23,23,25,25,27,27,28,28,29,29,30,30,31,31,32,32,35,35,37,37,38,38,39,39,40,40,42,42,43,43,44,44,45,45,46,46,47,47,48,48,49,49,50,50,51,51,52,52,53,53,54,54,55,55,56,56],"right_children":[2,4,6,8,10,12,14,16,18,20,22,24,26,28,30,32,34,36,38,40,42,-1,44,46,-1,48,-1,50,52,54,56,58,60,-1,-1,62,-1,64,66,68,70,-1,72,74,76,78,80,82,84,86,88,90,92,94,96,98,100,-1,-1,-1,-1,-1,-1,-1,-1,-1,-1,-1,-1,-1,-1,-1,-1,-1,-1,-1,-1,-1,-1,-1,-1,-1,-1,-1,-1,-1,-1,-1,-1,-1,-1,-1,-1,-1,-1,-1,-1,-1,-1,-1,-1],"split_conditions":[3.5389537E-1,-9.33285E-1,-4.021673E-1,-1.0833695E0,2.238752E-1,-6.3026917E-1,1.6011404E-1,5.384542E-2,-2.6324677E-1,1.810313E0,-1.8050513E0,4.300284E0,1.5420536E0,-2.6638383E-1,1.3301022E0,-8.1944525E-1,-9.305309E-1,-5.009801E-3,-6.551405E-1,-1.16184354E-1,-1.3327023E0,-8.3306484E-2,1.775397E0,-4.1373646E-1,-5.0698996E-2,-2.7584893E-1,4.3503772E-2,-1.0688676E0,2.031653E-1,8.5931575E-1,1.3914242E0,-7.5308484E-1,6.804042E-2,-1.1552381E-2,2.1168392E-3,1.2886429E0,-7.021634E-2,-8.1944525E-1,-5.858126E-1,1.6382049E0,5.987557E-1,1.6703248E-2,-6.6606176E-1,-4.4875157E-1,-8.4951884E-1,-8.789052E-1,9.079665E-1,-6.528134E-1,-4.661925E-1,2.593992E0,-7.5308484E-1,-1.3901553E0,1.1518898E0,-2.0490113E-1,-1.3285787E0,1.7619041E0,9.6541953E-1,-4.543519E-3,-1.7045403E-2,-1.2017178E-2,-7.117529E-2,-2.0066319E-2,1.8233014E-2,-1.3698781E-2,3.7375413E-2,3.3752657E-2,-1.8317563E-2,-3.1064232E-3,-5.0457325E-2,1.647642E-2,-1.0041193E-2,-4.418769E-2,-2.0539768E-2,2.074932E-2,-2.2519303E-2,-2.029171E-2,2.9583031E-2,-8.618959E-3,4.131994E-2,-4.8629483E-3,3.3929415E-2,-1.804258E-2,6.517487E-3,-1.268018E-2,-4.004823E-2,7.427135E-2,-1.1939502E-2,3.8085356E-2,1.1715791E-2,3.4621406E-2,9.711823E-3,6.3373856E-2,9.496077E-3,-2.2725811E-2,2.3050157E-2,5.2697896E-3,-6.325867E-2,4.1570615E-2,-4.759598E-3,1.7566849E-2,-4.0143143E-2],"split_indices":[10,9,9,2,4,1,4,4,7,6,10,3,5,8,2,10,0,2,8,4,0,0,4,4,0,3,0,7,7,3,3,5,1,0,0,8,0,10,0,2,1,0,3,7,8,3,0,6,5,5,5,0,7,3,1,10,0,0,0,0,0,0,0,0,0,0,0,0,0,0,0,0,0,0,0,0,0,0,0,0,0,0,0,0,0,0,0,0,0,0,0,0,0,0,0,0,0,0,0,0,0],"split_type":[0,0,0,0,0,0,0,0,0,0,0,0,0,0,0,0,0,0,0,0,0,0,0,0,0,0,0,0,0,0,0,0,0,0,0,0,0,0,0,0,0,0,0,0,0,0,0,0,0,0,0,0,0,0,0,0,0,0,0,0,0,0,0,0,0,0,0,0,0,0,0,0,0,0,0,0,0,0,0,0,0,0,0,0,0,0,0,0,0,0,0,0,0,0,0,0,0,0,0,0,0],"sum_hessian":[1.035E3,6.83E2,3.52E2,7E1,6.13E2,9.5E1,2.57E2,1.6E1,5.4E1,5E2,1.13E2,3.6E1,5.9E1,2.12E2,4.5E1,1.3E1,3E0,3.1E1,2.3E1,4.57E2,4.3E1,1E0,1.12E2,3.5E1,1E0,5.6E1,3E0,6.7E1,1.45E2,2.9E1,1.6E1,5E0,8E0,1E0,2E0,2.9E1,2E0,8E0,1.5E1,2.88E2,1.69E2,1E0,4.2E1,8.4E1,2.8E1,1.5E1,2E1,2.6E1,3E1,1.2E1,5.5E1,1.33E2,1.2E1,2.4E1,5E0,1.2E1,4E0,1E0,4E0,1E0,7E0,2.8E1,1E0,3E0,5E0,1E0,1.4E1,2.8E2,8E0,1.21E2,4.8E1,1E0,4.1E1,3E0,8.1E1,1.5E1,1.3E1,2E0,1.3E1,1.6E1,4E0,9E0,1.7E1,1.6E1,1.4E1,1.1E1,1E0,2.7E1,2.8E1,1.8E1,1.15E2,7E0,5E0,1.3E1,1.1E1,1E0,4E0,1E1,2E0,1E0,3E0],"tree_param":{"num_deleted":"0","num_feature":"11","num_nodes":"101","size_leaf_vector":"1"}},{"base_weights":[-4.5966343E-3,-1.09963015E-1,4.591982E-2,-2.3863532E-1,-7.093839E-2,-1.6777003E-2,1.4713617E-1,-8.742987E-2,-2.9647622E-1,3.663254E-2,-1.3006434E-1,2.2044307E-2,-1.2759563E-1,2.1314555E-1,-7.7908946E-4,-2.3897651E-1,2.2659212E-1,-3.624155E-1,-2.0645334E-1,-1.4373292E-1,1.0877038E-1,-8.526116E-2,-3.107664E-1,1.483619E-1,-2.441846E-2,