{"learner":{"attributes":{"best_iteration":"39","best_score":"6.288406766868706"},"feature_names":["longitude","latitude","housing_median_age","total_rooms","total_bedrooms","population","households","median_income"],"feature_types":["float","float","float","float","float","float","float","float"],"gradient_booster":{"model":{"gbtree_model_param":{"num_parallel_tree":"1","num_trees":"40"},"iteration_indptr":[0,1,2,3,4,5,6,7,8,9,10,11,12,13,14,15,16,17,18,19,20,21,22,23,24,25,26,27,28,29,30,31,32,33,34,35,36,37,38,39,40],"tree_info":[0,0,0,0,0,0,0,0,0,0,0,0,0,0,0,0,0,0,0,0,0,0,0,0,0,0,0,0,0,0,0,0,0,0,0,0,0,0,0,0],"trees":[{"base_weights":[5.8687035E-2,-2.9233468E0,1.4452688E1,-1.0804981E1,-1.0310004E0,4.483317E0,1.6342836E1,-1.1359458E0,-2.582679E-1,-4.7756357E0,1.572365E0,7.1448565E-1,8.013987E-1,5.271986E-1,1.767334E1,-5.778919E-1,8.377333E-2,-1.5734969E-1,7.7957255E-1,-6.6700935E-2,1.3973205E-1,1.8052206E0,5.0479907E-1],"categories":[],"categories_nodes":[],"categories_segments":[],"categories_sizes":[],"default_left":[0,0,0,0,0,0,0,0,0,0,0,0,0,0,0,0,0,0,0,0,0,0,0],"id":0,"left_children":[1,3,5,7,9,11,13,-1,-1,15,17,19,-1,-1,21,-1,-1,-1,-1,-1,-1,-1,-1],"loss_changes":[7.2533813E3,2.0769297E3,4.7319385E2,9.375708E1,1.1188556E3,7.4113106E1,2.603413E2,0E0,0E0,2.6953564E2,1.3435592E3,4.7053576E0,0E0,0E0,9.322754E0,0E0,0E0,0E0,0E0,0E0,0E0,0E0,0E0],"parents":[2147483647,0,0,1,1,2,2,3,3,4,4,5,5,6,6,9,9,10,10,11,11,14,14],"right_children":[2,4,6,8,10,12,14,-1,-1,16,18,20,-1,-1,22,-1,-1,-1,-1,-1,-1,-1,-1],"split_conditions":[7.005618E-1,-9.283488E-1,-1.7180716E0,7.4750036E-1,-2.091168E-1,-3.5305625E-1,7.8169936E-1,-1.1359458E0,-2.582679E-1,9.2110276E-1,-1.2146141E-1,-9.8731846E-1,8.013987E-1,5.271986E-1,1.0563983E0,-5.778919E-1,8.377333E-2,-1.5734969E-1,7.7957255E-1,-6.6700935E-2,1.3973205E-1,1.8052206E0,5.0479907E-1],"split_indices":[7,7,2,5,2,3,7,0,0,4,6,3,0,0,1,0,0,0,0,0,0,0,0],"split_type":[0,0,0,0,0,0,0,0,0,0,0,0,0,0,0,0,0,0,0,0,0,0,0],"sum_hessian":[1.67E2,1.39E2,2.8E1,2.6E1,1.13E2,5E0,2.3E1,2.4E1,2E0,4.6E1,6.7E1,3E0,2E0,3E0,2E1,3.9E1,7E0,4.5E1,2.2E1,1E0,2E0,1.9E1,1E0],"tree_param":{"num_deleted":"0","num_feature":"8","num_nodes":"23","size_leaf_vector":"1"}},{"base_weights":[2.0965567E-1,-2.135904E0,1.7975494E1,-4.2378016E0,3.6317122E0,2.0112892E1,9.992318E0,5.418961E0,-4.97534E0,1.2898947E-1,9.87736E0,2.0898441E1,4.9503803E-1,1.2835597E0,2.8705075E0,-2.2377169E-1,1.0460511E0,-3.155963E-1,-7.5800216E-1,-1.7076592E-1,2.4140511E-1,1.0423055E0,1.3916655E-1,2.172908E0,5.465382E-1,8.303805E-2,3.4753808E-1],"categories":[],"categories_nodes":[],"categories_segments":[],"categories_sizes":[],"default_left":[0,0,0,0,0,0,0,0,0,0,0,0,0,0,0,0,0,0,0,0,0,0,0,0,0,0,0],"id":1,"left_children":[1,3,5,7,9,11,13,15,17,19,21,23,-1,-1,25,-1,-1,-1,-1,-1,-1,-1,-1,-1,-1,-1,-1],"loss_changes":[6.7890693E3,1.7610935E3,1.2322705E2,7.8191797E2,8.519201E2,6.3297363E1,8.465106E1,3.3221985E2,4.4522852E2,1.1324062E2,5.0322998E1,4.7893555E1,0E0,0E0,8.161659E-1,0E0,0E0,0E0,0E0,0E0,0E0,0E0,0E0,0E0,0E0,0E0,0E0],"parents":[2147483647,0,0,1,1,2,2,3,3,4,4,5,5,6,6,7,7,8,8,9,9,10,10,11,11,14,14],"right_children":[2,4,6,8,10,12,14,16,18,20,22,24,-1,-1,26,-1,-1,-1,-1,-1,-1,-1,-1,-1,-1,-1,-1],"split_conditions":[1.2638384E0,8.3527096E-2,6.1925167E-1,-1.4071728E0,9.821633E-1,1.444653E0,-9.3302697E-1,-1.4870319E0,-5.3046095E-1,-1.10974945E-1,1.0002263E0,1.0283122E0,4.9503803E-1,1.2835597E0,7.9394346E-1,-2.2377169E-1,1.0460511E0,-3.155963E-1,-7.5800216E-1,-1.7076592E-1,2.4140511E-1,1.0423055E0,1.3916655E-1,2.172908E0,5.465382E-1,8.303805E-2,3.4753808E-1],"split_indices":[7,7,0,0,2,5,1,0,1,3,1,1,0,0,0,0,0,0,0,0,0,0,0,0,0,0,0],"split_type":[0,0,0,0,0,0,0,0,0,0,0,0,0,0,0,0,0,0,0,0,0,0,0,0,0,0,0],"sum_hessian":[1.61E2,1.43E2,1.8E1,1.05E2,3.8E1,1.3E1,5E0,7E0,9.8E1,2.5E1,1.3E1,1.2E1,1E0,3E0,2E0,3E0,4E0,5.9E1,3.9E1,1.4E1,1.1E1,1.2E1,1E0,1.1E1,1E0,1E0,1E0],"tree_param":{"num_deleted":"0","num_feature":"8","num_nodes":"27","size_leaf_vector":"1"}},{"base_weights":[-1.9098704E-1,-2.4650419E0,1.4351493E1,-3.2126193E0,1.0925694E1,4.521E-1,1.5072445E1,-5.533074E0,-3.7062523E-1,2.4479623E0,1.8791437E0,1.6400288E0,9.019458E0,-4.3335685E-1,-9.224033E-1,-3.2508633E-1,2.2663748E-1,-6.8502925E-2,7.4899644E-1,1.0233479E0,1.474678E-1],"categories":[],"categories_nodes":[],"categories_segments":[],"categories_sizes":[],"default_left":[0,0,0,0,0,0,0,0,0,0,0,0,0,0,0,0,0,0,0,0,0],"id":2,"left_children":[1,3,5,7,9,-1,11,13,15,17,-1,-1,19,-1,-1,-1,-1,-1,-1,-1,-1],"loss_changes":[5.624274E3,1.5066602E3,9.486572E1,9.2120996E2,4.8746863E2,0E0,2.086377E1,3.009309E2,4.934597E2,8.41136E1,0E0,0E0,3.9866028E1,0E0,0E0,0E0,0E0,0E0,0E0,0E0,0E0],"parents":[2147483647,0,0,1,1,2,2,3,3,4,4,6,6,7,7,8,8,9,9,12,12],"right_children":[2,4,6,8,10,-1,12,14,16,18,-1,-1,20,-1,-1,-1,-1,-1,-1,-1,-1],"split_conditions":[9.5229346E-1,1.77635E0,-1.400397E0,-1.0986557E-1,-4.5210686E-1,4.521E-1,7.639963E-1,9.586528E-1,-2.653313E-1,9.8150223E-1,1.8791437E0,1.6400288E0,2.369054E-1,-4.3335685E-1,-9.224033E-1,-3.2508633E-1,2.2663748E-1,-6.8502925E-2,7.4899644E-1,1.0233479E0,1.474678E-1],"split_indices":[7,2,2,7,7,0,0,0,6,1,0,0,6,0,0,0,0,0,0,0,0],"split_type":[0,0,0,0,0,0,0,0,0,0,0,0,0,0,0,0,0,0,0,0,0],"sum_hessian":[1.68E2,1.46E2,2.2E1,1.39E2,7E0,2E0,2E1,7.6E1,6.3E1,4E0,3E0,1.5E1,5E0,5.9E1,1.7E1,3E1,3.3E1,3E0,1E0,4E0,1E0],"tree_param":{"num_deleted":"0","num_feature":"8","num_nodes":"21","size_leaf_vector":"1"}},{"base_weights":[-8.391758E-1,-4.547897E0,3.1774318E0,-5.8924055E0,-6.7433155E-1,-8.68149E-1,5.3417835E0,-6.043228E-1,-6.8137474E0,4.027583E0,-4.9282255E0,-4.431032E0,1.8582726E0,7.4165053E0,-3.7477097E-1,5.7217807E-1,-5.775355E-1,-9.453184E-1,-5.55955E-1,9.5043615E-2,9.174981E-1,-7.9344004E-2,-6.8964386E-1,9.024811E-3,-5.948153E-1,5.500066E-1,-8.7681025E-2,4.110596E-1,1.1291981E0,-2.753991E-1,2.512649E-2],"categories":[],"categories_nodes":[],"categories_segments":[],"categories_sizes":[],"default_left":[0,0,0,0,0,0,0,0,0,0,0,0,0,0,0,0,0,0,0,0,0,0,0,0,0,0,0,0,0,0,0],"id":3,"left_children":[1,3,5,7,9,11,13,15,17,19,21,23,25,27,29,-1,-1,-1,-1,-1,-1,-1,-1,-1,-1,-1,-1,-1,-1,-1,-1],"loss_changes":[2.3234043E3,4.1787805E2,6.6134204E2,2.882102E2,4.5988068E2,2.7050992E2,5.839321E2,3.6017014E2,1.1627344E2,1.6551204E2,9.218576E1,8.2848755E1,1.6419223E2,4.148142E2,2.1544657E1,0E0,0E0,0E0,0E0,0E0,0E0,0E0,0E0,0E0,0E0,0E0,0E0,0E0,0E0,0E0,0E0],"parents":[2147483647,0,0,1,1,2,2,3,3,4,4,5,5,6,6,7,7,8,8,9,9,10,10,11,11,12,12,13,13,14,14],"right_children":[2,4,6,8,10,12,14,16,18,20,22,24,26,28,30,-1,-1,-1,-1,-1,-1,-1,-1,-1,-1,-1,-1,-1,-1,-1,-1],"split_conditions":[-1.3903506E-1,3.3369058E-1,-6.8562883E-1,-1.1226748E0,4.3176314E-1,1.3510591E-1,6.641724E-1,1.0049073E0,-9.193979E-1,5.056513E-1,-8.5345E-1,-1.1077012E0,1.013556E0,-6.8123504E-3,-8.088464E-1,5.7217807E-1,-5.775355E-1,-9.453184E-1,-5.55955E-1,9.5043615E-2,9.174981E-1,-7.9344004E-2,-6.8964386E-1,9.024811E-3,-5.948153E-1,5.500066E-1,-8.7681025E-2,4.110596E-1,1.1291981E0,-2.753991E-1,2.512649E-2],"split_indices":[7,6,2,0,3,0,0,1,7,2,1,0,0,4,3,0,0,0,0,0,0,0,0,0,0,0,0,0,0,0,0],"split_type":[0,0,0,0,0,0,0,0,0,0,0,0,0,0,0,0,0,0,0,0,0,0,0,0,0,0,0,0,0,0,0],"sum_hessian":[1.54E2,8E1,7.4E1,5.9E1,2.1E1,2.6E1,4.8E1,9E0,5E1,1E1,1.1E1,1.1E1,1.5E1,3.5E1,1.3E1,4E0,5E0,1.4E1,3.6E1,7E0,3E0,4E0,7E0,3E0,8E0,6E0,9E0,2E1,1.5E1,2E0,1.1E1],"tree_param":{"num_deleted":"0","num_feature":"8","num_nodes":"31","size_leaf_vector":"1"}},{"base_weights":[1.0309826E-1,-2.6741724E0,1.077501E1,-6.5079994E0,8.4690434E-1,6.3921943E0,1.8561096E1,-3.6930385E0,-8.613937E0,-6.5524554E-1,9.174253E0,4.0949397E0,1.5706105E0,6.3831677E0,2.0558062E0,1.3536206E-1,-4.9015346E-1,-9.036476E-1,-1.3763885E-1,-1.535256E-1,6.934051E-1,1.20931745E-1,1.4282658E0,2.2128569E-1,7.803976E-1,1.1688432E0,-2.11368E-1],"categories":[],"categories_nodes":[],"categories_segments":[],"categories_sizes":[],"default_left":[0,0,0,0,0,0,0,0,0,0,0,0,0,0,0,0,0,0,0,0,0,0,0,0,0,0,0],"id":4,"left_children":[1,3,5,7,9,11,13,15,17,19,21,23,-1,25,-1,-1,-1,-1,-1,-1,-1,-1,-1,-1,-1,-1,-1],"loss_changes":[4.5931875E3,1.6659132E3,9.73353E2,3.179485E2,8.190916E2,4.0640588E2,1.3628247E2,1.7130423E2,8.84812E1,3.846505E2,3.8960883E2,1.1536447E2,0E0,1.5993964E2,0E0,0E0,0E0,0E0,0E0,0E0,0E0,0E0,0E0,0E0,0E0,0E0,0E0],"parents":[2147483647,0,0,1,1,2,2,3,3,4,4,5,5,6,6,7,7,8,8,9,9,10,10,11,11,13,13],"right_children":[2,4,6,8,10,12,14,16,18,20,22,24,-1,26,-1,-1,-1,-1,-1,-1,-1,-1,-1,-1,-1,-1,-1],"split_conditions":[5.5487233E-1,-5.7715654E-1,2.0006576E0,-5.3046095E-1,7.439073E-1,7.439073E-1,-1.2443615E-1,6.2424284E-1,-6.561353E-1,1.4313374E0,-5.2969784E-1,1.294798E0,1.5706105E0,-1.1376483E0,2.0558062E0,1.3536206E-1,-4.9015346E-1,-9.036476E-1,-1.3763885E-1,-1.535256E-1,6.934051E-1,1.20931745E-1,1.4282658E0,2.2128569E-1,7.803976E-1,1.1688432E0,-2.11368E-1],"split_indices":[7,7,7,1,2,2,0,0,7,4,3,7,0,0,0,0,0,0,0,0,0,0,0,0,0,0,0],"split_type":[0,0,0,0,0,0,0,0,0,0,0,0,0,0,0,0,0,0,0,0,0,0,0,0,0,0,0],"sum_hessian":[1.53E2,1.22E2,3.1E1,5.8E1,6.4E1,2.1E1,1E1,2.6E1,3.2E1,5.5E1,9E0,1.8E1,3E0,2E0,8E0,5E0,2.1E1,3E1,2E0,5E1,5E0,4E0,5E0,1.3E1,5E0,1E0,1E0],"tree_param":{"num_deleted":"0","num_feature":"8","num_nodes":"27","size_leaf_vector":"1"}},{"base_weights":[9.44981E-2,-2.215618E0,8.645617E0,-3.2862167E0,8.249036E0,-1.3387064E0,1.14460745E1,-7.1128774E-1,-5.5772705E0,1.1584033E1,-6.728966E-1,3.284783E0,-4.1979146E0,2.398905E0,1.32309475E1,1.0696682E0,-2.6720652E-1,-2.1717925E-1,-8.0294174E-1,1.296918E0,-1.1337214E-1,-1.5240288E-2,4.4813123E-1,-1.397295E-1,-6.53277E-1,8.8168776E-1,-3.0143005E-1,1.7913426E0,6.068616E-1],"categories":[],"categories_nodes":[],"categories_segments":[],"categories_sizes":[],"default_left":[0,0,0,0,0,0,0,0,0,0,0,0,0,0,0,0,0,0,0,0,0,0,0,0,0,0,0,0,0],"id":5,"left_children":[1,3,5,7,9,11,13,15,17,19,-1,21,23,25,27,-1,-1,-1,-1,-1,-1,-1,-1,-1,-1,-1,-1,-1,-1],"loss_changes":[3.4366104E3,1.5619805E3,1.0498682E3,7.3344556E2,7.2731934E2,1.3276492E2,4.3655298E2,1.3706915E3,5.3370996E2,2.08479E2,0E0,1.7133743E1,3.0106041E1,2.3502753E2,6.9618945E2,0E0,0E0,0E0,0E0,0E0,0E0,0E0,0E0,0E0,0E0,0E0,0E0,0E0,0E0],"parents":[2147483647,0,0,1,1,2,2,3,3,4,4,5,5,6,6,7,7,8,8,9,9,11,11,12,12,13,13,14,14],"right_children":[2,4,6,8,10,12,14,16,18,20,-1,22,24,26,28,-1,-1,-1,-1,-1,-1,-1,-1,-1,-1,-1,-1,-1,-1],"split_conditions":[5.0795895E-1,1.538094E0,-8.444662E-1,-5.3046095E-1,1.0563983E0,-1.1226748E0,-7.472459E-1,5.893045E-1,-1.1176836E0,2.5333142E-1,-6.728966E-1,-1.332305E0,-1.2415595E0,5.893045E-1,-4.5442614E-1,1.0696682E0,-2.6720652E-1,-2.1717925E-1,-8.0294174E-1,1.296918E0,-1.1337214E-1,-1.5240288E-2,4.4813123E-1,-1.397295E-1,-6.53277E-1,8.8168776E-1,-3.0143005E-1,1.7913426E0,6.068616E-1],"split_indices":[7,2,2,1,1,0,4,0,0,7,0,0,2,0,5,0,0,0,0,0,0,0,0,0,0,0,0,0,0],"split_type":[0,0,0,0,0,0,0,0,0,0,0,0,0,0,0,0,0,0,0,0,0,0,0,0,0,0,0,0,0],"sum_hessian":[1.72E2,1.36E2,3.6E1,1.24E2,1.2E1,8E0,2.8E1,5.9E1,6.5E1,1E1,2E0,3E0,5E0,5E0,2.3E1,8E0,5.1E1,2.8E1,3.7E1,9E0,1E0,1E0,2E0,3E0,2E0,2E0,3E0,1.3E1,1E1],"tree_param":{"num_deleted":"0","num_feature":"8","num_nodes":"29","size_leaf_vector":"1"}},{"base_weights":[1.0863072E0,-6.885783E-1,1.7788763E1,-2.115708E0,4.4985557E0,1.9206841E0,8.023785E-1,-8.702137E-1,-6.7997146E0,8.715256E0,2.614028E0,5.46083E-1,-1.8819927E-1,-7.145312E-1,1.2657033E-1,2.5081635E-2,9.5366174E-1,4.2267743E-1,-1.081106E-1],"categories":[],"categories_nodes":[],"categories_segments":[],"categories_sizes":[],"default_left":[0,0,0,0,0,0,0,0,0,0,0,0,0,0,0,0,0,0,0],"id":6,"left_children":[1,3,5,7,9,-1,-1,11,13,15,17,-1,-1,-1,-1,-1,-1,-1,-1],"loss_changes":[5.555854E3,1.267979E3,9.514307E1,7.7582587E2,2.712381E2,0E0,0E0,6.956782E2,8.7090576E1,7.408417E1,1.6547102E2,0E0,0E0,0E0,0E0,0E0,0E0,0E0,0E0],"parents":[2147483647,0,0,1,1,2,2,3,3,4,4,7,7,8,8,9,9,10,10],"right_children":[2,4,6,8,10,-1,-1,12,14,16,18,-1,-1,-1,-1,-1,-1,-1,-1],"split_conditions":[1.4507548E0,4.2513657E-1,7.8021926E-1,1.0751222E0,-5.647351E-1,1.9206841E0,8.023785E-1,-1.1675955E0,2.1721181E-1,-7.37E-1,7.639963E-1,5.46083E-1,-1.8819927E-1,-7.145312E-1,1.2657033E-1,2.5081635E-2,9.5366174E-1,4.2267743E-1,-1.081106E-1],"split_indices":[7,7,1,1,5,0,0,0,7,3,0,0,0,0,0,0,0,0,0],"split_type":[0,0,0,0,0,0,0,0,0,0,0,0,0,0,0,0,0,0,0],"sum_hessian":[1.86E2,1.69E2,1.7E1,1.33E2,3.6E1,1.4E1,3E0,1.06E2,2.7E1,1E1,2.6E1,1.4E1,9.2E1,2.6E1,1E0,1E0,9E0,1.8E1,8E0],"tree_param":{"num_deleted":"0","num_feature":"8","num_nodes":"19","size_leaf_vector":"1"}},{"base_weights":[1.3957918E0,-1.291706E0,9.704449E0,-4.8534946E0,9.7040343E-1,5.7895937E0,1.4725524E1,-1.2553795E-1,-6.518493E0,5.60434E0,-1.1384386E0,7.273141E0,-1.0058056E0,3.7073013E-1,1.521292E0,-2.4861546E-1,5.8073884E-1,-7.749057E-1,-2.7902347E-1,-1.825471E-1,9.688603E-1,1.1112036E-2,-6.272742E-1,1.9901474E-1,1.0189042E0,8.0152564E-2,-4.1175652E-1],"categories":[],"categories_nodes":[],"categories_segments":[],"categories_sizes":[],"default_left":[0,0,0,0,0,0,0,0,0,0,0,0,0,0,0,0,0,0,0,0,0,0,0,0,0,0,0],"id":7,"left_children":[1,3,5,7,9,11,13,15,17,19,21,23,25,-1,-1,-1,-1,-1,-1,-1,-1,-1,-1,-1,-1,-1,-1],"loss_changes":[3.4736074E3,9.554542E2,6.617031E2,3.612954E2,7.1975366E2,2.3918512E2,2.9524658E1,1.965078E2,1.343656E2,7.1562836E2,3.278934E2,2.7241138E2,3.1420235E1,0E0,0E0,0E0,0E0,0E0,0E0,0E0,0E0,0E0,0E0,0E0,0E0,0E0,0E0],"parents":[2147483647,0,0,1,1,2,2,3,3,4,4,5,5,6,6,7,7,8,8,9,9,10,10,11,11,12,12],"right_children":[2,4,6,8,10,12,14,16,18,20,22,24,26,-1,-1,-1,-1,-1,-1,-1,-1,-1,-1,-1,-1,-1,-1],"split_conditions":[5.740905E-1,-6.2517565E-1,1.4165306E0,-7.5027096E-1,-5.144342E-1,1.0189502E0,-1.0463516E0,-7.361782E-1,4.1739672E-1,-5.267915E-1,1.0657603E0,-1.7027023E-1,-1.2075251E0,3.7073013E-1,1.521292E0,-2.4861546E-1,5.8073884E-1,-7.749057E-1,-2.7902347E-1,-1.825471E-1,9.688603E-1,1.1112036E-2,-6.272742E-1,1.9901474E-1,1.0189042E0,8.0152564E-2,-4.1175652E-1],"split_indices":[7,7,7,3,5,1,3,6,6,2,1,5,0,0,0,0,0,0,0,0,0,0,0,0,0,0,0],"split_type":[0,0,0,0,0,0,0,0,0,0,0,0,0,0,0,0,0,0,0,0,0,0,0,0,0,0,0],"sum_hessian":[1.54E2,1.17E2,3.7E1,4.5E1,7.2E1,2.2E1,1.5E1,1.2E1,3.3E1,2.2E1,5E1,1.8E1,4E0,1E0,1.4E1,9E0,3E0,2.4E1,9E0,8E0,1.4E1,4.1E1,9E0,7E0,1.1E1,3E0,1E0],"tree_param":{"num_deleted":"0","num_feature":"8","num_nodes":"27","size_leaf_vector":"1"}},{"base_weights":[-3.156208E-1,-2.396826E0,6.9773645E0,-4.908428E0,-1.1185635E-1,4.2585797E0,1.2769277E1,-5.8137617E0,-8.026144E-1,4.567998E0,-1.434233E0,1.320906E0,2.5168188E0,1.7288952E-1,1.3700427E0,-6.7015976E-2,-6.954318E-1,8.329984E-1,-2.3901217E-1,1.0449213E0,1.479446E-1,-4.3464175E-1,-3.7911247E-2,-8.145259E-1,3.371698E-1],"categories":[],"categories_nodes":[],"categories_segments":[],"categories_sizes":[],"default_left":[0,0,0,0,0,0,0,0,0,0,0,0,0,0,0,0,0,0,0,0,0,0,0,0,0],"id":8,"left_children":[1,3,5,7,9,11,13,15,17,19,21,-1,23,-1,-1,-1,-1,-1,-1,-1,-1,-1,-1,-1,-1],"loss_changes":[2.4604136E3,7.225568E2,5.125116E2,2.1836157E2,4.2118307E2,3.7208475E2,8.9395996E1,2.8280127E2,1.9388647E2,2.5700757E2,1.6120563E2,0E0,2.3710345E2,0E0,0E0,0E0,0E0,0E0,0E0,0E0,0E0,0E0,0E0,0E0,0E0],"parents":[2147483647,0,0,1,1,2,2,3,3,4,4,5,5,6,6,7,7,8,8,9,9,10,10,12,12],"right_children":[2,4,6,8,10,12,14,16,18,20,22,-1,24,-1,-1,-1,-1,-1,-1,-1,-1,-1,-1,-1,-1],"split_conditions":[6.40538E-1,-4.3894374E-1,5.056513E-1,4.559586E-1,-8.58131E-1,-1.2624283E0,-1.3422873E0,-6.7476356E-1,-1.4071728E0,-2.3165081E-1,-4.235396E-1,1.320906E0,-1.1172827E0,1.7288952E-1,1.3700427E0,-6.7015976E-2,-6.954318E-1,8.329984E-1,-2.3901217E-1,1.0449213E0,1.479446E-1,-4.3464175E-1,-3.7911247E-2,-8.145259E-1,3.371698E-1],"split_indices":[7,7,2,4,1,0,0,3,0,7,5,0,3,0,0,0,0,0,0,0,0,0,0,0,0],"split_type":[0,0,0,0,0,0,0,0,0,0,0,0,0,0,0,0,0,0,0,0,0,0,0,0,0],"sum_hessian":[1.6E2,1.25E2,3.5E1,5.9E1,6.6E1,2.5E1,1E1,4.8E1,1.1E1,1.4E1,5.2E1,3E0,2.2E1,1E0,9E0,9E0,3.9E1,1E0,1E1,4E0,1E1,1.3E1,3.9E1,1E0,2.1E1],"tree_param":{"num_deleted":"0","num_feature":"8","num_nodes":"25","size_leaf_vector":"1"}},{"base_weights":[1.1365238E0,-1.6897984E0,6.863203E0,2.4961169E0,-2.9366915E0,9.286459E0,2.1453195E0,8.5503E0,-3.7244735E0,-1.1489565E0,-6.83141E0,-2.235852E0,9.951735E0,-6.7071974E-1,6.2874565E0,-3.5108756E-2,1.0804905E0,9.290445E-3,-7.076292E-1,3.6292735E-1,-2.4796073E-1,-4.1235384E-1,-8.407572E-1,-3.1361112E-1,-2.1766663E-2,1.0770485E0,2.997346E-2,-4.841797E-1,9.070101E-2,3.7040675E-1,8.5906756E-1],"categories":[],"categories_nodes":[],"categories_segments":[],"categories_sizes":[],"default_left":[0,0,0,0,0,0,0,0,0,0,0,0,0,0,0,0,0,0,0,0,0,0,0,0,0,0,0,0,0,0,0],"id":9,"left_children":[1,3,5,7,9,11,13,15,17,19,21,23,25,27,29,-1,-1,-1,-1,-1,-1,-1,-1,-1,-1,-1,-1,-1,-1,-1,-1],"loss_changes":[2.9897183E3,6.545346E2,6.774685E2,1.1240026E3,6.6057245E2,3.288711E2,2.6083432E2,3.0482996E2,1.9258484E2,4.349956E2,9.3372314E1,4.7680426E0,2.9706958E2,9.652321E1,2.173059E1,0E0,0E0,0E0,0E0,0E0,0E0,0E0,0E0,0E0,0E0,0E0,0E0,0E0,0E0,0E0,0E0],"parents":[2147483647,0,0,1,1,2,2,3,3,4,4,5,5,6,6,7,7,8,8,9,9,10,10,11,11,12,12,13,13,14,14],"right_children":[2,4,6,8,10,12,14,16,18,20,22,24,26,28,30,-1,-1,-1,-1,-1,-1,-1,-1,-1,-1,-1,-1,-1,-1,-1,-1],"split_conditions":[2.4058953E-1,-1.0028862E0,1.130032E-1,1.0142692E0,-1.278949E-1,-1.6386529E0,9.5229346E-1,-6.505097E-1,1.2249143E0,6.392164E-1,-8.43168E-1,1.1533093E0,1.0844842E0,-1.400397E0,7.689875E-1,-3.5108756E-2,1.0804905E0,9.290445E-3,-7.076292E-1,3.6292735E-1,-2.4796073E-1,-4.1235384E-1,-8.407572E-1,-3.1361112E-1,-2.1766663E-2,1.0770485E0,2.997346E-2,-4.841797E-1,9.070101E-2,3.7040675E-1,8.5906756E-1],"split_indices":[7,0,5,1,1,2,7,3,1,0,0,0,1,2,0,0,0,0,0,0,0,0,0,0,0,0,0,0,0,0,0],"split_type":[0,0,0,0,0,0,0,0,0,0,0,0,0,0,0,0,0,0,0,0,0,0,0,0,0,0,0,0,0,0,0],"sum_hessian":[1.83E2,1.23E2,6E1,2.8E1,9.5E1,3.9E1,2.1E1,1.4E1,1.4E1,6.6E1,2.9E1,2E0,3.7E1,1.3E1,8E0,3E0,1.1E1,7E0,7E0,1.4E1,5.2E1,1.2E1,1.7E1,1E0,1E0,3.4E1,3E0,3E0,1E1,5E0,3E0],"tree_param":{"num_deleted":"0","num_feature":"8","num_nodes":"31","size_leaf_vector":"1"}},{"base_weights":[4.328067E-1,-9.220271E-1,1.1320004E1,-3.329437E0,1.4354751E0,-1.0089785E0,1.2829825E1,7.9298625E0,-4.2340336E0,2.6946254E0,-1.8921173E0,7.9386525E-2,-2.307333E-1,-2.0522213E-2,1.3657342E1,7.726145E-3,1.575671E0,-2.5771827E-1,-5.6050575E-1,1.06834166E-1,1.252207E0,7.2021437E-1,-2.6681367E-1,1.4039549E0,3.9621297E-1],"categories":[],"categories_nodes":[],"categories_segments":[],"categories_sizes":[],"default_left":[0,0,0,0,0,0,0,0,0,0,0,0,0,0,0,0,0,0,0,0,0,0,0,0,0],"id":10,"left_children":[1,3,5,7,9,11,13,15,17,19,21,-1,-1,-1,23,-1,-1,-1,-1,-1,-1,-1,-1,-1,-1],"loss_changes":[2.5327463E3,8.731269E2,3.6662158E2,8.0764465E2,3.319137E2,8.853901E0,1.86177E2,3.675493E2,1.4683716E2,8.976083E2,1.7447739E2,0E0,0E0,0E0,3.6623535E0,0E0,0E0,0E0,0E0,0E0,0E0,0E0,0E0,0E0,0E0],"parents":[2147483647,0,0,1,1,2,2,3,3,4,4,5,5,6,6,7,7,8,8,9,9,10,10,14,14],"right_children":[2,4,6,8,10,12,14,16,18,20,22,-1,-1,-1,24,-1,-1,-1,-1,-1,-1,-1,-1,-1,-1],"split_conditions":[1.6739488E0,-3.7460238E-1,-1.150689E0,-9.7861433E-1,2.7361307E-1,-1.1925515E0,-1.2415595E0,-9.964302E-1,-5.3046095E-1,2.3050609E-1,-1.4071728E0,7.9386525E-2,-2.307333E-1,-2.0522213E-2,1.2115487E0,7.726145E-3,1.575671E0,-2.5771827E-1,-5.6050575E-1,1.06834166E-1,1.252207E0,7.2021437E-1,-2.6681367E-1,1.4039549E0,3.9621297E-1],"split_indices":[7,7,3,5,5,0,2,4,1,4,0,0,0,0,3,0,0,0,0,0,0,0,0,0,0],"split_type":[0,0,0,0,0,0,0,0,0,0,0,0,0,0,0,0,0,0,0,0,0,0,0,0,0],"sum_hessian":[1.7E2,1.52E2,1.8E1,7.5E1,7.7E1,2E0,1.6E1,5E0,7E1,5.6E1,2.1E1,1E0,1E0,1E0,1.5E1,3E0,2E0,3.3E1,3.7E1,4.9E1,7E0,1E0,2E1,1.4E1,1E0],"tree_param":{"num_deleted":"0","num_feature":"8","num_nodes":"25","size_leaf_vector":"1"}},{"base_weights":[-9.485865E-1,-3.2889867E0,1.5933415E0,-7.299344E0,-2.6619956E0,3.1661546E0,-2.6016822E0,-1.5201464E-1,-7.686531E-1,4.5549483E0,-3.5037591E0,7.1850204E-1,6.2000594E0,-3.7542012E0,2.5287297E0,7.6602525E-1,-4.209078E-1,3.7580833E-1,-3.7576726E-1,2.1969913E-1,-3.9610758E-1,1.2291702E0,2.6676133E-1,-5.2443457E-1,1.7651008E-1,4.9016666E-1,7.100787E-2],"categories":[],"categories_nodes":[],"categories_segments":[],"categories_sizes":[],"default_left":[0,0,0,0,0,0,0,0,0,0,0,0,0,0,0,0,0,0,0,0,0,0,0,0,0,0,0],"id":11,"left_children":[1,3,5,7,9,11,13,-1,-1,15,17,19,21,23,25,-1,-1,-1,-1,-1,-1,-1,-1,-1,-1,-1,-1],"loss_changes":[1.0641854E3,2.144137E2,5.7566437E2,1.516687E1,5.141062E2,4.6337982E2,1.5140288E2,0E0,0E0,2.771773E2,1.505686E2,2.5777585E2,5.6972546E2,1.7374796E2,1.8097153E1,0E0,0E0,0E0,0E0,0E0,0E0,0E0,0E0,0E0,0E0,0E0,0E0],"parents":[2147483647,0,0,1,1,2,2,3,3,4,4,5,5,6,6,9,9,10,10,11,11,12,12,13,13,14,14],"right_children":[2,4,6,8,10,12,14,-1,-1,16,18,20,22,24,26,-1,-1,-1,-1,-1,-1,-1,-1,-1,-1,-1,-1],"split_conditions":[-2.831976E-1,-6.71304E-1,8.33873E-1,-1.3372961E0,-5.735598E-1,4.262326E-1,4.3176314E-1,-1.5201464E-1,-7.686531E-1,-5.11393E-1,-1.5674976E0,1.8797657E-1,-5.232589E-1,1.0039983E0,-1.312188E0,7.6602525E-1,-4.209078E-1,3.7580833E-1,-3.7576726E-1,2.1969913E-1,-3.9610758E-1,1.2291702E0,2.6676133E-1,-5.2443457E-1,1.7651008E-1,4.9016666E-1,7.100787E-2],"split_indices":[7,4,0,0,5,2,3,0,0,3,7,2,5,7,1,0,0,0,0,0,0,0,0,0,0,0,0],"split_type":[0,0,0,0,0,0,0,0,0,0,0,0,0,0,0,0,0,0,0,0,0,0,0,0,0,0,0],"sum_hessian":[1.77E2,9.2E1,8.5E1,1.1E1,8.1E1,6.2E1,2.3E1,1E0,1E1,8E0,7.3E1,3.5E1,2.7E1,1.9E1,4E0,6E0,2E0,2E0,7.1E1,2.7E1,8E0,9E0,1.8E1,1.5E1,4E0,1E0,3E0],"tree_param":{"num_deleted":"0","num_feature":"8","num_nodes":"27","size_leaf_vector":"1"}},{"base_weights":[-8.286938E-1,-1.5978546E0,5.5967755E0,-2.1076317E0,2.99417E0,7.9885592E0,1.3668605E-2,-1.0135417E0,-4.0908995E0,-1.6036012E0,1.434954E0,2.3218422E0,9.32295E0,-3.0977411E0,3.1216612E0,-2.4291824E-1,8.4294313E-1,-2.0661108E-1,-4.9896574E-1,5.3319275E-2,-4.185393E-1,3.2803193E-1,-2.7679443E-2,3.3837938E-1,1.1127161E0,-3.614811E-1,-7.732659E-2,4.957257E-1,-1.1925631E-1],"categories":[],"categories_nodes":[],"categories_segments":[],"categories_sizes":[],"default_left":[0,0,0,0,0,0,0,0,0,0,0,0,0,0,0,0,0,0,0,0,0,0,0,0,0,0,0,0,0],"id":12,"left_children":[1,3,5,7,9,11,13,15,17,19,-1,21,23,25,27,-1,-1,-1,-1,-1,-1,-1,-1,-1,-1,-1,-1,-1,-1],"loss_changes":[9.2325336E2,3.949015E2,2.669624E2,3.2133472E2,9.105707E2,8.421631E1,7.736176E1,1.3305266E3,8.613983E1,7.394946E1,0E0,1.0870907E1,8.021826E1,2.012455E0,3.758853E1,0E0,0E0,0E0,0E0,0E0,0E0,0E0,0E0,0E0,0E0,0E0,0E0,0E0,0E0],"parents":[2147483647,0,0,1,1,2,2,3,3,4,4,5,5,6,6,7,7,8,8,9,9,11,11,12,12,13,13,14,14],"right_children":[2,4,6,8,10,12,14,16,18,20,-1,22,24,26,28,-1,-1,-1,-1,-1,-1,-1,-1,-1,-1,-1,-1,-1,-1],"split_conditions":[1.1740658E0,9.2110276E-1,8.188994E-1,-1.182044E-1,-3.6795413E-1,-4.2124173E-1,-2.7709123E-1,-1.9470426E-1,-1.7778756E-1,1.5605084E0,1.434954E0,-1.152622E0,-9.2388487E-1,-8.4408796E-1,1.168283E0,-2.4291824E-1,8.4294313E-1,-2.0661108E-1,-4.9896574E-1,5.3319275E-2,-4.185393E-1,3.2803193E-1,-2.7679443E-2,3.3837938E-1,1.1127161E0,-3.614811E-1,-7.732659E-2,4.957257E-1,-1.1925631E-1],"split_indices":[7,4,0,5,2,3,3,6,3,6,0,0,2,1,0,0,0,0,0,0,0,0,0,0,0,0,0,0,0],"split_type":[0,0,0,0,0,0,0,0,0,0,0,0,0,0,0,0,0,0,0,0,0,0,0,0,0,0,0,0,0],"sum_hessian":[1.84E2,1.65E2,1.9E1,1.49E2,1.6E1,1.3E1,6E0,9.7E1,5.2E1,1.2E1,4E0,3E0,1E1,3E0,3E0,8.5E1,1.2E1,1.7E1,3.5E1,7E0,5E0,2E0,1E0,3E0,7E0,2E0,1E0,2E0,1E0],"tree_param":{"num_deleted":"0","num_feature":"8","num_nodes":"29","size_leaf_vector":"1"}},{"base_weights":[1.0048748E-1,-1.4080236E0,3.3714862E0,-3.4955628E0,6.690615E-1,1.0058333E1,1.2630656E0,-1.8737447E0,-4.5559187E0,2.5002247E-1,9.24586E-1,3.4747248E0,1.8257359E0,1.8640293E0,4.9548615E-2,-3.462405E-1,1.6882877E-1,-4.947415E-1,1.6606782E-1,6.132821E-1,-3.6285356E-2,6.947798E-1,-6.932937E-2,-1.367739E-1,3.9429602E-1],"categories":[],"categories_nodes":[],"categories_segments":[],"categories_sizes":[],"default_left":[0,0,0,0,0,0,0,0,0,0,0,0,0,0,0,0,0,0,0,0,0,0,0,0,0],"id":13,"left_children":[1,3,5,7,9,11,13,15,17,19,-1,21,-1,-1,23,-1,-1,-1,-1,-1,-1,-1,-1,-1,-1],"loss_changes":[9.2253394E2,5.573463E2,8.191182E2,1.01524414E2,2.3129915E2,6.9226904E2,9.691041E2,1.5863475E2,1.00699524E2,2.2936717E2,0E0,1.350994E2,0E0,0E0,2.4818864E2,0E0,0E0,0E0,0E0,0E0,0E0,0E0,0E0,0E0,0E0],"parents":[2147483647,0,0,1,1,2,2,3,3,4,4,5,5,6,6,7,7,8,8,9,9,11,11,14,14],"right_children":[2,4,6,8,10,12,14,16,18,20,-1,22,-1,-1,24,-1,-1,-1,-1,-1,-1,-1,-1,-1,-1],"split_conditions":[1.3227275E-1,-2.502898E-1,8.035175E-2,-4.8365092E-1,1.8349074E0,3.5984877E-1,-3.7410682E-1,-7.4578696E-1,1.6175127E0,-1.4171553E0,9.24586E-1,2.8137428E-1,1.8257359E0,1.8640293E0,4.8300168E-1,-3.462405E-1,1.6882877E-1,-4.947415E-1,1.6606782E-1,6.132821E-1,-3.6285356E-2,6.947798E-1,-6.932937E-2,-1.367739E-1,3.9429602E-1],"split_indices":[6,7,5,1,7,6,3,1,2,0,0,6,0,0,7,0,0,0,0,0,0,0,0,0,0],"split_type":[0,0,0,0,0,0,0,0,0,0,0,0,0,0,0,0,0,0,0,0,0,0,0,0,0],"sum_hessian":[1.85E2,1.27E2,5.8E1,6.3E1,6.4E1,1.3E1,4.5E1,2.6E1,3.7E1,6.2E1,2E0,8E0,5E0,2E0,4.3E1,1.8E1,8E0,3.5E1,2E0,5E0,5.7E1,4E0,4E0,3.2E1,1.1E1],"tree_param":{"num_deleted":"0","num_feature":"8","num_nodes":"25","size_leaf_vector":"1"}},{"base_weights":[-2.431816E-1,-1.5487744E0,5.2315874E0,-2.1404247E0,9.491229E0,-2.0133023E0,6.338475E0,-3.0200162E0,-6.115217E-1,1.5239934E0,1.3697171E0,-6.24128E-1,6.04012E-1,7.778457E0,-1.8411325E0,-1.8013538E-1,-4.651657E-1,-1.7831813E-1,6.5057963E-1,-1.736215E-2,2.9998666E-1,9.279563E-2,-1.8391037E-2,5.225015E-1,1.2232214E0,-6.9830793E-1,3.914525E-1],"categories":[],"categories_nodes":[],"categories_segments":[],"categories_sizes":[],"default_left":[0,0,0,0,0,0,0,0,0,0,0,0,0,0,0,0,0,0,0,0,0,0,0,0,0,0,0],"id":14,"left_children":[1,3,5,7,9,11,13,15,17,-1,19,-1,21,23,25,-1,-1,-1,-1,-1,-1,-1,-1,-1,-1,-1,-1],"loss_changes":[1.1874926E3,8.9557947E2,2.6937817E2,1.7028888E2,3.059428E2,5.9099533E1,3.441189E2,1.5268268E2,4.1187665E2,0E0,1.05843315E1,0E0,1.1916324E0,2.0902429E2,1.7531183E2,0E0,0E0,0E0,0E0,0E0,0E0,0E0,0E0,0E0,0E0,0E0,0E0],"parents":[2147483647,0,0,1,1,2,2,3,3,4,4,5,5,6,6,7,7,8,8,10,10,12,12,13,13,14,14],"right_children":[2,4,6,8,10,12,14,16,18,-1,20,-1,22,24,26,-1,-1,-1,-1,-1,-1,-1,-1,-1,-1,-1,-1],"split_conditions":[8.497264E-1,1.8557687E0,-1.3372961E0,8.780388E-2,-1.4221464E0,9.908643E-1,9.4867045E-1,-3.8294592E-1,6.644886E-1,1.5239934E0,-7.2238195E-1,-6.24128E-1,-1.5618998E0,2.0006576E0,1.1383358E0,-1.8013538E-1,-4.651657E-1,-1.7831813E-1,6.5057963E-1,-1.736215E-2,2.9998666E-1,9.279563E-2,-1.8391037E-2,5.225015E-1,1.2232214E0,-6.9830793E-1,3.914525E-1],"split_indices":[7,2,0,6,0,1,0,5,2,0,1,0,0,7,0,0,0,0,0,0,0,0,0,0,0,0,0],"split_type":[0,0,0,0,0,0,0,0,0,0,0,0,0,0,0,0,0,0,0,0,0,0,0,0,0,0,0],"sum_hessian":[1.64E2,1.33E2,3.1E1,1.27E2,6E0,4E0,2.7E1,8E1,4.7E1,3E0,3E0,1E0,3E0,2.3E1,4E0,4.7E1,3.3E1,4.1E1,6E0,2E0,1E0,2E0,1E0,1.6E1,7E0,2E0,2E0],"tree_param":{"num_deleted":"0","num_feature":"8","num_nodes":"27","size_leaf_vector":"1"}},{"base_weights":[7.0531976E-1,-1.2773128E0,6.680394E0,-4.7275686E0,-4.9967209E-1,1.1055015E0,8.779456E0,-1.6685393E0,-5.56185E0,-1.2874746E0,1.633162E0,-2.1791186E0,5.8481817E0,1.0821059E1,2.797503E0,-2.6032957E-1,4.4556748E-2,-6.2361175E-1,-3.7709346E-1,-1.456623E-1,6.545059E-1,1.392816E0,7.8725375E-2,2.5083935E-1,-3.87675E-1,2.3584962E-1,8.551702E-1,1.1373489E0,-1.21862315E-1,-2.566726E-1,4.459401E-1],"categories":[],"categories_nodes":[],"categories_segments":[],"categories_sizes":[],"default_left":[0,0,0,0,0,0,0,0,0,0,0,0,0,0,0,0,0,0,0,0,0,0,0,0,0,0,0,0,0,0,0],"id":15,"left_children":[1,3,5,7,9,11,13,15,17,19,21,23,25,27,29,-1,-1,-1,-1,-1,-1,-1,-1,-1,-1,-1,-1,-1,-1,-1,-1],"loss_changes":[2.2356519E3,3.7863217E2,5.402905E2,5.707422E1,1.9869217E2,2.3083452E2,3.8496216E2,1.4993168E1,6.3513184E-1,1.2347153E2,3.2184912E2,8.134342E1,3.6437454E1,1.8013696E2,1.00594086E2,0E0,0E0,0E0,0E0,0E0,0E0,0E0,0E0,0E0,0E0,0E0,0E0,0E0,0E0,0E0,0E0],"parents":[2147483647,0,0,1,1,2,2,3,3,4,4,5,5,6,6,7,7,8,8,9,9,10,10,11,11,12,12,13,13,14,14],"right_children":[2,4,6,8,10,12,14,16,18,20,22,24,26,28,30,-1,-1,-1,-1,-1,-1,-1,-1,-1,-1,-1,-1,-1,-1,-1,-1],"split_conditions":[4.1155222E-1,-1.0434471E0,-7.650475E-1,-7.152517E-1,6.644886E-1,-3.4617773E-1,9.0192527E-1,3.1211916E-1,3.647008E-1,2.9216971E0,-9.42389E-1,-1.5592343E0,-1.1226748E0,7.016119E-1,-3.269719E-1,-2.6032957E-1,4.4556748E-2,-6.2361175E-1,-3.7709346E-1,-1.456623E-1,6.545059E-1,1.392816E0,7.8725375E-2,2.5083935E-1,-3.87675E-1,2.3584962E-1,8.551702E-1,1.1373489E0,-1.21862315E-1,-2.566726E-1,4.459401E-1],"split_indices":[7,7,2,6,2,4,1,1,0,4,1,2,0,5,3,0,0,0,0,0,0,0,0,0,0,0,0,0,0,0,0],"split_type":[0,0,0,0,0,0,0,0,0,0,0,0,0,0,0,0,0,0,0,0,0,0,0,0,0,0,0,0,0,0,0],"sum_hessian":[1.87E2,1.41E2,4.6E1,2.5E1,1.16E2,1.3E1,3.3E1,6E0,1.9E1,8.5E1,3.1E1,8E0,5E0,2.4E1,9E0,4E0,2E0,1.2E1,7E0,8.4E1,1E0,1E0,3E1,2E0,6E0,3E0,2E0,2.3E1,1E0,2E0,7E0],"tree_param":{"num_deleted":"0","num_feature":"8","num_nodes":"31","size_leaf_vector":"1"}},{"base_weights":[1.1190705E0,2.1857173E0,-3.5369766E0,2.9084926E0,-4.175864E0,-2.4704278E-1,-5.1707144E0,4.8785777E0,1.2810837E0,-5.5531885E-2,-4.6901546E0,1.7102318E0,-1.0894934E0,-1.7678659E0,-5.828688E-1,3.0741307E-1,1.4361221E0,5.893373E-2,6.741388E-1,-5.1208526E-1,-1.5475439E-1,2.2507754E-1,4.4300556E-3,7.383788E-2,-2.1264926E-1,2.847004E-2,-2.3521827E-1],"categories":[],"categories_nodes":[],"categories_segments":[],"categories_sizes":[],"default_left":[0,0,0,0,0,0,0,0,0,0,0,0,0,0,0,0,0,0,0,0,0,0,0,0,0,0,0],"id":16,"left_children":[1,3,5,7,9,11,13,15,17,-1,19,21,23,25,-1,-1,-1,-1,-1,-1,-1,-1,-1,-1,-1,-1,-1],"loss_changes":[8.7684344E2,6.696586E2,1.7609396E2,4.0734155E2,2.5325653E1,2.1650173E1,3.895337E1,9.482854E2,2.6798154E2,0E0,9.670929E0,3.5023232E0,1.8629673E1,6.6664114E0,0E0,0E0,0E0,0E0,0E0,0E0,0E0,0E0,0E0,0E0,0E0,0E0,0E0],"parents":[2147483647,0,0,1,1,2,2,3,3,4,4,5,5,6,6,7,7,8,8,10,10,11,11,12,12,13,13],"right_children":[2,4,6,8,10,12,14,16,18,-1,20,22,24,26,-1,-1,-1,-1,-1,-1,-1,-1,-1,-1,-1,-1,-1],"split_conditions":[1.0751222E0,1.1533093E0,-8.444662E-1,-7.2238195E-1,1.1882477E0,-4.1737324E-1,-1.0322322E0,-7.41106E-1,9.2110276E-1,-5.5531885E-2,1.4828968E-1,-5.486876E-1,1.2436383E0,-1.1172827E0,-5.828688E-1,3.0741307E-1,1.4361221E0,5.893373E-2,6.741388E-1,-5.1208526E-1,-1.5475439E-1,2.2507754E-1,4.4300556E-3,7.383788E-2,-2.1264926E-1,2.847004E-2,-2.3521827E-1],"split_indices":[1,0,2,1,0,4,7,1,4,0,7,0,1,3,0,0,0,0,0,0,0,0,0,0,0,0,0],"split_type":[0,0,0,0,0,0,0,0,0,0,0,0,0,0,0,0,0,0,0,0,0,0,0,0,0,0,0],"sum_hessian":[1.74E2,1.42E2,3.2E1,1.28E2,1.4E1,1.1E1,2.1E1,5.7E1,7.1E1,2E0,1.2E1,3E0,8E0,4E0,1.7E1,4.9E1,8E0,6.4E1,7E0,1E1,2E0,2E0,1E0,3E0,5E0,1E0,3E0],"tree_param":{"num_deleted":"0","num_feature":"8","num_nodes":"27","size_leaf_vector":"1"}},{"base_weights":[3.5444766E-1,1.1715434E1,1.6119657E-3,1.12225965E-1,1.4083164E0,-4.3798634E-1,8.518627E0,-1.016668E0,3.3029666E0,9.484601E0,8.784085E-2,-2.6571816E-1,-3.46599E-2,1.0009606E0,5.815419E-2,2.8070375E-1,1.0129689E0],"categories":[],"categories_nodes":[],"categories_segments":[],"categories_sizes":[],"default_left":[0,0,0,0,0,0,0,0,0,0,0,0,0,0,0,0,0],"id":17,"left_children":[1,3,5,-1,-1,7,9,11,13,15,-1,-1,-1,-1,-1,-1,-1],"loss_changes":[6.6540234E2,1.0960388E2,6.1026965E2,0E0,0E0,3.3890524E2,5.0710632E1,1.4747876E2,3.7746286E2,1.7188721E0,0E0,0E0,0E0,0E0,0E0,0E0,0E0],"parents":[2147483647,0,0,1,1,2,2,5,5,6,6,7,7,8,8,9,9],"right_children":[2,4,6,-1,-1,8,10,12,14,16,-1,-1,-1,-1,-1,-1,-1],"split_conditions":[-1.1356943E0,-3.041191E-1,2.077267E0,1.12225965E-1,1.4083164E0,6.8420994E-1,1.2204193E0,-6.8562883E-1,7.2632104E-1,-1.0033035E0,8.784085E-2,-2.6571816E-1,-3.46599E-2,1.0009606E0,5.815419E-2,2.8070375E-1,1.0129689E0],"split_indices":[5,0,7,0,0,6,2,2,5,2,0,0,0,0,0,0,0],"split_type":[0,0,0,0,0,0,0,0,0,0,0,0,0,0,0,0,0],"sum_hessian":[1.65E2,4E0,1.61E2,1E0,3E0,1.54E2,7E0,1.34E2,2E1,6E0,1E0,3.8E1,9.6E1,5E0,1.5E1,1E0,5E0],"tree_param":{"num_deleted":"0","num_feature":"8","num_nodes":"17","size_leaf_vector":"1"}},{"base_weights":[1.3388519E-1,-1.9552987E0,2.1717327E0,-8.6035305E-1,-4.7266655E0,8.1740296E-1,8.884995E0,2.658716E-1,-3.5029812E0,-5.552097E0,-3.0983953E0,1.90974E0,-3.3879714E0,9.726676E0,-1.0284262E-1,-1.1211375E-1,5.630255E-1,-4.918773E-1,-1.5406594E-1,-5.987425E-1,-1.9600855E-1,-1.3729611E-1,-4.0198585E-1,-6.308562E-1,2.4831377E-1,1.490759E-1,-4.253219E-1,2.1696949E-1,1.0175618E0],"categories":[],"categories_nodes":[],"categories_segments":[],"categories_sizes":[],"default_left":[0,0,0,0,0,0,0,0,0,0,0,0,0,0,0,0,0,0,0,0,0,0,0,0,0,0,0,0,0],"id":18,"left_children":[1,3,5,7,9,11,13,15,17,19,21,23,25,27,-1,-1,-1,-1,-1,-1,-1,-1,-1,-1,-1,-1,-1,-1,-1],"loss_changes":[7.067237E2,2.4476205E2,7.564629E2,1.7950291E2,1.3709961E1,3.326219E2,1.2681836E2,3.2625156E2,4.2430145E1,1.0155975E1,1.0380127E1,2.8426923E2,6.966017E1,2.2026367E1,0E0,0E0,0E0,0E0,0E0,0E0,0E0,0E0,0E0,0E0,0E0,0E0,0E0,0E0,0E0],"parents":[2147483647,0,0,1,1,2,2,3,3,4,4,5,5,6,6,7,7,8,8,9,9,10,10,11,11,12,12,13,13],"right_children":[2,4,6,8,10,12,14,16,18,20,22,24,26,28,-1,-1,-1,-1,-1,-1,-1,-1,-1,-1,-1,-1,-1,-1,-1],"split_conditions":[-1.2961026E-1,5.8506995E-1,6.644886E-1,1.3330005E-1,6.3422525E-1,8.8320124E-1,1.0189502E0,3.548756E-2,-6.483954E-1,-3.7460238E-1,-8.37102E-1,-9.0889907E-1,-8.859548E-1,-1.4421113E0,-1.0284262E-1,-1.1211375E-1,5.630255E-1,-4.918773E-1,-1.5406594E-1,-5.987425E-1,-1.9600855E-1,-1.3729611E-1,-4.0198585E-1,-6.308562E-1,2.4831377E-1,1.490759E-1,-4.253219E-1,2.1696949E-1,1.0175618E0],"split_indices":[7,2,2,5,0,1,1,6,7,7,7,5,5,0,0,0,0,0,0,0,0,0,0,0,0,0,0,0,0],"split_type":[0,0,0,0,0,0,0,0,0,0,0,0,0,0,0,0,0,0,0,0,0,0,0,0,0,0,0,0,0],"sum_hessian":[1.64E2,8.1E1,8.3E1,5.9E1,2.2E1,7E1,1.3E1,4.2E1,1.7E1,1.3E1,9E0,5.6E1,1.4E1,1.2E1,1E0,3.4E1,8E0,9E0,8E0,1.1E1,2E0,4E0,5E0,3E0,5.3E1,2E0,1.2E1,1E0,1.1E1],"tree_param":{"num_deleted":"0","num_feature":"8","num_nodes":"29","size_leaf_vector":"1"}},{"base_weights":[-3.1625116E-1,-1.1059268E0,8.637485E0,-1.5525967E0,2.9282746E0,4.164911E0,9.562766E-1,-2.238718E0,6.8293405E-1,6.881102E0,-2.5722573E0,5.926284E-1,-5.5960465E-2,-1.9226518E-1,-6.253525E-1,-7.821153E-2,3.9842543E-1,1.8015473E-1,1.0584437E0,-3.440992E-1,-2.6694743E-2],"categories":[],"categories_nodes":[],"categories_segments":[],"categories_sizes":[],"default_left":[0,0,0,0,0,0,0,0,0,0,0,0,0,0,0,0,0,0,0,0,0],"id":19,"left_children":[1,3,5,7,9,11,-1,13,15,17,19,-1,-1,-1,-1,-1,-1,-1,-1,-1,-1],"loss_changes":[1.1337694E3,2.6943402E2,1.3971008E1,2.0553033E2,3.4383978E2,3.6602913E1,0E0,1.1740906E2,1.5788724E2,1.5023322E2,1.3100357E1,0E0,0E0,0E0,0E0,0E0,0E0,0E0,0E0,0E0,0E0],"parents":[2147483647,0,0,1,1,2,2,3,3,4,4,5,5,7,7,8,8,9,9,10,10],"right_children":[2,4,6,8,10,12,-1,14,16,18,20,-1,-1,-1,-1,-1,-1,-1,-1,-1,-1],"split_conditions":[1.3301278E0,1.1085843E0,1.8349074E0,3.5305527E-1,1.1561766E0,-4.0568265E-1,9.562766E-1,7.692189E-1,6.644886E-1,-1.2969813E-1,9.037497E-1,5.926284E-1,-5.5960465E-2,-1.9226518E-1,-6.253525E-1,-7.821153E-2,3.9842543E-1,1.8015473E-1,1.0584437E0,-3.440992E-1,-2.6694743E-2],"split_indices":[7,4,7,7,3,3,0,4,2,2,0,0,0,0,0,0,0,0,0,0,0],"split_type":[0,0,0,0,0,0,0,0,0,0,0,0,0,0,0,0,0,0,0,0,0],"sum_hessian":[1.58E2,1.46E2,1.2E1,1.32E2,1.4E1,3E0,9E0,1.01E2,3.1E1,8E0,6E0,2E0,1E0,9.5E1,6E0,2.2E1,9E0,4E0,4E0,4E0,2E0],"tree_param":{"num_deleted":"0","num_feature":"8","num_nodes":"21","size_leaf_vector":"1"}},{"base_weights":[8.1237966E-1,2.860488E0,-1.4461334E0,7.727352E0,1.8485926E-1,1.4625212E0,-2.93093E0,-3.8872474E-1,8.770292E0,4.2514772E0,-1.5786746E0,-3.676555E0,3.665304E0,-2.2792926E-1,-4.6940017E0,-1.6234241E-1,1.0196579E0,7.410125E-1,1.6656471E-2,-6.1508205E-2,-3.534902E-1,-7.645398E-2,-3.9833373E-1,5.8461434E-1,-3.1741068E-1,2.2889017E-1,-3.5583782E-1,-9.856151E-2,-5.247919E-1],"categories":[],"categories_nodes":[],"categories_segments":[],"categories_sizes":[],"default_left":[0,0,0,0,0,0,0,0,0,0,0,0,0,0,0,0,0,0,0,0,0,0,0,0,0,0,0,0,0],"id":20,"left_children":[1,3,5,7,9,11,13,-1,15,17,19,21,23,25,27,-1,-1,-1,-1,-1,-1,-1,-1,-1,-1,-1,-1,-1,-1],"loss_changes":[6.979885E2,1.0273033E3,3.152373E2,3.7326562E2,3.7963583E2,2.964824E2,2.2767816E2,0E0,4.0198804E2,2.0521051E2,6.757098E1,4.1014175E0,2.870381E2,1.7578833E2,5.4397522E1,0E0,0E0,0E0,0E0,0E0,0E0,0E0,0E0,0E0,0E0,0E0,0E0,0E0,0E0],"parents":[2147483647,0,0,1,1,2,2,3,3,4,4,5,5,6,6,8,8,9,9,10,10,11,11,12,12,13,13,14,14],"right_children":[2,4,6,8,10,12,14,-1,16,18,20,22,24,26,28,-1,-1,-1,-1,-1,-1,-1,-1,-1,-1,-1,-1,-1,-1],"split_conditions":[-6.6152894E-1,6.3422525E-1,-1.152622E0,-6.428258E-1,-5.0031465E-1,-5.2450407E-1,-6.062102E-1,-3.8872474E-1,-9.8926777E-1,-8.62812E-1,1.9059706E-1,9.9554527E-1,8.0007035E-1,-2.0429523E-1,-9.1081554E-1,-1.6234241E-1,1.0196579E0,7.410125E-1,1.6656471E-2,-6.1508205E-2,-3.534902E-1,-7.645398E-2,-3.9833373E-1,5.8461434E-1,-3.1741068E-1,2.2889017E-1,-3.5583782E-1,-9.856151E-2,-5.247919E-1],"split_indices":[1,0,0,4,5,7,2,0,7,1,3,1,4,0,7,0,0,0,0,0,0,0,0,0,0,0,0,0,0],"split_type":[0,0,0,0,0,0,0,0,0,0,0,0,0,0,0,0,0,0,0,0,0,0,0,0,0,0,0,0,0],"sum_hessian":[1.49E2,7.8E1,7.1E1,2.7E1,5.1E1,2.4E1,4.7E1,2E0,2.5E1,1.5E1,3.6E1,7E0,1.7E1,1.9E1,2.8E1,3E0,2.2E1,8E0,7E0,2.5E1,1.1E1,1E0,6E0,1.3E1,4E0,1.1E1,8E0,4E0,2.4E1],"tree_param":{"num_deleted":"0","num_feature":"8","num_nodes":"29","size_leaf_vector":"1"}},{"base_weights":[4.5199805E-1,-1.248773E0,2.8314083E0,1.220916E1,-1.6740451E0,7.0285797E0,1.1461498E0,9.978447E-2,1.7315896E0,-3.8614497E-1,-3.578055E0,-1.262039E0,1.3172852E1,5.4204946E0,1.799241E-1,9.007002E-1,-9.008356E-2,2.320545E-1,-4.166771E-1,-2.2092962E-1,3.1580096E-1,1.6965475E0,5.228607E-1,1.7199835E-3,6.961836E-1,-5.679476E-2,5.67819E-1],"categories":[],"categories_nodes":[],"categories_segments":[],"categories_sizes":[],"default_left":[0,0,0,0,0,0,0,0,0,0,0,0,0,0,0,0,0,0,0,0,0,0,0,0,0,0,0],"id":21,"left_children":[1,3,5,7,9,11,13,-1,-1,15,17,19,21,23,25,-1,-1,-1,-1,-1,-1,-1,-1,-1,-1,-1,-1],"loss_changes":[6.5102893E2,5.5842725E2,4.658565E2,1.5448105E2,2.2421838E2,9.844812E2,2.0139384E2,0E0,0E0,2.788495E2,1.3815536E2,4.4659286E1,2.4271924E2,7.483511E1,1.718168E2,0E0,0E0,0E0,0E0,0E0,0E0,0E0,0E0,0E0,0E0,0E0,0E0],"parents":[2147483647,0,0,1,1,2,2,3,3,4,4,5,5,6,6,9,9,10,10,11,11,12,12,13,13,14,14],"right_children":[2,4,6,8,10,12,14,-1,-1,16,18,20,22,24,26,-1,-1,-1,-1,-1,-1,-1,-1,-1,-1,-1,-1],"split_conditions":[7.478678E-2,-1.5674976E0,-5.056095E-1,-1.152622E0,-4.8365092E-1,-8.042023E-1,-1.3173313E0,9.978447E-2,1.7315896E0,-1.0386224E0,-1.4221464E0,8.23326E-1,-4.134622E-1,-5.4687604E-2,1.4985106E0,9.007002E-1,-9.008356E-2,2.320545E-1,-4.166771E-1,-2.2092962E-1,3.1580096E-1,1.6965475E0,5.228607E-1,1.7199835E-3,6.961836E-1,-5.679476E-2,5.67819E-1],"split_indices":[7,7,5,0,1,4,0,0,0,5,0,2,3,3,7,0,0,0,0,0,0,0,0,0,0,0,0],"split_type":[0,0,0,0,0,0,0,0,0,0,0,0,0,0,0,0,0,0,0,0,0,0,0,0,0,0,0],"sum_hessian":[1.59E2,9.3E1,6.6E1,2E0,9.1E1,1.8E1,4.8E1,1E0,1E0,5.5E1,3.6E1,8E0,1E1,8E0,4E1,2E0,5.3E1,3E0,3.3E1,7E0,1E0,6E0,4E0,2E0,6E0,3.6E1,4E0],"tree_param":{"num_deleted":"0","num_feature":"8","num_nodes":"27","size_leaf_vector":"1"}},{"base_weights":[5.968984E-1,5.409723E0,-4.208158E-1,-5.6714755E-1,7.065558E0,-1.1331369E0,5.2583194E0,-2.4396908E0,6.6980803E-1,9.419558E0,3.298803E0,-7.9415816E-1,-6.367021E-1,9.169119E0,1.6323291E0,-2.9594508E-1,-7.000857E-2,1.2484713E-1,-1.3212459E-2,3.1646368E-1,1.097957E0,6.6372025E-1,-3.2996654E-3,2.122262E-1,-1.495485E-1,5.5048984E-1,1.2219781E0,-1.3585146E-2,5.213974E-1],"categories":[],"categories_nodes":[],"categories_segments":[],"categories_sizes":[],"default_left":[0,0,0,0,0,0,0,0,0,0,0,0,0,0,0,0,0,0,0,0,0,0,0,0,0,0,0,0,0],"id":22,"left_children":[1,3,5,7,9,11,13,15,17,19,21,-1,23,25,27,-1,-1,-1,-1,-1,-1,-1,-1,-1,-1,-1,-1,-1,-1],"loss_changes":[7.8596924E2,2.811151E2,5.439924E2,1.7847895E1,1.6399939E2,3.9715753E2,1.9774081E2,6.4066124E-1,2.4851983E0,9.210449E1,1.1144776E2,0E0,2.6854114E2,1.0979431E1,5.7705276E1,0E0,0E0,0E0,0E0,0E0,0E0,0E0,0E0,0E0,0E0,0E0,0E0,0E0,0E0],"parents":[2147483647,0,0,1,1,2,2,3,3,4,4,5,5,6,6,7,7,8,8,9,9,10,10,12,12,13,13,14,14],"right_children":[2,4,6,8,10,12,14,16,18,20,22,-1,24,26,28,-1,-1,-1,-1,-1,-1,-1,-1,-1,-1,-1,-1,-1,-1],"split_conditions":[-1.332305E0,-4.647157E-1,1.2321415E0,-8.504899E-1,1.0189502E0,-9.219011E-1,-3.4390384E-1,-1.4171553E0,-6.2259483E-1,-2.4650398E-1,-4.52971E-1,-7.9415816E-1,-3.78987E-1,8.288818E-1,1.085579E-1,-2.9594508E-1,-7.000857E-2,1.2484713E-1,-1.3212459E-2,3.1646368E-1,1.097957E0,6.6372025E-1,-3.2996654E-3,2.122262E-1,-1.495485E-1,5.5048984E-1,1.2219781E0,-1.3585146E-2,5.213974E-1],"split_indices":[0,3,7,3,1,6,3,0,3,4,4,0,0,0,2,0,0,0,0,0,0,0,0,0,0,0,0,0,0],"split_type":[0,0,0,0,0,0,0,0,0,0,0,0,0,0,0,0,0,0,0,0,0,0,0,0,0,0,0,0,0],"sum_hessian":[1.59E2,2.7E1,1.32E2,6E0,2.1E1,1.18E2,1.4E1,2E0,4E0,1.2E1,9E0,7E0,1.11E2,6E0,8E0,1E0,1E0,2E0,2E0,3E0,9E0,4E0,5E0,2.6E1,8.5E1,4E0,2E0,6E0,2E0],"tree_param":{"num_deleted":"0","num_feature":"8","num_nodes":"29","size_leaf_vector":"1"}},{"base_weights":[-1.577644E-2,-2.000751E0,1.7294295E0,-2.2433832E0,4.9746042E-1,1.1929687E1,9.97674E-1,-2.0023437E0,-1.0401715E0,2.1195574E-1,1.3467802E0,2.085858E0,-3.8934982E0,2.3546052E-1,-2.3376124E-1,7.895057E-2,6.8729407E-1,-4.5911598E-1,-6.527233E-2],"categories":[],"categories_nodes":[],"categories_segments":[],"categories_sizes":[],"default_left":[0,0,0,0,0,0,0,0,0,0,0,0,0,0,0,0,0,0,0],"id":23,"left_children":[1,3,5,7,-1,9,11,13,-1,-1,-1,15,17,-1,-1,-1,-1,-1,-1],"loss_changes":[5.923724E2,1.465556E2,6.673307E2,1.3255774E2,0E0,6.198883E1,4.6585596E2,1.1798178E2,0E0,0E0,0E0,4.3518173E2,3.3178665E1,0E0,0E0,0E0,0E0,0E0,0E0],"parents":[2147483647,0,0,1,1,2,2,3,3,5,5,6,6,7,7,11,11,12,12],"right_children":[2,4,6,8,-1,10,12,14,-1,-1,-1,16,18,-1,-1,-1,-1,-1,-1],"split_conditions":[-2.8447494E-1,1.5974447E0,-5.585578E-1,1.4507548E0,4.9746042E-1,-3.6795413E-1,1.15079E0,-1.003242E0,-1.0401715E0,2.1195574E-1,1.3467802E0,5.746178E-1,4.4808793E0,2.3546052E-1,-2.3376124E-1,7.895057E-2,6.8729407E-1,-4.5911598E-1,-6.527233E-2],"split_indices":[4,7,5,7,0,2,5,1,0,0,0,4,4,0,0,0,0,0,0],"split_type":[0,0,0,0,0,0,0,0,0,0,0,0,0,0,0,0,0,0,0],"sum_hessian":[1.69E2,7.9E1,9E1,7.7E1,2E0,5E0,8.5E1,7.6E1,1E0,1E0,4E0,7E1,1.5E1,5E0,7.1E1,5.6E1,1.4E1,1.2E1,3E0],"tree_param":{"num_deleted":"0","num_feature":"8","num_nodes":"19","size_leaf_vector":"1"}},{"base_weights":[-3.410056E-1,-1.0485423E0,2.866867E0,-1.4589189E0,4.0629086E0,6.9599133E0,6.7700046E-1,-5.6044215E-1,-1.0387454E0,-4.6343118E-1,5.54419E0,9.34657E0,-1.7244765E0,-3.4869885E0,3.1873784E0,-1.9321898E-3,-2.613779E-1,7.73858E-1,2.2409616E-1,1.248667E0,4.9651766E-1,3.50523E-2,-2.937238E-1,-4.7451025E-1,1.9156901E-2,6.74884E-1,-2.0924675E-1],"categories":[],"categories_nodes":[],"categories_segments":[],"categories_sizes":[],"default_left":[0,0,0,0,0,0,0,0,0,0,0,0,0,0,0,0,0,0,0,0,0,0,0,0,0,0,0],"id":24,"left_children":[1,3,5,7,9,11,13,-1,15,-1,17,19,21,23,25,-1,-1,-1,-1,-1,-1,-1,-1,-1,-1,-1,-1],"loss_changes":[3.638863E2,2.8071576E2,2.5522165E2,2.066818E2,1.5452382E2,2.2338455E2,2.2017807E2,0E0,1.797796E2,0E0,4.7895294E1,4.8065613E1,8.579006E0,3.7933372E1,2.585733E2,0E0,0E0,0E0,0E0,0E0,0E0,0E0,0E0,0E0,0E0,0E0,0E0],"parents":[2147483647,0,0,1,1,2,2,3,3,4,4,5,5,6,6,8,8,10,10,11,11,12,12,13,13,14,14],"right_children":[2,4,6,8,10,12,14,-1,16,-1,18,20,22,24,26,-1,-1,-1,-1,-1,-1,-1,-1,-1,-1,-1,-1],"split_conditions":[5.3902006E-1,1.372987E0,4.3863526E-1,-9.0889907E-1,-3.2239568E-1,1.1533093E0,6.7602015E-1,-5.6044215E-1,-1.06732264E-1,-4.6343118E-1,-2.0021097E-1,-9.967249E-2,1.2132037E0,7.099965E-1,1.8514725E0,-1.9321898E-3,-2.613779E-1,7.73858E-1,2.2409616E-1,1.248667E0,4.9651766E-1,3.50523E-2,-2.937238E-1,-4.7451025E-1,1.9156901E-2,6.74884E-1,-2.0924675E-1],"split_indices":[4,7,5,5,3,0,5,0,5,0,3,5,0,3,5,0,0,0,0,0,0,0,0,0,0,0,0],"split_type":[0,0,0,0,0,0,0,0,0,0,0,0,0,0,0,0,0,0,0,0,0,0,0,0,0,0,0],"sum_hessian":[1.58E2,1.3E2,2.8E1,1.21E2,9E0,9E0,1.9E1,1E1,1.11E2,1E0,8E0,7E0,2E0,7E0,1.2E1,6.8E1,4.3E1,4E0,4E0,3E0,4E0,1E0,1E0,5E0,2E0,7E0,5E0],"tree_param":{"num_deleted":"0","num_feature":"8","num_nodes":"27","size_leaf_vector":"1"}},{"base_weights":[-3.2901284E-1,4.7205633E-1,-4.12381E0,9.335236E-1,-3.5087605E0,2.2956848E-1,-4.5820756E0,3.514163E0,-1.6688614E-1,-3.9443126E0,1.5122595E-1,-2.0786753E-1,1.6918749E-1,-3.4448862E0,-5.2907366E-1,6.2789947E-1,2.4197336E-1,-1.8865831E-1,1.947444E-1,-2.1304074E-1,-4.4102412E-1,-4.3334928E-1,1.257836E-1],"categories":[],"categories_nodes":[],"categories_segments":[],"categories_sizes":[],"default_left":[0,0,0,0,0,0,0,0,0,0,0,0,0,0,0,0,0,0,0,0,0,0,0],"id":25,"left_children":[1,3,5,7,9,11,13,15,17,19,-1,-1,-1,21,-1,-1,-1,-1,-1,-1,-1,-1,-1],"loss_changes":[5.5824744E2,2.8250204E2,6.489209E1,3.8963367E2,4.095546E1,1.7018297E1,5.1445312E0,1.0886893E2,3.563667E2,3.2816467E0,0E0,0E0,0E0,6.3955017E1,0E0,0E0,0E0,0E0,0E0,0E0,0E0,0E0,0E0],"parents":[2147483647,0,0,1,1,2,2,3,3,4,4,5,5,6,6,7,7,8,8,9,9,13,13],"right_children":[2,4,6,8,10,12,14,16,18,20,-1,-1,-1,22,-1,-1,-1,-1,-1,-1,-1,-1,-1],"split_conditions":[8.937673E-1,1.3793873E0,-6.1062366E-1,-1.1675955E0,7.439073E-1,9.8859996E-1,-8.81536E-1,9.0192527E-1,-2.6786265E-1,-9.2388487E-1,1.5122595E-1,-2.0786753E-1,1.6918749E-1,6.9802344E-1,-5.2907366E-1,6.2789947E-1,2.4197336E-1,-1.8865831E-1,1.947444E-1,-2.1304074E-1,-4.4102412E-1,-4.3334928E-1,1.257836E-1],"split_indices":[0,1,5,0,2,0,1,1,4,2,0,0,0,4,0,0,0,0,0,0,0,0,0],"split_type":[0,0,0,0,0,0,0,0,0,0,0,0,0,0,0,0,0,0,0,0,0,0,0],"sum_hessian":[1.82E2,1.51E2,3.1E1,1.36E2,1.5E1,3E0,2.8E1,4E1,9.6E1,1.4E1,1E0,1E0,2E0,1.3E1,1.5E1,1E1,3E1,5.3E1,4.3E1,4E0,1E1,1.1E1,2E0],"tree_param":{"num_deleted":"0","num_feature":"8","num_nodes":"23","size_leaf_vector":"1"}},{"base_weights":[3.493206E-1,-2.1604003E-2,6.174997E0,-9.81254E-1,1.8981036E0,5.521145E-2,6.7384157E0,-4.3525225E-1,-3.4584591E0,8.001527E0,7.9537565E-1,1.5487309E-1,7.193535E-1,-3.8935268E-1,1.0935227E-2,-4.3504447E-2,-4.2357E-1,1.1130275E0,-9.2314534E-2,-2.2080822E-2,2.9102096E-1],"categories":[],"categories_nodes":[],"categories_segments":[],"categories_sizes":[],"default_left":[0,0,0,0,0,0,0,0,0,0,0,0,0,0,0,0,0,0,0,0,0],"id":26,"left_children":[1,3,5,7,9,-1,11,13,15,17,19,-1,-1,-1,-1,-1,-1,-1,-1,-1,-1],"loss_changes":[3.6100146E2,2.9293762E2,2.795996E1,1.4186588E2,3.5034784E2,0E0,1.0116516E1,1.6616426E2,4.28058E1,2.3365924E2,9.9499344E1,0E0,0E0,0E0,0E0,0E0,0E0,0E0,0E0,0E0,0E0],"parents":[2147483647,0,0,1,1,2,2,3,3,4,4,6,6,7,7,8,8,9,9,10,10],"right_children":[2,4,6,8,10,-1,12,14,16,18,20,-1,-1,-1,-1,-1,-1,-1,-1,-1,-1],"split_conditions":[2.390444E0,-5.1902853E-2,-1.8769089E0,1.0891652E0,1.06114596E-1,5.521145E-2,-1.1772311E0,-9.8015887E-1,-1.4870319E0,-1.5598089E-1,7.170089E-1,1.5487309E-1,7.193535E-1,-3.8935268E-1,1.0935227E-2,-4.3504447E-2,-4.2357E-1,1.1130275E0,-9.2314534E-2,-2.2080822E-2,2.9102096E-1],"split_indices":[7,4,2,1,6,0,3,7,0,1,4,0,0,0,0,0,0,0,0,0,0],"split_type":[0,0,0,0,0,0,0,0,0,0,0,0,0,0,0,0,0,0,0,0,0],"sum_hessian":[1.66E2,1.57E2,9E0,1.05E2,5.2E1,1E0,8E0,8.7E1,1.8E1,7E0,4.5E1,1E0,7E0,1.1E1,7.6E1,4E0,1.4E1,5E0,2E0,3.1E1,1.4E1],"tree_param":{"num_deleted":"0","num_feature":"8","num_nodes":"21","size_leaf_vector":"1"}},{"base_weights":[-2.8563756E-1,6.917845E-1,-3.5685303E0,2.632538E0,-7.0643157E-1,-4.8541957E-1,-5.5223045E0,6.2013288E0,-2.5901002E-1,-1.5021756E0,7.920316E0,-3.7241879E0,1.6197438E0,-7.17602E-1,-3.941426E0,1.0440996E0,3.8496815E-2,1.9966301E-1,-1.8250076E-1,5.7045686E-1,-1.9885354E-1,9.501753E-1,2.6444843E-1,-7.671151E-2,-4.089181E-1,4.323071E-1,-2.488863E-1,-9.832764E-3,-4.2089096E-1],"categories":[],"categories_nodes":[],"categories_segments":[],"categories_sizes":[],"default_left":[0,0,0,0,0,0,0,0,0,0,0,0,0,0,0,0,0,0,0,0,0,0,0,0,0,0,0,0,0],"id":27,"left_children":[1,3,5,7,9,11,13,15,17,19,21,23,25,-1,27,-1,-1,-1,-1,-1,-1,-1,-1,-1,-1,-1,-1,-1,-1],"loss_changes":[5.7363E2,3.763355E2,2.4429114E2,6.001274E2,5.679371E2,1.2194056E2,3.707428E1,6.371256E2,1.20210655E2,2.74224E2,3.327652E1,4.4183044E0,1.3293553E2,0E0,1.50056305E1,0E0,0E0,0E0,0E0,0E0,0E0,0E0,0E0,0E0,0E0,0E0,0E0,0E0,0E0],"parents":[2147483647,0,0,1,1,2,2,3,3,4,4,5,5,6,6,7,7,8,8,9,9,10,10,11,11,12,12,14,14],"right_children":[2,4,6,8,10,12,14,16,18,20,22,24,26,-1,28,-1,-1,-1,-1,-1,-1,-1,-1,-1,-1,-1,-1,-1,-1],"split_conditions":[8.937673E-1,-1.5598089E-1,-9.79837E-1,-1.958619E-1,1.6175127E0,-1.326231E0,-4.8244402E-1,5.942957E-1,3.8656944E-1,-9.964302E-1,-2.3544776E-1,1.2132037E0,-5.1902853E-2,-7.17602E-1,9.3868804E-1,1.0440996E0,3.8496815E-2,1.9966301E-1,-1.8250076E-1,5.7045686E-1,-1.9885354E-1,9.501753E-1,2.6444843E-1,-7.671151E-2,-4.089181E-1,4.323071E-1,-2.488863E-1,-9.832764E-3,-4.2089096E-1],"split_indices":[0,1,1,5,2,1,6,0,5,4,3,0,4,0,0,0,0,0,0,0,0,0,0,0,0,0,0,0,0],"split_type":[0,0,0,0,0,0,0,0,0,0,0,0,0,0,0,0,0,0,0,0,0,0,0,0,0,0,0,0,0],"sum_hessian":[1.77E2,1.37E2,4E1,5.7E1,8E1,1.6E1,2.4E1,2.5E1,3.2E1,7.4E1,6E0,6E0,1E1,1E1,1.4E1,1.4E1,1.1E1,1.3E1,1.9E1,4E0,7E1,4E0,2E0,1E0,5E0,6E0,4E0,1E0,1.3E1],"tree_param":{"num_deleted":"0","num_feature":"8","num_nodes":"29","size_leaf_vector":"1"}},{"base_weights":[-7.792539E-1,6.3028973E-1,-2.4639854E0,1.5634998E0,2.821113E-1,-3.6678817E0,-9.397579E-1,2.0717206E0,-2.2406402E0,-3.08998E0,-9.9579805E-1,-1.3427882E0,3.6724842E-1,1.0434017E0,1.15748726E-1,-1.572336E-2,-3.2343858E-1,-1.6794E-1,-5.234947E-1,-1.7610572E-1,3.2874975E-1],"categories":[],"categories_nodes":[],"categories_segments":[],"categories_sizes":[],"default_left":[0,0,0,0,0,0,0,0,0,0,0,0,0,0,0,0,0,0,0,0,0],"id":28,"left_children":[1,3,5,-1,7,9,11,13,15,17,-1,19,-1,-1,-1,-1,-1,-1,-1,-1,-1],"loss_changes":[3.8625485E2,4.605533E2,1.323439E2,0E0,4.0193906E2,1.1826752E2,6.813306E1,3.8546747E2,7.609535E1,1.0920868E2,0E0,6.7764015E1,0E0,0E0,0E0,0E0,0E0,0E0,0E0,0E0,0E0],"parents":[2147483647,0,0,1,1,2,2,4,4,5,5,6,6,7,7,8,8,9,9,11,11],"right_children":[2,4,6,-1,8,10,12,14,16,18,-1,20,-1,-1,-1,-1,-1,-1,-1,-1,-1],"split_conditions":[-5.3046095E-1,-1.8769089E0,1.0049073E0,1.5634998E0,8.238906E-1,1.4985106E0,-7.832737E-1,-8.67493E-1,-1.171758E0,1.8797657E-1,-9.9579805E-1,1.2024982E0,3.6724842E-1,1.0434017E0,1.15748726E-1,-1.572336E-2,-3.2343858E-1,-1.6794E-1,-5.234947E-1,-1.7610572E-1,3.2874975E-1],"split_indices":[1,2,1,0,0,7,0,1,1,2,0,7,0,0,0,0,0,0,0,0,0],"split_type":[0,0,0,0,0,0,0,0,0,0,0,0,0,0,0,0,0,0,0,0,0],"sum_hessian":[1.61E2,8.8E1,7.3E1,1E0,8.7E1,4E1,3.3E1,5.1E1,3.6E1,3.8E1,2E0,3.1E1,2E0,4E0,4.7E1,1.2E1,2.4E1,2.4E1,1.4E1,2.9E1,2E0],"tree_param":{"num_deleted":"0","num_feature":"8","num_nodes":"21","size_leaf_vector":"1"}},{"base_weights":[-1.3065988E-1,-1.0473021E0,3.434883E0,-7.1747726E-1,-7.023007E0,-1.1096368E0,4.188637E0,-4.4489264E-1,-6.2767434E-1,-7.541427E-1,-1.9562428E-1,6.794039E0,2.252243E0,-2.2653055E-1,2.8821573E-2,2.3640044E-1,8.992502E-1,-2.0063189E-1,4.0894222E-1],"categories":[],"categories_nodes":[],"categories_segments":[],"categories_sizes":[],"default_left":[0,0,0,0,0,0,0,0,0,0,0,0,0,0,0,0,0,0,0],"id":29,"left_children":[1,3,5,7,9,-1,11,13,-1,-1,-1,15,17,-1,-1,-1,-1,-1,-1],"loss_changes":[5.592131E2,2.6300842E2,4.2983304E2,1.9420569E2,3.6341553E0,0E0,1.5623108E2,1.674729E2,0E0,0E0,0E0,1.1509143E2,1.7250327E2,0E0,0E0,0E0,0E0,0E0,0E0],"parents":[2147483647,0,0,1,1,2,2,3,3,4,4,6,6,7,7,11,11,12,12],"right_children":[2,4,6,8,10,-1,12,14,-1,-1,-1,16,18,-1,-1,-1,-1,-1,-1],"split_conditions":[4.4956732E-1,1.2581245E0,-1.0069962E0,1.6175127E0,-9.79837E-1,-1.1096368E0,-1.06732264E-1,-5.267915E-1,-6.2767434E-1,-7.541427E-1,-1.9562428E-1,-8.34726E-1,1.0235413E-1,-2.2653055E-1,2.8821573E-2,2.3640044E-1,8.992502E-1,-2.0063189E-1,4.0894222E-1],"split_indices":[7,0,3,2,1,0,5,2,0,0,0,1,4,0,0,0,0,0,0],"split_type":[0,0,0,0,0,0,0,0,0,0,0,0,0,0,0,0,0,0,0],"sum_hessian":[1.69E2,1.35E2,3.4E1,1.29E2,6E0,1E0,3.3E1,1.24E2,5E0,5E0,1E0,1.3E1,2E1,3.5E1,8.9E1,5E0,8E0,6E0,1.4E1],"tree_param":{"num_deleted":"0","num_feature":"8","num_nodes":"19","size_leaf_vector":"1"}},{"base_weights":[-4.8543662E-1,-6.7731214E-1,4.983837E0,1.2863414E0,-1.1857992E0,6.191712E-1,-1.13170624E-1,-6.3156766E-1,6.5744176E0,-2.100252E0,7.391684E-2,3.5511634E-1,-1.7774697E-1,9.3529576E-1,-6.262674E-2,-3.612341E-1,-1.5657838E-1,7.2944593E-1,-6.260376E-2],"categories":[],"categories_nodes":[],"categories_segments":[],"categories_sizes":[],"default_left":[0,0,0,0,0,0,0,0,0,0,0,0,0,0,0,0,0,0,0],"id":30,"left_children":[1,3,5,7,9,-1,-1,11,13,15,17,-1,-1,-1,-1,-1,-1,-1,-1],"loss_changes":[2.1640782E2,1.982284E2,5.8714874E1,4.199762E2,1.8101149E2,0E0,0E0,1.548951E2,2.2593878E2,6.788672E1,3.43188E2,0E0,0E0,0E0,0E0,0E0,0E0,0E0,0E0],"parents":[2147483647,0,0,1,1,2,2,3,3,4,4,7,7,8,8,9,9,10,10],"right_children":[2,4,6,8,10,-1,-1,12,14,16,18,-1,-1,-1,-1,-1,-1,-1,-1],"split_conditions":[2.390444E0,-6.0444635E-1,9.0274465E-1,-6.7863023E-1,6.675637E-2,6.191712E-1,-1.13170624E-1,-1.1459409E0,6.042781E-1,-4.3908894E-1,-2.9116887E-1,3.5511634E-1,-1.7774697E-1,9.3529576E-1,-6.262674E-2,-3.612341E-1,-1.5657838E-1,7.2944593E-1,-6.260376E-2],"split_indices":[7,5,2,6,4,0,0,4,0,3,5,0,0,0,0,0,0,0,0],"split_type":[0,0,0,0,0,0,0,0,0,0,0,0,0,0,0,0,0,0,0],"sum_hessian":[2.02E2,1.96E2,6E0,4E1,1.56E2,5E0,1E0,3E1,1E1,9E1,6.6E1,6E0,2.4E1,7E0,3E0,2.2E1,6.8E1,5E0,6.1E1],"tree_param":{"num_deleted":"0","num_feature":"8","num_nodes":"19","size_leaf_vector":"1"}},{"base_weights":[-3.2706924E-2,-2.123158E0,1.1820571E0,-1.2949808E0,-4.1905003E0,3.232736E0,-6.700145E-1,-3.869586E0,-2.4150047E-1,4.915142E-1,-5.668929E0,1.3556018E1,1.78446E0,1.6171925E0,-2.8552482E0,-5.28172E-1,-1.3418095E-1,-8.414632E-2,9.478654E-1,2.5007394E-1,-1.6815491E-1,-7.054202E-1,-7.885142E-2,1.6456944E0,5.169446E-1,-2.112608E-1,4.2259875E-1,5.086021E-1,-2.9362187E-2,-1.3891703E-1,-5.9588474E-1],"categories":[],"categories_nodes":[],"categories_segments":[],"categories_sizes":[],"default_left":[0,0,0,0,0,0,0,0,0,0,0,0,0,0,0,0,0,0,0,0,0,0,0,0,0,0,0,0,0,0,0],"id":31,"left_children":[1,3,5,7,9,11,13,15,17,19,21,23,25,27,29,-1,-1,-1,-1,-1,-1,-1,-1,-1,-1,-1,-1,-1,-1,-1,-1],"loss_changes":[4.2151147E2,9.901306E1,4.009564E2,1.2111881E2,1.20460754E2,7.233581E2,2.8451007E2,3.9317215E1,2.0042305E2,2.6035984E1,8.232687E1,6.089966E1,4.370937E2,1.8708539E2,1.2367552E2,0E0,0E0,0E0,0E0,0E0,0E0,0E0,0E0,0E0,0E0,0E0,0E0,0E0,0E0,0E0,0E0],"parents":[2147483647,0,0,1,1,2,2,3,3,4,4,5,5,6,6,7,7,8,8,9,9,10,10,11,11,12,12,13,13,14,14],"right_children":[2,4,6,8,10,12,14,16,18,20,22,24,26,28,30,-1,-1,-1,-1,-1,-1,-1,-1,-1,-1,-1,-1,-1,-1,-1,-1],"split_conditions":[-3.6795413E-1,7.005618E-1,-6.8961495E-1,-1.2415595E0,-1.0927277E0,5.743309E-1,-1.152622E0,7.016119E-1,4.4956732E-1,-1.0827222E0,2.077267E0,-2.1073624E-1,-4.1556603E-1,9.0192527E-1,-1.4756475E-1,-5.28172E-1,-1.3418095E-1,-8.414632E-2,9.478654E-1,2.5007394E-1,-1.6815491E-1,-7.054202E-1,-7.885142E-2,1.6456944E0,5.169446E-1,-2.112608E-1,4.2259875E-1,5.086021E-1,-2.9362187E-2,-1.3891703E-1,-5.9588474E-1],"split_indices":[2,7,1,2,0,0,0,5,7,2,7,3,7,1,7,0,0,0,0,0,0,0,0,0,0,0,0,0,0,0,0],"split_type":[0,0,0,0,0,0,0,0,0,0,0,0,0,0,0,0,0,0,0,0,0,0,0,0,0,0,0,0,0,0,0],"sum_hessian":[1.64E2,6E1,1.04E2,4.4E1,1.6E1,4.9E1,5.5E1,1.2E1,3.2E1,4E0,1.2E1,5E0,4.4E1,2.7E1,2.8E1,7E0,5E0,3.1E1,1E0,2E0,2E0,9E0,3E0,3E0,2E0,1.7E1,2.7E1,9E0,1.8E1,2E1,8E0],"tree_param":{"num_deleted":"0","num_feature":"8","num_nodes":"31","size_leaf_vector":"1"}},{"base_weights":[1.4805233E-1,1.3750151E0,-2.078131E0,4.2751554E-1,6.509873E0,-2.530903E0,3.7707598E0,1.0231718E0,-3.9762568E0,3.64017E-1,8.845663E0,-8.996933E-1,-2.9629464E0,-1.9554754E-1,5.6911874E0,1.163795E0,5.1161554E-2,-5.030923E-1,-6.0919356E-2,-9.286187E-2,1.9661923E-1,1.3079537E0,4.5645496E-1,-2.4404524E-1,2.2744529E-2,-3.5675517E-1,-1.10724404E-1,1.3603936E-1,6.6813207E-1],"categories":[],"categories_nodes":[],"categories_segments":[],"categories_sizes":[],"default_left":[0,0,0,0,0,0,0,0,0,0,0,0,0,0,0,0,0,0,0,0,0,0,0,0,0,0,0,0,0],"id":32,"left_children":[1,3,5,7,9,11,13,15,17,19,21,23,25,-1,27,-1,-1,-1,-1,-1,-1,-1,-1,-1,-1,-1,-1,-1,-1],"loss_changes":[4.91786E2,5.615889E2,1.7902911E2,2.6375873E2,2.5517767E2,3.9619446E1,6.6113075E1,4.718908E2,3.954872E1,1.4252016E1,1.7593176E2,2.4868156E1,4.878235E1,0E0,8.063034E0,0E0,0E0,0E0,0E0,0E0,0E0,0E0,0E0,0E0,0E0,0E0,0E0,0E0,0E0],"parents":[2147483647,0,0,1,1,2,2,3,3,4,4,5,5,6,6,7,7,8,8,9,9,10,10,11,11,12,12,14,14],"right_children":[2,4,6,8,10,12,14,16,18,20,22,24,26,-1,28,-1,-1,-1,-1,-1,-1,-1,-1,-1,-1,-1,-1,-1,-1],"split_conditions":[7.1065906E-3,-8.2754254E-2,3.7570581E0,1.013556E0,-2.8853548E-1,-3.089133E-2,-1.0927277E0,-9.14303E-1,-4.1758078E-1,-2.502898E-1,8.1298625E-1,-7.5046796E-1,9.922983E-1,-1.9554754E-1,6.142605E-1,1.163795E0,5.1161554E-2,-5.030923E-1,-6.0919356E-2,-9.286187E-2,1.9661923E-1,1.3079537E0,4.5645496E-1,-2.4404524E-1,2.2744529E-2,-3.5675517E-1,-1.10724404E-1,1.3603936E-1,6.6813207E-1],"split_indices":[5,4,4,0,2,3,0,1,3,7,1,1,4,0,0,0,0,0,0,0,0,0,0,0,0,0,0,0,0],"split_type":[0,0,0,0,0,0,0,0,0,0,0,0,0,0,0,0,0,0,0,0,0,0,0,0,0,0,0,0,0],"sum_hessian":[1.78E2,1.15E2,6.3E1,9.8E1,1.7E1,5.9E1,4E0,8.7E1,1.1E1,5E0,1.2E1,1.3E1,4.6E1,1E0,3E0,3E0,8.4E1,8E0,3E0,3E0,2E0,5E0,7E0,5E0,8E0,3.4E1,1.2E1,1E0,2E0],"tree_param":{"num_deleted":"0","num_feature":"8","num_nodes":"29","size_leaf_vector":"1"}},{"base_weights":[6.221828E-1,-3.413919E-1,3.6357465E0,1.0068545E0,-4.977162E-1,1.0144569E1,2.4819982E0,-2.0392295E-2,-2.3355417E0,2.5395903E-1,1.3312161E0,9.44851E-1,6.537811E0,-3.329989E-2,6.2983394E-1,1.3185222E-1,-2.8472385E-1,-2.935488E-1,2.3780826E-1,1.0114298E0,2.4677704E-1],"categories":[],"categories_nodes":[],"categories_segments":[],"categories_sizes":[],"default_left":[0,0,0,0,0,0,0,0,0,0,0,0,0,0,0,0,0,0,0,0,0],"id":33,"left_children":[1,3,5,-1,7,9,11,13,15,-1,-1,17,19,-1,-1,-1,-1,-1,-1,-1,-1],"loss_changes":[5.0359753E2,2.1981833E2,2.90222E2,0E0,1.1487056E2,1.1072937E2,2.244949E2,2.0950143E2,5.423799E1,0E0,0E0,1.627007E2,1.20604675E2,0E0,0E0,0E0,0E0,0E0,0E0,0E0,0E0],"parents":[2147483647,0,0,1,1,2,2,4,4,5,5,6,6,7,7,8,8,11,11,12,12],"right_children":[2,4,6,-1,8,10,12,14,16,-1,-1,18,20,-1,-1,-1,-1,-1,-1,-1,-1],"split_conditions":[5.259135E-1,-1.5674976E0,7.005618E-1,1.0068545E0,9.711144E-2,1.8797657E-1,2.0006576E0,1.8501248E-2,-1.0033035E0,2.5395903E-1,1.3312161E0,-5.787498E-1,-1.3209783E0,-3.329989E-2,6.2983394E-1,1.3185222E-1,-2.8472385E-1,-2.935488E-1,2.3780826E-1,1.0114298E0,2.4677704E-1],"split_indices":[7,7,7,0,7,2,7,7,2,0,0,4,2,0,0,0,0,0,0,0,0],"split_type":[0,0,0,0,0,0,0,0,0,0,0,0,0,0,0,0,0,0,0,0,0],"sum_hessian":[1.72E2,1.31E2,4.1E1,1E0,1.3E2,5E0,3.6E1,1.04E2,2.6E1,2E0,3E0,2.7E1,9E0,1E2,4E0,3E0,2.3E1,7E0,2E1,4E0,5E0],"tree_param":{"num_deleted":"0","num_feature":"8","num_nodes":"21","size_leaf_vector":"1"}},{"base_weights":[3.0092826E-1,7.245514E-1,-3.644708E0,-6.870876E-2,3.0836303E0,-5.310206E0,-2.6142693E-1,1.9209776E0,-1.9124414E0,1.5905678E0,6.65723E0,-6.286591E-1,-9.3644303E-1,-1.2757101E0,1.17809296E-1,5.1059313E-2,4.9742815E-1,-4.3719772E-2,-3.3193836E-1,9.753343E-2,8.4857035E-1,7.369427E-1,1.2372828E-2,4.330349E-3,-1.447968E-1,-1.8454514E-1,2.1675682E-2],"categories":[],"categories_nodes":[],"categories_segments":[],"categories_sizes":[],"default_left":[0,0,0,0,0,0,0,0,0,0,0,0,0,0,0,0,0,0,0,0,0,0,0,0,0,0,0],"id":34,"left_children":[1,3,5,7,9,11,13,15,17,19,21,-1,23,25,-1,-1,-1,-1,-1,-1,-1,-1,-1,-1,-1,-1,-1],"loss_changes":[2.5837457E2,2.6033136E2,8.3134476E1,3.8886096E2,1.761575E2,3.681775E1,1.026339E1,2.1708315E2,1.12705826E2,1.020187E2,4.56196E1,0E0,1.5661962E0,3.8012948E0,0E0,0E0,0E0,0E0,0E0,0E0,0E0,0E0,0E0,0E0,0E0,0E0,0E0],"parents":[2147483647,0,0,1,1,2,2,3,3,4,4,5,5,6,6,7,7,8,8,9,9,10,10,12,12,13,13],"right_children":[2,4,6,8,10,12,14,16,18,20,22,-1,24,26,-1,-1,-1,-1,-1,-1,-1,-1,-1,-1,-1,-1,-1],"split_conditions":[8.610113E-1,1.9792663E-2,6.40538E-1,-4.2883444E-1,3.4681392E-1,1.5469847E0,-1.0827222E0,-5.929889E-1,-2.6153213E-1,1.2011385E0,1.0095882E0,-6.286591E-1,-1.022851E0,3.2497911E0,1.17809296E-1,5.1059313E-2,4.9742815E-1,-4.3719772E-2,-3.3193836E-1,9.753343E-2,8.4857035E-1,7.369427E-1,1.2372828E-2,4.330349E-3,-1.447968E-1,-1.8454514E-1,2.1675682E-2],"split_indices":[3,6,7,5,2,3,2,4,3,4,1,0,0,3,0,0,0,0,0,0,0,0,0,0,0,0,0],"split_type":[0,0,0,0,0,0,0,0,0,0,0,0,0,0,0,0,0,0,0,0,0,0,0,0,0,0,0],"sum_hessian":[1.52E2,1.38E2,1.4E1,1.04E2,3.4E1,9E0,5E0,5E1,5.4E1,2.5E1,9E0,7E0,2E0,3E0,2E0,3.5E1,1.5E1,2.7E1,2.7E1,2.4E1,1E0,8E0,1E0,1E0,1E0,2E0,1E0],"tree_param":{"num_deleted":"0","num_feature":"8","num_nodes":"27","size_leaf_vector":"1"}},{"base_weights":[-2.4182734E-1,8.068788E0,-6.203593E-1,-8.258033E-1,1.3570703E1,-1.7817376E0,1.5250839E0,-1.17283575E-1,1.0764695E-2,1.5884995E0,2.1567646E-1,-1.2959349E0,-5.803066E0,-9.3246967E-1,3.85818E0,-1.6030133E-1,1.1663278E-1,-6.496753E-1,-1.55642E-1,-2.2842751E-1,6.553774E-1,5.8374697E-1,-2.8093714E-1],"categories":[],"categories_nodes":[],"categories_segments":[],"categories_sizes":[],"default_left":[0,0,0,0,0,0,0,0,0,0,0,0,0,0,0,0,0,0,0,0,0,0,0],"id":35,"left_children":[1,3,5,7,9,11,13,-1,-1,-1,-1,15,17,19,21,-1,-1,-1,-1,-1,-1,-1,-1],"loss_changes":[5.775471E2,4.0270502E2,4.3875974E2,1.4220018E0,9.7815796E1,2.151868E2,3.5908762E2,0E0,0E0,0E0,0E0,7.974873E1,2.5238464E1,3.2868893E2,4.38704E2,0E0,0E0,0E0,0E0,0E0,0E0,0E0,0E0],"parents":[2147483647,0,0,1,1,2,2,3,3,4,4,5,5,6,6,11,11,12,12,13,13,14,14],"right_children":[2,4,6,8,10,12,14,-1,-1,-1,-1,16,18,20,22,-1,-1,-1,-1,-1,-1,-1,-1],"split_conditions":[-9.8731846E-1,-1.1109852E0,1.5834631E-1,-1.202534E0,6.741548E-1,1.538094E0,-6.3344294E-1,-1.17283575E-1,1.0764695E-2,1.5884995E0,2.1567646E-1,7.87792E-1,6.3422525E-1,1.9212049E0,1.0798032E0,-1.6030133E-1,1.1663278E-1,-6.496753E-1,-1.55642E-1,-2.2842751E-1,6.553774E-1,5.8374697E-1,-2.8093714E-1],"split_indices":[3,5,7,0,0,2,1,0,0,0,0,3,0,7,1,0,0,0,0,0,0,0,0],"split_type":[0,0,0,0,0,0,0,0,0,0,0,0,0,0,0,0,0,0,0,0,0,0,0],"sum_hessian":[1.81E2,7E0,1.74E2,3E0,4E0,1.13E2,6.1E1,2E0,1E0,3E0,1E0,1.02E2,1.1E1,3E1,3.1E1,9.1E1,1.1E1,9E0,2E0,2.6E1,4E0,2.4E1,7E0],"tree_param":{"num_deleted":"0","num_feature":"8","num_nodes":"23","size_leaf_vector":"1"}},{"base_weights":[-1.22519925E-1,5.317275E0,-6.447918E-1,2.8892806E0,1.4066161E0,-1.7924735E-1,-5.00896E0,6.971462E0,-1.6056548E0,8.1115663E-1,-1.3000153E0,-7.746801E0,-1.6449984E0,2.3011546E-1,9.898903E-1,5.2519966E-2,-3.3350953E-1,2.9420724E-2,1.0042694E0,-3.1815735E-1,-1.0428847E-2,-8.820767E-1,-1.1452007E-2,6.819391E-3,-4.5230505E-1],"categories":[],"categories_nodes":[],"categories_segments":[],"categories_sizes":[],"default_left":[0,0,0,0,0,0,0,0,0,0,0,0,0,0,0,0,0,0,0,0,0,0,0,0,0],"id":36,"left_children":[1,3,5,7,-1,9,11,13,15,17,19,21,23,-1,-1,-1,-1,-1,-1,-1,-1,-1,-1,-1,-1],"loss_changes":[4.8640735E2,2.7799265E2,3.1604956E2,2.497326E2,0E0,1.5867636E2,1.254064E2,7.2925446E1,2.7547895E1,3.5973535E2,1.5040677E2,6.456433E1,3.9753693E1,0E0,0E0,0E0,0E0,0E0,0E0,0E0,0E0,0E0,0E0,0E0,0E0],"parents":[2147483647,0,0,1,1,2,2,3,3,5,5,6,6,7,7,8,8,9,9,10,10,11,11,12,12],"right_children":[2,4,6,8,-1,10,12,14,16,18,20,22,24,-1,-1,-1,-1,-1,-1,-1,-1,-1,-1,-1,-1],"split_conditions":[-1.3622521E0,-1.4221464E0,9.284071E-1,-2.1073624E-1,1.4066161E0,2.6739526E-1,6.2424284E-1,-1.5169791E0,3.091208E-1,1.8797657E-1,-3.78987E-1,1.2670432E0,1.118371E0,2.3011546E-1,9.898903E-1,5.2519966E-2,-3.3350953E-1,2.9420724E-2,1.0042694E0,-3.1815735E-1,-1.0428847E-2,-8.820767E-1,-1.1452007E-2,6.819391E-3,-4.5230505E-1],"split_indices":[0,0,5,3,0,2,0,0,3,2,0,1,0,0,0,0,0,0,0,0,0,0,0,0,0],"split_type":[0,0,0,0,0,0,0,0,0,0,0,0,0,0,0,0,0,0,0,0,0,0,0,0,0],"sum_hessian":[1.69E2,1.4E1,1.55E2,1.2E1,2E0,1.41E2,1.4E1,6E0,6E0,7.5E1,6.6E1,7E0,7E0,3E0,3E0,3E0,3E0,7.2E1,3E0,2.5E1,4.1E1,6E0,1E0,5E0,2E0],"tree_param":{"num_deleted":"0","num_feature":"8","num_nodes":"25","size_leaf_vector":"1"}},{"base_weights":[7.22265E-1,1.6835021E0,-1.1957836E0,6.6979923E0,7.282291E-1,-4.2287582E-1,-3.6008868E0,9.973481E0,-9.6931726E-1,-1.7600724E0,2.8969789E0,2.4784937E0,-2.1265438E0,-2.2831578E0,-4.757711E-1,1.3269696E0,4.46565E-1,9.576085E-2,-2.1721824E-1,-2.1007799E-1,6.274819E-1,8.1766367E-1,1.6673714E-1,-1.7088392E-1,4.0166745E-1,-2.8085735E-1,1.4361012E-1,-2.5871405E-1,-7.7640056E-3],"categories":[],"categories_nodes":[],"categories_segments":[],"categories_sizes":[],"default_left":[0,0,0,0,0,0,0,0,0,0,0,0,0,0,0,0,0,0,0,0,0,0,0,0,0,0,0,0,0],"id":37,"left_children":[1,3,5,7,9,11,13,15,17,19,21,23,25,27,-1,-1,-1,-1,-1,-1,-1,-1,-1,-1,-1,-1,-1,-1,-1],"loss_changes":[2.97005E2,5.0767447E2,9.885911E1,4.3660864E2,4.9618066E2,2.1287537E2,8.954361E0,1.5860217E2,1.5987091E1,1.3089648E2,3.0446997E2,1.09917854E2,6.96388E1,5.1626434E0,0E0,0E0,0E0,0E0,0E0,0E0,0E0,0E0,0E0,0E0,0E0,0E0,0E0,0E0,0E0],"parents":[2147483647,0,0,1,1,2,2,3,3,4,4,5,5,6,6,7,7,8,8,9,9,10,10,11,11,12,12,13,13],"right_children":[2,4,6,8,10,12,14,16,18,20,22,24,26,28,-1,-1,-1,-1,-1,-1,-1,-1,-1,-1,-1,-1,-1,-1,-1],"split_conditions":[6.5918124E-1,-6.9429594E-1,1.1882477E0,5.056513E-1,-3.1736186E-1,-8.67493E-1,-1.298145E0,9.623624E-2,-7.438643E-1,2.167882E0,-1.9471952E-1,-6.603195E-1,1.1410006E0,-1.32155E0,-4.757711E-1,1.3269696E0,4.46565E-1,9.576085E-2,-2.1721824E-1,-2.1007799E-1,6.274819E-1,8.1766367E-1,1.6673714E-1,-1.7088392E-1,4.0166745E-1,-2.8085735E-1,1.4361012E-1,-2.5871405E-1,-7.7640056E-3],"split_indices":[0,1,0,2,3,1,1,5,3,7,3,6,2,1,0,0,0,0,0,0,0,0,0,0,0,0,0,0,0],"split_type":[0,0,0,0,0,0,0,0,0,0,0,0,0,0,0,0,0,0,0,0,0,0,0,0,0,0,0,0,0],"sum_hessian":[1.59E2,1.06E2,5.3E1,1.6E1,9E1,4.1E1,1.2E1,1.1E1,5E0,4.2E1,4.8E1,1.5E1,2.6E1,7E0,5E0,6E0,5E0,2E0,3E0,4.1E1,1E0,8E0,4E1,4E0,1.1E1,2.2E1,4E0,6E0,1E0],"tree_param":{"num_deleted":"0","num_feature":"8","num_nodes":"29","size_leaf_vector":"1"}},{"base_weights":[-1.317652E-1,-2.446784E0,2.7673224E-1,-5.403995E-1,-1.8808632E0,-1.1263537E0,9.502592E-1,-4.2797774E-1,-3.0306807E0,2.2961721E0,-2.0256379E0,3.6545763E0,2.2043622E-1,-1.4566618E-1,8.920387E-2,-1.5333985E-1,-4.0228492E-1,-8.908867E-2,8.967252E-1,-6.1027408E-2,-3.49132E-1,9.83596E-2,5.693001E-1,3.6121416E-1,-8.926297E-2],"categories":[],"categories_nodes":[],"categories_segments":[],"categories_sizes":[],"default_left":[0,0,0,0,0,0,0,0,0,0,0,0,0,0,0,0,0,0,0,0,0,0,0,0,0],"id":38,"left_children":[1,3,5,-1,7,9,11,13,15,17,19,21,23,-1,-1,-1,-1,-1,-1,-1,-1,-1,-1,-1,-1],"loss_changes":[1.3874628E2,2.665387E1,1.19197365E2,0E0,3.2114E1,1.3084198E2,1.6695657E2,1.4878199E1,1.0172493E1,1.9933891E2,6.6326965E1,9.2403076E1,2.5993735E2,0E0,0E0,0E0,0E0,0E0,0E0,0E0,0E0,0E0,0E0,0E0,0E0],"parents":[2147483647,0,0,1,1,2,2,4,4,5,5,6,6,7,7,8,8,9,9,10,10,11,11,12,12],"right_children":[2,4,6,-1,8,10,12,14,16,18,20,22,24,-1,-1,-1,-1,-1,-1,-1,-1,-1,-1,-1,-1],"split_conditions":[-9.988505E-1,-1.0343813E0,-5.766134E-1,-5.403995E-1,-4.134622E-1,-9.6113837E-1,-8.25364E-1,-1.2319958E0,-8.444662E-1,-9.3184334E-1,-1.021783E-1,-8.90898E-1,-1.2873842E0,-1.4566618E-1,8.920387E-2,-1.5333985E-1,-4.0228492E-1,-8.908867E-2,8.967252E-1,-6.1027408E-2,-3.49132E-1,9.83596E-2,5.693001E-1,3.6121416E-1,-8.926297E-2],"split_indices":[7,6,6,0,3,6,1,7,2,5,7,1,0,0,0,0,0,0,0,0,0,0,0,0,0],"split_type":[0,0,0,0,0,0,0,0,0,0,0,0,0,0,0,0,0,0,0,0,0,0,0,0,0],"sum_hessian":[1.45E2,2.1E1,1.24E2,2E0,1.9E1,4E1,8.4E1,9E0,1E1,8E0,3.2E1,1.7E1,6.7E1,5E0,4E0,5E0,5E0,6E0,2E0,1.7E1,1.5E1,8E0,9E0,1.6E1,5.1E1],"tree_param":{"num_deleted":"0","num_feature":"8","num_nodes":"25","size_leaf_vector":"1"}},{"base_weights":[-2.7261084E-1,8.265428E0,-5.4221725E-1,1.4647971E-1,9.332594E-1,-2.0555398E0,3.0571842E-1,3.332143E-1,-3.4520996E0,4.587839E0,-3.502548E-2,-5.7377804E-2,5.4651165E-1,1.3537364E-1,-3.9797172E-1,2.6559234E-1,7.566363E-1,7.540884E-1,-1.6880242E-2],"categories":[],"categories_nodes":[],"categories_segments":[],"categories_sizes":[],"default_left":[0,0,0,0,0,0,0,0,0,0,0,0,0,0,0,0,0,0,0],"id":39,"left_children":[1,3,5,-1,-1,7,9,11,13,15,17,-1,-1,-1,-1,-1,-1,-1,-1],"loss_changes":[4.5105222E2,2.9874054E1,2.4315329E2,0E0,0E0,2.2800089E2,1.7817168E2,1.2415526E2,1.14420166E2,3.1692657E1,1.1680986E2,0E0,0E0,0E0,0E0,0E0,0E0,0E0,0E0],"parents":[2147483647,0,0,1,1,2,2,5,5,6,6,7,7,8,8,9,9,10,10],"right_children":[2,4,6,-1,-1,8,10,12,14,16,18,-1,-1,-1,-1,-1,-1,-1,-1],"split_conditions":[-1.1356943E0,-9.2388487E-1,-4.615175E-1,1.4647971E-1,9.332594E-1,-7.2269756E-1,-1.4071728E0,-6.3677716E-1,-8.7685496E-1,-1.4221464E0,-4.458226E-1,-5.7377804E-2,5.4651165E-1,1.3537364E-1,-3.9797172E-1,2.6559234E-1,7.566363E-1,7.540884E-1,-1.6880242E-2],"split_indices":[5,2,6,0,0,5,0,6,1,0,6,0,0,0,0,0,0,0,0],"split_type":[0,0,0,0,0,0,0,0,0,0,0,0,0,0,0,0,0,0,0],"sum_hessian":[1.93E2,5E0,1.88E2,1E0,4E0,6.7E1,1.21E2,2.5E1,4.2E1,8E0,1.13E2,2.2E1,3E0,4E0,3.8E1,6E0,2E0,1E0,1.12E2],"tree_param":{"num_deleted":"0","num_feature":"8","num_nodes":"19","size_leaf_vector":"1"}}]},"name":"gbtree"},"learner_model_param":{"base_score":"2.0594019E1","boost_from_average":"1","num_class":"0","num_feature":"8","num_target":"1"},"objective":{"name":"reg:squarederror","reg_loss_param":{"scale_pos_weight":"1"}}},"version":[2,0,0]}