booster[0]:
0:[median_income<0.669883847] yes=1,no=2,missing=2,gain=5.45467054e+13,cover=13205
	1:[median_income<-0.389609694] yes=3,no=4,missing=4,gain=1.52256318e+13,cover=10617
		3:[latitude<-0.525240481] yes=7,no=8,missing=8,gain=2.18473955e+12,cover=5248
			7:[longitude<0.633748472] yes=15,no=16,missing=16,gain=2.68015921e+12,cover=2563
				15:[longitude<0.608791947] yes=31,no=32,missing=32,gain=2.00565408e+11,cover=474
					31:[latitude<-0.684423864] yes=63,no=64,missing=64,gain=6.45132714e+11,cover=290
						63:[longitude<0.57884413] yes=125,no=126,missing=126,gain=2.57176437e+11,cover=109
							125:leaf=14959.6709,cover=48
							126:leaf=5097.70215,cover=61
						64:[longitude<0.129626468] yes=127,no=128,missing=128,gain=1.06740842e+11,cover=181
							127:leaf=4977.75,cover=32
							128:leaf=-1304.1969,cover=149
					32:[latitude<-0.740606308] yes=65,no=66,missing=66,gain=4.86693831e+11,cover=184
						65:[latitude<-0.796788692] yes=129,no=130,missing=130,gain=1.30865299e+11,cover=114
							129:leaf=3775.61499,cover=15
							130:leaf=-6047.19092,cover=99
						66:[latitude<-0.721878827] yes=131,no=132,missing=132,gain=1.25272572e+11,cover=70
							131:leaf=11172.1445,cover=26
							132:leaf=2442.9248,cover=44
				16:[longitude<0.99811393] yes=33,no=34,missing=34,gain=7.41025513e+11,cover=2089
					33:[latitude<-0.731242537] yes=67,no=68,missing=68,gain=2.98947969e+11,cover=1236
						67:[latitude<-0.820197999] yes=133,no=134,missing=134,gain=2.90753085e+11,cover=934
							133:leaf=-2808.07446,cover=246
							134:leaf=-6829.83057,cover=688
						68:[longitude<0.78847903] yes=135,no=136,missing=136,gain=1.41730693e+11,cover=302
							135:leaf=-999.984497,cover=237
							136:leaf=-6245.76855,cover=65
					34:[latitude<-1.06365502] yes=69,no=70,missing=70,gain=3.43205216e+11,cover=853
						69:[longitude<1.21274018] yes=137,no=138,missing=138,gain=5.5077503e+11,cover=468
							137:leaf=-1062.23962,cover=121
							138:leaf=-8904.16016,cover=347
						70:[median_income<-0.869508445] yes=139,no=140,missing=140,gain=6.31997727e+10,cover=385
							139:leaf=-12451.374,cover=175
							140:leaf=-9652.56934,cover=210
			8:[longitude<-1.08326113] yes=17,no=18,missing=18,gain=2.1681406e+12,cover=2685
				17:[latitude<1.06659389] yes=35,no=36,missing=36,gain=2.13840717e+12,cover=1064
					35:[longitude<-1.36277437] yes=71,no=72,missing=72,gain=1.0574598e+12,cover=535
						71:[latitude<0.996365905] yes=141,no=142,missing=142,gain=1.88364947e+11,cover=106
							141:leaf=3138.23413,cover=48
							142:leaf=11662.2686,cover=58
						72:[latitude<0.926137924] yes=143,no=144,missing=144,gain=4.07481909e+11,cover=429
							143:leaf=1134.43811,cover=142
							144:leaf=-5404.19141,cover=287
					36:[latitude<1.41305196] yes=73,no=74,missing=74,gain=3.80936126e+11,cover=529
						73:[longitude<-1.40270483] yes=145,no=146,missing=146,gain=9.8919252e+10,cover=205
							145:leaf=-3542.52417,cover=73
							146:leaf=-8201.69531,cover=132
						74:[median_income<-0.711384535] yes=147,no=148,missing=148,gain=3.21047757e+10,cover=324
							147:leaf=-12872.6982,cover=229
							148:leaf=-10244.3857,cover=95
				18:[longitude<-0.24971287] yes=37,no=38,missing=38,gain=3.77032278e+11,cover=1621
					37:[latitude<-0.000871498429] yes=75,no=76,missing=76,gain=3.05116742e+11,cover=995
						75:[latitude<-0.234964788] yes=149,no=150,missing=150,gain=1.15587858e+11,cover=83
							149:leaf=-7336.66406,cover=48
							150:leaf=182.492111,cover=35
						76:[households<-1.26998079] yes=151,no=152,missing=152,gain=1.0617566e+11,cover=912
							151:leaf=1469.50281,cover=7
							152:leaf=-10698.2334,cover=905
					38:[latitude<0.663953424] yes=77,no=78,missing=78,gain=8.40737751e+10,cover=626
						77:[total_rooms<-1.17886293] yes=153,no=154,missing=154,gain=3.97347389e+10,cover=579
							153:leaf=-2835.60889,cover=4
							154:leaf=-13671.6787,cover=575
						78:[population<-1.17046642] yes=155,no=156,missing=156,gain=1.38704323e+10,cover=47
							155:leaf=-1611.50818,cover=3
							156:leaf=-9258.41113,cover=44
		4:[housing_median_age<0.823226511] yes=9,no=10,missing=10,gain=3.09709295e+12,cover=5369
			9:[latitude<1.09468508] yes=19,no=20,missing=20,gain=1.38704742e+12,cover=4247
				19:[longitude<0.738565922] yes=39,no=40,missing=40,gain=1.78644805e+12,cover=3514
					39:[latitude<-0.675060153] yes=79,no=80,missing=80,gain=1.42943427e+12,cover=1922
						79:[longitude<0.603800654] yes=157,no=158,missing=158,gain=1.65333723e+12,cover=559
							157:leaf=13747.2109,cover=199
							158:leaf=2398.68848,cover=360
						80:[longitude<-1.14315689] yes=159,no=160,missing=160,gain=2.10981696e+12,cover=1363
							159:leaf=5434.92188,cover=523
							160:leaf=-2649.09473,cover=840
					40:[latitude<-0.815516114] yes=81,no=82,missing=82,gain=6.479157e+11,cover=1592
						81:[longitude<1.20774877] yes=161,no=162,missing=162,gain=6.941773e+11,cover=931
							161:leaf=1235.76514,cover=636
							162:leaf=-4625.24707,cover=295
						82:[longitude<0.913261712] yes=163,no=164,missing=164,gain=4.86131106e+11,cover=661
							163:leaf=-2197.60767,cover=356
							164:leaf=-7641.74316,cover=305
				20:[longitude<-1.40270483] yes=41,no=42,missing=42,gain=4.24843805e+11,cover=733
					41:[latitude<1.43177938] yes=83,no=84,missing=84,gain=2.8081075e+11,cover=183
						83:[housing_median_age<-0.52756083] yes=165,no=166,missing=166,gain=4.17826365e+10,cover=142
							165:leaf=-181.085403,cover=66
							166:leaf=3245.15796,cover=76
						84:[median_income<-0.374976367] yes=167,no=168,missing=168,gain=1.94266399e+10,cover=41
							167:leaf=3483.99463,cover=1
							168:leaf=-7994.40088,cover=40
					42:[median_income<0.0252814032] yes=85,no=86,missing=86,gain=1.2311226e+11,cover=550
						85:[total_bedrooms<28.0374241] yes=169,no=170,missing=170,gain=5.02063432e+10,cover=279
							169:leaf=-7590.21191,cover=278
							170:leaf=9173.99512,cover=1
						86:[median_income<0.310209781] yes=171,no=172,missing=172,gain=3.03576187e+10,cover=271
							171:leaf=-5386.20215,cover=156
							172:leaf=-3184.23511,cover=115
			10:[longitude<-1.39272225] yes=21,no=22,missing=22,gain=1.53153962e+12,cover=1122
				21:[latitude<1.16959488] yes=43,no=44,missing=44,gain=4.75041104e+11,cover=262
					43:[latitude<1.00104773] yes=87,no=88,missing=88,gain=7.36170344e+11,cover=243
						87:[median_income<0.2732054] yes=173,no=174,missing=174,gain=9.83553802e+10,cover=152
							173:leaf=7160.26709,cover=114
							174:leaf=13191.8936,cover=38
						88:[longitude<-1.45760918] yes=175,no=176,missing=176,gain=9.48043776e+10,cover=91
							175:leaf=12454.4111,cover=18
							176:leaf=21909.2676,cover=73
					44:[longitude<-1.63230491] yes=89,no=90,missing=90,gain=5.30198036e+10,cover=19
						89:leaf=-9481.75977,cover=7
						90:[total_rooms<-0.322595894] yes=177,no=178,missing=178,gain=7.37048986e+09,cover=12
							177:leaf=-1775.00916,cover=5
							178:leaf=2888.24048,cover=7
				22:[median_income<0.105659313] yes=45,no=46,missing=46,gain=8.38098223e+11,cover=860
					45:[total_bedrooms<-0.324819058] yes=91,no=92,missing=91,gain=4.278195e+11,cover=522
						91:[latitude<1.05723011] yes=179,no=180,missing=180,gain=1.24426166e+11,cover=319
							179:leaf=-898.41095,cover=283
							180:leaf=-7070.06494,cover=36
						92:[total_bedrooms<0.683784306] yes=181,no=182,missing=182,gain=1.66324175e+11,cover=203
							181:leaf=3363.74658,cover=187
							182:leaf=13748.125,cover=16
					46:[total_bedrooms<-0.253623515] yes=93,no=94,missing=94,gain=3.06423136e+11,cover=338
						93:[latitude<-0.881062269] yes=183,no=184,missing=184,gain=1.23409531e+11,cover=243
							183:leaf=15576.3721,cover=10
							184:leaf=4623.51123,cover=233
						94:[latitude<0.916774154] yes=185,no=186,missing=186,gain=1.02271549e+11,cover=95
							185:leaf=13037.3164,cover=84
							186:leaf=2525.65674,cover=11
	2:[median_income<1.55604112] yes=5,no=6,missing=6,gain=9.16948674e+12,cover=2588
		5:[housing_median_age<0.0286457147] yes=11,no=12,missing=12,gain=1.6246647e+12,cover=1732
			11:[median_income<0.919755399] yes=23,no=24,missing=24,gain=6.28230717e+11,cover=1074
				23:[housing_median_age<-0.924851239] yes=47,no=48,missing=48,gain=1.86554548e+11,cover=415
					47:[total_bedrooms<-0.457717389] yes=95,no=96,missing=95,gain=5.98284042e+10,cover=195
						95:[longitude<-0.723887026] yes=187,no=188,missing=188,gain=2.29994209e+10,cover=46
							187:leaf=1279.45642,cover=14
							188:leaf=-3484.67749,cover=32
						96:[latitude<-0.838925481] yes=189,no=190,missing=190,gain=5.40542935e+10,cover=149
							189:leaf=5204.79443,cover=39
							190:leaf=900.619812,cover=110
					48:[longitude<1.18279231] yes=97,no=98,missing=98,gain=1.16609778e+11,cover=220
						97:[latitude<0.827818751] yes=191,no=192,missing=192,gain=8.25897779e+10,cover=199
							191:leaf=7288.75,cover=147
							192:leaf=2587.08374,cover=52
						98:[total_rooms<0.0940779522] yes=193,no=194,missing=194,gain=1.08334858e+10,cover=21
							193:leaf=-3215.21021,cover=14
							194:leaf=1398.24048,cover=7
				24:[latitude<1.09000325] yes=49,no=50,missing=50,gain=2.24600785e+11,cover=659
					49:[longitude<-1.21802652] yes=99,no=100,missing=100,gain=2.35272667e+11,cover=575
						99:[latitude<0.907410443] yes=195,no=196,missing=196,gain=5.22635182e+10,cover=50
							195:leaf=18717.0352,cover=28
							196:leaf=11011.5596,cover=22
						100:[median_income<1.30122149] yes=197,no=198,missing=198,gain=1.16282884e+11,cover=525
							197:leaf=7274.40869,cover=350
							198:leaf=10517.3818,cover=175
					50:[longitude<-1.41268742] yes=101,no=102,missing=102,gain=1.11420031e+11,cover=84
						101:[housing_median_age<-0.686477005] yes=199,no=200,missing=200,gain=1.95756687e+10,cover=18
							199:leaf=6549.82373,cover=11
							200:leaf=14381.9912,cover=7
						102:[median_income<1.38202047] yes=201,no=202,missing=202,gain=3.49925171e+10,cover=66
							201:leaf=504.575439,cover=57
							202:leaf=6929.18994,cover=9
			12:[median_income<1.04724419] yes=25,no=26,missing=26,gain=7.7463552e+11,cover=658
				25:[housing_median_age<0.743768394] yes=51,no=52,missing=52,gain=3.00424888e+11,cover=384
					51:[longitude<0.75353986] yes=103,no=104,missing=104,gain=1.43686238e+11,cover=251
						103:[total_bedrooms<-1.11508942] yes=203,no=204,missing=204,gain=1.07111645e+11,cover=187
							203:leaf=-5945.60889,cover=4
							204:leaf=9446.59082,cover=183
						104:[latitude<-0.871698499] yes=205,no=206,missing=206,gain=7.39969516e+10,cover=64
							205:leaf=8589.09961,cover=19
							206:leaf=1243.25024,cover=45
					52:[longitude<0.618774593] yes=105,no=106,missing=106,gain=1.039283e+11,cover=133
						105:[latitude<-0.675060153] yes=207,no=208,missing=208,gain=1.35349404e+11,cover=96
							207:leaf=20918.0801,cover=32
							208:leaf=12397.7217,cover=64
						106:[latitude<-0.885744095] yes=209,no=210,missing=210,gain=4.27287839e+10,cover=37
							209:leaf=16915.0234,cover=5
							210:leaf=6975.9292,cover=32
				26:[housing_median_age<0.902684569] yes=53,no=54,missing=54,gain=1.25950231e+11,cover=274
					53:[total_bedrooms<-0.495688349] yes=107,no=108,missing=107,gain=9.16431831e+10,cover=181
						107:[longitude<-1.29788733] yes=211,no=212,missing=212,gain=3.96533432e+10,cover=82
							211:leaf=17531.4766,cover=14
							212:leaf=10886.5723,cover=68
						108:[housing_median_age<0.425936103] yes=213,no=214,missing=214,gain=3.75859446e+10,cover=99
							213:leaf=14303.9951,cover=46
							214:leaf=19467.4902,cover=53
					54:[total_rooms<-1.0477643] yes=109,no=110,missing=110,gain=1.39950555e+11,cover=93
						109:[longitude<-1.35279179] yes=215,no=216,missing=216,gain=1.14439526e+10,cover=3
							215:leaf=-6616.00537,cover=1
							216:leaf=3178.65942,cover=2
						110:[latitude<1.01977527] yes=217,no=218,missing=218,gain=2.13749596e+10,cover=90
							217:leaf=21712.3887,cover=75
							218:leaf=14760.6201,cover=15
		6:[median_income<2.08089256] yes=13,no=14,missing=14,gain=1.37001488e+12,cover=856
			13:[housing_median_age<-0.130270436] yes=27,no=28,missing=28,gain=5.63582337e+11,cover=351
				27:[longitude<-1.22301781] yes=55,no=56,missing=56,gain=1.06182738e+11,cover=215
					55:[latitude<1.21173167] yes=111,no=112,missing=112,gain=1.65652726e+10,cover=30
						111:[latitude<0.752908885] yes=219,no=220,missing=220,gain=1.82053765e+10,cover=24
							219:leaf=3298.99463,cover=1
							220:leaf=21168.9355,cover=23
						112:[housing_median_age<-1.24268353] yes=221,no=222,missing=222,gain=16162816,cover=6
							221:leaf=4861.99268,cover=2
							222:leaf=12286.3916,cover=4
					56:[households<-0.244663] yes=113,no=114,missing=114,gain=3.80604252e+10,cover=185
						113:[latitude<0.457951337] yes=223,no=224,missing=224,gain=3.55717612e+10,cover=91
							223:leaf=11660.3457,cover=68
							224:leaf=6556.40625,cover=23
						114:[latitude<1.08063948] yes=225,no=226,missing=226,gain=9.8935767e+09,cover=94
							225:leaf=14083.1816,cover=90
							226:leaf=6288.3916,cover=4
				28:[total_rooms<-1.11789751] yes=57,no=58,missing=58,gain=8.66391163e+10,cover=136
					57:leaf=-4116.00537,cover=1
					58:[latitude<0.907410443] yes=115,no=116,missing=116,gain=5.95187466e+10,cover=135
						115:[longitude<0.728583336] yes=227,no=228,missing=228,gain=7.8863401e+10,cover=105
							227:leaf=25010.0352,cover=80
							228:leaf=16810.0137,cover=25
						116:[latitude<1.01509333] yes=229,no=230,missing=230,gain=2.50659471e+10,cover=30
							229:leaf=5410.9917,cover=3
							230:leaf=17554.498,cover=27
			14:[total_rooms<-1.11789751] yes=29,no=30,missing=30,gain=2.68959744e+11,cover=505
				29:[median_income<3.53127432] yes=59,no=60,missing=60,gain=1.12076734e+11,cover=12
					59:[housing_median_age<0.664310336] yes=117,no=118,missing=118,gain=1.99744389e+10,cover=7
						117:leaf=7011.99316,cover=2
						118:[total_rooms<-1.17886293] yes=231,no=232,missing=232,gain=3.74157517e+09,cover=5
							231:leaf=-5488.00732,cover=2
							232:leaf=-361.508209,cover=3
					60:[longitude<-1.4426353] yes=119,no=120,missing=120,gain=1.37275474e+10,cover=5
						119:leaf=3683.99463,cover=1
						120:leaf=21414.4512,cover=4
				30:[median_income<2.882303] yes=61,no=62,missing=62,gain=3.01188776e+11,cover=493
					61:[housing_median_age<0.0286457147] yes=121,no=122,missing=122,gain=2.87779586e+11,cover=264
						121:[longitude<0.75353986] yes=233,no=234,missing=234,gain=9.51304847e+10,cover=156
							233:leaf=21893.916,cover=91
							234:leaf=16007.8721,cover=65
						122:leaf=26815.2324,cover=108
					62:[latitude<1.08532131] yes=123,no=124,missing=124,gain=6.01337364e+10,cover=229
						123:[total_bedrooms<-1.21001685] yes=235,no=236,missing=236,gain=9.2232745e+09,cover=228
							235:leaf=7133.99463,cover=1
							236:leaf=28226.9414,cover=227
						124:leaf=1733.99451,cover=1
booster[1]:
0:[median_income<0.615508974] yes=1,no=2,missing=2,gain=4.47417481e+13,cover=13251
	1:[median_income<-0.439510316] yes=3,no=4,missing=4,gain=1.11535687e+13,cover=10428
		3:[latitude<-0.525240481] yes=7,no=8,missing=8,gain=1.63227212e+12,cover=4881
			7:[longitude<0.633748472] yes=15,no=16,missing=16,gain=1.92425597e+12,cover=2375
				15:[longitude<0.588826716] yes=31,no=32,missing=32,gain=1.62787721e+11,cover=421
					31:[latitude<-0.684423864] yes=63,no=64,missing=64,gain=5.40230746e+11,cover=190
						63:[households<-0.846252501] yes=127,no=128,missing=128,gain=2.57112801e+10,cover=58
							127:leaf=3748.75049,cover=5
							128:leaf=12236.0107,cover=53
						64:[longitude<0.0447742492] yes=129,no=130,missing=130,gain=1.49380235e+11,cover=132
							129:leaf=6421.93408,cover=28
							130:leaf=-1685.92114,cover=104
					32:[latitude<-0.740606308] yes=65,no=66,missing=66,gain=3.81909729e+11,cover=231
						65:[latitude<-1.06365502] yes=131,no=132,missing=132,gain=1.81992636e+11,cover=124
							131:leaf=17035.3223,cover=3
							132:leaf=-4740.01416,cover=121
						66:[latitude<-0.70783323] yes=133,no=134,missing=134,gain=2.05222855e+11,cover=107
							133:leaf=7383.24756,cover=67
							134:leaf=-1609.29126,cover=40
				16:[longitude<0.898287773] yes=33,no=34,missing=34,gain=6.27476791e+11,cover=1954
					33:[latitude<-0.740606308] yes=67,no=68,missing=68,gain=3.31578343e+11,cover=1090
						67:[latitude<-0.815516114] yes=135,no=136,missing=136,gain=3.06353537e+11,cover=757
							135:leaf=-2440.06006,cover=226
							136:leaf=-6849.91357,cover=531
						68:[longitude<0.668687642] yes=137,no=138,missing=138,gain=1.01557477e+11,cover=333
							137:leaf=368.902008,cover=135
							138:leaf=-3181.93701,cover=198
					34:[longitude<1.57211423] yes=69,no=70,missing=70,gain=2.3042877e+11,cover=864
						69:[latitude<-0.979381442] yes=139,no=140,missing=140,gain=2.59072197e+11,cover=756
							139:leaf=-5528.31348,cover=387
							140:leaf=-9265.27637,cover=369
						70:[median_income<-0.474724978] yes=141,no=142,missing=142,gain=4.60341903e+10,cover=108
							141:leaf=-12693.3438,cover=105
							142:leaf=-98.7761765,cover=3
			8:[longitude<-1.08326113] yes=17,no=18,missing=18,gain=1.62387722e+12,cover=2506
				17:[latitude<1.41305196] yes=35,no=36,missing=36,gain=1.5756464e+12,cover=983
					35:[longitude<-1.40270483] yes=71,no=72,missing=72,gain=5.68391762e+11,cover=676
						71:[latitude<1.0993669] yes=143,no=144,missing=144,gain=3.82132355e+11,cover=158
							143:leaf=6666.27295,cover=97
							144:leaf=-3375.21338,cover=61
						72:[latitude<0.916774154] yes=145,no=146,missing=146,gain=4.74458948e+11,cover=518
							145:leaf=1258.32385,cover=127
							146:leaf=-5765.90967,cover=391
					36:[median_income<-0.833872676] yes=73,no=74,missing=74,gain=9.30296627e+09,cover=307
						73:[longitude<-1.11320901] yes=147,no=148,missing=148,gain=1.52494408e+10,cover=190
							147:leaf=-11793.3408,cover=188
							148:leaf=-1906.49377,cover=2
						74:leaf=-9981.36719,cover=117
				18:[longitude<-0.24971287] yes=37,no=38,missing=38,gain=3.06783977e+11,cover=1523
					37:[latitude<0.191084996] yes=75,no=76,missing=76,gain=2.66962731e+11,cover=938
						75:[latitude<-0.234964788] yes=149,no=150,missing=150,gain=1.01297799e+11,cover=79
							149:leaf=-6509.41992,cover=47
							150:leaf=733.212585,cover=32
						76:[median_income<-0.777181745] yes=151,no=152,missing=152,gain=9.59342182e+10,cover=859
							151:leaf=-10633.6338,cover=514
							152:leaf=-8376.83496,cover=345
					38:[population<-0.848151982] yes=77,no=78,missing=78,gain=4.81967473e+10,cover=585
						77:[housing_median_age<-1.40159965] yes=153,no=154,missing=154,gain=4.36904591e+10,cover=46
							153:leaf=1083.47937,cover=4
							154:leaf=-9590.40527,cover=42
						78:[latitude<0.663953424] yes=155,no=156,missing=156,gain=2.555537e+10,cover=539
							155:leaf=-12672.6934,cover=508
							156:leaf=-8978.16504,cover=31
		4:[housing_median_age<0.823226511] yes=9,no=10,missing=10,gain=2.43534345e+12,cover=5547
			9:[latitude<1.0993669] yes=19,no=20,missing=20,gain=1.29104124e+12,cover=4362
				19:[longitude<0.898287773] yes=39,no=40,missing=40,gain=1.39343154e+12,cover=3599
					39:[longitude<-1.29289603] yes=79,no=80,missing=80,gain=9.4844099e+11,cover=2710
						79:[latitude<1.06659389] yes=157,no=158,missing=158,gain=1.71885462e+11,cover=149
							157:leaf=10041.9004,cover=125
							158:leaf=774.290039,cover=24
						80:[latitude<-0.525240481] yes=159,no=160,missing=160,gain=1.18482233e+12,cover=2561
							159:leaf=2072.95483,cover=1583
							160:leaf=-2352.26318,cover=978
					40:[latitude<-0.918517172] yes=81,no=82,missing=82,gain=6.48494449e+11,cover=889
						81:[longitude<1.16282701] yes=161,no=162,missing=162,gain=4.9398091e+11,cover=497
							161:leaf=4367.44482,cover=116
							162:leaf=-3060.3064,cover=381
						82:[median_income<0.155823126] yes=163,no=164,missing=164,gain=7.94001408e+10,cover=392
							163:leaf=-7680.73926,cover=278
							164:leaf=-4469.80713,cover=114
				20:[longitude<-1.41767871] yes=41,no=42,missing=42,gain=2.63270564e+11,cover=763
					41:[latitude<1.43177938] yes=83,no=84,missing=84,gain=2.39874474e+11,cover=182
						83:[median_income<0.136715606] yes=165,no=166,missing=166,gain=5.17771182e+10,cover=131
							165:leaf=-751.532837,cover=82
							166:leaf=3324.41089,cover=49
						84:[median_income<0.284259349] yes=167,no=168,missing=168,gain=2.93308006e+09,cover=51
							167:leaf=-7401.57568,cover=49
							168:leaf=-2061.71362,cover=2
					42:[median_income<0.105659313] yes=85,no=86,missing=86,gain=1.40785484e+11,cover=581
						85:[latitude<1.76419187] yes=169,no=170,missing=170,gain=2.45349745e+10,cover=381
							169:leaf=-6653.18701,cover=338
							170:leaf=-9400.94141,cover=43
						86:[longitude<-0.828704476] yes=171,no=172,missing=172,gain=3.61118925e+10,cover=200
							171:leaf=-4388.90186,cover=156
							172:leaf=-1116.3092,cover=44
			10:[longitude<-1.39272225] yes=21,no=22,missing=22,gain=1.44681822e+12,cover=1185
				21:[latitude<1.16959488] yes=43,no=44,missing=44,gain=4.70496051e+11,cover=252
					43:[latitude<1.00104773] yes=87,no=88,missing=88,gain=6.78853345e+11,cover=231
						87:[latitude<0.987002134] yes=173,no=174,missing=174,gain=7.92706417e+10,cover=132
							173:leaf=4649.27148,cover=65
							174:leaf=9671.89746,cover=67
						88:[longitude<-1.45261788] yes=175,no=176,missing=176,gain=9.16046479e+10,cover=99
							175:leaf=12419.1152,cover=27
							176:leaf=20267.6738,cover=72
					44:[longitude<-1.63230491] yes=89,no=90,missing=90,gain=5.05885286e+10,cover=21
						89:leaf=-9218.26855,cover=8
						90:[total_rooms<-0.406939119] yes=177,no=178,missing=178,gain=6.27526963e+09,cover=13
							177:leaf=-1451.00781,cover=7
							178:leaf=2656.42773,cover=6
				22:[median_income<0.0487052202] yes=45,no=46,missing=46,gain=7.94554008e+11,cover=933
					45:[total_bedrooms<-0.21565257] yes=91,no=92,missing=91,gain=4.27909186e+11,cover=576
						91:[latitude<1.06659389] yes=179,no=180,missing=180,gain=1.34010438e+11,cover=400
							179:leaf=-1240.18311,cover=355
							180:leaf=-6983.49561,cover=45
						92:[latitude<1.06659389] yes=181,no=182,missing=182,gain=1.5473836e+11,cover=176
							181:leaf=4844.40137,cover=163
							182:leaf=-6164.53809,cover=13
					46:[latitude<-0.871698499] yes=93,no=94,missing=94,gain=2.83540324e+11,cover=357
						93:[total_bedrooms<-0.654691696] yes=183,no=184,missing=184,gain=3.50013358e+10,cover=26
							183:leaf=3986.58521,cover=3
							184:leaf=17113.8203,cover=23
						94:[latitude<0.916774154] yes=185,no=186,missing=186,gain=2.04412617e+11,cover=331
							185:leaf=6246.94238,cover=271
							186:leaf=-198.376236,cover=60
	2:[median_income<1.42423606] yes=5,no=6,missing=6,gain=8.10747219e+12,cover=2823
		5:[housing_median_age<0.664310336] yes=11,no=12,missing=12,gain=1.3367488e+12,cover=1832
			11:[median_income<0.919755399] yes=23,no=24,missing=24,gain=6.27237192e+11,cover=1531
				23:[housing_median_age<-0.845393121] yes=47,no=48,missing=48,gain=3.84391053e+11,cover=784
					47:[total_bedrooms<-0.386521846] yes=95,no=96,missing=96,gain=4.85643223e+10,cover=279
						95:[longitude<-0.723887026] yes=187,no=188,missing=188,gain=3.89964186e+10,cover=68
							187:leaf=2329.70605,cover=20
							188:leaf=-2831.86841,cover=48
						96:[latitude<1.0993669] yes=189,no=190,missing=190,gain=5.51748936e+10,cover=211
							189:leaf=2523.354,cover=172
							190:leaf=-1609.13208,cover=39
					48:[total_bedrooms<-0.0471564867] yes=97,no=98,missing=97,gain=2.70376763e+11,cover=505
						97:[population<-0.906433523] yes=191,no=192,missing=192,gain=1.23558953e+11,cover=353
							191:leaf=10632.4443,cover=26
							192:leaf=3547.19336,cover=327
						98:[population<-0.0578194447] yes=193,no=194,missing=194,gain=2.32629469e+11,cover=152
							193:leaf=17489.5215,cover=27
							194:leaf=7233.71094,cover=125
				24:[housing_median_age<-0.209728524] yes=49,no=50,missing=50,gain=2.51414446e+11,cover=747
					49:[latitude<1.08532131] yes=99,no=100,missing=100,gain=1.81079376e+11,cover=491
						99:[longitude<-1.21802652] yes=195,no=196,missing=196,gain=1.98834127e+11,cover=411
							195:leaf=14140.9053,cover=41
							196:leaf=6778.41504,cover=370
						100:[longitude<-1.41268742] yes=197,no=198,missing=198,gain=8.1352917e+10,cover=80
							197:leaf=8460.51855,cover=16
							198:leaf=665.548523,cover=64
					50:[longitude<0.608791947] yes=101,no=102,missing=102,gain=1.19097262e+11,cover=256
						101:[latitude<-0.693787634] yes=199,no=200,missing=200,gain=9.10887485e+10,cover=152
							199:leaf=18180.2559,cover=25
							200:leaf=11162.3311,cover=127
						102:[total_rooms<-0.530703604] yes=201,no=202,missing=202,gain=4.83141222e+10,cover=104
							201:leaf=3220.53687,cover=20
							202:leaf=8905.48535,cover=84
			12:[median_income<0.699624181] yes=25,no=26,missing=26,gain=1.95375399e+11,cover=301
				25:[households<-0.791324794] yes=51,no=52,missing=52,gain=5.47759063e+10,cover=69
					51:[longitude<0.593818069] yes=103,no=104,missing=104,gain=2.0646654e+10,cover=12
						103:[population<-0.848151982] yes=203,no=204,missing=204,gain=1.84799273e+10,cover=9
							203:leaf=7193.44238,cover=6
							204:leaf=-1714.76721,cover=3
						104:leaf=-4230.77197,cover=3
					52:[latitude<1.04786646] yes=105,no=106,missing=106,gain=5.06371768e+10,cover=57
						105:[population<-0.656529486] yes=205,no=206,missing=206,gain=2.80719524e+10,cover=50
							205:leaf=15585.46,cover=11
							206:leaf=9049.17285,cover=39
						106:[longitude<-0.933521926] yes=207,no=208,missing=208,gain=3.63590502e+09,cover=7
							207:leaf=2758.81982,cover=5
							208:leaf=-1615.12341,cover=2
				26:[longitude<0.618774593] yes=53,no=54,missing=54,gain=1.33808783e+11,cover=232
					53:[total_rooms<-1.09451973] yes=107,no=108,missing=108,gain=1.14426905e+11,cover=161
						107:[longitude<-1.35279179] yes=209,no=210,missing=210,gain=6.14691686e+09,cover=3
							209:leaf=-6285.20557,cover=1
							210:leaf=1115.43494,cover=2
						108:[latitude<0.926137924] yes=211,no=212,missing=212,gain=6.64975442e+10,cover=158
							211:leaf=18818.1113,cover=86
							212:leaf=13946.2959,cover=72
					54:[total_rooms<-0.618255556] yes=109,no=110,missing=110,gain=9.06755441e+10,cover=71
						109:[latitude<-0.726560652] yes=213,no=214,missing=214,gain=2.78357524e+10,cover=13
							213:leaf=-1353.79126,cover=7
							214:leaf=7404.30029,cover=6
						110:[latitude<-0.909153461] yes=215,no=216,missing=216,gain=4.06448374e+10,cover=58
							215:leaf=20613.1543,cover=6
							216:leaf=11111.0078,cover=52
		6:[median_income<2.08089256] yes=13,no=14,missing=14,gain=1.65539951e+12,cover=991
			13:[housing_median_age<-0.130270436] yes=27,no=28,missing=28,gain=5.65793784e+11,cover=506
				27:[longitude<-1.2280091] yes=55,no=56,missing=56,gain=6.95908434e+10,cover=314
					55:[latitude<0.916774154] yes=111,no=112,missing=112,gain=1.89070705e+10,cover=38
						111:[latitude<0.752908885] yes=217,no=218,missing=218,gain=1.63640115e+10,cover=16
							217:leaf=3134.04468,cover=1
							218:leaf=20223.0215,cover=15
						112:leaf=12713.7949,cover=22
					56:[total_bedrooms<-0.374655932] yes=113,no=114,missing=114,gain=2.87110595e+10,cover=276
						113:[latitude<-0.609514058] yes=219,no=220,missing=220,gain=2.90300232e+10,cover=101
							219:leaf=10734.208,cover=65
							220:leaf=6743.1416,cover=36
						114:[latitude<-1.32583952] yes=221,no=222,missing=222,gain=2.3886037e+10,cover=175
							221:leaf=4619.68115,cover=6
							222:leaf=12135.8438,cover=169
				28:[total_bedrooms<-1.08661127] yes=57,no=58,missing=58,gain=8.25785057e+10,cover=192
					57:[median_income<1.9133991] yes=115,no=116,missing=116,gain=3.23041976e+10,cover=5
						115:leaf=-3957.84033,cover=2
						116:leaf=10184.7793,cover=3
					58:[latitude<1.10873067] yes=117,no=118,missing=118,gain=5.19066092e+10,cover=187
						117:[latitude<0.982320309] yes=223,no=224,missing=224,gain=2.24872366e+10,cover=185
							223:leaf=19889.7598,cover=154
							224:leaf=15169.5967,cover=31
						118:[longitude<-0.893591523] yes=225,no=226,missing=226,gain=422586240,cover=2
							225:leaf=2776.26953,cover=1
							226:leaf=124.665627,cover=1
			14:[housing_median_age<-0.765935063] yes=29,no=30,missing=30,gain=2.20584739e+11,cover=485
				29:[median_income<2.882303] yes=59,no=60,missing=60,gain=1.02021726e+11,cover=138
					59:[total_bedrooms<0.069129549] yes=119,no=120,missing=120,gain=3.4462892e+10,cover=82
						119:[total_rooms<0.569425344] yes=227,no=228,missing=228,gain=3.07276022e+10,cover=46
							227:leaf=14071.4912,cover=44
							228:leaf=918.599548,cover=2
						120:leaf=18917.5762,cover=36
					60:[latitude<1.10404885] yes=121,no=122,missing=122,gain=3.68734372e+10,cover=56
						121:[total_rooms<-1.09451973] yes=229,no=230,missing=230,gain=2.55357092e+10,cover=55
							229:leaf=6851.39307,cover=2
							230:leaf=23273.9434,cover=53
						122:leaf=1647.29456,cover=1
				30:[population<-1.17046642] yes=61,no=62,missing=62,gain=1.51378723e+11,cover=347
					61:[housing_median_age<1.45889115] yes=123,no=124,missing=124,gain=1.17291164e+11,cover=10
						123:[longitude<0.0447742492] yes=231,no=232,missing=232,gain=1.13997578e+10,cover=7
							231:leaf=18367.8105,cover=6
							232:leaf=3033.39453,cover=1
						124:[total_bedrooms<-1.17679226] yes=233,no=234,missing=234,gain=2.46132838e+09,cover=3
							233:leaf=-6452.63867,cover=2
							234:leaf=-347.929688,cover=1
					62:[longitude<1.18279231] yes=125,no=126,missing=126,gain=7.46040852e+10,cover=337
						125:[latitude<1.10404885] yes=235,no=236,missing=236,gain=3.90196101e+10,cover=332
							235:leaf=24737.0762,cover=329
							236:leaf=8873.41504,cover=3
						126:leaf=9537.22754,cover=5
booster[2]:
0:[median_income<0.535236359] yes=1,no=2,missing=2,gain=3.6673178e+13,cover=13185
	1:[median_income<-0.357395351] yes=3,no=4,missing=4,gain=8.78923848e+12,cover=10115
		3:[median_income<-0.793867946] yes=7,no=8,missing=8,gain=1.58715295e+12,cover=5474
			7:[latitude<-0.525240481] yes=15,no=16,missing=16,gain=8.03039347e+11,cover=2682
				15:[longitude<1.11291397] yes=31,no=32,missing=32,gain=7.3373293e+11,cover=1291
					31:[latitude<-0.754651904] yes=63,no=64,missing=64,gain=3.77288917e+11,cover=878
						63:[latitude<-0.881062269] yes=127,no=128,missing=128,gain=3.06326143e+11,cover=447
							127:leaf=4061.92554,cover=28
							128:leaf=-6625.67285,cover=419
						64:[longitude<0.653713703] yes=129,no=130,missing=130,gain=2.27097919e+11,cover=431
							129:leaf=378.903564,cover=227
							130:leaf=-4211.11523,cover=204
					32:[longitude<1.47228813] yes=65,no=66,missing=66,gain=7.7583614e+10,cover=413
						65:[latitude<-0.95129025] yes=131,no=132,missing=132,gain=7.46603151e+10,cover=314
							131:leaf=-6902.33594,cover=193
							132:leaf=-10198.2793,cover=121
						66:[population<2.59752131] yes=133,no=134,missing=134,gain=3.56293018e+09,cover=99
							133:leaf=-11630.1885,cover=98
							134:leaf=-2373.71021,cover=1
				16:[longitude<-1.08326113] yes=33,no=34,missing=34,gain=3.21489207e+11,cover=1391
					33:[latitude<1.06659389] yes=67,no=68,missing=68,gain=4.85944984e+11,cover=473
						67:[longitude<-1.37774825] yes=135,no=136,missing=136,gain=1.83522935e+11,cover=186
							135:leaf=3356.63013,cover=37
							136:leaf=-4440.9668,cover=149
						68:[latitude<1.43177938] yes=137,no=138,missing=138,gain=6.55559229e+10,cover=287
							137:leaf=-6959.6377,cover=85
							138:leaf=-10470.7686,cover=202
					34:[households<-1.26998079] yes=69,no=70,missing=70,gain=1.60776061e+11,cover=918
						69:[median_income<-1.17691314] yes=139,no=140,missing=140,gain=9.80818248e+10,cover=8
							139:leaf=-3283.20117,cover=6
							140:leaf=18456.3027,cover=2
						70:[longitude<-0.379486859] yes=141,no=142,missing=142,gain=9.91365693e+10,cover=910
							141:leaf=-9241.40137,cover=496
							142:leaf=-11443.2148,cover=414
			8:[latitude<1.06659389] yes=17,no=18,missing=18,gain=7.19638495e+11,cover=2792
				17:[longitude<-1.3278352] yes=35,no=36,missing=36,gain=8.54751314e+11,cover=2201
					35:[latitude<1.01509333] yes=71,no=72,missing=72,gain=1.25769417e+11,cover=155
						71:[total_bedrooms<-0.26311627] yes=143,no=144,missing=143,gain=4.41002885e+10,cover=99
							143:leaf=3843.68726,cover=48
							144:leaf=8198.41504,cover=51
						72:[households<-0.916873872] yes=145,no=146,missing=146,gain=6.64728125e+10,cover=56
							145:leaf=-7680.00146,cover=8
							146:leaf=1670.45374,cover=48
					36:[latitude<-0.525240481] yes=73,no=74,missing=74,gain=4.55870775e+11,cover=2046
						73:[longitude<0.643731117] yes=147,no=148,missing=148,gain=8.8429645e+11,cover=1392
							147:leaf=1644.78149,cover=358
							148:leaf=-4117.35156,cover=1034
						74:[longitude<-0.893591523] yes=149,no=150,missing=150,gain=7.10748144e+11,cover=654
							149:leaf=-1638.76355,cover=250
							150:leaf=-8427.40527,cover=404
				18:[latitude<1.76419187] yes=37,no=38,missing=38,gain=8.74475684e+10,cover=591
					37:[longitude<-1.40270483] yes=75,no=76,missing=76,gain=1.16745961e+11,cover=459
						75:[latitude<1.24918664] yes=151,no=152,missing=152,gain=4.7045161e+10,cover=79
							151:leaf=2529.70703,cover=13
							152:leaf=-3897.12305,cover=66
						76:[housing_median_age<0.346478015] yes=153,no=154,missing=154,gain=2.9258154e+10,cover=380
							153:leaf=-6356.32031,cover=241
							154:leaf=-8322.29004,cover=139
					38:[median_income<-0.502149284] yes=77,no=78,missing=78,gain=4.02758042e+09,cover=132
						77:leaf=-9892.28906,cover=96
						78:[households<3.60812545] yes=155,no=156,missing=156,gain=40026112,cover=36
							155:leaf=-7801.74365,cover=35
							156:leaf=-2253.73901,cover=1
		4:[housing_median_age<0.823226511] yes=9,no=10,missing=10,gain=1.78434015e+12,cover=4641
			9:[latitude<1.08532131] yes=19,no=20,missing=20,gain=8.06277087e+11,cover=3657
				19:[longitude<0.738565922] yes=39,no=40,missing=40,gain=1.12517867e+12,cover=2990
					39:[latitude<-0.670378268] yes=79,no=80,missing=80,gain=9.6756564e+11,cover=1617
						79:[longitude<0.633748472] yes=157,no=158,missing=158,gain=8.44169085e+11,cover=494
							157:leaf=9339.99512,cover=261
							158:leaf=1061.39734,cover=233
						80:[longitude<-0.85366106] yes=159,no=160,missing=160,gain=1.43264724e+12,cover=1123
							159:leaf=3859.14136,cover=538
							160:leaf=-3284.22632,cover=585
					40:[latitude<-0.815516114] yes=81,no=82,missing=82,gain=3.42945956e+11,cover=1373
						81:[longitude<1.21274018] yes=161,no=162,missing=162,gain=3.43656464e+11,cover=801
							161:leaf=620.244019,cover=547
							162:leaf=-3824.01367,cover=254
						82:[longitude<0.888305187] yes=163,no=164,missing=164,gain=2.43896484e+11,cover=572
							163:leaf=-2068.63647,cover=307
							164:leaf=-6215.8667,cover=265
				20:[longitude<-1.40270483] yes=41,no=42,missing=42,gain=1.90433919e+11,cover=667
					41:[latitude<1.43177938] yes=83,no=84,missing=84,gain=1.91935496e+11,cover=172
						83:[housing_median_age<-0.845393121] yes=165,no=166,missing=166,gain=2.91564134e+10,cover=125
							165:leaf=-1068.00439,cover=42
							166:leaf=2139.94165,cover=83
						84:[median_income<0.298366278] yes=167,no=168,missing=168,gain=1.10326579e+10,cover=47
							167:leaf=-6687.66406,cover=45
							168:leaf=612.401062,cover=2
					42:[median_income<0.0154381366] yes=85,no=86,missing=86,gain=6.73016709e+10,cover=495
						85:[total_bedrooms<28.0374241] yes=169,no=170,missing=170,gain=3.89108204e+10,cover=247
							169:leaf=-6158.89453,cover=245
							170:leaf=5821.87695,cover=2
						86:[longitude<-0.24971287] yes=171,no=172,missing=172,gain=4.38247096e+10,cover=248
							171:leaf=-3827.69849,cover=245
							172:leaf=6884.60254,cover=3
			10:[total_bedrooms<-0.144457042] yes=21,no=22,missing=21,gain=1.0347597e+12,cover=984
				21:[longitude<-1.39272225] yes=43,no=44,missing=44,gain=4.77168468e+11,cover=710
					43:[latitude<1.15086746] yes=87,no=88,missing=88,gain=1.77865228e+11,cover=125
						87:[latitude<1.00572968] yes=173,no=174,missing=174,gain=2.24266224e+11,cover=113
							173:leaf=6409.97217,cover=89
							174:leaf=17300.209,cover=24
						88:[latitude<1.42241561] yes=175,no=176,missing=176,gain=2.02286735e+10,cover=12
							175:leaf=-506.320526,cover=8
							176:leaf=-8683.60645,cover=4
					44:[median_income<0.105659313] yes=89,no=90,missing=90,gain=2.87851774e+11,cover=585
						89:[latitude<1.06659389] yes=177,no=178,missing=178,gain=1.17657395e+11,cover=366
							177:leaf=-271.697998,cover=330
							178:leaf=-6219.52881,cover=36
						90:[latitude<-0.881062269] yes=179,no=180,missing=180,gain=8.96548209e+10,cover=219
							179:leaf=12553.5684,cover=10
							180:leaf=3221.91772,cover=209
				22:[population<0.203564286] yes=45,no=46,missing=46,gain=2.96544633e+11,cover=274
					45:[latitude<1.08532131] yes=91,no=92,missing=92,gain=2.26680898e+11,cover=209
						91:[households<0.362157732] yes=181,no=182,missing=182,gain=1.76904208e+11,cover=196
							181:leaf=10086.0195,cover=147
							182:leaf=17237.0254,cover=49
						92:[median_income<0.22435753] yes=183,no=184,missing=184,gain=2.0709204e+10,cover=13
							183:leaf=-3717.18823,cover=10
							184:leaf=4731.63428,cover=3
					46:[households<0.793732822] yes=93,no=94,missing=94,gain=1.8562741e+11,cover=65
						93:[longitude<-1.41268742] yes=185,no=186,missing=186,gain=4.94518231e+10,cover=48
							185:leaf=4079.71021,cover=18
							186:leaf=-2399.47339,cover=30
						94:[total_bedrooms<1.05400109] yes=187,no=188,missing=188,gain=1.73421855e+10,cover=17
							187:leaf=7090.49219,cover=8
							188:leaf=15170.2568,cover=9
	2:[median_income<1.42423606] yes=5,no=6,missing=6,gain=7.07041794e+12,cover=3070
		5:[housing_median_age<0.664310336] yes=11,no=12,missing=12,gain=1.64628582e+12,cover=2060
			11:[median_income<0.988184571] yes=23,no=24,missing=24,gain=5.70163986e+11,cover=1715
				23:[housing_median_age<-0.845393121] yes=47,no=48,missing=48,gain=4.47909462e+11,cover=1114
					47:[total_bedrooms<0.363404423] yes=95,no=96,missing=95,gain=6.80673444e+10,cover=406
						95:[longitude<-0.983435035] yes=189,no=190,missing=190,gain=3.98930166e+10,cover=250
							189:leaf=2063.77612,cover=63
							190:leaf=-826.800415,cover=187
						96:[housing_median_age<-1.32214165] yes=191,no=192,missing=192,gain=7.32466299e+10,cover=156
							191:leaf=593.374512,cover=86
							192:leaf=4941.08447,cover=70
					48:[longitude<0.75353986] yes=97,no=98,missing=98,gain=2.1307759e+11,cover=708
						97:[latitude<-0.684423864] yes=193,no=194,missing=194,gain=3.75378412e+11,cover=504
							193:leaf=11021.1904,cover=122
							194:leaf=4639.03027,cover=382
						98:[longitude<1.18279231] yes=195,no=196,missing=196,gain=5.02772531e+10,cover=204
							195:leaf=2981.1001,cover=176
							196:leaf=-1535.46179,cover=28
				24:[housing_median_age<-0.130270436] yes=49,no=50,missing=50,gain=2.55773639e+11,cover=601
					49:[total_bedrooms<-0.362790018] yes=99,no=100,missing=100,gain=1.39670716e+11,cover=424
						99:[median_income<1.26758599] yes=197,no=198,missing=198,gain=7.75267123e+10,cover=150
							197:leaf=1895.64026,cover=99
							198:leaf=6694.58203,cover=51
						100:[longitude<0.763522506] yes=199,no=200,missing=200,gain=6.60604191e+10,cover=274
							199:leaf=8898.46387,cover=144
							200:leaf=5675.04053,cover=130
					50:[households<-0.404215008] yes=101,no=102,missing=102,gain=1.00938285e+11,cover=177
						101:[median_income<1.13988662] yes=201,no=202,missing=202,gain=4.56357315e+10,cover=76
							201:leaf=4496.01807,cover=31
							202:leaf=9717.3418,cover=45
						102:[population<-0.418988168] yes=203,no=204,missing=204,gain=4.74652344e+10,cover=101
							203:leaf=19139.1777,cover=12
							204:leaf=11661.7822,cover=89
			12:[total_rooms<-0.585251689] yes=25,no=26,missing=26,gain=1.57973217e+11,cover=345
				25:[median_income<1.23752975] yes=51,no=52,missing=52,gain=1.05522332e+11,cover=71
					51:[total_rooms<-1.09451973] yes=103,no=104,missing=104,gain=5.10272143e+10,cover=63
						103:[latitude<-0.796788692] yes=205,no=206,missing=206,gain=3.57899213e+09,cover=4
							205:leaf=892.318787,cover=1
							206:leaf=-5051.14941,cover=3
						104:[median_income<0.962181509] yes=207,no=208,missing=208,gain=4.0778367e+10,cover=59
							207:leaf=5566.15381,cover=45
							208:leaf=11939.8555,cover=14
					52:[total_rooms<-0.638424575] yes=105,no=106,missing=106,gain=7.18995456e+09,cover=8
						105:[longitude<0.563870192] yes=209,no=210,missing=210,gain=1.42354022e+09,cover=7
							209:leaf=20838.9277,cover=6
							210:leaf=5677.46973,cover=1
						106:leaf=4295.10547,cover=1
				26:[latitude<1.07595766] yes=53,no=54,missing=54,gain=9.96650516e+10,cover=274
					53:[longitude<0.603800654] yes=107,no=108,missing=108,gain=1.13553441e+11,cover=257
						107:[latitude<-0.684423864] yes=211,no=212,missing=212,gain=7.0309118e+10,cover=166
							211:leaf=19290.4648,cover=49
							212:leaf=14091.7939,cover=117
						108:[latitude<-0.932562768] yes=213,no=214,missing=214,gain=8.88968315e+10,cover=91
							213:leaf=19863.7871,cover=10
							214:leaf=9666.83398,cover=81
					54:[longitude<-1.46260047] yes=109,no=110,missing=110,gain=3.97310484e+10,cover=17
						109:leaf=12412.498,cover=5
						110:[median_income<1.26758599] yes=215,no=216,missing=216,gain=1.67006444e+10,cover=12
							215:leaf=611.826172,cover=11
							216:leaf=10613.6484,cover=1
		6:[median_income<2.08089256] yes=13,no=14,missing=14,gain=1.24048428e+12,cover=1010
			13:[housing_median_age<-0.130270436] yes=27,no=28,missing=28,gain=6.66792624e+11,cover=521
				27:[longitude<-1.20305252] yes=55,no=56,missing=56,gain=8.74009068e+10,cover=306
					55:[total_rooms<-0.487156868] yes=111,no=112,missing=112,gain=3.82091264e+10,cover=56
						111:[housing_median_age<-1.24268353] yes=217,no=218,missing=218,gain=9.90816666e+09,cover=9
							217:leaf=2068.06201,cover=4
							218:leaf=9181.40625,cover=5
						112:[latitude<0.898046732] yes=219,no=220,missing=220,gain=9.95465626e+09,cover=47
							219:leaf=17301.9688,cover=21
							220:leaf=12211.7783,cover=26
					56:[total_bedrooms<0.033531785] yes=113,no=114,missing=113,gain=3.69712169e+10,cover=250
						113:[latitude<0.457951337] yes=221,no=222,missing=222,gain=2.10335826e+10,cover=151
							221:leaf=8711.27344,cover=108
							222:leaf=5762.45264,cover=43
						114:[population<-0.485217154] yes=223,no=224,missing=224,gain=2.12155761e+10,cover=99
							223:leaf=1718.03943,cover=3
							224:leaf=10908.0381,cover=96
				28:[latitude<0.916774154] yes=57,no=58,missing=58,gain=1.11258632e+11,cover=215
					57:[longitude<0.638739824] yes=115,no=116,missing=116,gain=2.7324842e+10,cover=170
						115:[housing_median_age<0.425936103] yes=225,no=226,missing=226,gain=2.79961928e+10,cover=104
							225:leaf=16343.9678,cover=37
							226:leaf=21595.3613,cover=67
						116:[population<-0.761612773] yes=227,no=228,missing=228,gain=4.89504113e+10,cover=66
							227:leaf=8269.34668,cover=10
							228:leaf=17243.6777,cover=56
					58:[longitude<-1.18308735] yes=117,no=118,missing=118,gain=5.32338442e+10,cover=45
						117:[longitude<-1.42267001] yes=229,no=230,missing=230,gain=1.49201879e+10,cover=41
							229:leaf=17980.2285,cover=9
							230:leaf=11498.8496,cover=32
						118:[longitude<-0.893591523] yes=231,no=232,missing=232,gain=2.22325274e+09,cover=4
							231:leaf=2778.87256,cover=2
							232:leaf=-1140.15369,cover=2
			14:[total_rooms<-1.11789751] yes=29,no=30,missing=30,gain=2.03530699e+11,cover=489
				29:[housing_median_age<1.22051692] yes=59,no=60,missing=60,gain=5.63545743e+10,cover=12
					59:[longitude<-0.843678415] yes=119,no=120,missing=120,gain=2.83857797e+10,cover=8
						119:[longitude<-1.4426353] yes=233,no=234,missing=234,gain=4.77848371e+09,cover=6
							233:leaf=3157.2251,cover=1
							234:leaf=15203.083,cover=5
						120:[longitude<0.179539546] yes=235,no=236,missing=236,gain=2.84723712e+09,cover=2
							235:leaf=2881.7251,cover=1
							236:leaf=-2459.78369,cover=1
					60:[total_rooms<-1.17886293] yes=121,no=122,missing=122,gain=4.40751002e+09,cover=4
						121:leaf=-5202.8335,cover=2
						122:[longitude<-1.40270483] yes=237,no=238,missing=238,gain=215224352,cover=2
							237:leaf=1224.70239,cover=1
							238:leaf=-330.532806,cover=1
				30:[median_income<2.882303] yes=61,no=62,missing=62,gain=2.56515244e+11,cover=477
					61:[housing_median_age<-0.0508123636] yes=123,no=124,missing=124,gain=2.41256366e+11,cover=251
						123:[longitude<0.763522506] yes=239,no=240,missing=240,gain=3.49068329e+10,cover=141
							239:leaf=16516.4531,cover=85
							240:leaf=12430.5889,cover=56
						124:[longitude<0.833400786] yes=241,no=242,missing=242,gain=8.53907866e+09,cover=110
							241:leaf=22038.2129,cover=103
							242:leaf=13445.1201,cover=7
					62:[latitude<1.10404885] yes=125,no=126,missing=126,gain=3.90279987e+10,cover=226
						125:[total_rooms<-1.09451973] yes=243,no=244,missing=244,gain=4.92201574e+09,cover=225
							243:leaf=9159.32129,cover=2
							244:leaf=23136.1484,cover=223
						126:leaf=1564.92969,cover=1
booster[3]:
0:[median_income<0.615508974] yes=1,no=2,missing=2,gain=3.0055099e+13,cover=13243
	1:[median_income<-0.40345341] yes=3,no=4,missing=4,gain=7.57462047e+12,cover=10437
		3:[median_income<-0.869508445] yes=7,no=8,missing=8,gain=1.21239608e+12,cover=5143
			7:[latitude<-0.155373067] yes=15,no=16,missing=16,gain=4.34371559e+11,cover=2203
				15:[longitude<1.10293138] yes=31,no=32,missing=32,gain=4.51794698e+11,cover=1097
					31:[latitude<-0.754651904] yes=63,no=64,missing=64,gain=2.45802598e+11,cover=735
						63:[latitude<-0.881062269] yes=127,no=128,missing=128,gain=2.40199795e+11,cover=359
							127:leaf=4230.54004,cover=21
							128:leaf=-6632.11572,cover=338
						64:[median_income<-1.568591] yes=129,no=130,missing=130,gain=1.39481907e+11,cover=376
							129:leaf=8802.37012,cover=10
							130:leaf=-2647.75,cover=366
					32:[longitude<1.57211423] yes=65,no=66,missing=66,gain=4.95276524e+10,cover=362
						65:[latitude<-0.979381442] yes=131,no=132,missing=132,gain=5.3217067e+10,cover=289
							131:leaf=-6532.88721,cover=166
							132:leaf=-9418.72266,cover=123
						66:leaf=-10888.7881,cover=73
				16:[longitude<-1.08326113] yes=33,no=34,missing=34,gain=2.53813588e+11,cover=1106
					33:[latitude<1.43177938] yes=67,no=68,missing=68,gain=3.31453694e+11,cover=393
						67:[households<0.657721281] yes=133,no=134,missing=134,gain=1.57063676e+11,cover=230
							133:leaf=-4658.93652,cover=209
							134:leaf=4263.22803,cover=21
						68:leaf=-9743.09668,cover=163
					34:[longitude<-0.139904112] yes=69,no=70,missing=70,gain=7.32335964e+10,cover=713
						69:[population<-1.22433269] yes=135,no=136,missing=136,gain=9.69159475e+10,cover=438
							135:leaf=14169.4375,cover=1
							136:leaf=-8726.42188,cover=437
						70:[housing_median_age<-1.63997388] yes=137,no=138,missing=138,gain=6.69751706e+09,cover=275
							137:leaf=-5326.04443,cover=5
							138:leaf=-10927.3584,cover=270
			8:[latitude<1.09000325] yes=17,no=18,missing=18,gain=6.78340854e+11,cover=2940
				17:[longitude<-1.39272225] yes=35,no=36,missing=36,gain=9.18309831e+11,cover=2334
					35:[latitude<0.996365905] yes=71,no=72,missing=72,gain=1.28271647e+11,cover=82
						71:[housing_median_age<-0.845393121] yes=139,no=140,missing=140,gain=1.86433004e+10,cover=35
							139:leaf=-7059.93359,cover=1
							140:leaf=3035.10742,cover=34
						72:[population<0.00134511583] yes=141,no=142,missing=142,gain=6.54716109e+10,cover=47
							141:leaf=14113.0596,cover=25
							142:leaf=6195.43994,cover=22
					36:[latitude<-0.525240481] yes=73,no=74,missing=74,gain=4.13365961e+11,cover=2252
						73:[longitude<0.643731117] yes=143,no=144,missing=144,gain=7.92032969e+11,cover=1448
							143:leaf=1532.76709,cover=370
							144:leaf=-3825.48511,cover=1078
						74:[longitude<-0.893591523] yes=145,no=146,missing=146,gain=7.51477457e+11,cover=804
							145:leaf=-1634.12292,cover=332
							146:leaf=-7846.78613,cover=472
				18:[latitude<1.69396389] yes=37,no=38,missing=38,gain=7.11385416e+10,cover=606
					37:[longitude<-1.40270483] yes=75,no=76,missing=76,gain=6.81615032e+10,cover=429
						75:[latitude<1.41305196] yes=147,no=148,missing=148,gain=3.76164925e+10,cover=75
							147:leaf=-1804.34998,cover=53
							148:leaf=-6702.47217,cover=22
						76:[housing_median_age<-0.289186597] yes=149,no=150,missing=150,gain=2.03978179e+10,cover=354
							149:leaf=-5781.19238,cover=164
							150:leaf=-7457.42676,cover=190
					38:[households<-1.24120915] yes=77,no=78,missing=78,gain=6.2226432e+09,cover=177
						77:leaf=-344.435944,cover=1
						78:[total_rooms<1.04706466] yes=151,no=152,missing=152,gain=5.39295744e+09,cover=176
							151:leaf=-8749.93359,cover=169
							152:leaf=-4661.2998,cover=7
		4:[longitude<-1.3278352] yes=9,no=10,missing=10,gain=1.57318552e+12,cover=5294
			9:[latitude<1.06659389] yes=19,no=20,missing=20,gain=1.62754894e+12,cover=682
				19:[latitude<1.00104773] yes=39,no=40,missing=40,gain=1.81288567e+11,cover=383
					39:[latitude<0.926137924] yes=79,no=80,missing=80,gain=2.17999606e+11,cover=246
						79:[housing_median_age<1.37943304] yes=153,no=154,missing=154,gain=1.60032358e+10,cover=67
							153:leaf=11211.7031,cover=60
							154:leaf=17784.1641,cover=7
						80:[latitude<0.987002134] yes=155,no=156,missing=156,gain=7.21161421e+10,cover=179
							155:leaf=3621.54883,cover=102
							156:leaf=7733.26807,cover=77
					40:[longitude<-1.40270483] yes=81,no=82,missing=82,gain=5.97301395e+11,cover=137
						81:[total_rooms<-0.818112314] yes=157,no=158,missing=158,gain=1.55040874e+11,cover=95
							157:leaf=-727.90625,cover=5
							158:leaf=17216.6621,cover=90
						82:[total_rooms<-0.691597462] yes=159,no=160,missing=160,gain=3.23418583e+10,cover=42
							159:leaf=-3144.81909,cover=9
							160:leaf=3360.81958,cover=33
				20:[latitude<1.48796177] yes=41,no=42,missing=42,gain=2.38285226e+11,cover=299
					41:[longitude<-1.40270483] yes=83,no=84,missing=84,gain=1.19867204e+11,cover=236
						83:[latitude<1.10873067] yes=161,no=162,missing=162,gain=1.65037785e+11,cover=170
							161:leaf=10095.2695,cover=21
							162:leaf=809.324036,cover=149
						84:[latitude<1.26791406] yes=163,no=164,missing=164,gain=1.10251131e+10,cover=66
							163:leaf=-3268.93579,cover=63
							164:leaf=2353.59155,cover=3
					42:[latitude<1.76419187] yes=85,no=86,missing=86,gain=1.16536279e+10,cover=63
						85:[longitude<-1.95174861] yes=165,no=166,missing=166,gain=2.00812544e+10,cover=22
							165:leaf=1943.08228,cover=4
							166:leaf=-5457.875,cover=18
						86:[median_income<-0.0306199323] yes=167,no=168,missing=168,gain=4.56199373e+09,cover=41
							167:leaf=-8087.22119,cover=30
							168:leaf=-4722.64648,cover=11
			10:[latitude<-0.525240481] yes=21,no=22,missing=22,gain=1.17103801e+12,cover=4612
				21:[longitude<0.628757179] yes=43,no=44,missing=44,gain=2.49635825e+12,cover=2889
					43:[latitude<-0.684423864] yes=87,no=88,missing=88,gain=1.03187402e+12,cover=729
						87:[longitude<0.598809361] yes=169,no=170,missing=170,gain=6.13574771e+11,cover=372
							169:leaf=13504.3359,cover=188
							170:leaf=5343.95117,cover=184
						88:[longitude<0.149591699] yes=171,no=172,missing=172,gain=5.26102102e+11,cover=357
							171:leaf=12340.9941,cover=42
							172:leaf=546.932312,cover=315
					44:[latitude<-0.834243596] yes=89,no=90,missing=90,gain=3.91265452e+11,cover=2160
						89:[longitude<1.20774877] yes=173,no=174,missing=174,gain=6.41559167e+11,cover=1032
							173:leaf=2124.60352,cover=713
							174:leaf=-3263.8186,cover=319
						90:[longitude<0.888305187] yes=175,no=176,missing=176,gain=4.94973682e+11,cover=1128
							175:leaf=-929.39447,cover=813
							176:leaf=-5594.84473,cover=315
				22:[longitude<-0.963469803] yes=45,no=46,missing=46,gain=1.72010163e+12,cover=1723
					45:[latitude<0.874637365] yes=91,no=92,missing=92,gain=8.26227294e+11,cover=821
						91:[longitude<-1.15813076] yes=177,no=178,missing=178,gain=1.98886228e+11,cover=382
							177:leaf=5863.98877,cover=246
							178:leaf=1092.57666,cover=136
						92:[latitude<1.10873067] yes=179,no=180,missing=180,gain=1.38611687e+11,cover=439
							179:leaf=-861.03302,cover=284
							180:leaf=-4575.32422,cover=155
					46:[longitude<-0.204791114] yes=93,no=94,missing=94,gain=4.54733857e+11,cover=902
						93:[latitude<-0.000871498429] yes=181,no=182,missing=182,gain=2.50526302e+11,cover=632
							181:leaf=873.866333,cover=88
							182:leaf=-4867.36816,cover=544
						94:[latitude<-0.361375153] yes=183,no=184,missing=184,gain=5.455138e+10,cover=270
							183:leaf=-5710.62402,cover=48
							184:leaf=-9657.64746,cover=222
	2:[median_income<1.60352039] yes=5,no=6,missing=6,gain=5.37370244e+12,cover=2806
		5:[housing_median_age<-0.0508123636] yes=11,no=12,missing=12,gain=9.90619107e+11,cover=1997
			11:[median_income<0.919755399] yes=23,no=24,missing=24,gain=3.24347363e+11,cover=1169
				23:[housing_median_age<-0.845393121] yes=47,no=48,missing=48,gain=1.55458273e+11,cover=498
					47:[latitude<-0.824879885] yes=95,no=96,missing=96,gain=7.91361946e+10,cover=271
						95:[longitude<1.19277489] yes=185,no=186,missing=186,gain=7.23295355e+10,cover=82
							185:leaf=5469.35938,cover=57
							186:leaf=-931.854004,cover=25
						96:[longitude<-0.983435035] yes=187,no=188,missing=188,gain=7.90824305e+10,cover=189
							187:leaf=2386.1814,cover=73
							188:leaf=-1790.73816,cover=116
					48:[total_bedrooms<0.482063621] yes=97,no=98,missing=97,gain=1.6649198e+11,cover=227
						97:[total_rooms<-0.986798763] yes=189,no=190,missing=190,gain=6.25135288e+10,cover=182
							189:leaf=13224.416,cover=5
							190:leaf=2766.22607,cover=177
						98:[population<1.577595] yes=191,no=192,missing=192,gain=6.5348862e+10,cover=45
							191:leaf=12285.0205,cover=32
							192:leaf=3554.104,cover=13
				24:[longitude<-1.21802652] yes=49,no=50,missing=50,gain=1.39985158e+11,cover=671
					49:[latitude<0.907410443] yes=99,no=100,missing=100,gain=1.1951512e+11,cover=102
						99:[total_rooms<2.64179325] yes=193,no=194,missing=194,gain=1.39852513e+10,cover=34
							193:leaf=14568.2158,cover=33
							194:leaf=1221.17419,cover=1
						100:[longitude<-1.40270483] yes=195,no=196,missing=196,gain=8.05334221e+10,cover=68
							195:leaf=10719.1982,cover=29
							196:leaf=3674.39307,cover=39
					50:[latitude<1.09000325] yes=101,no=102,missing=102,gain=1.32633592e+11,cover=569
						101:[longitude<1.17280972] yes=197,no=198,missing=198,gain=1.09266862e+11,cover=528
							197:leaf=6279.41895,cover=465
							198:leaf=1806.81079,cover=63
						102:[longitude<-0.983435035] yes=199,no=200,missing=200,gain=1.23372431e+10,cover=41
							199:leaf=-2461.13306,cover=14
							200:leaf=1093.19434,cover=27
			12:[median_income<1.04724419] yes=25,no=26,missing=26,gain=7.52391029e+11,cover=828
				25:[longitude<0.618774593] yes=51,no=52,missing=52,gain=2.50829079e+11,cover=535
					51:[latitude<-0.675060153] yes=103,no=104,missing=104,gain=3.86828075e+11,cover=341
						103:[longitude<0.603800654] yes=201,no=202,missing=202,gain=1.14949358e+11,cover=92
							201:leaf=16025.3691,cover=69
							202:leaf=7358.94678,cover=23
						104:[longitude<-1.04832196] yes=203,no=204,missing=204,gain=2.2147557e+11,cover=249
							203:leaf=8084.5625,cover=185
							204:leaf=1242.69812,cover=64
					52:[latitude<-0.885744095] yes=105,no=106,missing=106,gain=2.01432334e+11,cover=194
						105:[population<-0.296243787] yes=205,no=206,missing=206,gain=1.5014255e+11,cover=31
							205:leaf=15443.877,cover=22
							206:leaf=187.834839,cover=9
						106:[latitude<-0.712515056] yes=207,no=208,missing=208,gain=1.63078996e+11,cover=163
							207:leaf=597.718079,cover=122
							208:leaf=7828.05811,cover=41
				26:[housing_median_age<0.982142687] yes=53,no=54,missing=54,gain=9.63358228e+10,cover=293
					53:[latitude<-0.684423864] yes=107,no=108,missing=108,gain=8.14895596e+10,cover=198
						107:[longitude<0.61378324] yes=209,no=210,missing=210,gain=6.86404403e+10,cover=92
							209:leaf=17254.8164,cover=41
							210:leaf=11099.5254,cover=51
						108:[longitude<-1.21802652] yes=211,no=212,missing=212,gain=8.16497951e+10,cover=106
							211:leaf=12330.9922,cover=55
							212:leaf=6526.97168,cover=51
					54:[total_rooms<-1.0477643] yes=109,no=110,missing=110,gain=2.96206991e+10,cover=95
						109:leaf=2453.13452,cover=2
						110:[latitude<1.01977527] yes=213,no=214,missing=214,gain=7.04197427e+09,cover=93
							213:leaf=16893.8145,cover=76
							214:leaf=12145.415,cover=17
		6:[median_income<2.40919447] yes=13,no=14,missing=14,gain=6.66344882e+11,cover=809
			13:[housing_median_age<-0.130270436] yes=27,no=28,missing=28,gain=3.8989883e+11,cover=463
				27:[longitude<0.92823559] yes=55,no=56,missing=56,gain=5.57559316e+10,cover=272
					55:[median_income<1.98861849] yes=111,no=112,missing=112,gain=5.87197317e+10,cover=210
						111:[population<-1.08569324] yes=215,no=216,missing=216,gain=1.31086418e+10,cover=113
							215:leaf=-694.105469,cover=1
							216:leaf=10153.8623,cover=112
						112:[housing_median_age<-1.40159965] yes=217,no=218,missing=218,gain=1.86000343e+10,cover=97
							217:leaf=9505.45215,cover=17
							218:leaf=14541.8828,cover=80
					56:[latitude<-0.95129025] yes=113,no=114,missing=114,gain=6.37378888e+10,cover=62
						113:[latitude<-1.32583952] yes=219,no=220,missing=220,gain=3.00899041e+10,cover=36
							219:leaf=2022.12402,cover=4
							220:leaf=11789.165,cover=32
						114:[total_rooms<-0.0131846247] yes=221,no=222,missing=222,gain=1.5158358e+10,cover=26
							221:leaf=895.152527,cover=10
							222:leaf=5905.54492,cover=16
				28:[total_bedrooms<-1.21001685] yes=57,no=58,missing=58,gain=7.13262367e+10,cover=191
					57:[longitude<0.179539546] yes=115,no=116,missing=116,gain=5.17412096e+09,cover=2
						115:leaf=2737.63916,cover=1
						116:leaf=-4529.51172,cover=1
					58:[longitude<0.828409493] yes=117,no=118,missing=118,gain=3.28393032e+10,cover=189
						117:[latitude<0.99168402] yes=223,no=224,missing=224,gain=4.80693453e+10,cover=166
							223:leaf=18845.8809,cover=131
							224:leaf=13540.4375,cover=35
						118:[latitude<-0.941926479] yes=225,no=226,missing=226,gain=9.20665129e+10,cover=23
							225:leaf=17662.0996,cover=13
							226:leaf=4498.33643,cover=10
			14:[total_rooms<-1.09451973] yes=29,no=30,missing=30,gain=1.63363946e+11,cover=346
				29:[housing_median_age<1.22051692] yes=59,no=60,missing=60,gain=5.10393139e+10,cover=14
					59:[longitude<0.47402668] yes=119,no=120,missing=120,gain=3.04272507e+10,cover=9
						119:[longitude<-1.4426353] yes=227,no=228,missing=228,gain=5.47605709e+09,cover=8
							227:leaf=2999.36401,cover=1
							228:leaf=15045.6611,cover=7
						120:leaf=-2336.79468,cover=1
					60:[median_income<2.882303] yes=121,no=122,missing=122,gain=3.45042493e+10,cover=5
						121:leaf=10954.5186,cover=1
						122:[longitude<-1.40270483] yes=229,no=230,missing=230,gain=5.70505421e+09,cover=4
							229:leaf=1163.46716,cover=1
							230:leaf=-6315.82715,cover=3
				30:[housing_median_age<-0.607018888] yes=61,no=62,missing=62,gain=5.47105014e+10,cover=332
					61:[median_income<2.882303] yes=123,no=124,missing=124,gain=4.73550029e+10,cover=101
						123:[housing_median_age<-1.32214165] yes=231,no=232,missing=232,gain=8.30898176e+09,cover=38
							231:leaf=15977.0547,cover=18
							232:leaf=10833.6719,cover=20
						124:[longitude<1.26265323] yes=233,no=234,missing=234,gain=3.56882842e+09,cover=63
							233:leaf=19398.3418,cover=62
							234:leaf=5022.14404,cover=1
					62:[longitude<1.18279231] yes=125,no=126,missing=126,gain=1.20827412e+10,cover=231
						125:[latitude<1.10404885] yes=235,no=236,missing=236,gain=1.06566779e+10,cover=229
							235:leaf=21070.2871,cover=228
							236:leaf=4469.80469,cover=1
						126:leaf=7302.30713,cover=2
booster[4]:
0:[median_income<0.372690827] yes=1,no=2,missing=2,gain=2.49036758e+13,cover=13178
	1:[median_income<-0.540522218] yes=3,no=4,missing=4,gain=4.59251017e+12,cover=9493
		3:[latitude<-0.525240481] yes=7,no=8,missing=8,gain=8.17748771e+11,cover=4237
			7:[longitude<0.633748472] yes=15,no=16,missing=16,gain=7.74337462e+11,cover=2063
				15:[population<-0.645049751] yes=31,no=32,missing=32,gain=1.01871698e+11,cover=342
					31:[total_rooms<-0.761730731] yes=63,no=64,missing=64,gain=1.16720468e+11,cover=55
						63:[median_income<-1.568591] yes=127,no=128,missing=128,gain=2.98787369e+10,cover=38
							127:leaf=10991.1133,cover=2
							128:leaf=581.641724,cover=36
						64:[median_income<-0.879404366] yes=129,no=130,missing=130,gain=2.70438728e+10,cover=17
							129:leaf=3049.71997,cover=4
							130:leaf=13333.8975,cover=13
					32:[latitude<-0.740606308] yes=65,no=66,missing=66,gain=1.22618028e+11,cover=287
						65:[longitude<0.588826716] yes=131,no=132,missing=132,gain=2.26977972e+11,cover=118
							131:leaf=8579.78223,cover=15
							132:leaf=-4232.29492,cover=103
						66:[latitude<-0.684423864] yes=133,no=134,missing=134,gain=2.2615448e+11,cover=169
							133:leaf=6164.07861,cover=66
							134:leaf=-1290.15857,cover=103
				16:[longitude<1.21274018] yes=33,no=34,missing=34,gain=3.61359999e+11,cover=1721
					33:[latitude<-0.881062269] yes=67,no=68,missing=68,gain=2.71957885e+11,cover=1316
						67:[housing_median_age<0.0286457147] yes=135,no=136,missing=136,gain=6.37126656e+10,cover=166
							135:leaf=-1389.55798,cover=107
							136:leaf=2674.70093,cover=59
						68:[longitude<0.868339956] yes=137,no=138,missing=138,gain=2.4074335e+11,cover=1150
							137:leaf=-3542.42969,cover=923
							138:leaf=-7184.38428,cover=227
					34:[longitude<1.57211423] yes=69,no=70,missing=70,gain=6.28958167e+10,cover=405
						69:[median_income<-0.93435818] yes=139,no=140,missing=140,gain=3.342336e+10,cover=310
							139:leaf=-7650.92529,cover=133
							140:leaf=-5435.67529,cover=177
						70:[total_bedrooms<-1.21001685] yes=141,no=142,missing=142,gain=5.06704691e+09,cover=95
							141:leaf=-1101.56799,cover=1
							142:leaf=-9528.26172,cover=94
			8:[longitude<-1.04832196] yes=17,no=18,missing=18,gain=6.31219683e+11,cover=2174
				17:[latitude<1.42241561] yes=35,no=36,missing=36,gain=6.80147288e+11,cover=832
					35:[latitude<0.926137924] yes=71,no=72,missing=72,gain=2.41326555e+11,cover=543
						71:[population<-0.569990277] yes=143,no=144,missing=144,gain=1.75041839e+11,cover=106
							143:leaf=8008.44629,cover=33
							144:leaf=-670.343872,cover=73
						72:[longitude<-1.40270483] yes=145,no=146,missing=146,gain=3.33787496e+11,cover=437
							145:leaf=1421.26453,cover=114
							146:leaf=-4859.58594,cover=323
					36:[housing_median_age<-1.56051588] yes=73,no=74,missing=74,gain=7.88227686e+09,cover=289
						73:leaf=343.647675,cover=1
						74:[total_rooms<2.20495033] yes=147,no=148,missing=148,gain=5.28285696e+09,cover=288
							147:leaf=-8244.91797,cover=287
							148:leaf=-467.010162,cover=1
				18:[longitude<-0.24971287] yes=37,no=38,missing=38,gain=1.56014477e+11,cover=1342
					37:[latitude<-0.000871498429] yes=75,no=76,missing=76,gain=1.60102089e+11,cover=790
						75:[longitude<-0.519243479] yes=149,no=150,missing=150,gain=7.17660324e+10,cover=66
							149:leaf=1583.58557,cover=29
							150:leaf=-4979.24219,cover=37
						76:[households<-1.26998079] yes=151,no=152,missing=152,gain=5.03675617e+10,cover=724
							151:leaf=1008.33984,cover=7
							152:leaf=-7381.23779,cover=717
					38:[latitude<0.752908885] yes=77,no=78,missing=78,gain=2.59931505e+10,cover=552
						77:[households<-1.24120915] yes=153,no=154,missing=154,gain=1.24492186e+10,cover=516
							153:leaf=-3384.9165,cover=5
							154:leaf=-9345.63574,cover=511
						78:[total_rooms<0.549714684] yes=155,no=156,missing=156,gain=3.36489677e+09,cover=36
							155:leaf=-6381.41553,cover=34
							156:leaf=-1333.4292,cover=2
		4:[housing_median_age<1.53834915] yes=9,no=10,missing=10,gain=1.32952346e+12,cover=5256
			9:[median_income<-0.169794261] yes=19,no=20,missing=20,gain=8.46296449e+11,cover=4796
				19:[latitude<-0.646968961] yes=39,no=40,missing=40,gain=3.16433367e+11,cover=2155
					39:[longitude<0.608791947] yes=79,no=80,missing=80,gain=7.93452151e+11,cover=1095
						79:[latitude<-0.679742038] yes=157,no=158,missing=158,gain=2.61908988e+11,cover=154
							157:leaf=8593.40918,cover=91
							158:leaf=220.762497,cover=63
						80:[longitude<0.853366017] yes=159,no=160,missing=160,gain=1.37130738e+11,cover=941
							159:leaf=-1505.81494,cover=549
							160:leaf=-3957.45117,cover=392
					40:[longitude<-0.983435035] yes=81,no=82,missing=82,gain=5.03891624e+11,cover=1060
						81:[latitude<1.06659389] yes=161,no=162,missing=162,gain=3.61598484e+11,cover=480
							161:leaf=1028.05273,cover=263
							162:leaf=-4476.66602,cover=217
						82:[latitude<-0.525240481] yes=163,no=164,missing=164,gain=6.05947167e+10,cover=580
							163:leaf=-2904.73901,cover=65
							164:leaf=-6212.09326,cover=515
				20:[housing_median_age<-0.765935063] yes=41,no=42,missing=42,gain=4.48077332e+11,cover=2641
					41:[longitude<-0.963469803] yes=83,no=84,missing=84,gain=7.49880279e+10,cover=764
						83:[latitude<0.888682961] yes=165,no=166,missing=166,gain=8.20341064e+10,cover=160
							165:leaf=3194.50879,cover=51
							166:leaf=-1625.61658,cover=109
						84:[latitude<-0.155373067] yes=167,no=168,missing=168,gain=1.5313417e+11,cover=604
							167:leaf=-1332.6958,cover=391
							168:leaf=-4665.5415,cover=213
					42:[total_bedrooms<-0.296340853] yes=85,no=86,missing=86,gain=6.72207667e+11,cover=1877
						85:[population<-0.377484679] yes=169,no=170,missing=170,gain=1.54721649e+11,cover=921
							169:leaf=-255.386459,cover=665
							170:leaf=-3144.93823,cover=256
						86:[population<-0.266219974] yes=171,no=172,missing=172,gain=6.60099957e+11,cover=956
							171:leaf=8791.51562,cover=150
							172:leaf=1583.66443,cover=806
			10:[longitude<-1.36277437] yes=21,no=22,missing=22,gain=7.52859218e+11,cover=460
				21:[latitude<1.07595766] yes=43,no=44,missing=44,gain=1.99697367e+11,cover=173
					43:[latitude<1.0104115] yes=87,no=88,missing=88,gain=3.01455639e+11,cover=160
						87:[total_rooms<-0.436734289] yes=173,no=174,missing=174,gain=8.35819274e+10,cover=128
							173:leaf=3914.94458,cover=34
							174:leaf=9861.99609,cover=94
						88:leaf=19232.6191,cover=32
					44:[longitude<-1.55743539] yes=89,no=90,missing=90,gain=1.5883137e+10,cover=13
						89:[total_rooms<0.0294453725] yes=175,no=176,missing=176,gain=4.43536179e+09,cover=7
							175:leaf=-5964.29932,cover=6
							176:leaf=607.154724,cover=1
						90:[total_rooms<-0.322595894] yes=177,no=178,missing=178,gain=618031616,cover=6
							177:leaf=332.760956,cover=3
							178:leaf=2364.95898,cover=3
				22:[latitude<-0.70783323] yes=45,no=46,missing=46,gain=2.09988764e+11,cover=287
					45:[latitude<-0.740606308] yes=91,no=92,missing=92,gain=2.27151856e+11,cover=114
						91:[longitude<0.563870192] yes=179,no=180,missing=180,gain=1.44688234e+11,cover=61
							179:leaf=13978.8535,cover=6
							180:leaf=-1271.19324,cover=55
						92:[longitude<0.658705056] yes=181,no=182,missing=182,gain=1.2166257e+11,cover=53
							181:leaf=12566.8828,cover=36
							182:leaf=2196.28101,cover=17
					46:[total_rooms<-0.827738464] yes=93,no=94,missing=94,gain=5.42616453e+10,cover=173
						93:[median_income<-0.10957662] yes=183,no=184,missing=184,gain=1.04217231e+10,cover=21
							183:leaf=-3860.60205,cover=16
							184:leaf=-9347.09277,cover=5
						94:[latitude<1.06659389] yes=185,no=186,missing=186,gain=4.13777142e+10,cover=152
							185:leaf=540.096375,cover=126
							186:leaf=-3770.96753,cover=26
	2:[median_income<1.30122149] yes=5,no=6,missing=6,gain=6.15661332e+12,cover=3685
		5:[housing_median_age<0.823226511] yes=11,no=12,missing=12,gain=9.74667645e+11,cover=2519
			11:[housing_median_age<-0.924851239] yes=23,no=24,missing=24,gain=5.02249292e+11,cover=2158
				23:[median_income<0.919755399] yes=47,no=48,missing=48,gain=1.52130994e+11,cover=647
					47:[total_bedrooms<-0.362790018] yes=95,no=96,missing=96,gain=7.15951391e+10,cover=447
						95:[longitude<-1.04832196] yes=187,no=188,missing=188,gain=4.36777247e+10,cover=120
							187:leaf=2314.54102,cover=19
							188:leaf=-2819.3501,cover=101
						96:[latitude<1.09000325] yes=189,no=190,missing=190,gain=3.88169073e+10,cover=327
							189:leaf=1429.92957,cover=255
							190:leaf=-1186.63489,cover=72
					48:[latitude<0.954229116] yes=97,no=98,missing=98,gain=7.75983432e+10,cover=200
						97:[total_rooms<0.110121496] yes=191,no=192,missing=192,gain=3.75347282e+10,cover=162
							191:leaf=2382.45117,cover=63
							192:leaf=5560.42139,cover=99
						98:[longitude<-1.17310464] yes=193,no=194,missing=194,gain=1.8049366e+10,cover=38
							193:leaf=1383.7511,cover=20
							194:leaf=-2874.95825,cover=18
				24:[longitude<0.633748472] yes=49,no=50,missing=50,gain=4.12058911e+11,cover=1511
					49:[latitude<-0.679742038] yes=99,no=100,missing=100,gain=8.71822262e+11,cover=951
						99:[longitude<0.593818069] yes=195,no=196,missing=196,gain=2.62429213e+11,cover=154
							195:leaf=16669.0527,cover=78
							196:leaf=8223.12793,cover=76
						100:[longitude<-1.15313947] yes=197,no=198,missing=198,gain=4.19360014e+11,cover=797
							197:leaf=6629.05176,cover=404
							198:leaf=2036.26331,cover=393
					50:[longitude<1.18279231] yes=101,no=102,missing=102,gain=1.22298204e+11,cover=560
						101:[latitude<-0.932562768] yes=199,no=200,missing=200,gain=2.47385686e+11,cover=479
							199:leaf=10430.208,cover=39
							200:leaf=2203.18823,cover=440
						102:[total_rooms<-0.18828848] yes=201,no=202,missing=202,gain=4.45167411e+10,cover=81
							201:leaf=-4134.72852,cover=32
							202:leaf=606.213135,cover=49
			12:[total_rooms<-0.649425864] yes=25,no=26,missing=26,gain=1.6201941e+11,cover=361
				25:[population<-0.884357154] yes=51,no=52,missing=52,gain=4.20951409e+10,cover=52
					51:[total_rooms<-1.0477643] yes=103,no=104,missing=104,gain=2.52400681e+10,cover=27
						103:[latitude<-0.721878827] yes=203,no=204,missing=204,gain=9.29423565e+09,cover=6
							203:leaf=-2883.5188,cover=3
							204:leaf=3945.26025,cover=3
						104:[latitude<0.898046732] yes=205,no=206,missing=206,gain=2.34872996e+10,cover=21
							205:leaf=10304.333,cover=14
							206:leaf=2764.96094,cover=7
					52:[median_income<0.502337694] yes=105,no=106,missing=106,gain=1.31129477e+10,cover=25
						105:[total_rooms<-0.717725575] yes=207,no=208,missing=208,gain=9.57375283e+09,cover=8
							207:leaf=-4726.80371,cover=5
							208:leaf=1753.93359,cover=3
						106:[households<-0.817480862] yes=209,no=210,missing=210,gain=6.36707123e+09,cover=17
							209:leaf=4682.37012,cover=6
							210:leaf=739.169922,cover=11
				26:[latitude<1.08063948] yes=53,no=54,missing=54,gain=1.23395899e+11,cover=309
					53:[longitude<0.603800654] yes=107,no=108,missing=108,gain=1.0297462e+11,cover=288
						107:[total_bedrooms<-0.177681625] yes=211,no=212,missing=212,gain=7.51191982e+10,cover=185
							211:leaf=10494.4951,cover=134
							212:leaf=15370.0703,cover=51
						108:[latitude<-0.881062269] yes=213,no=214,missing=214,gain=1.33382996e+11,cover=103
							213:leaf=16996.584,cover=13
							214:leaf=6278.63574,cover=90
					54:[longitude<-1.45261788] yes=109,no=110,missing=110,gain=4.18978202e+10,cover=21
						109:[latitude<1.16959488] yes=215,no=216,missing=216,gain=1.73745357e+09,cover=8
							215:leaf=8207.77637,cover=7
							216:leaf=1591.61169,cover=1
						110:[total_rooms<0.0702418238] yes=217,no=218,missing=218,gain=3.29101875e+09,cover=13
							217:leaf=-2308.04102,cover=8
							218:leaf=771.946655,cover=5
		6:[median_income<2.08089256] yes=13,no=14,missing=14,gain=1.0930524e+12,cover=1166
			13:[housing_median_age<-0.130270436] yes=27,no=28,missing=28,gain=5.24456821e+11,cover=668
				27:[longitude<-1.31785262] yes=55,no=56,missing=56,gain=9.1837694e+10,cover=408
					55:[latitude<1.06659389] yes=111,no=112,missing=112,gain=3.61770516e+10,cover=29
						111:leaf=17194.0684,cover=15
						112:[housing_median_age<-0.924851239] yes=219,no=220,missing=220,gain=6.66881229e+09,cover=14
							219:leaf=4933.00928,cover=6
							220:leaf=10894.3076,cover=8
					56:[latitude<1.08063948] yes=113,no=114,missing=114,gain=6.49335931e+10,cover=379
						113:[longitude<1.18279231] yes=221,no=222,missing=222,gain=5.7216598e+10,cover=349
							221:leaf=8480.01465,cover=311
							222:leaf=4195.38184,cover=38
						114:[median_income<1.42423606] yes=223,no=224,missing=224,gain=1.21377669e+10,cover=30
							223:leaf=-46.3946877,cover=9
							224:leaf=4307.80225,cover=21
				28:[latitude<0.916774154] yes=57,no=58,missing=58,gain=6.36753019e+10,cover=260
					57:[total_bedrooms<-1.06050622] yes=115,no=116,missing=116,gain=7.85645568e+10,cover=210
						115:[total_rooms<-1.11789751] yes=225,no=226,missing=226,gain=7.03388672e+09,cover=4
							225:leaf=-4303.03613,cover=1
							226:leaf=2978.99976,cover=3
						116:[longitude<-1.23799169] yes=227,no=228,missing=228,gain=3.04952115e+10,cover=206
							227:leaf=18718.0996,cover=30
							228:leaf=14242.8594,cover=176
					58:[latitude<1.01509333] yes=117,no=118,missing=118,gain=3.12025416e+10,cover=50
						117:[longitude<-1.41767871] yes=229,no=230,missing=230,gain=9.83267328e+09,cover=5
							229:leaf=6310.38623,cover=2
							230:leaf=-1422.19617,cover=3
						118:[latitude<1.10873067] yes=231,no=232,missing=232,gain=2.27286712e+10,cover=45
							231:leaf=11746.0469,cover=41
							232:leaf=2937.74292,cover=4
			14:[total_rooms<-1.09451973] yes=29,no=30,missing=30,gain=1.2096163e+11,cover=498
				29:[housing_median_age<1.22051692] yes=59,no=60,missing=60,gain=4.66040422e+10,cover=14
					59:[longitude<0.47402668] yes=119,no=120,missing=120,gain=2.69603799e+10,cover=8
						119:[median_income<2.27296782] yes=233,no=234,missing=234,gain=6.12645274e+09,cover=7
							233:leaf=2600.75708,cover=1
							234:leaf=14446.8857,cover=6
						120:leaf=-2219.95483,cover=1
					60:[median_income<2.882303] yes=121,no=122,missing=122,gain=2.91170836e+10,cover=6
						121:leaf=10406.792,cover=1
						122:[population<-1.22433269] yes=235,no=236,missing=236,gain=6.35717683e+09,cover=5
							235:leaf=738.052612,cover=2
							236:leaf=-5842.14014,cover=3
				30:[housing_median_age<-0.607018888] yes=61,no=62,missing=62,gain=1.41172933e+11,cover=484
					61:[median_income<3.27756] yes=123,no=124,missing=124,gain=9.62328003e+10,cover=157
						123:[longitude<-1.08326113] yes=237,no=238,missing=238,gain=3.56392632e+10,cover=105
							237:leaf=15857.0283,cover=25
							238:leaf=10804.1143,cover=80
						124:[longitude<1.26265323] yes=239,no=240,missing=240,gain=2.52995174e+09,cover=52
							239:leaf=18038.3711,cover=51
							240:leaf=4771.03613,cover=1
					62:[longitude<0.778496385] yes=125,no=126,missing=126,gain=3.11469015e+10,cover=327
						125:[latitude<1.10404885] yes=241,no=242,missing=242,gain=6.68362342e+09,cover=285
							241:leaf=18654.0391,cover=284
							242:leaf=4246.31396,cover=1
						126:[median_income<2.5737927] yes=243,no=244,missing=244,gain=2.22760796e+10,cover=42
							243:leaf=10890.79,cover=20
							244:leaf=17133.1426,cover=22
booster[5]:
0:[median_income<0.436540484] yes=1,no=2,missing=2,gain=2.0170194e+13,cover=13273
	1:[median_income<-0.633743763] yes=3,no=4,missing=4,gain=4.21275841e+12,cover=9837
		3:[latitude<-0.525240481] yes=7,no=8,missing=8,gain=6.55054864e+11,cover=3750
			7:[longitude<0.633748472] yes=15,no=16,missing=16,gain=5.84444281e+11,cover=1806
				15:[population<-0.569990277] yes=31,no=32,missing=32,gain=1.12253805e+11,cover=286
					31:[total_bedrooms<-0.607227981] yes=63,no=64,missing=64,gain=9.13393746e+10,cover=65
						63:[longitude<0.553887606] yes=125,no=126,missing=126,gain=6.90663178e+10,cover=40
							125:leaf=7245.71045,cover=12
							126:leaf=-1535.15222,cover=28
						64:[median_income<-0.879404366] yes=127,no=128,missing=128,gain=3.05401692e+10,cover=25
							127:leaf=4913.49512,cover=13
							128:leaf=12431.8193,cover=12
					32:[latitude<-0.740606308] yes=65,no=66,missing=66,gain=1.28644055e+11,cover=221
						65:[longitude<0.568861485] yes=129,no=130,missing=130,gain=1.27710527e+11,cover=100
							129:leaf=7710.25781,cover=9
							130:leaf=-4233.02344,cover=91
						66:[latitude<-0.712515056] yes=131,no=132,missing=132,gain=1.67783367e+11,cover=121
							131:leaf=6339.76807,cover=47
							132:leaf=-1238.34351,cover=74
				16:[longitude<1.21274018] yes=33,no=34,missing=34,gain=2.63315259e+11,cover=1520
					33:[latitude<-0.820197999] yes=67,no=68,missing=68,gain=1.48779565e+11,cover=1137
						67:[population<-1.13955951] yes=133,no=134,missing=134,gain=1.39460968e+11,cover=261
							133:leaf=15130.4316,cover=4
							134:leaf=-1743.86328,cover=257
						68:[longitude<1.03804433] yes=135,no=136,missing=136,gain=1.79597607e+11,cover=876
							135:leaf=-3559.85083,cover=750
							136:leaf=-7645.40771,cover=126
					34:[longitude<1.57211423] yes=69,no=70,missing=70,gain=5.14739405e+10,cover=383
						69:[latitude<-0.848289192] yes=137,no=138,missing=138,gain=1.43399322e+10,cover=296
							137:leaf=-5578.31201,cover=258
							138:leaf=-7870.34863,cover=38
						70:[latitude<-0.656332672] yes=139,no=140,missing=140,gain=2.65669837e+09,cover=87
							139:leaf=-8828.80176,cover=86
							140:leaf=-1587.33752,cover=1
			8:[longitude<-1.04832196] yes=17,no=18,missing=18,gain=3.6164495e+11,cover=1944
				17:[latitude<1.42241561] yes=35,no=36,missing=36,gain=4.19962421e+11,cover=723
					35:[longitude<-1.40270483] yes=71,no=72,missing=72,gain=2.21283615e+11,cover=456
						71:[latitude<1.0993669] yes=141,no=142,missing=142,gain=1.17608956e+11,cover=98
							141:leaf=4509.4126,cover=58
							142:leaf=-2471.42798,cover=40
						72:[latitude<0.907410443] yes=143,no=144,missing=144,gain=1.89681107e+11,cover=358
							143:leaf=779.44635,cover=75
							144:leaf=-4865.25732,cover=283
					36:[latitude<1.92805719] yes=73,no=74,missing=74,gain=5.74724506e+09,cover=267
						73:[longitude<-1.95174861] yes=145,no=146,missing=146,gain=1.09302579e+10,cover=105
							145:leaf=-2677.9187,cover=8
							146:leaf=-6996.2417,cover=97
						74:leaf=-8027.67969,cover=162
				18:[longitude<-0.139904112] yes=37,no=38,missing=38,gain=1.03386972e+11,cover=1221
					37:[latitude<-0.117918141] yes=75,no=76,missing=76,gain=9.32123771e+10,cover=757
						75:[longitude<-0.519243479] yes=147,no=148,missing=148,gain=9.45365484e+10,cover=50
							147:leaf=2988.66943,cover=20
							148:leaf=-5723.91748,cover=30
						76:[households<-1.16012537] yes=149,no=150,missing=150,gain=5.83965082e+10,cover=707
							149:leaf=-2428.90332,cover=31
							150:leaf=-6968.83447,cover=676
					38:[households<-1.24120915] yes=77,no=78,missing=78,gain=2.23490867e+10,cover=464
						77:[longitude<0.898287773] yes=151,no=152,missing=152,gain=7.31941734e+09,cover=5
							151:leaf=-3307.35718,cover=4
							152:leaf=3937.39453,cover=1
						78:[housing_median_age<-0.130270436] yes=153,no=154,missing=154,gain=5.49244109e+09,cover=459
							153:leaf=-7852.44385,cover=191
							154:leaf=-8916.62305,cover=268
		4:[housing_median_age<1.53834915] yes=9,no=10,missing=10,gain=1.39633951e+12,cover=6087
			9:[median_income<-0.164267287] yes=19,no=20,missing=20,gain=8.94956798e+11,cover=5561
				19:[latitude<1.10404885] yes=39,no=40,missing=40,gain=3.60383775e+11,cover=2731
					39:[longitude<-1.14315689] yes=79,no=80,missing=80,gain=3.37494606e+11,cover=2240
						79:[longitude<-1.4426353] yes=155,no=156,missing=156,gain=8.84571505e+10,cover=306
							155:leaf=6207.15234,cover=31
							156:leaf=648.338928,cover=275
						80:[latitude<-0.525240481] yes=157,no=158,missing=158,gain=5.92678814e+11,cover=1934
							157:leaf=-1355.50549,cover=1470
							158:leaf=-5453.11084,cover=464
					40:[longitude<-1.43265271] yes=81,no=82,missing=82,gain=4.53804032e+10,cover=491
						81:[latitude<1.76419187] yes=159,no=160,missing=160,gain=4.73861734e+10,cover=105
							159:leaf=-1601.12463,cover=76
							160:leaf=-6328.69482,cover=29
						82:[longitude<-0.828704476] yes=161,no=162,missing=162,gain=2.55307284e+10,cover=386
							161:leaf=-5832.47461,cover=289
							162:leaf=-3863.92847,cover=97
				20:[housing_median_age<-0.686477005] yes=41,no=42,missing=42,gain=4.25856926e+11,cover=2830
					41:[longitude<-0.963469803] yes=83,no=84,missing=84,gain=1.09245022e+11,cover=886
						83:[latitude<0.898046732] yes=163,no=164,missing=164,gain=9.9609641e+10,cover=199
							163:leaf=3434.60864,cover=69
							164:leaf=-1238.40662,cover=130
						84:[latitude<-0.155373067] yes=165,no=166,missing=166,gain=9.16933837e+10,cover=687
							165:leaf=-1405.00671,cover=443
							166:leaf=-3821.6731,cover=244
					42:[total_bedrooms<-0.201413468] yes=85,no=86,missing=86,gain=6.01095406e+11,cover=1944
						85:[population<-0.377484679] yes=167,no=168,missing=168,gain=2.06398816e+11,cover=1129
							167:leaf=434.875061,cover=753
							168:leaf=-2430.99878,cover=376
						86:[population<-0.149656966] yes=169,no=170,missing=170,gain=6.41100481e+11,cover=815
							169:leaf=8112.38379,cover=190
							170:leaf=1488.95447,cover=625
			10:[longitude<-1.36277437] yes=21,no=22,missing=22,gain=7.61745113e+11,cover=526
				21:[latitude<1.00104773] yes=43,no=44,missing=44,gain=1.7963588e+11,cover=186
					43:[longitude<-1.40270483] yes=87,no=88,missing=88,gain=5.61469194e+10,cover=86
						87:[latitude<0.987002134] yes=171,no=172,missing=172,gain=7.16722668e+10,cover=79
							171:leaf=833.124817,cover=27
							172:leaf=7197.11572,cover=52
						88:[total_rooms<-0.972130358] yes=173,no=174,missing=174,gain=1.13146102e+10,cover=7
							173:leaf=1922.94141,cover=1
							174:leaf=15583.0771,cover=6
					44:[latitude<1.10404885] yes=89,no=90,missing=90,gain=2.68930253e+11,cover=100
						89:[total_rooms<-1.0271368] yes=175,no=176,missing=176,gain=4.56821309e+10,cover=89
							175:leaf=2836.2605,cover=4
							176:leaf=14597.3779,cover=85
						90:[longitude<-1.63230491] yes=177,no=178,missing=178,gain=1.89734216e+10,cover=11
							177:leaf=-6272.02539,cover=5
							178:leaf=1486.7063,cover=6
				22:[latitude<1.06659389] yes=45,no=46,missing=46,gain=1.37127748e+11,cover=340
					45:[median_income<-0.122841343] yes=91,no=92,missing=92,gain=9.81180416e+10,cover=303
						91:[total_bedrooms<-0.21565257] yes=179,no=180,missing=180,gain=6.03945861e+10,cover=182
							179:leaf=-669.53009,cover=117
							180:leaf=3109.36621,cover=65
						92:[longitude<0.828409493] yes=181,no=182,missing=182,gain=1.18988784e+11,cover=121
							181:leaf=5447.59131,cover=108
							182:leaf=-4422.96387,cover=13
					46:[latitude<1.39432442] yes=93,no=94,missing=94,gain=7.83055258e+09,cover=37
						93:[latitude<1.37091517] yes=183,no=184,missing=184,gain=4.18289664e+09,cover=32
							183:leaf=-4515.49365,cover=17
							184:leaf=-2007.28638,cover=15
						94:[population<-0.674190521] yes=185,no=186,missing=186,gain=766173184,cover=5
							185:leaf=-8508.24121,cover=4
							186:leaf=-2055.55396,cover=1
	2:[median_income<1.55604112] yes=5,no=6,missing=6,gain=4.45082449e+12,cover=3436
		5:[housing_median_age<0.743768394] yes=11,no=12,missing=12,gain=8.25517146e+11,cover=2572
			11:[median_income<0.899174035] yes=23,no=24,missing=24,gain=5.96146389e+11,cover=2191
				23:[housing_median_age<-0.924851239] yes=47,no=48,missing=48,gain=2.30705332e+11,cover=1259
					47:[total_rooms<0.376902759] yes=95,no=96,missing=96,gain=9.06808852e+10,cover=390
						95:[longitude<-0.983435035] yes=187,no=188,missing=188,gain=3.7647614e+10,cover=190
							187:leaf=1451.86157,cover=41
							188:leaf=-1941.90295,cover=149
						96:[latitude<-0.857652903] yes=189,no=190,missing=190,gain=1.10387601e+11,cover=200
							189:leaf=6079.89404,cover=46
							190:leaf=538.987488,cover=154
					48:[latitude<1.08532131] yes=97,no=98,missing=98,gain=2.21438149e+11,cover=869
						97:[longitude<0.633748472] yes=191,no=192,missing=192,gain=3.18773264e+11,cover=775
							191:leaf=5624.72559,cover=436
							192:leaf=1532.38562,cover=339
						98:[longitude<-1.35279179] yes=193,no=194,missing=194,gain=1.03917216e+11,cover=94
							193:leaf=3988.7063,cover=26
							194:leaf=-3334.74805,cover=68
				24:[housing_median_age<-0.0508123636] yes=49,no=50,missing=50,gain=2.42351342e+11,cover=932
					49:[total_bedrooms<0.0501440763] yes=99,no=100,missing=99,gain=1.00839457e+11,cover=689
						99:[housing_median_age<-1.32214165] yes=195,no=196,missing=196,gain=8.30795284e+10,cover=420
							195:leaf=242.172241,cover=58
							196:leaf=4322.36865,cover=362
						100:[population<0.254781365] yes=197,no=198,missing=198,gain=1.19985668e+11,cover=269
							197:leaf=11305.3057,cover=40
							198:leaf=5338.30371,cover=229
					50:[median_income<1.13988662] yes=101,no=102,missing=102,gain=5.77052344e+10,cover=243
						101:[total_bedrooms<-0.013931904] yes=199,no=200,missing=199,gain=4.05570847e+10,cover=112
							199:leaf=5643.36279,cover=92
							200:leaf=10764.7686,cover=20
						102:[longitude<1.19277489] yes=201,no=202,missing=202,gain=4.13457449e+10,cover=131
							201:leaf=10178.0215,cover=128
							202:leaf=-1297.13013,cover=3
			12:[median_income<0.962181509] yes=25,no=26,missing=26,gain=2.15833117e+11,cover=381
				25:[total_rooms<-0.591210723] yes=51,no=52,missing=52,gain=1.28137298e+11,cover=251
					51:[longitude<0.638739824] yes=103,no=104,missing=104,gain=3.91461847e+10,cover=48
						103:[median_income<0.520918846] yes=203,no=204,missing=204,gain=2.79996867e+10,cover=36
							203:leaf=-3276.82935,cover=4
							204:leaf=4972.93115,cover=32
						104:[households<-0.759937525] yes=205,no=206,missing=206,gain=3.6061143e+09,cover=12
							205:leaf=-3980.33203,cover=6
							206:leaf=-534.842468,cover=6
					52:[latitude<1.10873067] yes=105,no=106,missing=106,gain=7.09769298e+10,cover=203
						105:[longitude<0.603800654] yes=207,no=208,missing=208,gain=7.02840832e+10,cover=196
							207:leaf=10012.165,cover=123
							208:leaf=5922.32373,cover=73
						106:[total_rooms<0.157335371] yes=209,no=210,missing=210,gain=1.53631949e+09,cover=7
							209:leaf=-2336.5813,cover=5
							210:leaf=614.853149,cover=2
				26:[total_rooms<-1.0477643] yes=53,no=54,missing=54,gain=6.15625523e+10,cover=130
					53:[longitude<-1.35279179] yes=107,no=108,missing=108,gain=7.57333146e+09,cover=3
						107:leaf=-6038.30811,cover=1
						108:[longitude<-0.783782721] yes=211,no=212,missing=212,gain=50159744,cover=2
							211:leaf=565.071899,cover=1
							212:leaf=2437.93359,cover=1
					54:[latitude<-0.689105749] yes=109,no=110,missing=110,gain=3.10757294e+10,cover=127
						109:[latitude<-0.754651904] yes=213,no=214,missing=214,gain=1.45177969e+10,cover=58
							213:leaf=11561.3311,cover=26
							214:leaf=16425.0547,cover=32
						110:[longitude<-1.39272225] yes=215,no=216,missing=216,gain=4.70724772e+10,cover=69
							215:leaf=15429.0225,cover=17
							216:leaf=8843.01172,cover=52
		6:[median_income<2.40919447] yes=13,no=14,missing=14,gain=5.11640076e+11,cover=864
			13:[housing_median_age<-0.0508123636] yes=27,no=28,missing=28,gain=2.43809649e+11,cover=514
				27:[longitude<-1.22301781] yes=55,no=56,missing=56,gain=6.68742451e+10,cover=309
					55:[total_rooms<-0.67280364] yes=111,no=112,missing=112,gain=1.2012159e+10,cover=46
						111:[longitude<-1.45261788] yes=217,no=218,missing=218,gain=1.03411405e+09,cover=4
							217:leaf=6805.47803,cover=2
							218:leaf=2052.80322,cover=2
						112:[latitude<1.21173167] yes=219,no=220,missing=220,gain=1.21249464e+10,cover=42
							219:leaf=13882.7656,cover=37
							220:leaf=6395.08398,cover=5
					56:[total_bedrooms<-0.448224634] yes=113,no=114,missing=114,gain=3.70651955e+10,cover=263
						113:[latitude<-0.319238365] yes=221,no=222,missing=222,gain=2.6010026e+10,cover=87
							221:leaf=7431.05322,cover=65
							222:leaf=3231.36597,cover=22
						114:[longitude<0.878322542] yes=223,no=224,missing=224,gain=2.80509809e+10,cover=176
							223:leaf=10092.7793,cover=119
							224:leaf=7042.65869,cover=57
				28:[longitude<0.828409493] yes=57,no=58,missing=58,gain=6.33940214e+10,cover=205
					57:[total_bedrooms<-1.11508942] yes=115,no=116,missing=116,gain=5.95635732e+10,cover=188
						115:[median_income<1.9133991] yes=225,no=226,missing=226,gain=1.98667489e+10,cover=4
							225:leaf=-4487.14844,cover=2
							226:leaf=7079.57666,cover=2
						116:[latitude<0.99168402] yes=227,no=228,missing=228,gain=3.7949014e+10,cover=184
							227:leaf=15233.041,cover=140
							228:leaf=11098.4521,cover=44
					58:[latitude<-0.95129025] yes=117,no=118,missing=118,gain=3.21341604e+10,cover=17
						117:[longitude<1.13287926] yes=229,no=230,missing=230,gain=1.17114225e+10,cover=8
							229:leaf=14957.8818,cover=4
							230:leaf=5334.93701,cover=4
						118:[longitude<0.888305187] yes=231,no=232,missing=232,gain=1.71958354e+10,cover=9
							231:leaf=4697.6626,cover=7
							232:leaf=-4321.17334,cover=2
			14:[latitude<1.10404885] yes=29,no=30,missing=30,gain=8.03691561e+10,cover=350
				29:[population<-1.19872415] yes=59,no=60,missing=60,gain=4.79188746e+10,cover=346
					59:[longitude<-1.14315689] yes=119,no=120,missing=120,gain=5.38952581e+10,cover=8
						119:[total_bedrooms<-1.24086821] yes=233,no=234,missing=234,gain=5.66469427e+09,cover=6
							233:leaf=14502.1064,cover=3
							234:leaf=5314.04053,cover=3
						120:leaf=-5343.81445,cover=2
					60:[longitude<0.743557274] yes=121,no=122,missing=122,gain=3.11427072e+10,cover=338
						121:leaf=16965.5762,cover=239
						122:[median_income<3.27756] yes=235,no=236,missing=236,gain=2.93774295e+10,cover=99
							235:leaf=11751.3184,cover=49
							236:leaf=16161.7969,cover=50
				30:[longitude<-0.893591523] yes=61,no=62,missing=62,gain=5.30165043e+09,cover=4
					61:[longitude<-1.19806123] yes=123,no=124,missing=124,gain=502355648,cover=2
						123:leaf=-2792.23682,cover=1
						124:leaf=-23.4398441,cover=1
					62:leaf=4154.60938,cover=2
booster[6]:
0:[median_income<0.129767418] yes=1,no=2,missing=2,gain=1.53951331e+13,cover=13151
	1:[median_income<-0.685434103] yes=3,no=4,missing=4,gain=2.09411795e+12,cover=8311
		3:[latitude<-0.525240481] yes=7,no=8,missing=8,gain=4.036357e+11,cover=3298
			7:[longitude<0.96317476] yes=15,no=16,missing=16,gain=3.29948594e+11,cover=1564
				15:[latitude<-0.740606308] yes=31,no=32,missing=32,gain=2.6154369e+11,cover=1016
					31:[longitude<0.603800654] yes=63,no=64,missing=64,gain=2.99745477e+11,cover=616
						63:[longitude<0.57884413] yes=127,no=128,missing=128,gain=1.07471667e+10,cover=15
							127:leaf=12158.0986,cover=9
							128:leaf=5201.94775,cover=6
						64:[longitude<0.75353986] yes=129,no=130,missing=130,gain=1.70873061e+11,cover=601
							129:leaf=-4605.57373,cover=537
							130:leaf=848.144714,cover=64
					32:[longitude<0.668687642] yes=65,no=66,missing=66,gain=1.32368114e+11,cover=400
						65:[latitude<-0.693787634] yes=131,no=132,missing=132,gain=7.6504703e+10,cover=243
							131:leaf=2441.68359,cover=152
							132:leaf=-1210.17346,cover=91
						66:[latitude<-0.693787634] yes=133,no=134,missing=134,gain=6.47908393e+10,cover=157
							133:leaf=-3458.60229,cover=135
							134:leaf=2310.81519,cover=22
				16:[latitude<-1.133883] yes=33,no=34,missing=34,gain=5.83679345e+10,cover=548
					33:[longitude<1.21274018] yes=67,no=68,missing=68,gain=1.8172058e+11,cover=275
						67:[median_income<-0.817660213] yes=135,no=136,missing=136,gain=4.4699861e+10,cover=53
							135:leaf=-1462.8562,cover=32
							136:leaf=4361.36182,cover=21
						68:[longitude<1.57211423] yes=137,no=138,missing=138,gain=1.76610345e+10,cover=222
							137:leaf=-5134.95947,cover=182
							138:leaf=-7626.96973,cover=40
					34:[median_income<-0.69811976] yes=69,no=70,missing=70,gain=6.93947597e+09,cover=273
						69:[housing_median_age<-0.845393121] yes=139,no=140,missing=140,gain=5.63596493e+09,cover=267
							139:leaf=-5675.06104,cover=89
							140:leaf=-6961.94092,cover=178
						70:[longitude<1.47228813] yes=141,no=142,missing=142,gain=5.47810355e+09,cover=6
							141:leaf=-3789.27197,cover=5
							142:leaf=2552.72827,cover=1
			8:[longitude<-1.04832196] yes=17,no=18,missing=18,gain=2.36882756e+11,cover=1734
				17:[latitude<1.43177938] yes=35,no=36,missing=36,gain=2.79467131e+11,cover=659
					35:[longitude<-1.40270483] yes=71,no=72,missing=72,gain=1.20857428e+11,cover=413
						71:[median_income<-1.49268723] yes=143,no=144,missing=144,gain=7.06146058e+10,cover=78
							143:leaf=12470.9932,cover=4
							144:leaf=189.207077,cover=74
						72:[latitude<0.968274713] yes=145,no=146,missing=146,gain=1.28154665e+11,cover=335
							145:leaf=160.131592,cover=78
							146:leaf=-4463.58594,cover=257
					36:[housing_median_age<-1.56051588] yes=73,no=74,missing=74,gain=4.73759744e+09,cover=246
						73:[longitude<-1.39272225] yes=147,no=148,missing=148,gain=919399168,cover=2
							147:leaf=-2541.42041,cover=1
							148:leaf=676.277344,cover=1
						74:[longitude<-1.5374701] yes=149,no=150,missing=150,gain=3.49451059e+09,cover=244
							149:leaf=-6245.96924,cover=118
							150:leaf=-7400.94922,cover=126
				18:[longitude<-0.139904112] yes=37,no=38,missing=38,gain=7.2278868e+10,cover=1075
					37:[population<-1.22433269] yes=75,no=76,missing=76,gain=6.25077125e+10,cover=670
						75:[housing_median_age<-0.130270436] yes=151,no=152,missing=152,gain=2.62990889e+10,cover=5
							151:leaf=-6131.08203,cover=1
							152:leaf=7882.4502,cover=4
						76:[latitude<-0.117918141] yes=153,no=154,missing=154,gain=4.2041344e+10,cover=665
							153:leaf=-2769.75195,cover=40
							154:leaf=-6214.06201,cover=625
					38:[housing_median_age<-1.79889011] yes=77,no=78,missing=78,gain=1.87579761e+10,cover=405
						77:[longitude<0.898287773] yes=155,no=156,missing=156,gain=5.51407258e+09,cover=4
							155:leaf=-2712.31689,cover=3
							156:leaf=3740.52515,cover=1
						78:[latitude<0.593725443] yes=157,no=158,missing=158,gain=1.21849774e+10,cover=401
							157:leaf=-7816.62256,cover=393
							158:leaf=-3274.62207,cover=8
		4:[housing_median_age<1.69726539] yes=9,no=10,missing=10,gain=8.91067695e+11,cover=5013
			9:[latitude<1.07595766] yes=19,no=20,missing=20,gain=5.52765227e+11,cover=4639
				19:[longitude<-1.15813076] yes=39,no=40,missing=40,gain=6.37585785e+11,cover=3743
					39:[latitude<0.916774154] yes=79,no=80,missing=80,gain=1.88320809e+11,cover=490
						79:[longitude<-1.3278352] yes=159,no=160,missing=160,gain=6.3859458e+10,cover=207
							159:leaf=8739.44141,cover=29
							160:leaf=3678.52466,cover=178
						80:[longitude<-1.37774825] yes=161,no=162,missing=162,gain=2.78505914e+11,cover=283
							161:leaf=4344.61279,cover=111
							162:leaf=-2056.03735,cover=172
					40:[latitude<-0.525240481] yes=81,no=82,missing=82,gain=9.03193887e+11,cover=3253
						81:[longitude<0.633748472] yes=163,no=164,missing=164,gain=1.21580172e+12,cover=2524
							163:leaf=3098.49194,cover=600
							164:leaf=-2053.88574,cover=1924
						82:[longitude<-0.24971287] yes=165,no=166,missing=166,gain=4.37164966e+11,cover=729
							165:leaf=-2567.06104,cover=396
							166:leaf=-7489.30859,cover=333
				20:[latitude<1.76419187] yes=41,no=42,missing=42,gain=8.88527913e+10,cover=896
					41:[longitude<-1.40270483] yes=83,no=84,missing=84,gain=1.21038176e+11,cover=760
						83:[latitude<1.26791406] yes=167,no=168,missing=168,gain=7.03206031e+10,cover=167
							167:leaf=2083.06323,cover=47
							168:leaf=-2444.74512,cover=120
						84:[housing_median_age<-0.368644685] yes=169,no=170,missing=170,gain=4.25679913e+10,cover=593
							169:leaf=-3408.69995,cover=317
							170:leaf=-5139.46338,cover=276
					42:[housing_median_age<-1.0043093] yes=85,no=86,missing=86,gain=2.27016704e+09,cover=136
						85:[longitude<-1.95174861] yes=171,no=172,missing=172,gain=217530368,cover=31
							171:leaf=-1348.92578,cover=1
							172:leaf=-5147.75098,cover=30
						86:[total_rooms<0.848583043] yes=173,no=174,missing=174,gain=1.01240013e+09,cover=105
							173:leaf=-6726.22607,cover=103
							174:leaf=-2416.18433,cover=2
			10:[longitude<-1.41268742] yes=21,no=22,missing=22,gain=5.02309421e+11,cover=374
				21:[longitude<-1.50752223] yes=43,no=44,missing=44,gain=1.14682823e+11,cover=124
					43:[longitude<-1.63230491] yes=87,no=88,missing=88,gain=7.74179328e+09,cover=6
						87:leaf=-6507.19678,cover=4
						88:[total_rooms<-0.711766541] yes=175,no=176,missing=176,gain=271495328,cover=2
							175:leaf=1301.43054,cover=1
							176:leaf=-422.6297,cover=1
					44:[latitude<1.0104115] yes=89,no=90,missing=90,gain=1.86418528e+11,cover=118
						89:[longitude<-1.41767871] yes=177,no=178,missing=178,gain=5.94808668e+10,cover=93
							177:leaf=8036.20703,cover=79
							178:leaf=901.162292,cover=14
						90:[population<0.0737554729] yes=179,no=180,missing=180,gain=1.0594091e+10,cover=25
							179:leaf=17698.8184,cover=22
							180:leaf=7187.03467,cover=3
				22:[latitude<0.916774154] yes=45,no=46,missing=46,gain=1.01454373e+11,cover=250
					45:[longitude<0.623765886] yes=91,no=92,missing=92,gain=1.70679845e+11,cover=139
						91:[latitude<-0.717196941] yes=181,no=182,missing=182,gain=1.15305628e+11,cover=58
							181:leaf=10816.249,cover=30
							182:leaf=1881.94666,cover=28
						92:[population<-0.569990277] yes=183,no=184,missing=184,gain=7.79209605e+10,cover=81
							183:leaf=3961.01489,cover=26
							184:leaf=-2580.04297,cover=55
					46:[longitude<-1.3278352] yes=93,no=94,missing=94,gain=4.78628004e+10,cover=111
						93:[total_rooms<-0.788317144] yes=185,no=186,missing=186,gain=2.30317363e+10,cover=64
							185:leaf=-3917.70679,cover=10
							186:leaf=1095.57776,cover=54
						94:[total_rooms<-0.799318433] yes=187,no=188,missing=188,gain=8.96000819e+09,cover=47
							187:leaf=-6139.51367,cover=13
							188:leaf=-2905.75269,cover=34
	2:[median_income<1.23752975] yes=5,no=6,missing=6,gain=4.8985612e+12,cover=4840
		5:[housing_median_age<0.823226511] yes=11,no=12,missing=12,gain=8.2746042e+11,cover=3605
			11:[median_income<0.783423543] yes=23,no=24,missing=24,gain=4.54175359e+11,cover=3019
				23:[housing_median_age<-0.765935063] yes=47,no=48,missing=48,gain=2.53682811e+11,cover=2146
					47:[longitude<-0.938513279] yes=95,no=96,missing=96,gain=8.83226296e+10,cover=759
						95:[latitude<0.916774154] yes=189,no=190,missing=190,gain=8.42000876e+10,cover=196
							189:leaf=3970.57397,cover=79
							190:leaf=-237.243271,cover=117
						96:[latitude<-0.155373067] yes=191,no=192,missing=192,gain=1.43360131e+11,cover=563
							191:leaf=26.9941387,cover=401
							192:leaf=-3490.06421,cover=162
					48:[total_bedrooms<-0.0471564867] yes=97,no=98,missing=98,gain=4.07638114e+11,cover=1387
						97:[latitude<1.0993669] yes=193,no=194,missing=194,gain=1.10190248e+11,cover=922
							193:leaf=1089.28516,cover=819
							194:leaf=-2366.77026,cover=103
						98:[population<-0.092258513] yes=195,no=196,missing=196,gain=4.79771754e+11,cover=465
							195:leaf=11549.1992,cover=76
							196:leaf=2894.66675,cover=389
				24:[latitude<1.09000325] yes=49,no=50,missing=50,gain=1.35111246e+11,cover=873
					49:[longitude<-1.25795686] yes=99,no=100,missing=100,gain=2.09575084e+11,cover=764
						99:[total_rooms<-1.17886293] yes=197,no=198,missing=198,gain=1.74996193e+10,cover=51
							197:leaf=-1403.01331,cover=1
							198:leaf=10701.0615,cover=50
						100:[longitude<0.853366017] yes=199,no=200,missing=200,gain=1.34102188e+11,cover=713
							199:leaf=4654.0332,cover=526
							200:leaf=1526.12183,cover=187
					50:[longitude<-1.41268742] yes=101,no=102,missing=102,gain=8.93257073e+10,cover=109
						101:[longitude<-1.50752223] yes=201,no=202,missing=202,gain=1.66850314e+10,cover=25
							201:leaf=3363.93091,cover=16
							202:leaf=8965.55469,cover=9
						102:[total_bedrooms<-0.994057059] yes=203,no=204,missing=203,gain=1.57414441e+10,cover=84
							203:leaf=-5278.271,cover=7
							204:leaf=-604.352966,cover=77
			12:[total_bedrooms<-0.177681625] yes=25,no=26,missing=25,gain=2.1847579e+11,cover=586
				25:[median_income<0.880540252] yes=51,no=52,missing=52,gain=1.78850169e+11,cover=440
