{"learner":{"attributes":{"best_iteration":"0","best_score":"96867.96498518456"},"feature_names":["longitude","latitude","housing_median_age","total_rooms","total_bedrooms","population","households","median_income"],"feature_types":["float","float","float","float","float","float","float","float"],"gradient_booster":{"model":{"gbtree_model_param":{"num_parallel_tree":"1","num_trees":"1"},"iteration_indptr":[0,1],"tree_info":[0],"trees":[{"base_weights":[2.4665567E2,-3.284766E4,1.2258352E5,-7.054699E4,1.9418597E3,8.642071E4,2.2175748E5,-4.8787195E4,-9.1392914E4,-1.0626805E4,4.943842E4,7.280719E4,1.5587669E5,1.8233047E5,2.5669917E5,1.7879271E4,-6.3274984E4,-5.6341434E4,-1.14215664E5,-1.8956246E3,-5.2643977E4,1.2057052E5,2.849674E4,4.9516547E4,1.0139508E5,1.2799773E5,1.866389E5,1.4836155E5,2.3081069E5,1.0778229E5,2.616433E5,-7.116742E3,3.3681133E4,-4.5888215E4,-8.5184766E4,-1.0737823E4,-1.0057571E5,-1.02895945E5,-1.3447228E5,1.0263541E4,-4.001258E4,-1.8253875E4,-6.336873E4,1.366274E5,-2.8099086E4,9.530611E3,7.939256E4,1.9338314E4,6.7549586E4,8.5494234E4,1.4605916E5,5.881951E4,1.4115786E5,-1.25821E4,1.9129102E5,6.782252E4,1.5424997E5,2.84179E4,2.3572361E5,1.4892881E5,-5.288947E4,2.3463884E5,2.8051494E5,1.2260017E5,-3.803551E4,9.0813984E4,5.2308037E3,-5.6385258E4,-1.5889349E4,-7.8584984E4,-1.3463148E5,7.810365E4,-3.322291E4,-6.912532E4,-1.2110045E5,-4.541052E4,-1.0735093E5,-5.4217363E4,-1.3556928E5,4.7341047E4,1.5396848E3,-2.0293322E4,-7.625011E4,1.1416653E4,-8.055493E4,-7.971388E4,-4.5912062E4,8.686597E4,2.1211714E5,-1.7971709E4,-4.363869E3,-7.6364707E3,6.2044895E4,1.7993775E5,7.311758E4,4.1782832E4,7.7058438E3,8.472364E4,3.962114E4,6.881789E4,1.05487125E5,1.21921305E5,1.7549502E5,1.1103398E5,3.2437068E4,1.2791451E5,1.8820625E5,-5.0068418E4,5.81965E3,1.9889416E5,1.5133661E5,7.9238164E4,-3.1336833E3,2.050756E5,1.4423761E5,-3.8946875E2,1.4364737E4,2.4772581E5,1.7817497E5,1.6707727E5,-6.8852627E3,-1.2513684E4,-2.3852625E3,2.0473564E5,2.7058E5,5.630126E4,3.5647375E3,8.053509E4,1.3729944E5,9.316843E4,-4.870504E4,-1.2912222E3,9.8837164E4,-1.0961615E4,6.71772E4,-2.3057867E4,-6.895358E4,8.127317E3,-3.0910275E4,-5.7852938E4,-1.0135608E5,6.864738E3,-2.7279826E4,5.4211523E4,1.4543905E5,5.3810396E3,-5.442015E4,-3.7784348E4,-8.3549086E4,-2.5325018E4,-2.0845574E4,-1.8608708E3,-6.920446E4,-1.1698469E5,-9.552102E4,-6.7869E4,6.864738E3,-1.4489058E5,-1.24246766E5,8.121995E4,3.3969734E4,2.2396459E4,-5.111537E4,1.7192E4,-4.201385E4,3.94979E4,-7.775008E4,-4.6475957E3,4.259852E4,-8.306629E4,-1.80175E3,-8.044128E4,2.4931584E4,-5.256846E4,-2.7615094E4,5.5478688E4,1.1155936E5,1.3666197E5,2.4125403E5,-1.2405257E4,5.09158E3,2.0975774E2,-7.311551E4,8.7029836E4,6.5054575E3,1.9545934E5,1.053965E4,9.984306E4,3.5112965E4,5.760158E4,3.3389023E3,2.8821164E4,-5.18785E3,1.835419E5,6.7456305E4,4.5824973E4,-2.25171E4,7.6640414E4,1.7352639E4,7.981986E4,1.1976232E5,1.763957E5,1.0698678E5,1.7851436E5,3.6729832E3,2.314253E4,6.424738E3,4.8800297E4,-1.4273679E4,4.5228605E4,1.191034E5,5.0487137E4,1.4824961E5,-1.3135263E4,-1.8852626E3,1.7196144E5,2.1284384E5,1.5826256E5,3.1631584E4,9.219343E4,3.22979E4,2.1402027E5,8.448553E4,1.4685325E5,6.702895E4,9.152983E3,-1.3885263E4,5.157307E4,1.708728E5,3.632918E4,7.404738E3,4.2163418E4,6.36781E4,2.0763133E5,1.6087106E4,5.4465957E4,1.3234737E4,4.364738E3,1.6777705E4,7.114738E3,2.7989104E4,1.5330614E5,2.8312035E4,1.0712962E4,-5.4187832E4,-3.2273678E4,1.4286317E4,8.492049E4,1.5523894E5,-2.1034639E4,6.8092837E3,9.594512E4,3.6663402E4,3.8303164E4,-3.2585125E4,-7.807221E4,-3.9001047E4,3.1990676E4,3.0978716E3,3.3582836E4,-3.409173E4,-5.7807783E3,-7.8538914E4,2.9264555E4,-1.0396977E5,8.2891766E4,6.5065454E3,-4.6350835E3,1.5672733E5,1.7883111E4,-3.1036707E4,-6.4600035E4,1.6383959E4,-4.953942E4,1.5391875E3,-8.529384E4,3.3864918E4,-6.46621E4,1.028786E4,9.092983E3,-7.459277E4,-5.64077E4,-1.1887151E5,-9.313692E4,-1.1819524E5,1.8647375E3,-7.868355E4,-8.937368E4,-2.91295E4,-1.2648651E5,-7.9105586E4,9.953063E4,1.1934621E4,6.2370465E4,2.0629497E3,6.4388758E4,-1.064484E3,-2.2309465E4,-9.38829E4,5.9781406E4,-7.261757E3,-3.5704023E4,-9.434661E4,2.681965E4,-1.3653683E4,-7.4470234E4,-1.2324536E5,1.09346455E4,-1.8509861E4,1.7330834E4,6.136863E4,-6.554125E4,-1.9489572E4,-4.0752625E3,3.5347375E3,-7.535239E4,-9.180786E4,-1.0965263E4,1.8444738E4,-3.261687E4,-6.0002918E4,-1.7836201E4,-4.7598824E4,1.9442661E5,3.9901203E4,1.23324836E5,5.0906914E4,1.4791094E5,1.3027896E4,2.4612323E5,9.11965E3,-1.959473E4,5.239479E3,-3.1747889E4,1.2882015E4,-1.799649E4,-6.57037E4,1.326984E5,4.7560145E4,1.9858889E4,-6.5435668E4,6.7164914E4,4.253594E4,1.2787455E5,2.0961191E4,5.7017305E3,6.920967E4,9.014113E4,3.5116082E4,-4.9291223E4,1.7591395E4,5.6282332E4,-1.4699183E3,1.5701704E4,-3.1370832E4,2.1305116E5,1.0121141E5,1.1002311E5,4.7301324E4,9.27018E4,3.0205305E4,-3.1421924E4,3.59775E3,1.5030102E5,6.8709234E4,-4.756447E4,2.2737434E4,8.522882E4,3.7801133E4,1.0564084E5,1.6532731E5,4.1573406E4,2.691453E4,7.539175E4,1.2837335E5,1.2904956E5,1.928131E5,2.0468428E4,9.039775E4,6.2529834E3,-3.87421E4,1.4341883E5,8.174262E4,8.786316E3,1.5573617E5,-5.0352627E3,3.523121E4,4.5010867E4,1.6487262E5,1.7951808E5,8.871989E4,1.9647375E3,7.524738E3,1.0545322E5,7.8621064E3,-7.9684165E3,1.235965E4,4.406713E4,1.6326317E4,4.894738E3,1.9266318E4,-1.8852626E3,1.4777384E5,5.586317E3,1.50812295E4,2.1800314E5,9.951989E4,-2.7135084E4,2.665305E4,1.8112569E5,4.546938E4,5.444738E3,3.4615582E4,3.41579E4,1.8263167E3,-3.6873625E3,4.403553E4,-9.684994E3,-6.1584902E4,-9.1421E3,-1.2013684E4,6.1339844E4,1.1717175E5,1.8116042E5,7.752281E4,-6.3575723E3,-3.4234984E4,7.60379E4,3.9196817E2,9.913501E4,3.2147375E3,4.250226E4,-8.595263E3,5.519749E4,5.4668076E3,-5.4718617E4,-2.0537195E4,-8.828005E4,-4.9323977E4,2.3360531E4,-4.034146E4,-4.4035082E4,4.1795008E4,6.9989014E3,-5.307368E4,-4.396052E4,1.199183E5,-4.2853805E4,-1.7724326E4,-4.7835305E4,2.3570863E4,-8.8793805E4,-6.0392035E4,-8.976447E4,1.0373981E5,-9.035847E4,-1.1097228E5,3.5053246E4,1.2435283E5,2.1125795E4,-2.0952895E4,5.204738E3,-6.5952627E3,1.7086231E5,3.2735531E4,5.816681E4,1.2821698E4,1.2793991E4,-5.18436E4,-8.508161E4,-3.4145316E4,-4.0266367E4,6.6550055E4,-5.6715656E4,-2.7605586E4,-1.2920295E4,4.17179E4,-6.086255E4,-9.170885E4,1.0364737E4,-2.052625E2,-2.1013684E4,-2.70175E3,-9.940351E3,1.73579E4,-8.5066664E4,-3.743319E4,-7.817894E4,8.576525E4,-1.0177173E5,-1.21577086E5,-9.696496E4,-8.126206E4,-2.3909764E4,-6.4052627E3,-1.6735084E4,-1.9308771E4,1.8647375E3,-2.1475438E4,-9.38199E4,-2.580738E4,-1.8148178E4,-4.302894E3,1.5375964E5,8.2808914E4,9.815184E4,-3.1671266E4,9.1321695E4,5.0093227E4,2.2206318E4,3.672339E2,1.1397224E5,2.095915E4,1.4302584E5,-3.140503E3,3.4778853E3,-4.7140113E4,-5.94281E4,-1.0043008E5,1.25671875E5,1.2462447E4,1.3209463E4,-2.8194355E4,-4.576091E4,-1.5876976E4,-1.08501164E5,-8.0736787E3,-8.1729945E4,-5.8508973E4,-2.5394998E4,-4.8652627E3,-2.1284205E4,2.1342908E4,-2.7565053E4,7.989885E3,3.7264332E4,2.197577E3,6.318148E4,1.6047375E3,1.31779E4,-7.7691414E4,-7.203468E4,-1.8822443E4,-8.206629E4,-1.06871664E5,-5.5208766E4,-1.8246309E4,-5.3916492E4,-7.910796E4,-6.648177E3,-1.3094959E4,-5.308652E4,1.399825E4,7.974738E3,4.2707965E4,4.428514E4,1.0922638E4,1.4186177E4,1.3455508E5,-4.3852627E3,5.7224215E4,6.864738E3,3.0216297E4,6.864738E3,4.973172E4,-3.0202334E4,3.4179E3,4.386317E3,-8.589469E3,3.725546E4,-4.240885E4,4.60552E4,-5.0034946E3,-5.7222855E4,-1.6305101E4,1.3892808E5,-2.3668416E4,1.2136428E4,1.4331712E5,3.206817E4,-4.5196047E4,-7.834511E4,-2.70035E3,2.1244738E4,-1.0952626E3,1.090455E5,1.6620198E5,4.1745742E4,-3.1014906E4,3.743348E4,-1.7798137E4,4.3395684E4,9.8917945E4,4.3872562E4,1.11588016E5,5.6514574E4,-3.441142E3,-3.5596047E4,-1.5885263E4,1.3594048E3,4.2459117E4,-1.6352626E3,5.7679156E4,4.5143992E4,-1.9556719E4,5.9401613E4,-1.1693097E4,-1.9211686E3,-6.9963484E4,2.222412E5,1.3272647E5,2.1997371E4,5.63979E4,1.74495E5,7.503074E4,5.9955113E4,-1.4382324E4,6.3904758E4,1.5314497E5,8.461353E3,4.128373E4,-3.9727438E4,-1.8821E3,-6.7821E3,3.9396501E3,7.619775E4,1.6631936E5,7.88223E4,4.0150758E4,6.147375E2,-1.3093684E4,-1.6746047E4,3.045139E4,1.3326697E5,7.657364E4,4.428219E4,-4.6452627E3,8.2742E4,1.1521363E5,2.0434536E5,1.20567945E5,1.03997516E5,5.158786E4,3.891014E4,9.988725E4,1.6695192E5,8.734399E4,2.1212583E5,1.6653503E5,3.0902637E4,-2.1135084E4,2.283958E4,4.11965E3,-1.0600351E4,-2.3136833E3,1.6266336E5,6.2288164E4,2.8983633E4,1.06540305E5,1.3346317E4,1.6130006E5,4.4974664E4,2.6799506E4,3.8831203E4,1.818358E4,6.0529834E3,2.021955E4,2.6357896E4,7.9171064E3,6.147375E2,-3.0052625E3,1.3758042E5,1.7221789E5,4.7545918E4,1.8546318E4,2.2135791E4,1.0247375E3,-7.5052627E3,-6.352625E2,1.5292336E5,4.392676E4,7.6071064E3,1.8647375E3,3.5471062E3,-3.08045E3,1.1652983E4,1.347375E2,1.4849773E3,-5.5074727E3,-3.7654727E3,-1.3020809E4,-2.9270166E3,-1.2035E2,1.7789922E4,5.9725415E3,2.6785443E4,6.5158E2,1.1612983E4,3.9994605E4,1.681558E4,4.474738E3,-8.601473E3,5.4729266E2,-2.3281191E3,-9.436687E3,5.906317E3,1.943965E4,1.3492983E4,-6.824019E2,2.3890432E4,1.3374528E4,1.2933291E4,5.360227E3,-2.921042E2,1.4203394E4,4.7157905E3,-3.9187708E3,1.4497728E2,-1.2576547E4,-1.3117229E3,-5.883216E3,-1.9852883E4,-1.2401912E4,1.1910815E4,-1.11193E4,1.6864738E4,-5.013683E3,-9.209714E3,-6.556011E3,-1.3135263E4,-7.5262505E1,4.1904316E3,1.2108527E4,1.9625357E1,4.471105E3,-1.5347018E4,-5.65242E3,-1.1336421E4,1.9647375E3,3.9153117E4,8.1965E2,-1.0619109E4,-5.7706973E3,-1.1329049E3,-8.020087E3,1.4152983E4,-1.0729194E4,3.9153117E4,3.3111726E3,-2.0411201E4,-1.50646875E4,-1.3683333E1,-1.2277711E4,-4.3852627E3,-2.1013684E4,3.9882207E4,-1.1680351E4,-4.2052627E3,-1.8138787E4,-1.7922209E4,-2.3621537E4,-4.9994727E3,1.3663036E4,1.0303979E4,3.0182E4,1.469958E4,2.0483416E3,2.1582547E4,4.028758E4,7.4863164E3,1.8647375E3,2.9364738E4,7.708685E3,1.530358E4,1.9210334E3,1.6345265E4,-9.82421E3,-1.4418244E4,-8.0279985E3,-1.7908146E4,-5.2679814E3,-4.2717822E2,-1.0565132E4,-1.0905933E4,-3.1242095E3,1.9198896E4,-8.196421E3,-7.9957886E3,-1.3095505E4,-3.209568E3,-8.838771E3,-4.5890215E3,-5.0670938E2,-1.8852626E3,1.1372106E4,-4.977894E3,-1.2691446E4,-1.8513295E4,1.0347375E3,-1.1352626E3,3.2473752E2,1.6536234E3,6.9007905E3,-1.8082225E4,-6.12842E3,-8.42775E3,-1.54035E3,-1.7375488E4,-5.637894E3,2.9364838E4,-3.6352625E3,-2.0483145E4,-5.0252627E3,-1.0262894E4,-2.4384008E4,-1.1086813E4,-1.9851352E4,-2.0501826E4,-1.3850653E4,1.8647375E3,-6.8852627E3,2.4863167E3,-2.0906215E4,1.7790285E4,3.8854836E4,1.3005513E4,2.3387982E4,6.12358E3,2.5618316E4,-9.267157E3,-1.3014725E3,5.945615E3,2.2593545E4,1.1793964E4,-1.9557382E3,1.8984309E3,-3.1148838E3,3.092E4,1.2224601E4,1.9623535E4,1.3615126E3,-7.5289374E2,3.5438023E4,-3.57283E3,1.9267037E3,2.1212871E4,-9.193704E2,-3.7115903E3,-1.3077265E4,-1.4433011E4,-3.2529812E3,-2.0959168E4,-9.738999E3,3.911743E4,1.5093599E4,2.5246383E4,1.0184443E3,2.212865E4,-6.965108E2,2.4195095E3,-8.725421E3,-2.6723574E3,-9.945499E3,-7.3311523E3,-5.28782E2,-8.660351E3,-2.2212568E4,5.174738E3,-3.6087708E3,-1.260255E4,-1.7656996E4,-7.9401206E3,-1.2819999E4,8.546316E3,-8.051578E3,6.817759E3,-1.4495682E3,7.064738E3,-6.074224E3,1.205965E4,-1.4004773E3,-7.8701666E2,9.91955E3,4.346317E3,-6.659318E2,8.468422E3,1.4099507E4,-1.56035E3,5.9529834E3,-1.587089E4,-3.4452625E3,-6.1621045E3,-1.45886045E4,-8.226164E3,-1.7143553E4,-2.1699297E4,-5.3252627E3,-7.3474727E3,-1.276849E4,-5.4725103E3,7.5945625E3,-1.191746E4,-8.231227E3,-1.2679138E4,-1.9153617E4,5.226317E3,-3.0943767E3,-2.6442095E3,-1.3571052E4,-6.5052627E3,1.0704737E4,8.223484E3,1.751965E4,3.4371062E3,1.1566929E3,2.0103037E4,2.8976707E4,2.3247375E3,1.1930227E4,-7.42045E3,-8.0701666E2,1.0871063E3,-4.652625E2,-2.3052625E3,-7.5368335E2,2.4626223E4,-7.2786597E3,4.1413413E3,-9.666976E3,2.2347496E4,1.5142253E3,-3.4034073E2,-2.1706193E4,-1.2267913E4,-5.8321045E3,1.8014506E4,3.1788166E4,6.747375E2,-7.7752627E3,-5.150976E3,7.6511597E3,3.0805426E4,-3.8752625E3,1.7315803E3,1.230006E4,-2.6878938E3,-1.2312421E4,-1.6885438E4,-4.1852627E3,2.4121193E4,1.301896E4,3.905848E4,2.4253896E4,1.4863085E4,2.1276328E3,-7.265932E3,2.7447375E3,-4.74045E3,1.1597397E4,-5.3737207E3,4.2052646E3,-4.14042E3,1.0988247E4,2.6895354E4,1.0226796E4,4.6305273E3,1.530758E4,7.7915796E3,2.4604537E4,6.8126807E3,1.644893E4,-3.4854727E3,1.5164385E3,-7.7775933E3,-1.2552626E3,-4.246638E3,6.768422E3,1.1350645E4,1.6475801E3,1.8964562E4,1.0342039E4,1.2863291E4,3.356693E3,-7.5429814E3,-2.011704E3,2.570432E3,1.53621875E4,-4.604958E3,5.113084E3,-2.466686E3,6.7345273E3,-1.5171705E4,-8.55921E3,4.9149184E4,3.3963523E4,8.726316E3,3.192762E4,2.1247375E3,1.3037106E4,2.4308762E4,3.870545E4,1.9161287E4,6.4383413E3,1.5347828E4,4.394404E3,-1.4349022E4,-5.657882E2,1.4459784E4,4.0482908E3,3.67529E4,7.1062503E0,2.0106318E4,7.272805E2,8.974393E3,-6.5154375E3,-8.92775E3,-3.2578938E3,2.6971062E3,-6.3352627E3,1.0747375E3,-2.2328938E3,2.0777107E4,5.8921064E3,3.6862316E4,1.6924562E4,1.9945828E4,1.2384394E4,1.1625804E4,-3.1794448E3,-5.50042E3,1.7710625E2,3.2306055E3,1.2017019E4,2.7653719E4,7.324738E3,2.073681E4,1.2572817E4,9.632019E3,-2.252625E2,8.928291E3,1.7687182E4,3.5643562E4,2.0547959E4,4.3409004E4,1.9222107E4,2.5426002E4,7.3263164E3,2.6111824E4,7.962407E3,1.6033836E4,7.8010015E3,2.4969865E4,1.0579507E4,3.56032E4,4.524738E3,2.2101756E4,7.607896E3,2.1392107E4,4.3583695E4,3.583193E4,1.9990791E4,8.0350894E3,-5.2552627E3,-1.0152625E3,-5.3252627E3,3.551785E4,2.4221607E4,1.7786795E4,6.112292E2,1.607965E4,3.5063828E3,3.01958E3,2.3570459E4,3.5828812E4,2.0513836E4,1.0032983E4,2.7707879E4,7.124738E3,3.4864293E4,1.841509E4,3.4016918E4],"categories":[],"categories_nodes":[],"categories_segments":[],"categories_sizes":[],"default_left":[0,0,0,0,0,0,0,0,0,0,0,0,0,0,0,0,0,0,0,0,0,0,0,0,0,0,0,0,0,0,0,0,0,0,0,0,0,0,0,0,0,0,0,0,0,1,0,0,0,0,0,0,0,0,0,0,0,0,0,0,0,0,0,0,0,1,0,0,0,0,0,0,0,0,0,0,0,0,0,0,0,0,0,0,0,0,0,0,0,0,0,0,0,0,0,0,0,0,0,0,0,0,0,0,0,0,0,0,0,0,0,0,0,0,0,0,0,0,0,0,0,0,0,0,0,0,0,0,0,0,0,0,0,0,0,0,0,0,0,0,0,0,0,0,0,0,0,0,0,0,0,0,0,0,0,0,0,0,0,0,0,0,0,0,0,0,0,0,0,0,0,0,0,0,0,0,0,0,0,0,0,0,1,0,0,0,0,0,0,0,0,0,0,0,0,0,0,0,0,0,0,0,0,0,0,0,0,0,0,0,0,0,0,0,0,0,0,0,0,0,0,0,0,0,0,0,0,0,0,0,0,0,0,0,0,0,0,0,0,0,0,0,0,0,0,1,0,0,0,0,0,0,0,0,0,0,0,0,0,0,0,0,0,0,0,0,0,0,0,0,0,0,0,0,0,0,0,0,0,0,0,0,0,0,0,0,0,0,0,0,0,0,0,0,0,0,0,0,0,0,0,0,0,0,0,0,0,0,0,0,0,0,0,0,0,0,0,0,0,0,0,0,0,0,0,0,0,0,0,0,0,0,0,0,0,0,0,0,0,0,0,0,0,0,0,0,0,0,0,0,0,0,0,0,0,0,0,0,0,0,1,0,0,0,0,0,0,0,0,0,0,0,0,0,0,0,0,0,0,0,0,0,0,0,0,0,0,0,0,0,0,0,0,0,0,0,0,0,0,0,0,0,0,0,0,0,0,0,0,0,0,0,0,0,0,0,0,0,0,0,0,0,0,0,0,0,0,0,1,0,0,0,0,0,0,0,0,0,0,0,0,0,0,0,0,0,0,0,0,0,0,0,0,0,0,0,0,0,0,0,0,0,0,0,0,0,0,0,0,0,0,0,0,0,0,0,0,0,0,0,0,0,0,0,0,0,0,0,0,0,0,0,0,0,0,0,0,0,0,0,0,0,0,0,0,0,0,0,0,0,0,0,0,0,0,0,0,0,0,0,0,0,0,0,0,0,0,0,0,0,0,0,0,0,0,0,0,0,0,0,0,0,0,0,0,0,0,0,0,0,0,0,0,0,0,0,0,0,0,0,0,0,0,0,0,0,0,0,0,0,0,0,0,0,0,0,0,0,0,0,0,0,0,0,0,0,0,0,0,0,0,0,0,0,0,0,0,0,0,0,0,0,0,0,1,0,0,0,0,0,0,0,0,0,0,0,0,0,0,0,0,0,0,0,0,0,0,0,0,0,0,0,0,0,0,0,0,0,0,0,0,0,0,0,0,0,0,0,0,0,0,0,0,0,0,0,0,0,0,0,0,0,0,0,0,0,0,0,0,0,0,0,0,0,0,0,0,0,0,0,0,0,0,0,0,0,0,0,0,0,0,0,0,0,0,0,0,0,0,0,0,0,0,0,0,0,0,0,0,0,0,0,0,0,0,0,0,0,0,0,0,0,0,0,0,0,0,0,0,0,0,0,0,0,0,0,0,0,0,0,0,0,0,0,0,0,0,0,0,0,0,0,0,0,0,0,0,0,0,0,0,0,0,0,0,0,0,0,0,0,0,0,0,0,0,0,0,0,0,0,0,0,0,0,0,0,0,0,0,0,0,0,0,0,0,0,0,0,0,0,0,0,0,0,0,0,0,0,0,0,0,0,0,0,0,0,0,0,0,0,0,0,0,0,0,0,0,0,0,0,0,0,0,0,0,0,0,0,0,0,0,0,0,0,0,0,0,0,0,0,0,0,0,0,0,0,0,0,0,0,0,0,0,0,0,0,0,0,0,0,0,0,0,0,0,0,0,0,0,0,0,0,0,0,0,0,0,0,0,0,0,0,0,0,0,0,0,0,0,0,0,0,0,0,0,0,0,0,0,0,0,0,0,0,0,0,0,0,0,0,0,0,0,0,0,0,0,0,0,0,0,0,0,0,0,0,0,0,0,0,0,0,0,0,0,0,0,0,0,0,0,0,0,0,0,0,0,0,0,0,0,0,0,0,0,0,0,0,0,0,0,0,0,0,0,0,0,0,0,0,0,0,0,0,0,0,0,0,0,0,0,0,0,0,0,0,0,0,0,0,0,0,0,0,0,0,0,0,0,0,0,0,0,0,0,0,0,0,0,0,0,0,0,0,0,0,0,0,0,0,0,0,0,0,0,0,0,0,0,0,0,0,0,0,0,0,0,0,0,0,0,0,0,0,0,0,0,0,0,0,0,0,0,0,0,0,0,0,0,0,0,0,0,0,0,0,0,0,0,0,0],"id":0,"left_children":[1,3,5,7,9,11,13,15,17,19,21,23,25,27,29,31,33,35,37,39,41,43,45,47,49,51,53,55,57,59,61,63,65,67,69,71,73,75,77,79,81,83,85,87,89,91,93,95,97,99,101,103,105,107,109,111,113,115,117,119,121,123,125,127,129,131,133,135,137,139,141,143,145,147,149,151,153,155,157,159,161,163,165,167,169,171,173,175,177,-1,179,181,183,185,187,189,191,193,195,197,199,201,203,205,207,209,211,213,-1,215,217,219,-1,221,223,225,-1,227,229,231,-1,-1,-1,233,235,-1,-1,237,239,241,243,245,247,249,251,253,255,257,259,261,263,-1,-1,265,267,269,271,273,275,-1,-1,277,279,281,283,285,-1,287,289,291,293,295,297,299,301,303,305,307,309,311,313,315,317,319,321,323,325,327,329,331,-1,333,335,337,339,341,-1,343,345,347,349,351,353,355,357,359,361,363,365,367,369,371,373,375,-1,-1,-1,377,379,-1,381,-1,383,-1,-1,385,387,389,391,393,395,397,399,401,403,-1,-1,-1,405,-1,-1,-1,407,409,-1,-1,-1,-1,-1,-1,-1,411,413,415,417,419,-1,421,423,425,427,429,431,433,435,437,439,441,443,445,447,449,451,453,455,457,459,461,463,465,467,469,471,473,475,477,479,481,483,-1,485,487,489,491,493,-1,495,497,-1,499,501,503,505,507,509,511,513,515,517,519,521,523,525,-1,-1,527,529,531,533,535,537,539,-1,-1,-1,541,543,-1,-1,545,547,549,551,553,555,557,559,561,-1,563,-1,565,567,569,571,-1,573,575,577,579,581,583,-1,585,587,589,591,593,595,597,599,601,603,605,607,609,611,613,615,617,619,621,623,625,627,629,631,633,635,637,639,-1,-1,641,643,645,647,649,651,-1,653,655,657,-1,659,-1,-1,-1,661,663,665,-1,-1,667,-1,669,-1,-1,-1,-1,-1,-1,671,-1,-1,673,675,677,-1,679,-1,-1,-1,681,-1,683,685,687,689,691,-1,693,695,697,699,701,703,705,707,709,-1,711,-1,713,715,717,719,721,723,725,727,729,731,733,735,737,739,741,743,745,747,749,751,753,755,757,759,761,763,765,-1,-1,-1,767,769,771,773,775,777,779,781,783,785,787,789,791,793,795,797,-1,-1,-1,799,-1,801,803,805,807,809,811,813,815,817,-1,-1,819,-1,-1,-1,821,-1,-1,-1,823,825,827,829,831,833,-1,835,837,839,841,843,845,847,849,851,853,855,857,859,861,863,865,867,869,871,-1,-1,873,875,877,879,881,883,885,-1,887,889,891,-1,893,895,897,899,901,903,-1,905,907,909,-1,-1,911,913,-1,915,-1,917,-1,-1,-1,-1,919,921,-1,923,925,927,929,931,933,-1,935,937,939,941,943,945,947,-1,-1,-1,949,951,953,955,957,959,961,963,965,967,969,971,973,-1,975,977,-1,979,981,983,985,987,989,991,993,995,-1,997,999,1001,1003,1005,1007,1009,1011,1013,1015,1017,1019,-1,1021,1023,1025,1027,-1,-1,1029,1031,1033,1035,1037,-1,1039,1041,1043,1045,1047,1049,-1,1051,1053,1055,1057,1059,1061,1063,-1,-1,-1,-1,1065,1067,1069,1071,-1,1073,-1,-1,-1,-1,-1,-1,-1,-1,-1,-1,1075,1077,-1,-1,-1,-1,-1,-1,1079,-1,-1,-1,-1,-1,-1,-1,-1,-1,-1,-1,-1,-1,-1,-1,-1,-1,-1,-1,-1,-1,-1,-1,-1,-1,-1,-1,-1,-1,-1,-1,-1,-1,-1,-1,-1,-1,-1,-1,-1,-1,-1,-1,-1,-1,-1,-1,-1,-1,-1,-1,-1,-1,-1,-1,-1,-1,-1,-1,-1,-1,-1,-1,-1,-1,-1,-1,-1,-1,-1,-1,-1,-1,-1,-1,-1,-1,-1,-1,-1,-1,-1,-1,-1,-1,-1,-1,-1,-1,-1,-1,-1,-1,-1,-1,-1,-1,-1,-1,-1,-1,-1,-1,-1,-1,-1,-1,-1,-1,-1,-1,-1,-1,-1,-1,-1,-1,-1,-1,-1,-1,-1,-1,-1,-1,-1,-1,-1,-1,-1,-1,-1,-1,-1,-1,-1,-1,-1,-1,-1,-1,-1,-1,-1,-1,-1,-1,-1,-1,-1,-1,-1,-1,-1,-1,-1,-1,-1,-1,-1,-1,-1,-1,-1,-1,-1,-1,-1,-1,-1,-1,-1,-1,-1,-1,-1,-1,-1,-1,-1,-1,-1,-1,-1,-1,-1,-1,-1,-1,-1,-1,-1,-1,-1,-1,-1,-1,-1,-1,-1,-1,-1,-1,-1,-1,-1,-1,-1,-1,-1,-1,-1,-1,-1,-1,-1,-1,-1,-1,-1,-1,-1,-1,-1,-1,-1,-1,-1,-1,-1,-1,-1,-1,-1,-1,-1,-1,-1,-1,-1,-1,-1,-1,-1,-1,-1,-1,-1,-1,-1,-1,-1,-1,-1,-1,-1,-1,-1,-1,-1,-1,-1,-1,-1,-1,-1,-1,-1,-1,-1,-1,-1,-1,-1,-1,-1,-1,-1,-1,-1,-1,-1,-1,-1,-1,-1,-1,-1,-1,-1,-1,-1,-1,-1,-1,-1,-1,-1,-1,-1,-1,-1,-1,-1,-1,-1,-1,-1,-1,-1,-1,-1,-1,-1,-1,-1,-1,-1,-1,-1,-1,-1,-1,-1,-1,-1,-1,-1,-1,-1,-1,-1,-1,-1,-1,-1,-1,-1,-1,-1,-1,-1,-1,-1,-1,-1,-1,-1,-1,-1,-1,-1,-1,-1,-1,-1,-1,-1,-1,-1,-1,-1,-1,-1,-1,-1,-1,-1,-1,-1,-1,-1,-1,-1,-1,-1,-1,-1,-1,-1,-1,-1,-1,-1,-1,-1,-1,-1,-1,-1,-1,-1,-1,-1,-1,-1,-1,-1,-1,-1,-1],"loss_changes":[6.0106314E13,1.5325502E13,1.1317478E13,2.539349E12,3.6288992E12,2.1804131E12,1.1159281E12,2.6533545E12,2.2838803E12,1.7633937E12,1.8913684E12,1.2866898E12,3.0114788E11,6.244847E11,2.9943765E11,1.9417658E11,8.5549226E11,2.2804216E12,3.8353974E11,1.8454863E12,3.0386186E11,6.937313E11,9.490952E11,5.8153737E11,6.053838E11,1.755969E11,1.6737737E11,1.024097E11,1.5537852E11,1.136541E11,1.533144E11,7.707045E11,4.8878492E11,3.9587702E11,3.1477832E11,1.1172601E12,3.6215246E11,2.8092924E11,4.7057994E10,9.764493E11,6.865905E11,3.6692368E11,1.7609916E11,9.620155E11,4.211822E10,6.47763E11,1.5529896E11,1.0463427E11,3.1800505E11,2.0745552E11,1.3989105E11,4.3234927E10,8.122584E10,9.269118E9,2.2757245E10,1.8397397E10,8.288364E10,6.2800067E9,6.568385E10,4.9010803E10,8.397097E8,1.4128303E11,5.9567505E10,1.1820597E10,2.2151976E11,7.402527E10,2.033549E11,3.8921542E11,1.1857807E11,4.1052065E11,3.93254E10,1.7390836E11,3.6525343E11,1.00363665E11,1.9054723E10,8.48411E10,1.0678174E11,1.4416818E10,4.627261E10,2.5771901E11,2.6862795E12,5.0959797E11,6.1927588E10,6.7821265E10,1.2508103E10,2.6668171E10,3.5938435E10,1.1704507E11,1.9347748E11,0E0,5.5915965E9,2.7847515E11,2.4504782E11,1.9324043E10,2.5346415E11,8.312214E10,7.256921E10,6.940388E11,1.0010411E11,1.411863E11,9.706458E10,8.5262205E10,4.416471E10,3.4402304E8,1.904069E10,8.990858E10,5.2400226E10,1.2839276E9,0E0,1.7124819E10,2.152425E10,6.7523215E9,0E0,1.8592039E10,2.8123333E10,1.5922701E10,0E0,5.6462148E10,8.4624015E9,4.0847507E10,0E0,0E0,0E0,2.0732445E10,1.059219E10,0E0,0E0,5.318656E8,2.02018E9,4.246337E10,4.7492366E10,2.258354E10,5.9030176E10,2.8963312E10,3.3350697E10,1.5149092E11,1.8186109E11,1.5143371E10,4.259165E10,4.9934972E11,1.4609023E11,0E0,0E0,1.1575684E11,4.9854677E10,7.29473E10,2.0864238E11,3.4282832E10,3.4846605E10,0E0,0E0,2.3553894E10,3.613868E10,5.7986777E10,1.4398783E10,8.2468577E9,0E0,7.6650906E8,1.8505531E10,2.0433522E11,3.750283E11,1.7261022E12,8.5288406E11,2.3997243E11,1.2739491E11,6.012833E10,4.080966E10,1.9642864E10,2.0753187E10,9.239495E9,1.4453678E9,1.1707744E10,2.1157515E10,3.1268667E10,1.5566201E10,1.4808323E11,5.65191E10,1.5306326E10,5.8323894E10,2.3860805E9,0E0,1.968221E11,1.3386711E9,2.1359683E11,5.5096484E10,1.4436008E10,0E0,3.2457372E11,1.0590499E11,6.780643E10,3.1621628E10,8.409741E10,9.128642E10,1.2663692E11,2.9850416E11,1.685348E11,5.694205E9,1.6902704E11,1.7860633E10,2.1096956E10,1.0157189E11,6.2487265E9,5.9919827E10,4.443131E10,0E0,0E0,0E0,1.9363308E10,9.011071E9,0E0,1.02740525E11,0E0,1.1901829E10,0E0,0E0,4.908843E10,1.5612248E10,2.8418048E10,2.2422016E7,4.269179E9,6.431787E9,7.9322153E9,4.860252E8,2.7433107E10,5.1399885E8,0E0,0E0,0E0,3.8836306E10,0E0,0E0,0E0,3.521332E10,1.1601445E10,0E0,0E0,0E0,0E0,0E0,0E0,0E0,1.0245423E10,4.729687E8,6.4005E9,4.285671E10,3.9514015E9,0E0,5.061116E10,2.0202717E10,1.9737809E10,2.6181646E10,3.7569495E9,1.2056705E10,1.9114418E10,5.8342015E10,1.476568E11,1.4316863E10,1.8238843E10,2.3598907E10,7.221908E10,2.691906E10,1.6529865E11,5.642099E10,8.90946E10,2.9146218E10,1.0076311E11,5.589429E10,3.4648868E9,4.1727492E10,2.3517393E10,3.80545E10,1.5428262E11,1.07830985E11,7.4062725E9,1.0996349E10,1.855429E10,1.9329981E9,1.223408E10,1.1890072E10,0E0,1.6665117E10,6.551539E10,1.2979798E10,1.1667243E10,9.5328666E8,0E0,7.235678E9,1.3439439E10,0E0,1.0138157E10,8.7692E9,1.0333821E11,1.3469384E11,7.326702E10,3.617607E10,1.349941E12,3.369752E11,2.6653568E11,5.696887E10,2.6033478E11,6.3364264E10,7.0059885E10,5.041252E10,0E0,0E0,3.1718375E10,4.6587576E9,1.4873985E10,1.1738334E10,6.2529434E9,2.0074168E9,3.0673797E10,0E0,0E0,0E0,7.411335E9,5.1702006E9,0E0,0E0,1.9446116E10,1.4572388E10,3.800877E9,9.86982E9,1.2163367E10,7.9009546E9,3.340881E10,8.616473E9,4.177789E9,0E0,2.959134E10,0E0,3.2766433E9,1.5733861E9,1.030986E11,2.0670556E11,0E0,1.2389253E9,5.7838535E10,2.2552922E11,3.9574516E10,4.9761485E9,9.093545E9,0E0,6.0538356E10,4.4506735E10,4.3916374E10,3.3284948E10,3.3804681E10,4.88734E10,8.8708506E8,1.3262817E10,5.2435845E9,4.219459E10,1.1202957E11,8.396958E10,2.9830676E9,8.756265E8,2.418382E11,1.8975103E11,9.1167195E10,4.2288005E10,4.34141E9,1.3034409E9,2.1750088E10,7.741414E10,3.8277202E9,1.4215764E10,2.8878438E10,6.5658266E9,2.2032679E10,4.8712253E10,0E0,0E0,2.4595857E10,9.367493E10,2.4936251E10,2.2287483E9,5.862327E9,9.276396E9,0E0,1.324289E9,1.0696707E11,6.494372E10,0E0,1.3087539E8,0E0,0E0,0E0,1.0623123E10,1.088009E10,3.452199E9,0E0,0E0,1.0395419E10,0E0,2.7998822E8,0E0,0E0,0E0,0E0,0E0,0E0,2.1156856E10,0E0,0E0,2.6665288E9,8.913273E9,6.2768794E8,0E0,1.8541707E10,0E0,0E0,0E0,1.2685824E8,0E0,2.782835E9,2.428797E9,6.3134996E9,1.5777333E10,2.2575334E8,0E0,3.732123E10,5.873274E10,1.6177562E10,2.8791194E8,1.6782413E10,1.5249113E10,2.0500316E9,1.426311E10,5.121491E9,0E0,5.5749263E9,0E0,2.0718625E10,6.3627336E9,3.535207E10,1.7927746E10,1.0378753E11,9.755676E10,1.3923387E10,5.26567E9,2.8097736E9,6.5465836E9,1.0595065E10,1.9408425E9,4.662147E9,4.3120886E10,1.6391455E10,1.8392599E10,4.1699303E10,9.218667E10,2.9828448E10,7.389774E9,1.849004E9,1.0471965E11,1.465516E9,3.0112743E10,5.364007E10,4.6383792E10,1.6347938E10,0E0,0E0,0E0,2.4455545E10,9.077248E7,1.6957637E10,2.118728E10,6.3765754E10,3.7414257E9,3.6931895E10,6.1475717E10,5.4756127E9,6.725849E10,3.5413606E9,2.358353E9,1.3996201E9,4.408275E9,1.6874291E9,1.0449453E10,0E0,0E0,0E0,4.781541E7,0E0,3.4552105E9,8.5735834E9,1.4941962E9,4.9431347E9,2.1708409E10,1.4247526E9,5.0216305E9,2.4955585E10,2.122272E10,0E0,0E0,1.7040154E9,0E0,0E0,0E0,2.7475263E10,0E0,0E0,0E0,5.8863583E10,5.308521E10,2.034149E10,8.554871E9,8.1970135E10,8.348421E10,0E0,2.83683E10,6.196644E11,3.662157E11,8.090678E10,2.089411E11,1.7030111E11,1.09347996E11,2.466531E10,4.7523037E10,1.0809003E11,4.128254E10,1.2236281E11,4.5920264E10,2.9536289E10,3.3174094E10,1.2034703E9,2.8360896E9,2.0692992E10,8.1813176E9,0E0,0E0,1.5081052E10,1.2272744E10,7.425745E9,1.0617106E10,4.768337E9,1.4759566E9,8.2653184E8,0E0,1.9721674E9,1.3479936E9,5.1667927E9,0E0,5.7418056E9,1.5442248E9,1.4820229E9,2.1539316E10,6.665208E9,3.6141466E9,0E0,4.693276E9,1.3821944E10,7.2576394E9,0E0,0E0,4.218798E9,2.2246912E8,0E0,6.180176E9,0E0,9.666642E8,0E0,0E0,0E0,0E0,1.4752563E9,7.0593256E7,0E0,1.3198752E7,1.246492E11,4.5883752E10,3.0753607E11,7.740982E10,1.9080806E9,0E0,3.848143E10,1.3649171E9,5.0470126E10,3.4348499E10,2.7717112E10,3.330476E9,6.7783066E8,0E0,0E0,0E0,3.076404E10,2.075866E10,2.8591161E10,3.3518715E9,3.2788267E10,1.253825E10,2.1858644E10,3.0504763E10,7.703474E9,1.6800285E10,1.9149939E10,3.523983E9,5.280727E8,0E0,1.6129819E10,5.8915717E9,0E0,6.6255585E9,6.5329254E9,5.8295665E9,2.818701E10,2.5076357E10,1.6351617E10,1.8784584E9,5.091623E9,9.818563E9,0E0,1.3187246E9,1.5781331E10,6.366662E10,1.2645322E11,2.7631874E10,1.3563757E10,8.437996E10,2.6732716E10,3.247032E10,8.8441446E8,2.716504E9,3.2635005E8,0E0,5.997826E9,1.8210882E10,6.6257814E10,7.649747E10,0E0,0E0,1.5415235E9,1.5130558E10,1.219969E9,2.3959077E10,2.3434097E9,0E0,6.0313764E9,5.9494367E10,8.005157E9,7.4605527E9,2.7194687E10,6.2235034E9,0E0,4.500606E10,1.5134884E10,1.1786109E10,4.4957696E8,1.2352422E10,6.357757E9,1.2938368E8,0E0,0E0,0E0,0E0,1.5707406E10,2.498077E10,9.188606E9,3.442452E10,0E0,2.5851986E9,0E0,0E0,0E0,0E0,0E0,0E0,0E0,0E0,0E0,0E0,4.1153987E9,7.8693007E9,0E0,0E0,0E0,0E0,0E0,0E0,1.6710304E10,0E0,0E0,0E0,0E0,0E0,0E0,0E0,0E0,0E0,0E0,0E0,0E0,0E0,0E0,0E0,0E0,0E0,0E0,0E0,0E0,0E0,0E0,0E0,0E0,0E0,0E0,0E0,0E0,0E0,0E0,0E0,0E0,0E0,0E0,0E0,0E0,0E0,0E0,0E0,0E0,0E0,0E0,0E0,0E0,0E0,0E0,0E0,0E0,0E0,0E0,0E0,0E0,0E0,0E0,0E0,0E0,0E0,0E0,0E0,0E0,0E0,0E0,0E0,0E0,0E0,0E0,0E0,0E0,0E0,0E0,0E0,0E0,0E0,0E0,0E0,0E0,0E0,0E0,0E0,0E0,0E0,0E0,0E0,0E0,0E0,0E0,0E0,0E0,0E0,0E0,0E0,0E0,0E0,0E0,0E0,0E0,0E0,0E0,0E0,0E0,0E0,0E0,0E0,0E0,0E0,0E0,0E0,0E0,0E0,0E0,0E0,0E0,0E0,0E0,0E0,0E0,0E0,0E0,0E0,0E0,0E0,0E0,0E0,0E0,0E0,0E0,0E0,0E0,0E0,0E0,0E0,0E0,0E0,0E0,0E0,0E0,0E0,0E0,0E0,0E0,0E0,0E0,0E0,0E0,0E0,0E0,0E0,0E0,0E0,0E0,0E0,0E0,0E0,0E0,0E0,0E0,0E0,0E0,0E0,0E0,0E0,0E0,0E0,0E0,0E0,0E0,0E0,0E0,0E0,0E0,0E0,0E0,0E0,0E0,0E0,0E0,0E0,0E0,0E0,0E0,0E0,0E0,0E0,0E0,0E0,0E0,0E0,0E0,0E0,0E0,0E0,0E0,0E0,0E0,0E0,0E0,0E0,0E0,0E0,0E0,0E0,0E0,0E0,0E0,0E0,0E0,0E0,0E0,0E0,0E0,0E0,0E0,0E0,0E0,0E0,0E0,0E0,0E0,0E0,0E0,0E0,0E0,0E0,0E0,0E0,0E0,0E0,0E0,0E0,0E0,0E0,0E0,0E0,0E0,0E0,0E0,0E0,0E0,0E0,0E0,0E0,0E0,0E0,0E0,0E0,0E0,0E0,0E0,0E0,0E0,0E0,0E0,0E0,0E0,0E0,0E0,0E0,0E0,0E0,0E0,0E0,0E0,0E0,0E0,0E0,0E0,0E0,0E0,0E0,0E0,0E0,0E0,0E0,0E0,0E0,0E0,0E0,0E0,0E0,0E0,0E0,0E0,0E0,0E0,0E0,0E0,0E0,0E0,0E0,0E0,0E0,0E0,0E0,0E0,0E0,0E0,0E0,0E0,0E0,0E0,0E0,0E0,0E0,0E0,0E0,0E0,0E0,0E0,0E0,0E0,0E0,0E0,0E0,0E0,0E0,0E0,0E0,0E0,0E0,0E0,0E0,0E0,0E0,0E0,0E0,0E0,0E0,0E0,0E0,0E0,0E0,0E0,0E0,0E0,0E0,0E0,0E0,0E0,0E0,0E0,0E0,0E0,0E0,0E0,0E0,0E0,0E0,0E0,0E0,0E0,0E0,0E0,0E0,0E0,0E0,0E0,0E0,0E0,0E0,0E0,0E0,0E0,0E0,0E0,0E0,0E0,0E0,0E0,0E0,0E0,0E0,0E0,0E0,0E0,0E0,0E0,0E0,0E0,0E0,0E0,0E0,0E0,0E0,0E0,0E0,0E0,0E0,0E0,0E0,0E0,0E0,0E0,0E0,0E0,0E0,0E0,0E0,0E0,0E0,0E0,0E0],"parents":[2147483647,0,0,1,1,2,2,3,3,4,4,5,5,6,6,7,7,8,8,9,9,10,10,11,11,12,12,13,13,14,14,15,15,16,16,17,17,18,18,19,19,20,20,21,21,22,22,23,23,24,24,25,25,26,26,27,27,28,28,29,29,30,30,31,31,32,32,33,33,34,34,35,35,36,36,37,37,38,38,39,39,40,40,41,41,42,42,43,43,44,44,45,45,46,46,47,47,48,48,49,49,50,50,51,51,52,52,53,53,54,54,55,55,56,56,57,57,58,58,59,59,60,60,61,61,62,62,63,63,64,64,65,65,66,66,67,67,68,68,69,69,70,70,71,71,72,72,73,73,74,74,75,75,76,76,77,77,78,78,79,79,80,80,81,81,82,82,83,83,84,84,85,85,86,86,87,87,88,88,90,90,91,91,92,92,93,93,94,94,95,95,96,96,97,97,98,98,99,99,100,100,101,101,102,102,103,103,104,104,105,105,106,106,107,107,109,109,110,110,111,111,113,113,114,114,115,115,117,117,118,118,119,119,123,123,124,124,127,127,128,128,129,129,130,130,131,131,132,132,133,133,134,134,135,135,136,136,137,137,138,138,139,139,140,140,143,143,144,144,145,145,146,146,147,147,148,148,151,151,152,152,153,153,154,154,155,155,157,157,158,158,159,159,160,160,161,161,162,162,163,163,164,164,165,165,166,166,167,167,168,168,169,169,170,170,171,171,172,172,173,173,174,174,175,175,176,176,177,177,178,178,179,179,181,181,182,182,183,183,184,184,185,185,187,187,188,188,189,189,190,190,191,191,192,192,193,193,194,194,195,195,196,196,197,197,198,198,199,199,200,200,201,201,202,202,203,203,207,207,208,208,210,210,212,212,215,215,216,216,217,217,218,218,219,219,220,220,221,221,222,222,223,223,224,224,228,228,232,232,233,233,241,241,242,242,243,243,244,244,245,245,247,247,248,248,249,249,250,250,251,251,252,252,253,253,254,254,255,255,256,256,257,257,258,258,259,259,260,260,261,261,262,262,263,263,264,264,265,265,266,266,267,267,268,268,269,269,270,270,271,271,272,272,273,273,274,274,275,275,276,276,277,277,278,278,280,280,281,281,282,282,283,283,284,284,286,286,287,287,289,289,290,290,291,291,292,292,293,293,294,294,295,295,296,296,297,297,298,298,299,299,300,300,301,301,302,302,305,305,306,306,307,307,308,308,309,309,310,310,311,311,315,315,316,316,319,319,320,320,321,321,322,322,323,323,324,324,325,325,326,326,327,327,329,329,331,331,332,332,333,333,334,334,336,336,337,337,338,338,339,339,340,340,341,341,343,343,344,344,345,345,346,346,347,347,348,348,349,349,350,350,351,351,352,352,353,353,354,354,355,355,356,356,357,357,358,358,359,359,360,360,361,361,362,362,363,363,364,364,365,365,366,366,367,367,368,368,369,369,370,370,373,373,374,374,375,375,376,376,377,377,378,378,380,380,381,381,382,382,384,384,388,388,389,389,390,390,393,393,395,395,402,402,405,405,406,406,407,407,409,409,413,413,415,415,416,416,417,417,418,418,419,419,421,421,422,422,423,423,424,424,425,425,426,426,427,427,428,428,429,429,431,431,433,433,434,434,435,435,436,436,437,437,438,438,439,439,440,440,441,441,442,442,443,443,444,444,445,445,446,446,447,447,448,448,449,449,450,450,451,451,452,452,453,453,454,454,455,455,456,456,457,457,458,458,459,459,463,463,464,464,465,465,466,466,467,467,468,468,469,469,470,470,471,471,472,472,473,473,474,474,475,475,476,476,477,477,478,478,482,482,484,484,485,485,486,486,487,487,488,488,489,489,490,490,491,491,492,492,495,495,499,499,503,503,504,504,505,505,506,506,507,507,508,508,510,510,511,511,512,512,513,513,514,514,515,515,516,516,517,517,518,518,519,519,520,520,521,521,522,522,523,523,524,524,525,525,526,526,527,527,528,528,531,531,532,532,533,533,534,534,535,535,536,536,537,537,539,539,540,540,541,541,543,543,544,544,545,545,546,546,547,547,548,548,550,550,551,551,552,552,555,555,556,556,558,558,560,560,565,565,566,566,568,568,569,569,570,570,571,571,572,572,573,573,575,575,576,576,577,577,578,578,579,579,580,580,581,581,585,585,586,586,587,587,588,588,589,589,590,590,591,591,592,592,593,593,594,594,595,595,596,596,597,597,599,599,600,600,602,602,603,603,604,604,605,605,606,606,607,607,608,608,609,609,610,610,612,612,613,613,614,614,615,615,616,616,617,617,618,618,619,619,620,620,621,621,622,622,623,623,625,625,626,626,627,627,628,628,631,631,632,632,633,633,634,634,635,635,637,637,638,638,639,639,640,640,641,641,642,642,644,644,645,645,646,646,647,647,648,648,649,649,650,650,655,655,656,656,657,657,658,658,660,660,671,671,672,672,679,679],"right_children":[2,4,6,8,10,12,14,16,18,20,22,24,26,28,30,32,34,36,38,40,42,44,46,48,50,52,54,56,58,60,62,64,66,68,70,72,74,76,78,80,82,84,86,88,90,92,94,96,98,100,102,104,106,108,110,112,114,116,118,120,122,124,126,128,130,132,134,136,138,140,142,144,146,148,150,152,154,156,158,160,162,164,166,168,170,172,174,176,178,-1,180,182,184,186,188,190,192,194,196,198,200,202,204,206,208,210,212,214,-1,216,218,220,-1,222,224,226,-1,228,230,232,-1,-1,-1,234,236,-1,-1,238,240,242,244,246,248,250,252,254,256,258,260,262,264,-1,-1,266,268,270,272,274,276,-1,-1,278,280,282,284,286,-1,288,290,292,294,296,298,300,302,304,306,308,310,312,314,316,318,320,322,324,326,328,330,332,-1,334,336,338,340,342,-1,344,346,348,350,352,354,356,358,360,362,364,366,368,370,372,374,376,-1,-1,-1,378,380,-1,382,-1,384,-1,-1,386,388,390,392,394,396,398,400,402,404,-1,-1,-1,406,-1,-1,-1,408,410,-1,-1,-1,-1,-1,-1,-1,412,414,416,418,420,-1,422,424,426,428,430,432,434,436,438,440,442,444,446,448,450,452,454,456,458,460,462,464,466,468,470,472,474,476,478,480,482,484,-1,486,488,490,492,494,-1,496,498,-1,500,502,504,506,508,510,512,514,516,518,520,522,524,526,-1,-1,528,530,532,534,536,538,540,-1,-1,-1,542,544,-1,-1,546,548,550,552,554,556,558,560,562,-1,564,-1,566,568,570,572,-1,574,576,578,580,582,584,-1,586,588,590,592,594,596,598,600,602,604,606,608,610,612,614,616,618,620,622,624,626,628,630,632,634,636,638,640,-1,-1,642,644,646,648,650,652,-1,654,656,658,-1,660,-1,-1,-1,662,664,666,-1,-1,668,-1,670,-1,-1,-1,-1,-1,-1,672,-1,-1,674,676,678,-1,680,-1,-1,-1,682,-1,684,686,688,690,692,-1,694,696,698,700,702,704,706,708,710,-1,712,-1,714,716,718,720,722,724,726,728,730,732,734,736,738,740,742,744,746,748,750,752,754,756,758,760,762,764,766,-1,-1,-1,768,770,772,774,776,778,780,782,784,786,788,790,792,794,796,798,-1,-1,-1,800,-1,802,804,806,808,810,812,814,816,818,-1,-1,820,-1,-1,-1,822,-1,-1,-1,824,826,828,830,832,834,-1,836,838,840,842,844,846,848,850,852,854,856,858,860,862,864,866,868,870,872,-1,-1,874,876,878,880,882,884,886,-1,888,890,892,-1,894,896,898,900,902,904,-1,906,908,910,-1,-1,912,914,-1,916,-1,918,-1,-1,-1,-1,920,922,-1,924,926,928,930,932,934,-1,936,938,940,942,944,946,948,-1,-1,-1,950,952,954,956,958,960,962,964,966,968,970,972,974,-1,976,978,-1,980,982,984,986,988,990,992,994,996,-1,998,1000,1002,1004,1006,1008,1010,1012,1014,1016,1018,1020,-1,1022,1024,1026,1028,-1,-1,1030,1032,1034,1036,1038,-1,1040,1042,1044,1046,1048,1050,-1,1052,1054,1056,1058,1060,1062,1064,-1,-1,-1,-1,1066,1068,1070,1072,-1,1074,-1,-1,-1,-1,-1,-1,-1,-1,-1,-1,1076,1078,-1,-1,-1,-1,-1,-1,1080,-1,-1,-1,-1,-1,-1,-1,-1,-1,-1,-1,-1,-1,-1,-1,-1,-1,-1,-1,-1,-1,-1,-1,-1,-1,-1,-1,-1,-1,-1,-1,-1,-1,-1,-1,-1,-1,-1,-1,-1,-1,-1,-1,-1,-1,-1,-1,-1,-1,-1,-1,-1,-1,-1,-1,-1,-1,-1,-1,-1,-1,-1,-1,-1,-1,-1,-1,-1,-1,-1,-1,-1,-1,-1,-1,-1,-1,-1,-1,-1,-1,-1,-1,-1,-1,-1,-1,-1,-1,-1,-1,-1,-1,-1,-1,-1,-1,-1,-1,-1,-1,-1,-1,-1,-1,-1,-1,-1,-1,-1,-1,-1,-1,-1,-1,-1,-1,-1,-1,-1,-1,-1,-1,-1,-1,-1,-1,-1,-1,-1,-1,-1,-1,-1,-1,-1,-1,-1,-1,-1,-1,-1,-1,-1,-1,-1,-1,-1,-1,-1,-1,-1,-1,-1,-1,-1,-1,-1,-1,-1,-1,-1,-1,-1,-1,-1,-1,-1,-1,-1,-1,-1,-1,-1,-1,-1,-1,-1,-1,-1,-1,-1,-1,-1,-1,-1,-1,-1,-1,-1,-1,-1,-1,-1,-1,-1,-1,-1,-1,-1,-1,-1,-1,-1,-1,-1,-1,-1,-1,-1,-1,-1,-1,-1,-1,-1,-1,-1,-1,-1,-1,-1,-1,-1,-1,-1,-1,-1,-1,-1,-1,-1,-1,-1,-1,-1,-1,-1,-1,-1,-1,-1,-1,-1,-1,-1,-1,-1,-1,-1,-1,-1,-1,-1,-1,-1,-1,-1,-1,-1,-1,-1,-1,-1,-1,-1,-1,-1,-1,-1,-1,-1,-1,-1,-1,-1,-1,-1,-1,-1,-1,-1,-1,-1,-1,-1,-1,-1,-1,-1,-1,-1,-1,-1,-1,-1,-1,-1,-1,-1,-1,-1,-1,-1,-1,-1,-1,-1,-1,-1,-1,-1,-1,-1,-1,-1,-1,-1,-1,-1,-1,-1,-1,-1,-1,-1,-1,-1,-1,-1,-1,-1,-1,-1,-1,-1,-1,-1,-1,-1,-1,-1,-1,-1,-1,-1,-1,-1,-1,-1,-1,-1,-1,-1,-1,-1,-1,-1,-1,-1,-1,-1,-1,-1,-1,-1,-1,-1,-1,-1,-1,-1,-1,-1,-1,-1,-1,-1,-1,-1,-1,-1,-1,-1,-1,-1,-1,-1,-1,-1,-1,-1,-1,-1,-1,-1,-1,-1,-1,-1,-1],"split_conditions":[6.1266655E-1,-4.2356107E-1,1.6525788E0,-5.252405E-1,8.232265E-1,6.6431034E-1,2.251702E0,6.337485E-1,-1.0832611E0,1.1040488E0,-1.3927222E0,1.0109241E0,9.59497E-1,-5.0812364E-2,-1.0922278E0,-7.406063E-1,8.8331383E-1,1.0712757E0,-1.4489542E-1,9.082704E-1,-1.4027048E0,1.1695949E0,1.7908904E-1,-8.453931E-1,-1.3027044E-1,-7.3901266E-1,-1.0651829E0,-6.805962E-1,-1.1518182E0,5.638702E-1,2.8478777E0,5.9381807E-1,-6.8442386E-1,-7.359244E-1,1.5870881E0,-1.3777483E0,1.4270976E0,-1.959896E-2,-1.2072062E0,-1.1431569E0,-8.061524E-1,1.4270976E0,8.8584125E-3,1.0010477E0,-1.6472789E0,-1.5869614E-1,-8.716985E-1,-8.155161E-1,6.237659E-1,1.2933258E0,1.2933258E0,-1.3178526E0,3.072027E-4,-1.1183559E0,6.9364417E-1,1.0080966E0,-1.2230178E0,6.836616E-1,1.0197753E0,-2.3884533E-1,-7.3124254E-1,2.8645715E-2,1.1040488E0,-6.058791E-1,-8.155161E-1,-7.4961907E-1,-5.720591E-1,-8.20198E-1,6.6868764E-1,-9.5129025E-1,-1.1779462E0,1.0104115E0,9.2145604E-1,-1.4027048E0,-7.111213E-1,-5.242348E-1,-7.839194E-1,8.932965E-1,-8.706138E-1,-1.2978873E0,-5.252405E-1,1.1927749E0,-1.1316121E0,1.4208467E-1,1.4208467E-1,2.8037424E1,-8.336958E-1,9.8700213E-1,-1.4476266E0,-1.7971709E4,8.560432E-2,1.0806395E0,-5.580135E-1,1.1977662E0,6.187746E-1,1.2077488E0,-9.335219E-1,-6.7974204E-1,1.1927749E0,1.0853213E0,-1.0043093E0,-1.2579569E0,1.1927749E0,1.0572301E0,6.187746E-1,-9.138353E-1,-1.12568736E-1,-1.3527918E0,5.81965E3,1.1603101E0,1.4032508E-1,-7.6593506E-1,-3.1336833E3,1.2117317E0,1.0806395E0,1.8952216E-1,1.4364737E4,8.284095E-1,-9.884263E-1,-1.1431569E0,-6.8852627E3,-1.2513684E4,-2.3852625E3,1.1508675E0,1.3709152E0,5.630126E4,3.5647375E3,-1.3221416E0,-3.6864468E-1,6.287572E-1,6.0380065E-1,1.2999749E0,-5.582085E-1,-5.7673705E-1,-5.479139E-1,-8.857441E-1,6.986355E-1,6.387398E-1,-1.0159321E0,1.2077488E0,-1.0922278E0,6.864738E3,-2.7279826E4,-1.4176787E0,-5.2756083E-1,-1.1431569E0,1.0478665E0,-1.5424614E0,2.1966152E0,-2.5325018E4,-2.0845574E4,-1.0845338E0,-4.6905807E-1,-1.1758189E0,1.7501463E0,-1.0995627E-1,6.864738E3,-1.6399739E0,7.48227E-1,1.0619121E0,8.5590994E-1,6.337485E-1,-2.4971287E-1,-1.1807016E0,1.5870881E0,1.048027E0,-4.6905807E-1,-2.9697514E-1,-5.2756083E-1,1.7501463E0,-2.0016618E0,-2.0972852E-1,-1.3178526E0,-1.2030525E0,-6.09087E-1,9.2145604E-1,-1.4176787E0,1.1040488E0,1.0291389E0,1.6178073E0,5.09158E3,-7.686975E-1,-8.042023E-1,-1.3552812E-1,-1.0283568E0,-7.282604E-1,1.053965E4,9.2145604E-1,-7.1719694E-1,-9.3256277E-1,-6.0037845E-1,1.0712757E0,-1.4132747E-1,6.0380065E-1,-1.2230178E0,-8.857441E-1,9.22444E-2,-1.2180265E0,-1.0243865E0,1.1728097E0,3.040748E-1,9.776384E-1,-4.7670287E-1,-6.867005E-1,3.6729832E3,2.314253E4,6.424738E3,5.538876E-1,-8.763804E-1,4.5228605E4,6.0380065E-1,5.0487137E4,1.7292053E-1,-1.3135263E4,-1.8852626E3,-9.9880344E-1,1.0150933E0,-6.9378763E-1,9.232443E-1,9.232443E-1,-7.924426E-1,1.8395251E0,-1.2426835E0,-1.37734E0,-3.8356137E-1,9.152983E3,-1.3885263E4,5.157307E4,-9.3256277E-1,3.632918E4,7.404738E3,4.2163418E4,-1.196075E0,-9.2485124E-1,1.6087106E4,5.4465957E4,1.3234737E4,4.364738E3,1.6777705E4,7.114738E3,2.7989104E4,6.0879195E-1,5.342737E-1,-7.4528813E-1,-7.921068E-1,-9.4896656E-1,1.4286317E4,-5.4439463E-2,-1.3552812E-1,-6.6569644E-1,-6.7974204E-1,5.089658E-1,1.6456562E-1,2.0772284E-2,-8.706138E-1,-7.546519E-1,-1.1779462E0,2.954018E-1,2.674886E0,-6.9378763E-1,-6.3932335E-1,-6.86477E-1,-1.344567E0,-1.1689122E0,1.1029314E0,1.7767234E0,1.0057297E0,-1.4576092E0,6.335995E-1,-1.0334752E0,-1.3552812E-1,-7.280707E-1,-1.3527918E0,-6.0305595E-1,7.336212E-1,-3.6864468E-1,-1.6399739E0,-3.924966E-1,-1.5605159E0,9.092983E3,-2.7241972E-1,-7.828165E-1,-9.2485124E-1,1.3990064E0,5.6942534E-1,1.8647375E3,-3.4732956E-1,-1.2901897E0,-2.91295E4,-3.4732956E-1,2.9220888E-1,9.0272856E-1,-1.4576092E0,-1.2230178E0,-1.1388214E0,-6.7974204E-1,-9.3256277E-1,7.763182E-1,-3.4732956E-1,1.162827E0,1.0929488E0,-1.274339E0,4.5065117E0,2.681965E4,-1.3653683E4,1.6019207E-1,2.6193323E0,-2.1880004E-1,6.523934E-1,-1.8939435E-1,5.9982294E-1,-2.0016618E0,-1.9489572E4,-4.0752625E3,3.5347375E3,1.7501463E0,1.4224156E0,-1.0965263E4,1.8444738E4,2.3451664E-1,1.4270976E0,9.976388E-2,1.7337285E0,7.48227E-1,-1.4126874E0,-1.4576092E0,-1.1183559E0,-1.1183559E0,1.3027896E4,-1.0243865E0,9.11965E3,-2.4237816E-1,-4.1467744E-1,-9.419265E-1,-7.0783323E-1,-1.799649E4,-9.335219E-1,1.2127402E0,5.864838E-1,1.0619121E0,-1.7085025E-1,7.186007E-1,4.253594E4,-2.559967E-1,1.0853213E0,-8.342436E-1,4.3359277E-1,-1.1385648E0,8.932965E-1,1.4523228E0,4.275479E-1,5.188156E-1,-1.487557E0,6.6369635E-1,-4.843043E-1,-6.8442386E-1,-8.248799E-1,8.9336485E-1,9.5891094E-1,2.6701996E-1,-5.6688386E-1,-1.3027044E-1,-1.3164757E0,-6.428258E-1,9.432095E-1,-1.4576092E0,-1.6399739E0,-9.8406327E-1,1.7518013E0,-6.024816E-1,1.0813191E0,4.1573406E4,2.691453E4,-7.640156E-1,-2.8388104E-1,3.4647802E-1,-6.8442386E-1,1.0619121E0,5.888267E-1,6.2529834E3,6.337485E-1,1.0478665E0,-7.640156E-1,8.786316E3,-8.436073E-1,-5.0352627E3,3.523121E4,4.5010867E4,-1.4476266E0,1.4924546E0,7.086181E-1,1.9647375E3,7.524738E3,-9.6557885E-1,7.8621064E3,-7.887741E-1,1.235965E4,4.406713E4,1.6326317E4,4.894738E3,1.9266318E4,-1.8852626E3,2.0577319E0,5.586317E3,1.50812295E4,9.0268457E-1,8.8331383E-1,-9.884263E-1,2.665305E4,1.1422005E-1,4.546938E4,5.444738E3,3.4615582E4,1.379433E0,1.8263167E3,-7.827431E-1,2.6701996E-1,-1.3027044E-1,-6.7595667E-1,7.437684E-1,-1.2013684E4,-5.7819445E-2,1.0910698E0,-7.359244E-1,6.1378324E-1,5.089658E-1,-4.3311703E-1,-4.7936428E-1,-1.2100168E0,-7.236415E-1,3.2147375E3,-7.002582E-2,-8.595263E3,-7.298229E-1,7.934703E-1,-8.763804E-1,-9.9322945E-2,6.7367893E-1,-1.4978985E0,2.6701996E-1,-3.977714E-1,-7.3124254E-1,1.8654703E0,7.05143E-1,6.437311E-1,-1.0651829E0,-1.4028345E0,7.186007E-1,7.5853115E-1,-1.344567E0,9.6317476E-1,-9.2593616E-1,-1.5668013E0,1.127888E0,5.0539416E-1,-1.0651829E0,-8.108343E-1,-8.631919E-1,9.963659E-1,-8.121533E-1,-2.0952895E4,5.204738E3,-6.5952627E3,-1.069532E0,4.3404956E0,4.626332E-1,-1.3378178E0,-4.4810274E-1,-7.667068E-1,-1.2879047E0,-1.3278352E0,-6.3932335E-1,1.1797799E0,-1.3027044E-1,5.924053E-2,-7.111213E-1,1.0993669E0,1.0853213E0,1.5262648E0,1.0364737E4,-2.052625E2,-2.1013684E4,-9.2485124E-1,-9.940351E3,3.9340472E-1,-4.244086E-1,-2.891866E-1,-1.1316121E0,-2.4971287E-1,1.7337285E0,-1.1388214E0,-9.884263E-1,-8.836089E-1,-2.3909764E4,-6.4052627E3,7.2858334E-1,-1.9308771E4,1.8647375E3,-2.1475438E4,-8.6404693E-1,-2.580738E4,-1.8148178E4,-4.302894E3,5.9864435E-2,9.823203E-1,-4.252746E-1,-1.3677657E0,7.903638E-1,8.2313687E-1,2.2206318E4,3.4647802E-1,5.9880936E-1,1.6456562E-1,-6.070189E-1,-2.9280072E-1,-7.3901266E-1,-8.5366106E-1,3.7074324E-1,7.810001E-1,-1.241566E0,-1.3539307E0,-1.0168364E0,-1.1385648E0,1.2077488E0,-6.3518554E-2,-1.3398851E0,-8.9510787E-1,1.0080966E0,1.0080966E0,-2.5394998E4,-4.8652627E3,-6.396196E-1,1.305369E0,1.1134125E0,9.0686363E-1,-5.938327E-1,2.2162037E-1,-2.891866E-1,1.6047375E3,-3.9250475E-1,1.1790813E-1,-1.3577831E0,-1.8822443E4,-1.3478005E0,7.437684E-1,-1.3527918E0,1.2819597E0,3.2336923E-1,-6.070189E-1,-6.648177E3,1.0755427E-1,-1.0565525E0,-2.4971287E-1,7.974738E3,4.2707965E4,8.6889267E-1,-2.064828E-1,1.4186177E4,9.91684E-1,-4.3852627E3,1.5383492E0,6.864738E3,3.0216297E4,6.864738E3,4.973172E4,-3.3620287E-2,1.3334602E0,4.386317E3,-1.5873832E0,1.2077488E0,6.0879195E-1,6.1378324E-1,7.784964E-1,-2.97843E-1,-1.6305101E4,-2.8286025E-1,1.2277141E0,1.2675314E-1,1.7709836E0,-1.7511067E-1,1.0712757E0,1.9354795E-1,-2.70035E3,2.1244738E4,-1.0952626E3,-4.640239E-1,-2.432606E-1,-1.3178526E0,1.5550181E-1,6.886529E-1,-7.2656065E-1,-8.0206877E-1,-3.2956544E-1,1.1728097E0,6.6446215E-1,7.9326683E-1,4.3655373E-2,1.3125663E0,-1.5885263E4,8.606432E-1,1.1996483E0,-1.6352626E3,7.48227E-1,-1.9645879E-1,-1.6581571E-1,7.4289244E-1,2.3450134E0,-7.538349E-1,5.7031614E-1,5.888267E-1,-3.1295314E-1,2.1997371E4,-8.5294974E-1,6.904652E-1,-1.3328265E0,2.6938307E-1,-8.21321E-1,-1.3027044E-1,1.1678183E0,-9.4705397E-1,9.6317476E-1,-1.5018173E-2,1.3375229E0,-1.344567E0,3.9396501E3,8.325006E-1,8.3583033E-1,-6.7974204E-1,-7.967887E-1,6.147375E2,-1.3093684E4,-1.163122E0,2.4534568E-1,1.1678183E0,-1.0083916E0,-9.044716E-1,-4.6452627E3,1.3680189E0,-4.445967E-1,9.2145604E-1,2.919324E0,8.1343555E-1,-8.2254344E-1,3.891014E4,6.387398E-1,1.0806395E0,9.120923E-1,-5.0812364E-2,5.239397E-1,-6.173388E-1,-1.242983E0,2.283958E4,4.11965E3,-1.0600351E4,-2.3136833E3,-4.3841535E-1,-1.3428092E0,-6.7595667E-1,-6.594381E-1,1.3346317E4,8.766977E-1,4.4974664E4,2.6799506E4,3.8831203E4,1.818358E4,6.0529834E3,2.021955E4,2.6357896E4,7.9171064E3,6.147375E2,-3.0052625E3,-1.9578062E0,-1.3258395E0,4.7545918E4,1.8546318E4,2.2135791E4,1.0247375E3,-7.5052627E3,-6.352625E2,2.3795066E0,4.392676E4,7.6071064E3,1.8647375E3,3.5471062E3,-3.08045E3,1.1652983E4,1.347375E2,1.4849773E3,-5.5074727E3,-3.7654727E3,-1.3020809E4,-2.9270166E3,-1.2035E2,1.7789922E4,5.9725415E3,2.6785443E4,6.5158E2,1.1612983E4,3.9994605E4,1.681558E4,4.474738E3,-8.601473E3,5.4729266E2,-2.3281191E3,-9.436687E3,5.906317E3,1.943965E4,1.3492983E4,-6.824019E2,2.3890432E4,1.3374528E4,1.2933291E4,5.360227E3,-2.921042E2,1.4203394E4,4.7157905E3,-3.9187708E3,1.4497728E2,-1.2576547E4,-1.3117229E3,-5.883216E3,-1.9852883E4,-1.2401912E4,1.1910815E4,-1.11193E4,1.6864738E4,-5.013683E3,-9.209714E3,-6.556011E3,-1.3135263E4,-7.5262505E1,4.1904316E3,1.2108527E4,1.9625357E1,4.471105E3,-1.5347018E4,-5.65242E3,-1.1336421E4,1.9647375E3,3.9153117E4,8.1965E2,-1.0619109E4,-5.7706973E3,-1.1329049E3,-8.020087E3,1.4152983E4,-1.0729194E4,3.9153117E4,3.3111726E3,-2.0411201E4,-1.50646875E4,-1.3683333E1,-1.2277711E4,-4.3852627E3,-2.1013684E4,3.9882207E4,-1.1680351E4,-4.2052627E3,-1.8138787E4,-1.7922209E4,-2.3621537E4,-4.9994727E3,1.3663036E4,1.0303979E4,3.0182E4,1.469958E4,2.0483416E3,2.1582547E4,4.028758E4,7.4863164E3,1.8647375E3,2.9364738E4,7.708685E3,1.530358E4,1.9210334E3,1.6345265E4,-9.82421E3,-1.4418244E4,-8.0279985E3,-1.7908146E4,-5.2679814E3,-4.2717822E2,-1.0565132E4,-1.0905933E4,-3.1242095E3,1.9198896E4,-8.196421E3,-7.9957886E3,-1.3095505E4,-3.209568E3,-8.838771E3,-4.5890215E3,-5.0670938E2,-1.8852626E3,1.1372106E4,-4.977894E3,-1.2691446E4,-1.8513295E4,1.0347375E3,-1.1352626E3,3.2473752E2,1.6536234E3,6.9007905E3,-1.8082225E4,-6.12842E3,-8.42775E3,-1.54035E3,-1.7375488E4,-5.637894E3,2.9364838E4,-3.6352625E3,-2.0483145E4,-5.0252627E3,-1.0262894E4,-2.4384008E4,-1.1086813E4,-1.9851352E4,-2.0501826E4,-1.3850653E4,1.8647375E3,-6.8852627E3,2.4863167E3,-2.0906215E4,1.7790285E4,3.8854836E4,1.3005513E4,2.3387982E4,6.12358E3,2.5618316E4,-9.267157E3,-1.3014725E3,5.945615E3,2.2593545E4,1.1793964E4,-1.9557382E3,1.8984309E3,-3.1148838E3,3.092E4,1.2224601E4,1.9623535E4,1.3615126E3,-7.5289374E2,3.5438023E4,-3.57283E3,1.9267037E3,2.1212871E4,-9.193704E2,-3.7115903E3,-1.3077265E4,-1.4433011E4,-3.2529812E3,-2.0959168E4,-9.738999E3,3.911743E4,1.5093599E4,2.5246383E4,1.0184443E3,2.212865E4,-6.965108E2,2.4195095E3,-8.725421E3,-2.6723574E3,-9.945499E3,-7.3311523E3,-5.28782E2,-8.660351E3,-2.2212568E4,5.174738E3,-3.6087708E3,-1.260255E4,-1.7656996E4,-7.9401206E3,-1.2819999E4,8.546316E3,-8.051578E3,6.817759E3,-1.4495682E3,7.064738E3,-6.074224E3,1.205965E4,-1.4004773E3,-7.8701666E2,9.91955E3,4.346317E3,-6.659318E2,8.468422E3,1.4099507E4,-1.56035E3,5.9529834E3,-1.587089E4,-3.4452625E3,-6.1621045E3,-1.45886045E4,-8.226164E3,-1.7143553E4,-2.1699297E4,-5.3252627E3,-7.3474727E3,-1.276849E4,-5.4725103E3,7.5945625E3,-1.191746E4,-8.231227E3,-1.2679138E4,-1.9153617E4,5.226317E3,-3.0943767E3,-2.6442095E3,-1.3571052E4,-6.5052627E3,1.0704737E4,8.223484E3,1.751965E4,3.4371062E3,1.1566929E3,2.0103037E4,2.8976707E4,2.3247375E3,1.1930227E4,-7.42045E3,-8.0701666E2,1.0871063E3,-4.652625E2,-2.3052625E3,-7.5368335E2,2.4626223E4,-7.2786597E3,4.1413413E3,-9.666976E3,2.2347496E4,1.5142253E3,-3.4034073E2,-2.1706193E4,-1.2267913E4,-5.8321045E3,1.8014506E4,3.1788166E4,6.747375E2,-7.7752627E3,-5.150976E3,7.6511597E3,3.0805426E4,-3.8752625E3,1.7315803E3,1.230006E4,-2.6878938E3,-1.2312421E4,-1.6885438E4,-4.1852627E3,2.4121193E4,1.301896E4,3.905848E4,2.4253896E4,1.4863085E4,2.1276328E3,-7.265932E3,2.7447375E3,-4.74045E3,1.1597397E4,-5.3737207E3,4.2052646E3,-4.14042E3,1.0988247E4,2.6895354E4,1.0226796E4,4.6305273E3,1.530758E4,7.7915796E3,2.4604537E4,6.8126807E3,1.644893E4,-3.4854727E3,1.5164385E3,-7.7775933E3,-1.2552626E3,-4.246638E3,6.768422E3,1.1350645E4,1.6475801E3,1.8964562E4,1.0342039E4,1.2863291E4,3.356693E3,-7.5429814E3,-2.011704E3,2.570432E3,1.53621875E4,-4.604958E3,5.113084E3,-2.466686E3,6.7345273E3,-1.5171705E4,-8.55921E3,4.9149184E4,3.3963523E4,8.726316E3,3.192762E4,2.1247375E3,1.3037106E4,2.4308762E4,3.870545E4,1.9161287E4,6.4383413E3,1.5347828E4,4.394404E3,-1.4349022E4,-5.657882E2,1.4459784E4,4.0482908E3,3.67529E4,7.1062503E0,2.0106318E4,7.272805E2,8.974393E3,-6.5154375E3,-8.92775E3,-3.2578938E3,2.6971062E3,-6.3352627E3,1.0747375E3,-2.2328938E3,2.0777107E4,5.8921064E3,3.6862316E4,1.6924562E4,1.9945828E4,1.2384394E4,1.1625804E4,-3.1794448E3,-5.50042E3,1.7710625E2,3.2306055E3,1.2017019E4,2.7653719E4,7.324738E3,2.073681E4,1.2572817E4,9.632019E3,-2.252625E2,8.928291E3,1.7687182E4,3.5643562E4,2.0547959E4,4.3409004E4,1.9222107E4,2.5426002E4,7.3263164E3,2.6111824E4,7.962407E3,1.6033836E4,7.8010015E3,2.4969865E4,1.0579507E4,3.56032E4,4.524738E3,2.2101756E4,7.607896E3,2.1392107E4,4.3583695E4,3.583193E4,1.9990791E4,8.0350894E3,-5.2552627E3,-1.0152625E3,-5.3252627E3,3.551785E4,2.4221607E4,1.7786795E4,6.112292E2,1.607965E4,3.5063828E3,3.01958E3,2.3570459E4,3.5828812E4,2.0513836E4,1.0032983E4,2.7707879E4,7.124738E3,3.4864293E4,1.841509E4,3.4016918E4],"split_indices":[7,7,7,1,2,2,7,0,0,1,0,7,7,2,3,1,0,1,0,0,0,1,7,2,2,6,3,3,3,0,7,0,1,1,0,0,1,1,6,0,1,1,7,1,0,4,1,1,0,7,7,0,4,3,0,0,0,0,1,5,1,2,1,3,1,4,1,1,0,1,3,1,1,0,7,0,7,0,7,0,1,0,5,7,7,4,0,1,0,0,7,1,1,0,0,0,0,1,0,1,2,0,0,1,0,1,5,0,0,7,4,2,0,1,1,0,0,0,0,0,0,0,0,1,1,0,0,2,2,0,0,2,7,7,5,1,0,0,5,0,3,0,0,0,2,0,1,0,5,0,0,7,1,6,1,0,0,2,1,1,1,0,0,1,0,0,1,6,2,1,0,2,0,0,0,1,0,1,1,2,0,1,4,5,0,4,0,1,1,1,3,1,1,0,0,1,3,0,3,0,4,1,4,6,0,0,0,0,1,0,0,0,3,0,0,4,1,1,0,0,3,4,2,1,3,0,0,0,1,0,0,0,5,2,0,0,0,0,0,0,0,0,4,1,1,4,0,3,5,1,1,0,0,5,7,1,3,5,4,1,7,2,1,7,0,2,1,0,3,7,5,7,0,7,4,2,2,5,2,0,1,3,2,1,3,0,1,7,0,1,4,1,0,0,4,1,1,1,1,0,0,1,3,0,0,7,3,7,3,5,7,0,0,0,0,1,1,0,0,7,1,7,3,1,0,0,3,3,0,3,0,3,6,1,1,0,0,0,4,1,5,0,0,4,1,1,7,1,0,0,6,1,0,0,0,1,1,1,1,2,4,2,1,4,0,0,2,1,0,4,5,0,0,1,5,2,1,1,0,0,0,1,1,0,1,0,0,0,0,7,0,0,0,4,0,0,0,0,0,0,0,0,7,0,0,2,0,0,0,4,0,0,0,2,0,1,2,2,5,2,0,5,3,1,0,0,5,3,4,5,0,0,0,5,0,1,5,0,7,2,3,1,5,4,0,3,7,0,0,1,0,7,7,0,2,3,1,7,1,3,0,0,0,7,6,1,0,2,7,0,0,7,4,2,3,7,1,1,4,0,0,0,2,0,3,0,2,5,0,3,4,0,0,0,0,0,0,0,0,5,0,0,0,7,1,3,0,1,1,0,2,0,0,2,3,6,0,7,1,1,1,1,1,0,7,1,1,0,0,0,0,6,1,1,4,5,7,2,0,7,5,0,0,0,2,0,1,7,2,0,7,5,0,0,0,4,7,0,1,0,2,0,0,0,0,7,1,0,0,0,0,0,0,3,0,7,0,6,5,7,1,3,0,0,0,5,5,0,3,0,1,3,4,0,7,7,3,0,0,7,5,0,1,5,4,7,4,0,1,0,4,0,3,7,0,0,3,2,0,5,0,3,0,1,0,1,5,1,1,0,0,0,3,0,0,1,0,7,5,1,4,0,5,0,0,1,1,2,0,3,0,0,0,0,0,5,0,5,4,0,7,0,0,0,0,0,0,0,0,0,0,2,1,0,0,0,0,0,0,7,0,0,0,0,0,0,0,0,0,0,0,0,0,0,0,0,0,0,0,0,0,0,0,0,0,0,0,0,0,0,0,0,0,0,0,0,0,0,0,0,0,0,0,0,0,0,0,0,0,0,0,0,0,0,0,0,0,0,0,0,0,0,0,0,0,0,0,0,0,0,0,0,0,0,0,0,0,0,0,0,0,0,0,0,0,0,0,0,0,0,0,0,0,0,0,0,0,0,0,0,0,0,0,0,0,0,0,0,0,0,0,0,0,0,0,0,0,0,0,0,0,0,0,0,0,0,0,0,0,0,0,0,0,0,0,0,0,0,0,0,0,0,0,0,0,0,0,0,0,0,0,0,0,0,0,0,0,0,0,0,0,0,0,0,0,0,0,0,0,0,0,0,0,0,0,0,0,0,0,0,0,0,0,0,0,0,0,0,0,0,0,0,0,0,0,0,0,0,0,0,0,0,0,0,0,0,0,0,0,0,0,0,0,0,0,0,0,0,0,0,0,0,0,0,0,0,0,0,0,0,0,0,0,0,0,0,0,0,0,0,0,0,0,0,0,0,0,0,0,0,0,0,0,0,0,0,0,0,0,0,0,0,0,0,0,0,0,0,0,0,0,0,0,0,0,0,0,0,0,0,0,0,0,0,0,0,0,0,0,0,0,0,0,0,0,0,0,0,0,0,0,0,0,0,0,0,0,0,0,0,0,0,0,0,0,0,0,0,0,0,0,0,0,0,0,0,0,0,0,0,0,0,0,0,0,0,0,0,0,0,0,0,0,0,0,0,0,0,0,0,0,0,0,0,0,0,0,0,0,0,0,0,0,0,0,0,0,0,0,0,0,0,0,0,0,0,0,0,0,0,0,0,0,0,0,0,0,0,0,0,0,0,0,0,0,0,0,0,0,0,0],"split_type":[0,0,0,0,0,0,0,0,0,0,0,0,0,0,0,0,0,0,0,0,0,0,0,0,0,0,0,0,0,0,0,0,0,0,0,0,0,0,0,0,0,0,0,0,0,0,0,0,0,0,0,0,0,0,0,0,0,0,0,0,0,0,0,0,0,0,0,0,0,0,0,0,0,0,0,0,0,0,0,0,0,0,0,0,0,0,0,0,0,0,0,0,0,0,0,0,0,0,0,0,0,0,0,0,0,0,0,0,0,0,0,0,0,0,0,0,0,0,0,0,0,0,0,0,0,0,0,0,0,0,0,0,0,0,0,0,0,0,0,0,0,0,0,0,0,0,0,0,0,0,0,0,0,0,0,0,0,0,0,0,0,0,0,0,0,0,0,0,0,0,0,0,0,0,0,0,0,0,0,0,0,0,0,0,0,0,0,0,0,0,0,0,0,0,0,0,0,0,0,0,0,0,0,0,0,0,0,0,0,0,0,0,0,0,0,0,0,0,0,0,0,0,0,0,0,0,0,0,0,0,0,0,0,0,0,0,0,0,0,0,0,0,0,0,0,0,0,0,0,0,0,0,0,0,0,0,0,0,0,0,0,0,0,0,0,0,0,0,0,0,0,0,0,0,0,0,0,0,0,0,0,0,0,0,0,0,0,0,0,0,0,0,0,0,0,0,0,0,0,0,0,0,0,0,0,0,0,0,0,0,0,0,0,0,0,0,0,0,0,0,0,0,0,0,0,0,0,0,0,0,0,0,0,0,0,0,0,0,0,0,0,0,0,0,0,0,0,0,0,0,0,0,0,0,0,0,0,0,0,0,0,0,0,0,0,0,0,0,0,0,0,0,0,0,0,0,0,0,0,0,0,0,0,0,0,0,0,0,0,0,0,0,0,0,0,0,0,0,0,0,0,0,0,0,0,0,0,0,0,0,0,0,0,0,0,0,0,0,0,0,0,0,0,0,0,0,0,0,0,0,0,0,0,0,0,0,0,0,0,0,0,0,0,0,0,0,0,0,0,0,0,0,0,0,0,0,0,0,0,0,0,0,0,0,0,0,0,0,0,0,0,0,0,0,0,0,0,0,0,0,0,0,0,0,0,0,0,0,0,0,0,0,0,0,0,0,0,0,0,0,0,0,0,0,0,0,0,0,0,0,0,0,0,0,0,0,0,0,0,0,0,0,0,0,0,0,0,0,0,0,0,0,0,0,0,0,0,0,0,0,0,0,0,0,0,0,0,0,0,0,0,0,0,0,0,0,0,0,0,0,0,0,0,0,0,0,0,0,0,0,0,0,0,0,0,0,0,0,0,0,0,0,0,0,0,0,0,0,0,0,0,0,0,0,0,0,0,0,0,0,0,0,0,0,0,0,0,0,0,0,0,0,0,0,0,0,0,0,0,0,0,0,0,0,0,0,0,0,0,0,0,0,0,0,0,0,0,0,0,0,0,0,0,0,0,0,0,0,0,0,0,0,0,0,0,0,0,0,0,0,0,0,0,0,0,0,0,0,0,0,0,0,0,0,0,0,0,0,0,0,0,0,0,0,0,0,0,0,0,0,0,0,0,0,0,0,0,0,0,0,0,0,0,0,0,0,0,0,0,0,0,0,0,0,0,0,0,0,0,0,0,0,0,0,0,0,0,0,0,0,0,0,0,0,0,0,0,0,0,0,0,0,0,0,0,0,0,0,0,0,0,0,0,0,0,0,0,0,0,0,0,0,0,0,0,0,0,0,0,0,0,0,0,0,0,0,0,0,0,0,0,0,0,0,0,0,0,0,0,0,0,0,0,0,0,0,0,0,0,0,0,0,0,0,0,0,0,0,0,0,0,0,0,0,0,0,0,0,0,0,0,0,0,0,0,0,0,0,0,0,0,0,0,0,0,0,0,0,0,0,0,0,0,0,0,0,0,0,0,0,0,0,0,0,0,0,0,0,0,0,0,0,0,0,0,0,0,0,0,0,0,0,0,0,0,0,0,0,0,0,0,0,0,0,0,0,0,0,0,0,0,0,0,0,0,0,0,0,0,0,0,0,0,0,0,0,0,0,0,0,0,0,0,0,0,0,0,0,0,0,0,0,0,0,0,0,0,0,0,0,0,0,0,0,0,0,0,0,0,0,0,0,0,0,0,0,0,0,0,0,0,0,0,0,0,0,0,0,0,0,0,0,0,0,0,0,0,0,0,0,0,0,0,0,0,0,0,0,0,0,0,0,0,0,0,0,0,0,0,0,0,0,0,0,0,0,0,0,0,0,0,0,0,0,0,0,0,0,0,0,0,0,0,0,0,0,0,0,0,0,0,0,0,0,0,0,0,0,0,0,0,0,0,0,0,0,0,0,0,0,0,0,0,0,0,0,0,0,0,0,0,0,0,0,0,0,0,0,0,0,0,0,0,0,0,0,0,0,0,0,0,0,0,0,0,0,0,0,0,0,0],"sum_hessian":[1.4844E4,1.1684E4,3.16E3,5.607E3,6.077E3,2.317E3,8.43E2,2.745E3,2.862E3,4.806E3,1.271E3,1.939E3,3.78E2,3.99E2,4.44E2,4.9E2,2.255E3,1.13E3,1.732E3,3.98E3,8.26E2,2.88E2,9.83E2,1.07E3,8.69E2,2.01E2,1.77E2,2.37E2,1.62E2,1.5E1,4.29E2,1.9E2,3E2,1.259E3,9.96E2,5.57E2,5.73E2,1.115E3,6.17E2,3.018E3,9.62E2,1.97E2,6.29E2,2.6E2,2.8E1,7.17E2,2.66E2,4.01E2,6.69E2,6.43E2,2.26E2,3.3E1,1.68E2,4E0,1.73E2,1.7E1,2.2E2,4E0,1.58E2,1.2E1,3E0,1.82E2,2.47E2,3.6E1,1.54E2,9.9E1,2.01E2,9.32E2,3.27E2,8.81E2,1.15E2,1.12E2,4.45E2,2.28E2,3.45E2,8.1E1,1.034E3,9E0,6.08E2,5.74E2,2.444E3,6.24E2,3.38E2,1.34E2,6.3E1,3.23E2,3.06E2,1.58E2,1.02E2,7E0,2.1E1,5.41E2,1.76E2,1.4E1,2.52E2,1.36E2,2.65E2,4.13E2,2.56E2,3.53E2,2.9E2,1.27E2,9.9E1,1E1,2.3E1,1.34E2,3.4E1,2E0,2E0,1.42E2,3.1E1,1.5E1,2E0,3.3E1,1.87E2,3E0,1E0,1.28E2,3E1,1.1E1,1E0,2E0,1E0,1.03E2,7.9E1,2.46E2,1E0,1.1E1,2.5E1,1.1E1,1.43E2,8E0,9.1E1,1.6E2,4.1E1,2.56E2,6.76E2,1.26E2,2.01E2,4.63E2,4.18E2,1E0,1.14E2,8.4E1,2.8E1,1.58E2,2.87E2,7.3E1,1.55E2,2.55E2,9E1,2.9E1,5.2E1,5.65E2,4.69E2,8E0,1E0,3.27E2,2.81E2,1.61E2,4.13E2,1.751E3,6.93E2,2.29E2,3.95E2,4E0,3.34E2,8.9E1,4.5E1,6.1E1,2E0,3.21E2,2E0,2.23E2,8.3E1,7.1E1,8.7E1,3E1,7.2E1,1.7E1,4E0,4.84E2,5.7E1,1.21E2,5.5E1,1.2E1,2E0,1.47E2,1.05E2,9.6E1,4E1,1E2,1.65E2,6E1,3.53E2,2.33E2,2.3E1,3.06E2,4.7E1,1.06E2,1.84E2,2.5E1,1.02E2,9.7E1,2E0,9E0,1E0,1.7E1,6E0,9E0,1.25E2,1.1E1,2.3E1,1E0,1E0,5.3E1,8.9E1,2.9E1,2E0,1.1E1,4E0,3E1,3E0,1.8E2,7E0,2E0,1E0,1.11E2,1.7E1,2.9E1,1E0,7E0,4E0,1E2,3E0,7.8E1,1E0,1E0,1E1,1E0,2.4E1,5E0,6E0,1.2E1,1.31E2,6E0,2E0,7.5E1,1.6E1,1.02E2,5.8E1,2E1,2.1E1,3.4E1,2.22E2,5.17E2,1.59E2,2.1E1,1.05E2,9E0,1.92E2,1.32E2,3.31E2,8E0,4.1E2,5.2E1,3.2E1,2E0,2.6E1,1.18E2,4E1,2.51E2,3.6E1,5.6E1,1.7E1,1.53E2,2E0,4E0,2.5E1,2E0,5E1,1.8E1,5.47E2,4.29E2,4E1,1E0,7E0,6E0,3.21E2,2.66E2,1.5E1,1.27E2,3.4E1,2.18E2,1.95E2,6.27E2,1.124E3,4.15E2,2.78E2,8.3E1,1.46E2,3.54E2,4.1E1,2E0,2E0,3.14E2,2E1,4.2E1,4.7E1,2E1,2.5E1,3E1,3.1E1,1E0,1E0,2.27E2,9.4E1,1E0,1E0,6.2E1,1.61E2,5.7E1,2.6E1,6E0,6.5E1,7.2E1,1.5E1,2.5E1,5E0,7E1,2E0,1.2E1,5E0,1.37E2,3.47E2,1.4E1,4.3E1,5.5E1,6.6E1,4.7E1,8E0,2E0,1E1,1.08E2,3.9E1,5.7E1,4.8E1,3.8E1,5.8E1,8E0,3.2E1,5.2E1,4.8E1,9.2E1,7.3E1,4.3E1,1.7E1,1.12E2,2.41E2,5.7E1,1.76E2,1.7E1,6E0,2.8E1,2.78E2,3E0,4.4E1,9.3E1,1.3E1,1.43E2,4.1E1,1.2E1,1.3E1,4.3E1,5.9E1,2.4E1,7.3E1,1.1E1,6E0,2E0,4E0,7.4E1,5.1E1,2E0,2.1E1,1E0,5.2E1,6.8E1,2.1E1,2.1E1,8E0,1E0,1E0,8E0,3E0,2E0,2E0,2.8E1,2E0,1E0,2E0,1E0,1.79E2,2E0,5E0,9E0,8E0,2E0,2E0,4.7E1,5.3E1,1E0,4E0,4E0,2E0,9E0,3E0,1.9E1,1.12E2,4E0,2E0,4.5E1,3E1,1.1E1,5E0,4.9E1,5.3E1,4E0,5.4E1,1.9E1,1E0,2E1,1E0,2.2E1,1.2E1,7.7E1,1.45E2,3.8E2,1.37E2,3E0,1.56E2,2E0,1.9E1,9.9E1,6E0,5E0,4E0,1.24E2,6.8E1,5.4E1,7.8E1,2.09E2,1.22E2,3E0,5E0,1.44E2,2.66E2,2.5E1,2.7E1,2.9E1,3E0,1E0,1E0,2.3E1,3E0,1.2E1,1.06E2,1.3E1,2.7E1,1.49E2,1.02E2,1.7E1,1.9E1,4.1E1,1.5E1,1.3E1,4E0,3.4E1,1.19E2,1E0,1E0,2E0,2E0,2E0,2.3E1,3.8E1,1.2E1,1.6E1,2E0,8E1,4.67E2,3.19E2,1.1E2,3.9E1,1E0,2E0,5E0,1E0,5E0,2.2E1,2.44E2,1.2E1,3E0,2.8E1,9.9E1,1.1E1,2.3E1,6.3E1,1.55E2,2E0,1.93E2,2.92E2,3.35E2,1.5E1,1.109E3,2.04E2,2.11E2,4.6E1,2.32E2,3.4E1,4.9E1,7.4E1,7.2E1,2.34E2,1.2E2,3.5E1,6E0,2.13E2,1.01E2,1.9E1,1E0,1E1,3.2E1,3.5E1,1.2E1,8E0,1.2E1,2.4E1,1E0,4E0,2.6E1,1.97E2,3E1,6.1E1,3.3E1,2.3E1,3.9E1,1.25E2,3.6E1,1.2E1,4.5E1,2.4E1,2E0,1E0,5E0,5.6E1,9E0,1.4E1,5.8E1,1E0,1.4E1,1E0,2.4E1,1E0,6.9E1,8E0,4E0,2E0,3E0,1.8E1,1.19E2,1.21E2,2.26E2,3.1E1,1.2E1,5.3E1,2E0,4.9E1,1.7E1,4E1,7E0,6E0,2E0,1E0,1E0,7.5E1,3.3E1,2.8E1,1.1E1,2.4E1,3.3E1,2.7E1,2.1E1,1.3E1,2.5E1,3.7E1,2.1E1,7E0,1E0,2E1,1.2E1,1E0,5.1E1,1.3E1,3.5E1,3.5E1,5.7E1,4.2E1,3.1E1,3.7E1,6E0,1.3E1,4E0,3.8E1,7.4E1,2E2,4.1E1,4E1,1.7E1,6E1,1.16E2,1.3E1,4E0,4E0,2E0,6E0,2.2E1,2.04E2,7.4E1,1E0,2E0,7E0,3.7E1,1.2E1,8.1E1,1.2E1,1E0,4.5E1,9.8E1,2E1,2.1E1,1.8E1,2.5E1,1.6E1,4.3E1,1.1E1,1.3E1,3.8E1,3.5E1,9E0,2E0,4E0,2E0,2E0,2E0,5.9E1,1.5E1,1.7E1,3.4E1,2E0,1.9E1,5E0,1.6E1,1.7E1,4E0,2E0,6E0,5E0,3E0,1E0,1E0,1.31E2,4.8E1,7E0,2E0,7E0,1E0,1E0,1E0,3E1,1.7E1,3E0,1E0,3E0,6E0,2E0,1E0,1E1,9E0,9E0,1.03E2,2E0,2E0,2.3E1,2.2E1,2.6E1,4E0,2E0,9E0,4E0,1E0,9E0,4E1,2E1,3.3E1,2E0,2E0,2E0,5.2E1,1E1,9E0,7E0,1.3E1,5E0,1.7E1,7E0,5E0,1E1,6.7E1,5.7E1,8.8E1,2.66E2,1.14E2,7E0,1.3E2,1E0,2E0,8.6E1,7E1,1E0,1E0,1E1,9E0,6.9E1,3E1,2E0,4E0,4E0,1E0,2E0,2E0,7E1,5.4E1,4.5E1,2.3E1,2E0,5.2E1,2E0,7.6E1,1.02E2,1.07E2,2E0,1.2E2,1E0,2E0,3E0,2E0,1E0,1.43E2,7E1,1.96E2,9E0,1.6E1,8E0,1.9E1,4E0,2.5E1,9E0,1.4E1,2E0,1E0,1E0,1.1E1,4E0,1.02E2,6E0,7E0,8E0,1.9E1,1.38E2,1.1E1,3.8E1,6.4E1,1E1,7E0,1.5E1,4E0,1.6E1,2.5E1,1E1,5E0,6E0,7E0,1E0,3E0,3E0,3.1E1,1.18E2,1E0,1E0,1E0,1.6E1,7E0,3.4E1,4E0,1E1,2E0,1.3E1,3E0,1E0,1E0,7.9E1,1E0,3E0,4.64E2,1.8E1,3.01E2,3.7E1,7.3E1,1E0,1E0,2E0,2E1,1.2E1,1.6E1,6.7E1,3.2E1,4E0,7E0,1.4E1,9E0,1.7E1,4.6E1,1.35E2,2E1,1.23E2,7E1,1.64E2,1.28E2,5.1E1,2.84E2,3E0,1.2E1,5.15E2,5.94E2,1.4E1,1.9E2,8.3E1,1.28E2,3.5E1,1.1E1,2.13E2,1.9E1,1.3E1,2.1E1,2E0,4.7E1,1E1,6.4E1,2E1,5.2E1,2.6E1,2.08E2,4.6E1,7.4E1,2E0,3.3E1,1E0,5E0,5.8E1,1.55E2,2.5E1,7.6E1,2E0,8E0,2.2E1,1E1,1E0,3.4E1,2E0,1E1,2E0,6E0,2E0,1E1,8E0,1.6E1,2E0,2E0,2.5E1,1E0,5E0,1.92E2,6E0,5.5E1,3.2E1,1E0,9E0,1.4E1,3.4E1,5E0,8.4E1,4.1E1,2.1E1,1.5E1,2E0,4.3E1,7E0,1.7E1,1E0,1E0,5.4E1,2E0,3E0,6E0,1.6E1,4.2E1,1E0,1.3E1,6E0,2E0,3E0,1E0,1E0,2E0,8E0,1E1,1E1,1.09E2,4.4E1,7.7E1,2.2E2,6E0,2.6E1,5E0,1.7E1,3.6E1,1E0,1E0,2E1,2.9E1,1.6E1,1E0,2.3E1,1.7E1,3E0,4E0,5E0,1E0,5.8E1,1.7E1,1.8E1,1.5E1,1.3E1,1.5E1,1E1,1E0,6E0,1.8E1,2.7E1,6E0,4E0,2.3E1,1.1E1,1E1,9E0,4E0,4E0,2.1E1,2.1E1,1.6E1,9E0,1.2E1,6E0,1E0,1.2E1,8E0,8E0,4E0,5E0,4.6E1,7E0,6E0,1.1E1,2.4E1,1E1,2.5E1,4.4E1,1.3E1,3.3E1,9E0,2.4E1,7E0,2.3E1,1.4E1,2E0,4E0,1E0,3E0,1.2E1,2.6E1,4.9E1,2.5E1,1.38E2,6.2E1,6E0,3.5E1,3.3E1,7E0,1.4E1,3E0,2E0,5.8E1,1.11E2,5E0,1E1,3E0,3E0,1E0,1E0,3E0,3E0,3E0,1.7E1,5E0,8.9E1,1.15E2,5.6E1,1.8E1,4E0,3E0,2.6E1,1.1E1,1.1E1,1E0,2.5E1,5.6E1,1.1E1,1E0,7E0,3.8E1,1.4E1,8.4E1,1.7E1,3E0,1.9E1,2E0,1.2E1,6E0,6E0,1.9E1,2.7E1,1.6E1,1E1,1E0,8E0,5E0,3E0,3.5E1,2.8E1,7E0,8E0,1E0,1E0,1E0,4.1E1,1.8E1,1E1,5E0,2E0,1.5E1,4E0,3E1,1.3E1,6E0,2E0,1.29E2,1E0,4.7E1,8E0,2.2E1],"tree_param":{"num_deleted":"0","num_feature":"8","num_nodes":"1081","size_leaf_vector":"1"}}]},"name":"gbtree"},"learner_model_param":{"base_score":"2.0635262E5","boost_from_average":"1","num_class":"0","num_feature":"8","num_target":"1"},"objective":{"name":"reg:squarederror","reg_loss_param":{"scale_pos_weight":"1"}}},"version":[2,0,0]}