{"learner":{"attributes":{"best_iteration":"31","best_score":"0.517374231537566"},"feature_names":["fixed_acidity","volatile_acidity","citric_acid","residual_sugar","chlorides","free_sulfur_dioxide","total_sulfur_dioxide","density","pH","sulphates","alcohol"],"feature_types":["float","float","float","float","float","float","float","float","float","float","float"],"gradient_booster":{"model":{"gbtree_model_param":{"num_parallel_tree":"1","num_trees":"32"},"iteration_indptr":[0,1,2,3,4,5,6,7,8,9,10,11,12,13,14,15,16,17,18,19,20,21,22,23,24,25,26,27,28,29,30,31,32],"tree_info":[0,0,0,0,0,0,0,0,0,0,0,0,0,0,0,0,0,0,0,0,0,0,0,0,0,0,0,0,0,0,0,0],"trees":[{"base_weights":[1.4519145E-2,-3.0595776E-1,3.8354304E-1,3.832877E-1,-3.5962677E-1,9.617505E-2,7.051197E-1,-5.2710456E-1,5.284039E-1,-2.2525352E-1,-4.8998642E-1,1.6424987E-1,-9.903571E-1,5.229517E-1,1.0747694E0,-7.060204E-2,1.8373728E-2,3.538644E-2,9.933107E-2,-4.0069934E-2,-1.2866857E-2,-5.0455477E-2,9.116497E-2,1.2675491E-5,4.2937044E-2,-5.692729E-2,-1.5271045E-1,6.302287E-2,-4.7224425E-3,1.1193677E-1,2.5605918E-3],"categories":[],"categories_nodes":[],"categories_segments":[],"categories_sizes":[],"default_left":[0,0,0,0,0,0,0,0,0,0,0,0,0,0,0,0,0,0,0,0,0,0,0,0,0,0,0,0,0,0,0],"id":0,"left_children":[1,3,5,7,9,11,13,15,17,19,21,23,25,27,29,-1,-1,-1,-1,-1,-1,-1,-1,-1,-1,-1,-1,-1,-1,-1,-1],"loss_changes":[1.2086452E2,2.0371986E1,4.382733E1,5.5630293E0,8.788193E0,1.8801968E1,1.4521751E1,8.9280725E-1,2.4885635E0,4.218688E0,5.707779E0,1.03559E1,2.5208979E0,9.327106E0,3.3870773E0,0E0,0E0,0E0,0E0,0E0,0E0,0E0,0E0,0E0,0E0,0E0,0E0,0E0,0E0,0E0,0E0],"parents":[2147483647,0,0,1,1,2,2,3,3,4,4,5,5,6,6,7,7,8,8,9,9,10,10,11,11,12,12,13,13,14,14],"right_children":[2,4,6,8,10,12,14,16,18,20,22,24,26,28,30,-1,-1,-1,-1,-1,-1,-1,-1,-1,-1,-1,-1,-1,-1,-1,-1],"split_conditions":[-2.1573618E-2,-1.1889168E0,1.289504E-1,-6.382196E-1,3.1943187E-1,1.8557129E0,1.1987007E0,1.1377786E0,1.9421213E0,-4.6118036E-1,1.482497E0,1.1048334E0,2.7495492E0,5.635453E-1,1.8846682E0,-7.060204E-2,1.8373728E-2,3.538644E-2,9.933107E-2,-4.0069934E-2,-1.2866857E-2,-5.0455477E-2,9.116497E-2,1.2675491E-5,4.2937044E-2,-5.692729E-2,-1.5271045E-1,6.302287E-2,-4.7224425E-3,1.1193677E-1,2.5605918E-3],"split_indices":[10,1,9,9,1,1,10,0,0,9,0,10,1,6,0,0,0,0,0,0,0,0,0,0,0,0,0,0,0,0,0],"split_type":[0,0,0,0,0,0,0,0,0,0,0,0,0,0,0,0,0,0,0,0,0,0,0,0,0,0,0,0,0,0,0],"sum_hessian":[1.02E3,5.46E2,4.74E2,3.9E1,5.07E2,2.51E2,2.23E2,5E0,3.4E1,2.51E2,2.56E2,2.37E2,1.4E1,1.51E2,7.2E1,4E0,1E0,2.6E1,8E0,8.8E1,1.63E2,2.54E2,2E0,1.47E2,9E1,9E0,5E0,1.27E2,2.4E1,6.9E1,3E0],"tree_param":{"num_deleted":"0","num_feature":"11","num_nodes":"31","size_leaf_vector":"1"}},{"base_weights":[-2.4143914E-2,-2.600589E-1,3.6415753E-1,-4.651844E-1,-1.2639472E-1,6.810157E-1,6.1607633E-2,-5.25175E-1,-2.6512665E-1,2.100602E-1,-2.2816296E-1,3.5428965E-1,8.0516094E-1,-3.960914E-1,2.7135378E-1,-5.352617E-2,2.786201E-2,-5.0000545E-2,-5.1322505E-3,3.8366396E-2,-1.2712309E-2,-1.8606909E-2,-6.1990608E-2,6.638519E-2,1.1318573E-2,1.0106956E-1,6.492736E-2,-3.070885E-2,-1.6098613E-1,1.0081061E-2,5.991263E-2],"categories":[],"categories_nodes":[],"categories_segments":[],"categories_sizes":[],"default_left":[0,0,0,0,0,0,0,0,0,0,0,0,0,0,0,0,0,0,0,0,0,0,0,0,0,0,0,0,0,0,0],"id":1,"left_children":[1,3,5,7,9,11,13,15,17,19,21,23,25,27,29,-1,-1,-1,-1,-1,-1,-1,-1,-1,-1,-1,-1,-1,-1,-1,-1],"loss_changes":[9.234208E1,1.7132248E1,3.648276E1,2.8251495E0,1.3093529E1,7.2591705E0,1.8923601E1,1.6814804E0,2.9372034E0,5.258502E0,4.716218E0,3.8806052E0,3.6371765E0,6.20343E0,7.4860163E0,0E0,0E0,0E0,0E0,0E0,0E0,0E0,0E0,0E0,0E0,0E0,0E0,0E0,0E0,0E0,0E0],"parents":[2147483647,0,0,1,1,2,2,3,3,4,4,5,5,6,6,7,7,8,8,9,9,10,10,11,11,12,12,13,13,14,14],"right_children":[2,4,6,8,10,12,14,16,18,20,22,24,26,28,30,-1,-1,-1,-1,-1,-1,-1,-1,-1,-1,-1,-1,-1,-1,-1,-1],"split_conditions":[1.1922725E-1,-4.6118036E-1,-4.9060723E-1,-4.4397622E-1,-6.582015E-1,-2.2512805E-1,-4.021673E-1,1.4830213E0,-4.1345352E-1,4.659285E-2,1.4830213E0,-1.3497748E0,-7.243587E-1,2.442293E0,1.1048334E0,-5.352617E-2,2.786201E-2,-5.0000545E-2,-5.1322505E-3,3.8366396E-2,-1.2712309E-2,-1.8606909E-2,-6.1990608E-2,6.638519E-2,1.1318573E-2,1.0106956E-1,6.492736E-2,-3.070885E-2,-1.6098613E-1,1.0081061E-2,5.991263E-2],"split_indices":[10,9,1,10,1,9,9,8,0,6,8,7,7,1,10,0,0,0,0,0,0,0,0,0,0,0,0,0,0,0,0],"split_type":[0,0,0,0,0,0,0,0,0,0,0,0,0,0,0,0,0,0,0,0,0,0,0,0,0,0,0,0,0,0,0],"sum_hessian":[1.006E3,6.26E2,3.8E2,2.46E2,3.8E2,1.85E2,1.95E2,1.88E2,5.8E1,8.8E1,2.92E2,5.2E1,1.33E2,6.1E1,1.34E2,1.86E2,2E0,2.7E1,3.1E1,5.8E1,3E1,2.65E2,2.7E1,2.2E1,3E1,5.5E1,7.8E1,5.8E1,3E0,8.9E1,4.5E1],"tree_param":{"num_deleted":"0","num_feature":"11","num_nodes":"31","size_leaf_vector":"1"}},{"base_weights":[1.1295649E-2,-2.475324E-1,3.4887162E-1,2.378302E-1,-2.987871E-1,4.0600958E-1,-1.0037295E0,-2.5191912E-1,4.8289526E-1,-4.888905E-1,-2.3546568E-1,6.19703E-1,1.8522733E-1,-1.2261114E0,8.113539E-2,-4.6212897E-2,9.488553E-3,3.0441621E-2,9.343471E-2,-6.969917E-2,-4.0307835E-2,-1.1823421E-2,-3.514896E-2,4.618476E-2,7.869589E-2,-1.54079115E-2,2.9931715E-2,-6.2901735E-2,-1.5542834E-1,2.8981034E-2,-2.7244473E-2],"categories":[],"categories_nodes":[],"categories_segments":[],"categories_sizes":[],"default_left":[0,0,0,0,0,0,0,0,0,0,0,0,0,0,0,0,0,0,0,0,0,0,0,0,0,0,0,0,0,0,0],"id":2,"left_children":[1,3,5,7,9,11,13,15,17,19,21,23,25,27,29,-1,-1,-1,-1,-1,-1,-1,-1,-1,-1,-1,-1,-1,-1,-1,-1],"loss_changes":[8.7984726E1,1.4251007E1,3.4181015E1,6.7227755E0,6.0962944E0,1.9700699E1,4.4420586E0,1.4289826E0,2.6968336E0,2.0048313E0,5.249485E0,5.2602234E0,8.098093E0,1.9615707E0,3.7409052E-1,0E0,0E0,0E0,0E0,0E0,0E0,0E0,0E0,0E0,0E0,0E0,0E0,0E0,0E0,0E0,0E0],"parents":[2147483647,0,0,1,1,2,2,3,3,4,4,5,5,6,6,7,7,8,8,9,9,10,10,11,11,12,12,13,13,14,14],"right_children":[2,4,6,8,10,12,14,16,18,20,22,24,26,28,30,-1,-1,-1,-1,-1,-1,-1,-1,-1,-1,-1,-1,-1,-1,-1,-1],"split_conditions":[7.229363E-2,-9.9339014E-1,1.8557129E0,1.0924247E-2,-6.9723266E-1,-4.3474248E-1,1.0109661E0,-8.1944525E-1,1.9421213E0,-1.0833695E0,1.6183885E-2,1.0109661E0,-4.6118036E-1,2.2746987E0,-9.305309E-1,-4.6212897E-2,9.488553E-3,3.0441621E-2,9.343471E-2,-6.969917E-2,-4.0307835E-2,-1.1823421E-2,-3.514896E-2,4.618476E-2,7.869589E-2,-1.54079115E-2,2.9931715E-2,-6.2901735E-2,-1.5542834E-1,2.8981034E-2,-2.7244473E-2],"split_indices":[10,1,1,9,9,1,10,10,0,2,6,10,9,1,0,0,0,0,0,0,0,0,0,0,0,0,0,0,0,0,0],"split_type":[0,0,0,0,0,0,0,0,0,0,0,0,0,0,0,0,0,0,0,0,0,0,0,0,0,0,0,0,0,0,0],"sum_hessian":[1.005E3,5.69E2,4.36E2,5.4E1,5.15E2,4.19E2,1.7E1,1.8E1,3.6E1,1.27E2,3.88E2,2.12E2,2.07E2,1.4E1,3E0,1.1E1,7E0,2.7E1,9E0,3.5E1,9.2E1,1.94E2,1.94E2,1.11E2,1.01E2,5.2E1,1.55E2,6E0,8E0,2E0,1E0],"tree_param":{"num_deleted":"0","num_feature":"11","num_nodes":"31","size_leaf_vector":"1"}},{"base_weights":[-2.0987422E-3,-1.1293426E-1,5.93142E-1,-2.7260944E-1,1.06654905E-1,3.6559412E-1,8.796386E-1,-2.3412731E-1,-8.147595E-1,-2.033639E-1,2.7554476E-1,5.7062244E-1,4.5400053E-2,9.209096E-1,-4.1876912E-2,-3.5967298E-2,-1.0270218E-2,-3.7225675E-2,-9.909669E-2,-6.1996537E-3,-4.690134E-2,5.2166045E-2,1.0253142E-2,6.604451E-2,1.8623587E-2,-4.129167E-2,2.8190875E-2,9.451573E-2,8.048884E-3,1.8580755E-2,-3.6246516E-2],"categories":[],"categories_nodes":[],"categories_segments":[],"categories_sizes":[],"default_left":[0,0,0,0,0,0,0,0,0,0,0,0,0,0,0,0,0,0,0,0,0,0,0,0,0,0,0,0,0,0,0],"id":3,"left_children":[1,3,5,7,9,11,13,15,17,19,21,23,25,27,29,-1,-1,-1,-1,-1,-1,-1,-1,-1,-1,-1,-1,-1,-1,-1,-1],"loss_changes":[6.808599E1,3.0533836E1,1.0239464E1,1.0324238E1,1.9271801E1,6.013788E0,2.738823E0,7.7509937E0,2.2041893E0,4.8529654E0,1.0080866E1,1.8104916E0,4.1270533E0,1.3096542E0,3.5932058E-1,0E0,0E0,0E0,0E0,0E0,0E0,0E0,0E0,0E0,0E0,0E0,0E0,0E0,0E0,0E0,0E0],"parents":[2147483647,0,0,1,1,2,2,3,3,4,4,5,5,6,6,7,7,8,8,9,9,10,10,11,11,12,12,13,13,14,14],"right_children":[2,4,6,8,10,12,14,16,18,20,22,24,26,28,30,-1,-1,-1,-1,-1,-1,-1,-1,-1,-1,-1,-1,-1,-1,-1,-1],"split_conditions":[1.1048334E0,-4.808883E-2,1.8796347E-1,1.9395101E0,-4.9090987E-1,-2.1128342E-1,1.2472923E0,-5.847771E-1,-7.212705E-3,3.810915E-1,-6.582015E-1,1.0803256E0,-6.0502E-1,2.211469E0,2.4591987E0,-3.5967298E-2,-1.0270218E-2,-3.7225675E-2,-9.909669E-2,-6.1996537E-3,-4.690134E-2,5.2166045E-2,1.0253142E-2,6.604451E-2,1.8623587E-2,-4.129167E-2,2.8190875E-2,9.451573E-2,8.048884E-3,1.8580755E-2,-3.6246516E-2],"split_indices":[10,9,9,1,10,1,7,10,8,6,1,0,4,5,0,0,0,0,0,0,0,0,0,0,0,0,0,0,0,0,0],"split_type":[0,0,0,0,0,0,0,0,0,0,0,0,0,0,0,0,0,0,0,0,0,0,0,0,0,0,0,0,0,0,0],"sum_hessian":[1.03E3,8.69E2,1.61E2,5.03E2,3.66E2,9.1E1,7E1,4.71E2,3.2E1,1.29E2,2.37E2,5.5E1,3.6E1,6.7E1,3E0,2.4E2,2.31E2,1E1,2.2E1,8.5E1,4.4E1,9.7E1,1.4E2,4.4E1,1.1E1,1.2E1,2.4E1,6.5E1,2E0,2E0,1E0],"tree_param":{"num_deleted":"0","num_feature":"11","num_nodes":"31","size_leaf_vector":"1"}},{"base_weights":[-7.647372E-3,-2.8360087E-1,1.9310184E-1,-1.6714044E-1,-4.0427664E-1,-1.3699896E-2,4.66167E-1,-1.7892066E-2,-3.3505225E-1,-4.6921107E-1,-2.596512E-1,1.7269962E-2,-1.1374159E0,3.31266E-1,7.645825E-1,-2.4919244E-2,8.387263E-3,-2.1523448E-2,-5.616916E-2,-5.0373483E-2,-9.132255E-4,-2.5453785E-4,-3.769703E-2,-7.324061E-3,2.6392072E-2,-1.21652246E-1,-2.5228143E-2,4.5288168E-2,-3.2834806E-3,8.048208E-2,1.6139507E-3],"categories":[],"categories_nodes":[],"categories_segments":[],"categories_sizes":[],"default_left":[0,0,0,0,0,0,0,0,0,0,0,0,0,0,0,0,0,0,0,0,0,0,0,0,0,0,0,0,0,0,0],"id":4,"left_children":[1,3,5,7,9,11,13,15,17,19,21,23,25,27,29,-1,-1,-1,-1,-1,-1,-1,-1,-1,-1,-1,-1,-1,-1,-1,-1],"loss_changes":[5.617238E1,5.933464E0,3.315448E1,5.48227E0,1.8409233E0,1.1678086E1,9.931625E0,2.7748713E0,2.6761131E0,2.266758E0,2.01999E0,7.319442E0,3.2327366E-1,7.808216E0,2.3360634E0,0E0,0E0,0E0,0E0,0E0,0E0,0E0,0E0,0E0,0E0,0E0,0E0,0E0,0E0,0E0,0E0],"parents":[2147483647,0,0,1,1,2,2,3,3,4,4,5,5,6,6,7,7,8,8,9,9,10,10,11,11,12,12,13,13,14,14],"right_children":[2,4,6,8,10,12,14,16,18,20,22,24,26,28,30,-1,-1,-1,-1,-1,-1,-1,-1,-1,-1,-1,-1,-1,-1,-1,-1],"split_conditions":[-3.970426E-1,2.635671E-1,1.289504E-1,4.659285E-2,8.9804393E-1,2.7495492E0,1.1048334E0,-4.021673E-1,5.5984527E-1,1.0141466E0,1.3845874E0,1.1048334E0,4.6170834E-2,1.0741079E-1,1.8846682E0,-2.4919244E-2,8.387263E-3,-2.1523448E-2,-5.616916E-2,-5.0373483E-2,-9.132255E-4,-2.5453785E-4,-3.769703E-2,-7.324061E-3,2.6392072E-2,-1.21652246E-1,-2.5228143E-2,4.5288168E-2,-3.2834806E-3,8.048208E-2,1.6139507E-3],"split_indices":[10,1,9,6,6,1,10,9,2,9,6,10,0,6,0,0,0,0,0,0,0,0,0,0,0,0,0,0,0,0,0],"split_type":[0,0,0,0,0,0,0,0,0,0,0,0,0,0,0,0,0,0,0,0,0,0,0,0,0,0,0,0,0,0,0],"sum_hessian":[1.012E3,4.26E2,5.86E2,2.18E2,2.08E2,3.34E2,2.52E2,1.16E2,1.02E2,1.42E2,6.6E1,3.26E2,8E0,1.75E2,7.7E1,3.5E1,8.1E1,6.8E1,3.4E1,1.32E2,1E1,2.1E1,4.5E1,2.39E2,8.7E1,7E0,1E0,1.31E2,4.4E1,7.3E1,4E0],"tree_param":{"num_deleted":"0","num_feature":"11","num_nodes":"31","size_leaf_vector":"1"}},{"base_weights":[-1.3000507E-2,-9.893797E-2,4.1775548E-1,2.1025488E-1,-2.0058809E-1,2.1029532E-1,6.8603283E-1,3.228444E-1,-1.8818869E-1,-1.6230269E-1,-7.5368524E-1,5.703912E-1,4.455529E-3,1.1018564E0,5.8107215E-1,-5.5749337E-3,5.0760902E-2,-5.5687823E-3,-5.059988E-2,-3.1189177E-2,-7.574675E-3,-3.678461E-2,-1.0013421E-1,7.4557625E-2,1.578898E-2,-4.3076385E-2,1.710405E-2,1.1875959E-1,-6.379128E-4,3.8261989E-3,6.7252554E-2],"categories":[],"categories_nodes":[],"categories_segments":[],"categories_sizes":[],"default_left":[0,0,0,0,0,0,0,0,0,0,0,0,0,0,0,0,0,0,0,0,0,0,0,0,0,0,0,0,0,0,0],"id":5,"left_children":[1,3,5,7,9,11,13,15,17,19,21,23,25,27,29,-1,-1,-1,-1,-1,-1,-1,-1,-1,-1,-1,-1,-1,-1,-1,-1],"loss_changes":[3.8503113E1,2.7291544E1,9.484369E0,9.705775E0,1.3705305E1,7.3355417E0,2.6331215E0,1.1780022E1,1.9931076E0,7.900444E0,3.6449986E0,2.4837866E0,4.7137427E0,1.3378525E0,3.052061E0,0E0,0E0,0E0,0E0,0E0,0E0,0E0,0E0,0E0,0E0,0E0,0E0,0E0,0E0,0E0,0E0],"parents":[2147483647,0,0,1,1,2,2,3,3,4,4,5,5,6,6,7,7,8,8,9,9,10,10,11,11,12,12,13,13,14,14],"right_children":[2,4,6,8,10,12,14,16,18,20,22,24,26,28,30,-1,-1,-1,-1,-1,-1,-1,-1,-1,-1,-1,-1,-1,-1,-1,-1],"split_conditions":[1.0109661E0,-6.582015E-1,1.8796347E-1,3.5068253E-1,1.8557129E0,-2.0159104E-1,-1.3603752E0,-4.808883E-2,1.0196798E0,-4.6118036E-1,-7.212705E-3,1.0803256E0,-6.262737E-1,1.8289459E0,-5.625125E-1,-5.5749337E-3,5.0760902E-2,-5.5687823E-3,-5.059988E-2,-3.1189177E-2,-7.574675E-3,-3.678461E-2,-1.0013421E-1,7.4557625E-2,1.578898E-2,-4.3076385E-2,1.710405E-2,1.1875959E-1,-6.379128E-4,3.8261989E-3,6.7252554E-2],"split_indices":[10,1,9,6,1,8,7,9,6,9,8,0,4,5,4,0,0,0,0,0,0,0,0,0,0,0,0,0,0,0,0],"split_type":[0,0,0,0,0,0,0,0,0,0,0,0,0,0,0,0,0,0,0,0,0,0,0,0,0,0,0,0,0,0,0],"sum_hessian":[1.038E3,8.66E2,1.72E2,2.14E2,6.52E2,9.8E1,7.4E1,1.67E2,4.7E1,6.11E2,4.1E1,3.5E1,6.3E1,1.3E1,6.1E1,5.5E1,1.12E2,3.4E1,1.3E1,2.23E2,3.88E2,1.7E1,2.4E1,2.4E1,1.1E1,1.7E1,4.6E1,1.2E1,1E0,9E0,5.2E1],"tree_param":{"num_deleted":"0","num_feature":"11","num_nodes":"31","size_leaf_vector":"1"}},{"base_weights":[9.934364E-4,-1.5522075E-1,2.506939E-1,2.7028224E-1,-1.8712266E-1,2.936152E-1,-6.051139E-1,1.206024E-1,9.2876613E-1,-2.5125572E-1,-2.0723835E-2,-2.4930798E-2,3.621786E-1,-1.7075406E-1,-9.054889E-1,2.169635E-2,-2.5582695E-2,1.0495335E-1,4.1697263E-3,-2.1424068E-2,-4.465449E-2,-4.6984497E-2,6.4043365E-3,2.2719478E-2,-2.4834989E-2,5.0966468E-2,2.76053E-2,1.7716354E-2,-6.499419E-2,-2.0282587E-2,-1.0391001E-1],"categories":[],"categories_nodes":[],"categories_segments":[],"categories_sizes":[],"default_left":[0,0,0,0,0,0,0,0,0,0,0,0,0,0,0,0,0,0,0,0,0,0,0,0,0,0,0,0,0,0,0],"id":6,"left_children":[1,3,5,7,9,11,13,15,17,19,21,23,25,27,29,-1,-1,-1,-1,-1,-1,-1,-1,-1,-1,-1,-1,-1,-1,-1,-1],"loss_changes":[3.963076E1,8.534549E0,1.4540041E1,4.2247057E0,6.2057037E0,8.155571E0,2.3243299E0,1.3976114E0,8.1326866E-1,2.940361E0,6.235621E0,3.8305113E0,3.7589226E0,1.6156069E0,8.219633E-1,0E0,0E0,0E0,0E0,0E0,0E0,0E0,0E0,0E0,0E0,0E0,0E0,0E0,0E0,0E0,0E0],"parents":[2147483647,0,0,1,1,2,2,3,3,4,4,5,5,6,6,7,7,8,8,9,9,10,10,11,11,12,12,13,13,14,14],"right_children":[2,4,6,8,10,12,14,16,18,20,22,24,26,28,30,-1,-1,-1,-1,-1,-1,-1,-1,-1,-1,-1,-1,-1,-1,-1,-1],"split_conditions":[1.1922725E-1,-1.1889168E0,1.8557129E0,1.9421213E0,-3.970426E-1,-5.2019346E-1,-9.305309E-1,1.1760659E-1,2.3571115E0,1.0736063E0,-7.5624573E-1,3.167512E-1,-2.6638383E-1,1.1961321E-2,7.055079E-1,2.169635E-2,-2.5582695E-2,1.0495335E-1,4.1697263E-3,-2.1424068E-2,-4.465449E-2,-4.6984497E-2,6.4043365E-3,2.2719478E-2,-2.4834989E-2,5.0966468E-2,2.76053E-2,1.7716354E-2,-6.499419E-2,-2.0282587E-2,-1.0391001E-1],"split_indices":[10,1,1,0,10,9,0,4,2,1,9,8,8,5,8,0,0,0,0,0,0,0,0,0,0,0,0,0,0,0,0],"split_type":[0,0,0,0,0,0,0,0,0,0,0,0,0,0,0,0,0,0,0,0,0,0,0,0,0,0,0,0,0,0,0],"sum_hessian":[1.014E3,6.24E2,3.9E2,4.3E1,5.81E2,3.72E2,1.8E1,3.6E1,7E0,4.19E2,1.62E2,6.6E1,3.06E2,8E0,1E1,2.9E1,7E0,6E0,1E0,3.54E2,6.5E1,2.5E1,1.37E2,3.1E1,3.5E1,1.11E2,1.95E2,5E0,3E0,2E0,8E0],"tree_param":{"num_deleted":"0","num_feature":"11","num_nodes":"31","size_leaf_vector":"1"}},{"base_weights":[2.3848774E-2,-1.1880127E-1,2.3638101E-1,-1.345868E-1,5.673343E-1,-6.6053815E-2,3.495102E-1,-8.309962E-2,-3.1001645E-1,1.2238995E-1,8.009267E-1,-6.7789685E-3,-1.1219921E0,3.6608315E-1,-5.235793E-1,6.9994316E-3,-1.7710522E-2,-6.1967213E-2,-2.6650814E-2,-1.8888077E-2,3.2524552E-2,8.911394E-2,3.961229E-3,3.0518308E-2,-1.363375E-2,-5.0537683E-2,-1.3039556E-1,4.2611223E-2,1.8104888E-2,-7.317192E-2,2.5856018E-2],"categories":[],"categories_nodes":[],"categories_segments":[],"categories_sizes":[],"default_left":[0,0,0,0,0,0,0,0,0,0,0,0,0,0,0,0,0,0,0,0,0,0,0,0,0,0,0,0,0,0,0],"id":7,"left_children":[1,3,5,7,9,11,13,15,17,19,21,23,25,27,29,-1,-1,-1,-1,-1,-1,-1,-1,-1,-1,-1,-1,-1,-1,-1,-1],"loss_changes":[3.1103758E1,6.726594E0,1.4119335E1,5.4026966E0,1.3570728E0,7.0651298E0,4.5325775E0,6.718922E0,1.6671267E0,4.4029057E-1,5.828223E-1,4.406681E0,1.4219761E-2,3.1995506E0,1.1659603E0,0E0,0E0,0E0,0E0,0E0,0E0,0E0,0E0,0E0,0E0,0E0,0E0,0E0,0E0,0E0,0E0],"parents":[2147483647,0,0,1,1,2,2,3,3,4,4,5,5,6,6,7,7,8,8,9,9,10,10,11,11,12,12,13,13,14,14],"right_children":[2,4,6,8,10,12,14,16,18,20,22,24,26,28,30,-1,-1,-1,-1,-1,-1,-1,-1,-1,-1,-1,-1,-1,-1,-1,-1],"split_conditions":[1.1922725E-1,2.4591987E0,-4.021673E-1,7.104852E-1,3.0598962E-1,2.442293E0,2.1350367E0,-3.1831476E-1,-8.1562483E-1,-8.487156E-1,2.3571115E0,-7.699311E-1,-7.581718E-1,1.3781975E-1,-2.1041165E-1,6.9994316E-3,-1.7710522E-2,-6.1967213E-2,-2.6650814E-2,-1.8888077E-2,3.2524552E-2,8.911394E-2,3.961229E-3,3.0518308E-2,-1.363375E-2,-5.0537683E-2,-1.3039556E-1,4.2611223E-2,1.8104888E-2,-7.317192E-2,2.5856018E-2],"split_indices":[10,0,9,1,9,1,1,6,0,5,2,1,0,6,2,0,0,0,0,0,0,0,0,0,0,0,0,0,0,0,0],"split_type":[0,0,0,0,0,0,0,0,0,0,0,0,0,0,0,0,0,0,0,0,0,0,0,0,0,0,0,0,0,0,0],"sum_hessian":[1.024E3,6.13E2,4.11E2,6E2,1.3E1,1.12E2,2.99E2,4.65E2,1.35E2,5E0,8E0,1.07E2,5E0,2.94E2,5E0,1.77E2,2.88E2,1.5E1,1.2E2,2E0,3E0,7E0,1E0,3.1E1,7.6E1,2E0,3E0,2.21E2,7.3E1,4E0,1E0],"tree_param":{"num_deleted":"0","num_feature":"11","num_nodes":"31","size_leaf_vector":"1"}},{"base_weights":[-1.2127581E-3,-1.22181125E-1,2.0983478E-1,-1.6237248E-1,1.6165914E-1,3.2768942E-2,3.9450368E-1,-1.2812425E-1,-4.933907E-1,5.2802946E-2,6.371062E-1,1.8477723E-1,-2.048009E-1,5.123246E-1,2.2718525E-1,-1.0893276E-2,-5.1781047E-2,3.3326503E-2,-5.676741E-2,-1.9410832E-2,2.0439556E-2,8.642434E-2,2.540574E-2,-2.8680067E-3,3.1858634E-2,-2.4549477E-2,5.7888903E-2,6.670987E-2,1.3356273E-2,9.835688E-2,1.4941244E-2],"categories":[],"categories_nodes":[],"categories_segments":[],"categories_sizes":[],"default_left":[0,0,0,0,0,0,0,0,0,0,0,0,0,0,0,0,0,0,0,0,0,0,0,0,0,0,0,0,0,0,0],"id":8,"left_children":[1,3,5,7,9,11,13,15,17,19,21,23,25,27,29,-1,-1,-1,-1,-1,-1,-1,-1,-1,-1,-1,-1,-1,-1,-1,-1],"loss_changes":[2.6066317E1,7.4299917E0,1.2150936E1,6.387418E0,4.1585426E0,6.935346E0,3.4714851E0,3.8100605E0,3.4437475E0,2.5474794E0,1.0855021E0,3.3509538E0,2.5339677E0,6.1248837E0,4.3826513E0,0E0,0E0,0E0,0E0,0E0,0E0,0E0,0E0,0E0,0E0,0E0,0E0,0E0,0E0,0E0,0E0],"parents":[2147483647,0,0,1,1,2,2,3,3,4,4,5,5,6,6,7,7,8,8,9,9,10,10,11,11,12,12,13,13,14,14],"right_children":[2,4,6,8,10,12,14,16,18,20,22,24,26,28,30,-1,-1,-1,-1,-1,-1,-1,-1,-1,-1,-1,-1,-1,-1,-1,-1],"split_conditions":[1.289504E-1,1.1048334E0,3.0696175E-1,1.5484567E0,-9.915745E-3,1.3781975E-1,-5.46472E-1,1.4830213E0,-7.325423E-1,-9.8798394E-1,-8.487156E-1,-5.847771E-1,3.5502996E0,-4.463405E-2,-1.741985E0,-1.0893276E-2,-5.1781047E-2,3.3326503E-2,-5.676741E-2,-1.9410832E-2,2.0439556E-2,8.642434E-2,2.540574E-2,-2.8680067E-3,3.1858634E-2,-2.4549477E-2,5.7888903E-2,6.670987E-2,1.3356273E-2,9.835688E-2,1.4941244E-2],"split_indices":[9,10,10,1,4,6,1,8,4,0,5,10,5,6,7,0,0,0,0,0,0,0,0,0,0,0,0,0,0,0,0],"split_type":[0,0,0,0,0,0,0,0,0,0,0,0,0,0,0,0,0,0,0,0,0,0,0,0,0,0,0,0,0,0,0],"sum_hessian":[1.019E3,6.48E2,3.71E2,5.68E2,8E1,1.9E2,1.81E2,5.16E2,5.2E1,6.6E1,1.4E1,1.16E2,7.4E1,1.05E2,7.6E1,4.93E2,2.3E1,4E0,4.8E1,2.5E1,4.1E1,8E0,6E0,4.5E1,7.1E1,7.1E1,3E0,7.4E1,3.1E1,6E0,7E1],"tree_param":{"num_deleted":"0","num_feature":"11","num_nodes":"31","size_leaf_vector":"1"}},{"base_weights":[-1.0102431E-2,2.8979346E-1,-9.74789E-2,-3.295784E-1,3.2589597E-1,-2.3651621E-1,3.4850255E-2,-4.8041722E-1,3.333567E-2,1.7053291E-1,4.451819E-1,-4.638794E-1,-2.0915245E-1,-1.9040461E-1,1.2864962E-1,-3.0102527E-2,-8.5845396E-2,2.1964073E-2,-3.9096978E-2,3.2000415E-2,6.2258583E-2,-3.3507276E-2,-1.5393712E-1,-1.21620275E-1,-2.0261347E-2,4.8130355E-3,-3.5465904E-2,5.030925E-3,3.906172E-2],"categories":[],"categories_nodes":[],"categories_segments":[],"categories_sizes":[],"default_left":[0,0,0,0,0,0,0,0,0,0,0,0,0,0,0,0,0,0,0,0,0,0,0,0,0,0,0,0,0],"id":9,"left_children":[1,3,5,7,9,11,13,15,-1,17,19,21,23,25,27,-1,-1,-1,-1,-1,-1,-1,-1,-1,-1,-1,-1,-1,-1],"loss_changes":[2.636311E1,5.1833286E0,1.4340824E1,1.4601026E0,3.908596E0,2.2671528E0,8.476001E0,4.875679E-1,0E0,2.7054198E0,2.4878197E0,5.0254183E0,1.999093E0,4.64036E0,5.788256E0,0E0,0E0,0E0,0E0,0E0,0E0,0E0,0E0,0E0,0E0,0E0,0E0,0E0,0E0],"parents":[2147483647,0,0,1,1,2,2,3,3,4,4,5,5,6,6,7,7,9,9,10,10,11,11,12,12,13,13,14,14],"right_children":[2,4,6,8,10,12,14,16,-1,18,20,22,24,26,28,-1,-1,-1,-1,-1,-1,-1,-1,-1,-1,-1,-1,-1,-1],"split_conditions":[-7.699311E-1,-1.2177961E0,-3.970426E-1,7.7057776E0,3.0696175E-1,-6.305879E-1,-4.6118036E-1,-4.532184E-1,3.333567E-2,7.703007E-1,4.8302886E-1,5.8518845E-1,-1.8050513E0,1.2237286E-1,1.1987007E0,-3.0102527E-2,-8.5845396E-2,2.1964073E-2,-3.9096978E-2,3.2000415E-2,6.2258583E-2,-3.3507276E-2,-1.5393712E-1,-1.21620275E-1,-2.0261347E-2,4.8130355E-3,-3.5465904E-2,5.030925E-3,3.906172E-2],"split_indices":[1,0,10,3,10,3,9,3,0,8,9,4,10,8,10,0,0,0,0,0,0,0,0,0,0,0,0,0,0],"split_type":[0,0,0,0,0,0,0,0,0,0,0,0,0,0,0,0,0,0,0,0,0,0,0,0,0,0,0,0,0],"sum_hessian":[1.004E3,2.26E2,7.78E2,1.2E1,2.14E2,3.79E2,3.99E2,1E1,2E0,9.4E1,1.2E2,3.9E1,3.4E2,1.17E2,2.82E2,8E0,2E0,8.7E1,7E0,7.2E1,4.8E1,3.6E1,3E0,1E0,3.39E2,4.8E1,6.9E1,2.18E2,6.4E1],"tree_param":{"num_deleted":"0","num_feature":"11","num_nodes":"29","size_leaf_vector":"1"}},{"base_weights":[6.466569E-3,-9.9753454E-2,1.7548557E-1,-2.8949893E-1,-4.309415E-2,2.5215617E-1,-6.1868314E-2,-1.9298135E-1,-4.0713057E-1,-8.959916E-3,-3.459397E-1,1.921832E-1,4.918402E-1,-1.5150754E-1,4.0139952E-1,-2.3484994E-2,2.184257E-2,-5.3064246E-2,-2.062039E-2,1.5136006E-3,-3.8951624E-2,2.5602818E-2,-3.6381464E-2,3.1085283E-2,5.829526E-3,6.332619E-2,1.0519485E-2,-3.3742718E-3,-5.4021504E-2,-7.6157763E-3,5.6693178E-2],"categories":[],"categories_nodes":[],"categories_segments":[],"categories_sizes":[],"default_left":[0,0,0,0,0,0,0,0,0,0,0,0,0,0,0,0,0,0,0,0,0,0,0,0,0,0,0,0,0,0,0],"id":10,"left_children":[1,3,5,7,9,11,13,15,17,19,21,23,25,27,29,-1,-1,-1,-1,-1,-1,-1,-1,-1,-1,-1,-1,-1,-1,-1,-1],"loss_changes":[1.8329773E1,6.7283044E0,7.1856375E0,1.5563393E0,5.000202E0,4.1890984E0,4.088931E0,1.4465241E0,1.4788561E0,4.0039525E0,6.203923E-1,3.7951012E0,3.1595078E0,3.7354093E0,1.3079944E0,0E0,0E0,0E0,0E0,0E0,0E0,0E0,0E0,0E0,0E0,0E0,0E0,0E0,0E0,0E0,0E0],"parents":[2147483647,0,0,1,1,2,2,3,3,4,4,5,5,6,6,7,7,8,8,9,9,10,10,11,11,12,12,13,13,14,14],"right_children":[2,4,6,8,10,12,14,16,18,20,22,24,26,28,30,-1,-1,-1,-1,-1,-1,-1,-1,-1,-1,-1,-1,-1,-1,-1,-1],"split_conditions":[1.1922725E-1,-6.9723266E-1,3.7529662E-1,-7.212705E-3,1.5062233E0,9.551335E-1,1.7619041E0,9.6573746E-1,-7.5043015E-2,1.4830213E0,-4.661925E-1,-4.703596E-1,1.6042774E0,5.400507E-1,-5.792065E-1,-2.3484994E-2,2.184257E-2,-5.3064246E-2,-2.062039E-2,1.5136006E-3,-3.8951624E-2,2.5602818E-2,-3.6381464E-2,3.1085283E-2,5.829526E-3,6.332619E-2,1.0519485E-2,-3.3742718E-3,-5.4021504E-2,-7.6157763E-3,5.6693178E-2],"split_indices":[10,9,1,8,6,9,10,3,6,8,5,6,9,3,9,0,0,0,0,0,0,0,0,0,0,0,0,0,0,0,0],"split_type":[0,0,0,0,0,0,0,0,0,0,0,0,0,0,0,0,0,0,0,0,0,0,0,0,0,0,0,0,0,0,0],"sum_hessian":[1.019E3,6.26E2,3.93E2,1.43E2,4.83E2,2.97E2,9.6E1,8E1,6.3E1,4.35E2,4.8E1,2.39E2,5.8E1,8.1E1,1.5E1,7.3E1,7E0,3.8E1,2.5E1,4.1E2,2.5E1,1E0,4.7E1,1.26E2,1.13E2,4.2E1,1.6E1,6.3E1,1.8E1,4E0,1.1E1],"tree_param":{"num_deleted":"0","num_feature":"11","num_nodes":"31","size_leaf_vector":"1"}},{"base_weights":[7.278228E-3,-1.4683944E-1,1.18777566E-1,-1.5577643E-1,4.0780368E-1,9.862187E-3,2.8374436E-1,-1.1561494E-1,-1.506049E-1,5.131114E-1,9.6356235E-2,2.7972874E-1,-4.616408E-2,2.1163486E-1,5.434325E-1,-1.2532813E-2,-3.0489871E-2,5.802368E-2,1.2230492E-2,1.1720729E-2,2.732706E-3,4.0369995E-2,-1.6529595E-2,-3.489004E-2,5.676501E-4,3.4205914E-2,5.9034405E-3,3.348551E-2,7.386158E-2],"categories":[],"categories_nodes":[],"categories_segments":[],"categories_sizes":[],"default_left":[0,0,0,0,0,0,0,0,0,0,0,0,0,0,0,0,0,0,0,0,0,0,0,0,0,0,0,0,0],"id":11,"left_children":[1,3,5,7,9,11,13,-1,15,17,19,21,23,25,27,-1,-1,-1,-1,-1,-1,-1,-1,-1,-1,-1,-1,-1,-1],"loss_changes":[1.7356113E1,2.165227E0,1.0526111E1,1.9883785E0,1.8014336E-1,5.3652577E0,4.248148E0,0E0,1.588109E0,6.01995E-2,1.1150613E-3,3.432115E0,4.616024E0,3.641922E0,1.7882109E0,0E0,0E0,0E0,0E0,0E0,0E0,0E0,0E0,0E0,0E0,0E0,0E0,0E0,0E0],"parents":[2147483647,0,0,1,1,2,2,3,3,4,4,5,5,6,6,8,8,9,9,10,10,11,11,12,12,13,13,14,14],"right_children":[2,4,6,8,10,12,14,-1,16,18,20,22,24,26,28,-1,-1,-1,-1,-1,-1,-1,-1,-1,-1,-1,-1,-1,-1],"split_conditions":[-4.4397622E-1,2.4591987E0,1.8796347E-1,-1.8050513E0,1.3301022E0,-9.09593E-1,1.4803023E0,-1.1561494E-1,1.0736063E0,-1.6942723E-1,2.5166516E0,4.4633678E-1,-9.5690304E-1,-5.46472E-1,-1.6942723E-1,-1.2532813E-2,-3.0489871E-2,5.802368E-2,1.2230492E-2,1.1720729E-2,2.732706E-3,4.0369995E-2,-1.6529595E-2,-3.489004E-2,5.676501E-4,3.4205914E-2,5.9034405E-3,3.348551E-2,7.386158E-2],"split_indices":[10,0,9,10,2,1,10,0,1,3,0,8,6,1,3,0,0,0,0,0,0,0,0,0,0,0,0,0,0],"split_type":[0,0,0,0,0,0,0,0,0,0,0,0,0,0,0,0,0,0,0,0,0,0,0,0,0,0,0,0,0],"sum_hessian":[1.008E3,4.23E2,5.85E2,4.17E2,6E0,3.53E2,2.32E2,1E0,4.16E2,4E0,2E0,6E1,2.93E2,1.83E2,4.9E1,3.59E2,5.7E1,3E0,1E0,1E0,1E0,4.7E1,1.3E1,4.2E1,2.51E2,9.8E1,8.5E1,2.5E1,2.4E1],"tree_param":{"num_deleted":"0","num_feature":"11","num_nodes":"29","size_leaf_vector":"1"}},{"base_weights":[-7.011433E-3,-8.923242E-2,1.5624899E-1,-1.15256876E-1,1.7631467E-1,2.544061E-1,-2.026769E-1,-2.3957177E-1,-6.493266E-2,4.2434227E-1,3.963174E-3,3.4055746E-1,-7.199119E-2,-8.0960894E-1,-1.4696287E-1,-1.9776171E-2,-6.0023006E-2,-1.0672854E-4,-1.7531065E-2,4.6529934E-2,-2.7931333E-2,1.8953612E-2,-2.5144732E-2,3.8591515E-2,-7.0771105E-3,3.9354283E-3,-4.9281623E-2,-3.0842615E-2,-1.20798305E-1,3.0415064E-2,-1.9475384E-2],"categories":[],"categories_nodes":[],"categories_segments":[],"categories_sizes":[],"default_left":[0,0,0,0,0,0,0,0,0,0,0,0,0,0,0,0,0,0,0,0,0,0,0,0,0,0,0,0,0,0,0],"id":12,"left_children":[1,3,5,7,9,11,13,15,17,19,21,23,25,27,29,-1,-1,-1,-1,-1,-1,-1,-1,-1,-1,-1,-1,-1,-1,-1,-1],"loss_changes":[1.3705843E1,4.712699E0,1.210061E1,3.8569393E0,2.6059422E0,7.588682E0,2.3833003E0,2.5653858E0,3.115618E0,8.5045576E-1,1.8013576E0,4.0012302E0,2.6902418E0,8.253763E-1,1.5468163E0,0E0,0E0,0E0,0E0,0E0,0E0,0E0,0E0,0E0,0E0,0E0,0E0,0E0,0E0,0E0,0E0],"parents":[2147483647,0,0,1,1,2,2,3,3,4,4,5,5,6,6,7,7,8,8,9,9,10,10,11,11,12,12,13,13,14,14],"right_children":[2,4,6,8,10,12,14,16,18,20,22,24,26,28,30,-1,-1,-1,-1,-1,-1,-1,-1,-1,-1,-1,-1,-1,-1,-1,-1],"split_conditions":[1.8796347E-1,1.5741696E0,2.0262147E-1,-6.9723266E-1,-6.528134E-1,3.5068253E-1,-6.305879E-1,1.9395101E0,2.932676E-1,1.2691329E0,-1.5541865E-1,6.2668806E-1,1.6886771E0,-1.8364134E-1,-1.1479806E0,-1.9776171E-2,-6.0023006E-2,-1.0672854E-4,-1.7531065E-2,4.6529934E-2,-2.7931333E-2,1.8953612E-2,-2.5144732E-2,3.8591515E-2,-7.0771105E-3,3.9354283E-3,-4.9281623E-2,-3.0842615E-2,-1.20798305E-1,3.0415064E-2,-1.9475384E-2],"split_indices":[9,10,4,9,6,6,3,1,7,1,1,1,6,0,10,0,0,0,0,0,0,0,0,0,0,0,0,0,0,0,0],"split_type":[0,0,0,0,0,0,0,0,0,0,0,0,0,0,0,0,0,0,0,0,0,0,0,0,0,0,0,0,0,0,0],"sum_hessian":[1.019E3,6.78E2,3.41E2,6.18E2,6E1,2.68E2,7.3E1,1.77E2,4.41E2,2.4E1,3.6E1,2.12E2,5.6E1,5E0,6.8E1,1.6E2,1.7E1,2.8E2,1.61E2,2.3E1,1E0,2.1E1,1.5E1,1.91E2,2.1E1,4.5E1,1.1E1,3E0,2E0,6E0,6.2E1],"tree_param":{"num_deleted":"0","num_feature":"11","num_nodes":"31","size_leaf_vector":"1"}},{"base_weights":[-1.2842338E-2,-1.5023635E-1,5.577265E-2,-2.0003721E-1,6.353707E-2,1.2487094E-1,-1.526632E-1,-1.6466445E-1,-6.6983384E-1,2.0828156E-1,-3.5740513E-1,9.072917E-2,3.7121072E-1,-7.928886E-2,-3.2717586E-1,-1.3693206E-2,-4.7112375E-2,-9.936721E-2,-3.981222E-2,7.494709E-2,1.002388E-2,-1.1252081E-1,-1.1250394E-2,1.2843803E-2,-1.7754644E-2,6.67265E-2,2.445399E-2,9.567467E-4,-2.5290042E-2,3.684346E-2,-3.6383536E-2],"categories":[],"categories_nodes":[],"categories_segments":[],"categories_sizes":[],"default_left":[0,0,0,0,0,0,0,0,0,0,0,0,0,0,0,0,0,0,0,0,0,0,0,0,0,0,0,0,0,0,0],"id":13,"left_children":[1,3,5,7,9,11,13,15,17,19,21,23,25,27,29,-1,-1,-1,-1,-1,-1,-1,-1,-1,-1,-1,-1,-1,-1,-1,-1],"loss_changes":[9.624214E0,3.6323843E0,9.827208E0,4.4762707E0,4.03483E0,4.272484E0,2.1508658E0,2.1281905E0,1.2762194E0,2.789982E0,3.0700192E0,4.585284E0,2.1619167E0,1.8690245E0,1.4090862E0,0E0,0E0,0E0,0E0,0E0,0E0,0E0,0E0,0E0,0E0,0E0,0E0,0E0,0E0,0E0,0E0],"parents":[2147483647,0,0,1,1,2,2,3,3,4,4,5,5,6,6,7,7,8,8,9,9,10,10,11,11,12,12,13,13,14,14],"right_children":[2,4,6,8,10,12,14,16,18,20,22,24,26,28,30,-1,-1,-1,-1,-1,-1,-1,-1,-1,-1,-1,-1,-1,-1,-1,-1],"split_conditions":[-4.6118036E-1,7.293644E-1,3.5068253E-1,4.4776264E-1,-7.0845824E-1,1.4803023E0,1.5062233E0,1.0228726E0,-5.0076854E-1,-1.0785389E0,-5.335537E-1,1.0942646E0,-8.6567616E-1,1.1760659E-1,-2.4045455E0,-1.3693206E-2,-4.7112375E-2,-9.936721E-2,-3.981222E-2,7.494709E-2,1.002388E-2,-1.1252081E-1,-1.1250394E-2,1.2843803E-2,-1.7754644E-2,6.67265E-2,2.445399E-2,9.567467E-4,-2.5290042E-2,3.684346E-2,-3.6383536E-2],"split_indices":[9,10,6,10,7,10,6,0,6,6,7,8,6,4,8,0,0,0,0,0,0,0,0,0,0,0,0,0,0,0,0],"split_type":[0,0,0,0,0,0,0,0,0,0,0,0,0,0,0,0,0,0,0,0,0,0,0,0,0,0,0,0,0,0,0],"sum_hessian":[1.019E3,3.39E2,6.8E2,2.75E2,6.4E1,5.11E2,1.69E2,2.57E2,1.8E1,4.8E1,1.6E1,4.5E2,6.1E1,1.2E2,4.9E1,2.37E2,2E1,7E0,1.1E1,7E0,4.1E1,3E0,1.3E1,3.95E2,5.5E1,1.7E1,4.4E1,8E1,4E1,2E0,4.7E1],"tree_param":{"num_deleted":"0","num_feature":"11","num_nodes":"31","size_leaf_vector":"1"}},{"base_weights":[-3.0570782E-3,-8.0428965E-2,1.1310433E-1,-9.233599E-2,5.709447E-1,1.3318151E-1,-5.521757E-1,-5.6703813E-2,-2.1935336E-1,1.3295484E-1,7.1857154E-1,-4.7387403E-2,1.7534971E-1,-7.4991626E-1,2.9101817E-2,2.3879684E-3,-1.5253248E-2,5.2413302E-3,-3.0862832E-2,1.817066E-2,-6.6502095E-4,9.04064E-2,1.0806275E-2,3.7084654E-2,-2.0621514E-2,-5.4651417E-2,1.8628594E-2,-8.983522E-2,-4.2180996E-2],"categories":[],"categories_nodes":[],"categories_segments":[],"categories_sizes":[],"default_left":[0,0,0,0,0,0,0,0,0,0,0,0,0,0,0,0,0,0,0,0,0,0,0,0,0,0,0,0,0],"id":14,"left_children":[1,3,5,7,9,11,13,15,17,19,21,23,25,27,-1,-1,-1,-1,-1,-1,-1,-1,-1,-1,-1,-1,-1,-1,-1],"loss_changes":[9.059639E0,4.7450533E0,5.456389E0,2.6804752E0,6.157119E-1,2.9931011E0,2.219043E0,3.6021914E0,3.1702318E0,2.8432354E-2,8.0826235E-1,5.0585103E0,2.6122437E0,1.0809374E-1,0E0,0E0,0E0,0E0,0E0,0E0,0E0,0E0,0E0,0E0,0E0,0E0,0E0,0E0,0E0],"parents":[2147483647,0,0,1,1,2,2,3,3,4,4,5,5,6,6,7,7,8,8,9,9,10,10,11,11,12,12,13,13],"right_children":[2,4,6,8,10,12,14,16,18,20,22,24,26,28,-1,-1,-1,-1,-1,-1,-1,-1,-1,-1,-1,-1,-1,-1,-1],"split_conditions":[1.1922725E-1,2.4591987E0,2.1350367E0,5.5984527E-1,3.0598962E-1,-9.8798394E-1,1.0109661E0,4.5909378E-1,-9.9339014E-1,2.5741048E0,-7.3676914E-2,-2.0599933E0,-2.4693384E0,-3.7056175E-1,2.9101817E-2,2.3879684E-3,-1.5253248E-2,5.2413302E-3,-3.0862832E-2,1.817066E-2,-6.6502095E-4,9.04064E-2,1.0806275E-2,3.7084654E-2,-2.0621514E-2,-5.4651417E-2,1.8628594E-2,-8.983522E-2,-4.2180996E-2],"split_indices":[10,0,1,2,9,0,10,1,1,0,4,7,8,5,0,0,0,0,0,0,0,0,0,0,0,0,0,0,0],"split_type":[0,0,0,0,0,0,0,0,0,0,0,0,0,0,0,0,0,0,0,0,0,0,0,0,0,0,0,0,0],"sum_hessian":[1.006E3,6.04E2,4.02E2,5.94E2,1E1,3.91E2,1.1E1,4.65E2,1.29E2,3E0,7E0,7.4E1,3.17E2,9E0,2E0,2.53E2,2.12E2,3.2E1,9.7E1,2E0,1E0,5E0,2E0,2E1,5.4E1,4E0,3.13E2,5E0,4E0],"tree_param":{"num_deleted":"0","num_feature":"11","num_nodes":"29","size_leaf_vector":"1"}},{"base_weights":[-7.57465E-3,-5.0943583E-2,2.2208771E-1,1.2851025E-2,-1.738188E-1,-3.0163402E-2,3.1854078E-1,-1.1306657E-1,9.314083E-2,-5.209648E-1,-1.4803351E-1,-2.025163E-1,4.7504616E-1,-1.0609476E-2,3.7789392E-1,-4.2301537E-3,-3.4360033E-2,1.2319552E-2,-2.2954525E-2,-1.4332193E-2,-7.607832E-2,-1.09466E-2,-3.6030333E-2,-6.0847122E-2,-5.969738E-3,6.2054772E-2,-1.6830778E-2,-1.2131893E-2,1.9650944E-2,4.238905E-2,-3.2795605E-3],"categories":[],"categories_nodes":[],"categories_segments":[],"categories_sizes":[],"default_left":[0,0,0,0,0,0,0,0,0,0,0,0,0,0,0,0,0,0,0,0,0,0,0,0,0,0,0,0,0,0,0],"id":15,"left_children":[1,3,5,7,9,11,13,15,17,19,21,23,25,27,29,-1,-1,-1,-1,-1,-1,-1,-1,-1,-1,-1,-1,-1,-1,-1,-1],"loss_changes":[1.02205305E1,6.7670975E0,3.975463E0,5.763064E0,2.5635004E0,4.101624E0,2.30927E0,3.6071122E0,3.403261E0,1.7022777E0,2.2200942E0,1.9929074E0,1.227751E0,4.595107E-1,1.9029312E0,0E0,0E0,0E0,0E0,0E0,0E0,0E0,0E0,0E0,0E0,0E0,0E0,0E0,0E0,0E0,0E0],"parents":[2147483647,0,0,1,1,2,2,3,3,4,4,5,5,6,6,7,7,8,8,9,9,10,10,11,11,12,12,13,13,14,14],"right_children":[2,4,6,8,10,12,14,16,18,20,22,24,26,28,30,-1,-1,-1,-1,-1,-1,-1,-1,-1,-1,-1,-1,-1,-1,-1,-1],"split_conditions":[1.1048334E0,4.5909378E-1,-6.0502E-1,-5.847771E-1,-6.305879E-1,1.0500888E0,-6.382196E-1,9.70649E-1,1.3845874E0,-5.847771E-1,1.8557129E0,1.5741696E0,1.7421924E0,-1.586918E-1,5.0017357E-1,-4.2301537E-3,-3.4360033E-2,1.2319552E-2,-2.2954525E-2,-1.4332193E-2,-7.607832E-2,-1.09466E-2,-3.6030333E-2,-6.0847122E-2,-5.969738E-3,6.2054772E-2,-1.6830778E-2,-1.2131893E-2,1.9650944E-2,4.238905E-2,-3.2795605E-3],"split_indices":[10,1,4,10,3,6,9,2,6,10,1,10,8,4,4,0,0,0,0,0,0,0,0,0,0,0,0,0,0,0,0],"split_type":[0,0,0,0,0,0,0,0,0,0,0,0,0,0,0,0,0,0,0,0,0,0,0,0,0,0,0,0,0,0,0],"sum_hessian":[1.024E3,8.62E2,1.62E2,5.68E2,2.94E2,4.5E1,1.17E2,2.21E2,3.47E2,1.9E1,2.75E2,3.4E1,1.1E1,1.8E1,9.9E1,1.7E2,5.1E1,3.18E2,2.9E1,8E0,1.1E1,2.34E2,4.1E1,8E0,2.6E1,9E0,2E0,1.2E1,6E0,8.9E1,1E1],"tree_param":{"num_deleted":"0","num_feature":"11","num_nodes":"31","size_leaf_vector":"1"}},{"base_weights":[1.2502669E-2,1.6751495E-1,-3.6550235E-2,-8.786228E-2,2.3959354E-1,-2.4605761E-1,-1.06922155E-2,-4.7339803E-1,-2.0369763E-2,3.2321543E-1,-3.517901E-2,-4.1849816E-1,-6.3652836E-2,-9.051625E-2,5.3744346E-2,-2.555872E-2,-6.273121E-2,2.5140911E-2,-1.5562265E-2,-5.0524797E-2,3.4427624E-2,1.6823724E-2,-1.7702086E-2,-3.208765E-2,-9.670188E-2,1.4761807E-2,-4.9673878E-2,-3.0052846E-2,-7.069184E-3,-1.31125795E-2,1.0070215E-2],"categories":[],"categories_nodes":[],"categories_segments":[],"categories_sizes":[],"default_left":[0,0,0,0,0,0,0,0,0,0,0,0,0,0,0,0,0,0,0,0,0,0,0,0,0,0,0,0,0,0,0],"id":16,"left_children":[1,3,5,7,9,11,13,15,17,19,21,23,25,27,29,-1,-1,-1,-1,-1,-1,-1,-1,-1,-1,-1,-1,-1,-1,-1,-1],"loss_changes":[7.6555476E0,4.475602E0,4.141716E0,1.395479E0,4.354021E0,2.6154957E0,3.5127904E0,1.0786021E-1,1.7667922E0,2.703926E0,1.3281636E0,1.9922476E0,3.9162626E0,1.2485821E0,3.2946587E0,0E0,0E0,0E0,0E0,0E0,0E0,0E0,0E0,0E0,0E0,0E0,0E0,0E0,0E0,0E0,0E0],"parents":[2147483647,0,0,1,1,2,2,3,3,4,4,5,5,6,6,7,7,8,8,9,9,10,10,11,11,12,12,13,13,14,14],"right_children":[2,4,6,8,10,12,14,16,18,20,22,24,26,28,30,-1,-1,-1,-1,-1,-1,-1,-1,-1,-1,-1,-1,-1,-1,-1,-1],"split_conditions":[-7.699311E-1,-5.847771E-1,-9.4434637E-1,-2.2084567E-1,3.81544E-1,-4.021673E-1,-4.9090987E-1,-5.283596E-1,6.625462E-1,-1.2177961E0,-5.858126E-1,2.0262147E-1,7.356074E-1,-6.305879E-1,-6.382196E-1,-2.555872E-2,-6.273121E-2,2.5140911E-2,-1.5562265E-2,-5.0524797E-2,3.4427624E-2,1.6823724E-2,-1.7702086E-2,-3.208765E-2,-9.670188E-2,1.4761807E-2,-4.9673878E-2,-3.0052846E-2,-7.069184E-3,-1.31125795E-2,1.0070215E-2],"split_indices":[1,10,5,7,8,9,10,0,2,0,0,4,0,3,9,0,0,0,0,0,0,0,0,0,0,0,0,0,0,0,0],"split_type":[0,0,0,0,0,0,0,0,0,0,0,0,0,0,0,0,0,0,0,0,0,0,0,0,0,0,0,0,0,0,0],"sum_hessian":[1.005E3,2.41E2,7.64E2,5.3E1,1.88E2,8.3E1,6.81E2,7E0,4.6E1,1.44E2,4.4E1,4.2E1,4.1E1,3.04E2,3.77E2,4E0,3E0,1.5E1,3.1E1,3E0,1.41E2,1.8E1,2.6E1,3.7E1,5E0,2.8E1,1.3E1,2.5E1,2.79E2,7.6E1,3.01E2],"tree_param":{"num_deleted":"0","num_feature":"11","num_nodes":"31","size_leaf_vector":"1"}},{"base_weights":[-5.6902664E-3,-4.673291E-2,2.0756596E-1,6.733289E-2,-8.533806E-2,-2.0373741E-2,2.8371152E-1,-1.3438305E-1,1.5505421E-1,-7.32943E-2,-4.532235E-1,2.59093E-1,-3.7231204E-1,4.2793497E-1,1.8888997E-1,1.8517215E-2,-1.8165227E-2,2.2278069E-2,-1.951984E-2,-3.6589347E-3,-1.9607576E-2,-5.053224E-2,2.6832795E-2,-7.263901E-2,3.3352226E-2,-7.553262E-2,-1.3743426E-2,7.1987376E-2,2.287759E-2,-2.3139429E-3,3.1305585E-2],"categories":[],"categories_nodes":[],"categories_segments":[],"categories_sizes":[],"default_left":[0,0,0,0,0,0,0,0,0,0,0,0,0,0,0,0,0,0,0,0,0,0,0,0,0,0,0,0,0,0,0],"id":17,"left_children":[1,3,5,7,9,11,13,15,17,19,21,23,25,27,29,-1,-1,-1,-1,-1,-1,-1,-1,-1,-1,-1,-1,-1,-1,-1,-1],"loss_changes":[8.893589E0,3.7575517E0,2.852262E0,3.8429112E0,2.789153E0,4.2273755E0,1.6012535E0,1.0305748E0,3.6254134E0,2.7779582E0,8.8743305E-1,2.0026383E0,1.6054611E0,2.6261387E0,2.0080824E0,0E0,0E0,0E0,0E0,0E0,0E0,0E0,0E0,0E0,0E0,0E0,0E0,0E0,0E0,0E0,0E0],"parents":[2147483647,0,0,1,1,2,2,3,3,4,4,5,5,6,6,7,7,8,8,9,9,10,10,11,11,12,12,13,13,14,14],"right_children":[2,4,6,8,10,12,14,16,18,20,22,24,26,28,30,-1,-1,-1,-1,-1,-1,-1,-1,-1,-1,-1,-1,-1,-1,-1,-1],"split_conditions":[1.0109661E0,-6.582015E-1,-6.0502E-1,-5.847771E-1,1.8717779E0,-1.6783834E0,-8.048582E-1,-1.4326539E0,9.68269E-1,3.0309296E-1,9.551335E-1,-2.0795918E0,-2.8414112E-1,-4.6076217E-1,-3.791327E-1,1.8517215E-2,-1.8165227E-2,2.2278069E-2,-1.951984E-2,-3.6589347E-3,-1.9607576E-2,-5.053224E-2,2.6832795E-2,-7.263901E-2,3.3352226E-2,-7.553262E-2,-1.3743426E-2,7.1987376E-2,2.287759E-2,-2.3139429E-3,3.1305585E-2],"split_indices":[10,1,4,10,8,7,6,8,5,2,9,0,9,8,6,0,0,0,0,0,0,0,0,0,0,0,0,0,0,0,0],"split_type":[0,0,0,0,0,0,0,0,0,0,0,0,0,0,0,0,0,0,0,0,0,0,0,0,0,0,0,0,0,0,0],"sum_hessian":[1.014E3,8.51E2,1.63E2,2.15E2,6.36E2,4.1E1,1.22E2,6.5E1,1.5E2,6.17E2,1.9E1,2.3E1,1.8E1,4.7E1,7.5E1,8E0,5.7E1,1.26E2,2.4E1,4.76E2,1.41E2,1.8E1,1E0,1E0,2.2E1,6E0,1.2E1,1.8E1,2.9E1,2.8E1,4.7E1],"tree_param":{"num_deleted":"0","num_feature":"11","num_nodes":"31","size_leaf_vector":"1"}},{"base_weights":[-1.4876282E-2,1.4385957E-1,-5.4397512E-2,3.991897E-1,8.3370134E-2,-7.5462826E-2,1.9660306E-1,6.438801E-2,6.0575795E-1,3.904093E-1,3.4092404E-2,-3.402212E-1,-5.4730285E-2,4.8805736E-2,4.4089836E-1,3.6009815E-2,-2.7633442E-2,-4.2235377E-4,7.2796546E-2,4.4146538E-4,4.71439E-2,-5.614418E-3,2.066648E-2,2.8541584E-2,-4.8559424E-2,-2.681826E-3,-1.7367702E-2,-3.7205037E-2,1.1759271E-2,-3.055266E-2,5.2264273E-2],"categories":[],"categories_nodes":[],"categories_segments":[],"categories_sizes":[],"default_left":[0,0,0,0,0,0,0,0,0,0,0,0,0,0,0,0,0,0,0,0,0,0,0,0,0,0,0,0,0,0,0],"id":18,"left_children":[1,3,5,7,9,11,13,15,17,19,21,23,25,27,29,-1,-1,-1,-1,-1,-1,-1,-1,-1,-1,-1,-1,-1,-1,-1,-1],"loss_changes":[6.4506445E0,3.1328983E0,4.3663716E0,2.6582127E0,2.5134323E0,4.153106E0,2.2892776E0,1.7115886E0,1.7921381E0,7.172904E-1,2.2695928E0,5.1408873E0,2.3392937E0,1.2306764E0,1.6240664E0,0E0,0E0,0E0,0E0,0E0,0E0,0E0,0E0,0E0,0E0,0E0,0E0,0E0,0E0,0E0,0E0],"parents":[2147483647,0,0,1,1,2,2,3,3,4,4,5,5,6,6,7,7,8,8,9,9,10,10,11,11,12,12,13,13,14,14],"right_children":[2,4,6,8,10,12,14,16,18,20,22,24,26,28,30,-1,-1,-1,-1,-1,-1,-1,-1,-1,-1,-1,-1,-1,-1,-1,-1],"split_conditions":[-9.09593E-1,-9.791044E-1,1.5741696E0,1.0219995E0,-9.87312E-1,-9.87312E-1,1.8796347E-1,-4.661925E-1,-8.1944525E-1,-6.382196E-1,8.371073E-1,-5.2555496E-1,2.238752E-1,-7.5624573E-1,-8.9608514E-1,3.6009815E-2,-2.7633442E-2,-4.2235377E-4,7.2796546E-2,4.4146538E-4,4.71439E-2,-5.614418E-3,2.066648E-2,2.8541584E-2,-4.8559424E-2,-2.681826E-3,-1.7367702E-2,-3.7205037E-2,1.1759271E-2,-3.055266E-2,5.2264273E-2],"split_indices":[1,8,10,2,6,6,9,5,10,9,9,8,4,9,6,0,0,0,0,0,0,0,0,0,0,0,0,0,0,0,0],"split_type":[0,0,0,0,0,0,0,0,0,0,0,0,0,0,0,0,0,0,0,0,0,0,0,0,0,0,0,0,0,0,0],"sum_hessian":[1.026E3,2.04E2,8.22E2,3.8E1,1.66E2,7.59E2,6.3E1,1.5E1,2.3E1,2.2E1,1.44E2,5.4E1,7.05E2,4E1,2.3E1,8E0,7E0,4E0,1.9E1,4E0,1.8E1,9.5E1,4.9E1,1E1,4.4E1,5.72E2,1.33E2,5E0,3.5E1,2E0,2.1E1],"tree_param":{"num_deleted":"0","num_feature":"11","num_nodes":"31","size_leaf_vector":"1"}},{"base_weights":[1.1611381E-3,-5.164097E-2,1.0538454E-1,5.461179E-1,-5.8659412E-2,2.93874E-2,2.9938355E-1,8.957291E-2,8.021303E-2,-3.0077329E-2,-2.1864839E-1,6.7419946E-2,-2.4024214E-1,5.4469466E-1,2.2443318E-1,-1.3745244E-2,3.8532447E-2,-1.4872876E-2,1.3505341E-4,-8.042228E-3,-3.552976E-2,-4.1326165E-4,2.9160595E-2,-2.1875885E-3,-5.0383862E-2,1.20673245E-2,6.9616064E-2,2.5585795E-2,-4.0517665E-2],"categories":[],"categories_nodes":[],"categories_segments":[],"categories_sizes":[],"default_left":[0,0,0,0,0,0,0,0,0,0,0,0,0,0,0,0,0,0,0,0,0,0,0,0,0,0,0,0,0],"id":19,"left_children":[1,3,5,7,9,11,13,15,-1,17,19,21,23,25,27,-1,-1,-1,-1,-1,-1,-1,-1,-1,-1,-1,-1,-1,-1],"loss_changes":[5.6462383E0,2.889059E0,5.0776644E0,8.632002E-1,3.075503E0,2.569617E0,1.6612101E0,3.2153618E-1,0E0,2.1368954E0,1.8980517E0,3.5142026E0,1.7733562E0,1.3289385E0,1.6073525E0,0E0,0E0,0E0,0E0,0E0,0E0,0E0,0E0,0E0,0E0,0E0,0E0,0E0,0E0],"parents":[2147483647,0,0,1,1,2,2,3,3,4,4,5,5,6,6,7,7,9,9,10,10,11,11,12,12,13,13,14,14],"right_children":[2,4,6,8,10,12,14,16,-1,18,20,22,24,26,28,-1,-1,-1,-1,-1,-1,-1,-1,-1,-1,-1,-1,-1,-1],"split_conditions":[1.8796347E-1,-1.8862034E0,8.2323164E-1,-4.0954167E-1,1.8136775E-1,1.0804977E0,-8.6567616E-1,2.1144805E0,8.021303E-2,-8.6637884E-1,2.8260767E-2,7.942248E-3,-2.6638383E-1,-7.325423E-1,1.7697622E0,-1.3745244E-2,3.8532447E-2,-1.4872876E-2,1.3505341E-4,-8.042228E-3,-3.552976E-2,-4.1326165E-4,2.9160595E-2,-2.1875885E-3,-5.0383862E-2,1.20673245E-2,6.9616064E-2,2.5585795E-2,-4.0517665E-2],"split_indices":[9,8,10,6,4,6,6,0,0,10,7,3,8,4,0,0,0,0,0,0,0,0,0,0,0,0,0,0,0],"split_type":[0,0,0,0,0,0,0,0,0,0,0,0,0,0,0,0,0,0,0,0,0,0,0,0,0,0,0,0,0],"sum_hessian":[1.024E3,6.8E2,3.44E2,7E0,6.73E2,2.48E2,9.6E1,3E0,4E0,5.72E2,1.01E2,2.18E2,3E1,2.1E1,7.5E1,2E0,1E0,1.19E2,4.53E2,5.1E1,5E1,1.66E2,5.2E1,1.7E1,1.3E1,6E0,1.5E1,7.2E1,3E0],"tree_param":{"num_deleted":"0","num_feature":"11","num_nodes":"29","size_leaf_vector":"1"}},{"base_weights":[-1.3092525E-2,3.7937924E-2,-1.0907243E-1,1.2907545E-1,-4.088642E-2,-1.2305143E-1,5.26627E-1,5.8502596E-2,2.8163353E-1,-4.2205523E-3,-2.2842309E-1,-1.0280948E-1,-5.7636434E-1,6.73039E-1,-2.4912858E-2,1.19264955E-2,-2.8574893E-2,1.05266765E-1,2.3854181E-2,-7.2792405E-3,1.5756546E-2,5.989784E-2,-2.8247893E-2,-7.5687743E-3,-3.54474E-2,-9.758604E-3,-6.879267E-2,1.0254494E-2,8.807277E-2],"categories":[],"categories_nodes":[],"categories_segments":[],"categories_sizes":[],"default_left":[0,0,0,0,0,0,0,0,0,0,0,0,0,0,0,0,0,0,0,0,0,0,0,0,0,0,0,0,0],"id":20,"left_children":[1,3,5,7,9,11,13,15,17,19,21,23,25,27,-1,-1,-1,-1,-1,-1,-1,-1,-1,-1,-1,-1,-1,-1,-1],"loss_changes":[5.1224413E0,4.911851E0,3.2905798E0,3.3964906E0,2.5225995E0,3.2073774E0,1.0763125E0,4.594102E0,3.071413E0,3.428411E0,2.8527517E0,2.307518E0,7.340727E-1,7.3908186E-1,0E0,0E0,0E0,0E0,0E0,0E0,0E0,0E0,0E0,0E0,0E0,0E0,0E0,0E0,0E0],"parents":[2147483647,0,0,1,1,2,2,3,3,4,4,5,5,6,6,7,7,8,8,9,9,10,10,11,11,12,12,13,13],"right_children":[2,4,6,8,10,12,14,16,18,20,22,24,26,28,-1,-1,-1,-1,-1,-1,-1,-1,-1,-1,-1,-1,-1,-1,-1],"split_conditions":[3.7529662E-1,-3.1831476E-1,1.9976583E0,-4.661925E-1,2.0262147E-1,2.4981577E0,2.3846934E0,4.4633678E-1,-8.352672E-1,4.240158E-1,-5.653546E-1,4.057939E-1,-7.212705E-3,-6.873526E-2,-2.4912858E-2,1.19264955E-2,-2.8574893E-2,1.05266765E-1,2.3854181E-2,-7.2792405E-3,1.5756546E-2,5.989784E-2,-2.8247893E-2,-7.5687743E-3,-3.54474E-2,-9.758604E-3,-6.879267E-2,1.0254494E-2,8.807277E-2],"split_indices":[1,6,2,5,4,1,3,8,6,9,7,2,8,0,0,0,0,0,0,0,0,0,0,0,0,0,0,0,0],"split_type":[0,0,0,0,0,0,0,0,0,0,0,0,0,0,0,0,0,0,0,0,0,0,0,0,0,0,0,0,0],"sum_hessian":[1.044E3,6.82E2,3.62E2,3.16E2,3.66E2,3.55E2,7E0,2.17E2,9.9E1,3.07E2,5.9E1,3.41E2,1.4E1,6E0,1E0,1.85E2,3.2E1,4E0,9.5E1,2.16E2,9.1E1,3E0,5.6E1,3.09E2,3.2E1,3E0,1.1E1,2E0,4E0],"tree_param":{"num_deleted":"0","num_feature":"11","num_nodes":"29","size_leaf_vector":"1"}},{"base_weights":[-7.940357E-3,-3.7667666E-2,1.4267808E-1,-1.5595649E-1,-9.196444E-3,3.0648273E-1,5.6576762E-2,-4.4211168E-2,-2.8770477E-1,1.9944884E-2,-1.3392231E-1,-1.1285194E-1,3.481719E-1,-1.3613608E-2,3.613833E-1,2.9836237E-2,-8.082503E-3,-3.6930107E-2,-8.362194E-3,5.868983E-3,-1.1707311E-2,-6.8352944E-3,-4.388414E-2,3.2066584E-2,-2.6368866E-2,1.8164052E-2,4.6979126E-2,-3.364933E-2,5.365507E-3,-1.3607633E-2,4.5185305E-2],"categories":[],"categories_nodes":[],"categories_segments":[],"categories_sizes":[],"default_left":[0,0,0,0,0,0,0,0,0,0,0,0,0,0,0,0,0,0,0,0,0,0,0,0,0,0,0,0,0,0,0],"id":21,"left_children":[1,3,5,7,9,11,13,15,17,19,21,23,25,27,29,-1,-1,-1,-1,-1,-1,-1,-1,-1,-1,-1,-1,-1,-1,-1,-1],"loss_changes":[4.5903144E0,2.8814259E0,2.3662024E0,2.4311748E0,2.5142334E0,1.0532308E0,2.401102E0,1.1655227E0,1.2347007E0,2.9850821E0,2.589133E0,4.7689834E-1,9.880986E-1,2.0162659E0,1.0065925E0,0E0,0E0,0E0,0E0,0E0,0E0,0E0,0E0,0E0,0E0,0E0,0E0,0E0,0E0,0E0,0E0],"parents":[2147483647,0,0,1,1,2,2,3,3,4,4,5,5,6,6,7,7,8,8,9,9,10,10,11,11,12,12,13,13,14,14],"right_children":[2,4,6,8,10,12,14,16,18,20,22,24,26,28,30,-1,-1,-1,-1,-1,-1,-1,-1,-1,-1,-1,-1,-1,-1,-1,-1],"split_conditions":[1.0109661E0,-6.9723266E-1,-8.048582E-1,-7.212705E-3,2.238752E-1,-1.1393569E0,1.1595305E0,-4.9875134E-1,4.659285E-2,5.987557E-1,1.1952317E0,-8.1562483E-1,-4.1373646E-1,-5.2019346E-1,1.6183885E-2,2.9836237E-2,-8.082503E-3,-3.6930107E-2,-8.362194E-3,5.868983E-3,-1.1707311E-2,-6.8352944E-3,-4.388414E-2,3.2066584E-2,-2.6368866E-2,1.8164052E-2,4.6979126E-2,-3.364933E-2,5.365507E-3,-1.3607633E-2,4.5185305E-2],"split_indices":[10,9,6,8,4,6,5,4,6,1,0,0,4,9,6,0,0,0,0,0,0,0,0,0,0,0,0,0,0,0,0],"split_type":[0,0,0,0,0,0,0,0,0,0,0,0,0,0,0,0,0,0,0,0,0,0,0,0,0,0,0,0,0,0,0],"sum_hessian":[1.023E3,8.55E2,1.68E2,1.65E2,6.9E2,5.7E1,1.11E2,9E1,7.5E1,5.6E2,1.3E2,5E0,5.2E1,9.1E1,2E1,8E0,8.2E1,5.3E1,2.2E1,4.37E2,1.23E2,1.08E2,2.2E1,1E0,4E0,2.3E1,2.9E1,1.5E1,7.6E1,3E0,1.7E1],"tree_param":{"num_deleted":"0","num_feature":"11","num_nodes":"31","size_leaf_vector":"1"}},{"base_weights":[5.456735E-3,-1.3266438E-2,1.9365723E-1,-4.847864E-3,-4.5768002E-1,2.2657783E-1,-2.3375805E-1,-8.2849324E-2,3.5144225E-2,-7.533023E-1,-1.7541423E-1,-6.0672663E-2,2.8407332E-1,-2.84307E-2,-3.8064587E-1,-3.670321E-2,-6.161885E-3,7.674602E-3,-1.2349441E-2,-2.600638E-2,-8.7437116E-2,-2.5113255E-2,2.530253E-2,1.12230545E-2,-3.3873256E-2,-3.891419E-2,3.0922655E-2,8.067608E-3,-9.169165E-3,-1.0660124E-2,-4.3646034E-2],"categories":[],"categories_nodes":[],"categories_segments":[],"categories_sizes":[],"default_left":[0,0,0,0,0,0,0,0,0,0,0,0,0,0,0,0,0,0,0,0,0,0,0,0,0,0,0,0,0,0,0],"id":22,"left_children":[1,3,5,7,9,11,13,15,17,19,21,23,25,27,29,-1,-1,-1,-1,-1,-1,-1,-1,-1,-1,-1,-1,-1,-1,-1,-1],"loss_changes":[3.5438979E0,3.4210968E0,1.3334038E0,2.8072896E0,1.2864089E0,1.4210625E0,2.0029855E-1,1.8175514E0,3.9362702E0,2.5033426E-1,3.8795006E-1,7.5917786E-1,1.3226132E0,3.5006117E-2,1.4655411E-2,0E0,0E0,0E0,0E0,0E0,0E0,0E0,0E0,0E0,0E0,0E0,0E0,0E0,0E0,0E0,0E0],"parents":[2147483647,0,0,1,1,2,2,3,3,4,4,5,5,6,6,7,7,8,8,9,9,10,10,11,11,12,12,13,13,14,14],"right_children":[2,4,6,8,10,12,14,16,18,20,22,24,26,28,30,-1,-1,-1,-1,-1,-1,-1,-1,-1,-1,-1,-1,-1,-1,-1,-1],"split_conditions":[1.5741696E0,2.0013635E0,3.0889007E-1,-4.6118036E-1,-6.224044E-1,-6.382196E-1,-9.09593E-1,-5.95114E-1,2.238752E-1,9.5972806E-2,-2.7531648E-2,-2.9508054E-1,-1.2382755E0,-1.261883E-1,5.8518845E-1,-3.670321E-2,-6.161885E-3,7.674602E-3,-1.2349441E-2,-2.600638E-2,-8.7437116E-2,-2.5113255E-2,2.530253E-2,1.12230545E-2,-3.3873256E-2,-3.891419E-2,3.0922655E-2,8.067608E-3,-9.169165E-3,-1.0660124E-2,-4.3646034E-2],"split_indices":[10,8,4,9,6,9,1,3,4,1,3,1,8,0,4,0,0,0,0,0,0,0,0,0,0,0,0,0,0,0,0],"split_type":[0,0,0,0,0,0,0,0,0,0,0,0,0,0,0,0,0,0,0,0,0,0,0,0,0,0,0,0,0,0,0],"sum_hessian":[1.004E3,9.14E2,9E1,8.98E2,1.6E1,8.4E1,6E0,3.04E2,5.94E2,7E0,9E0,1.4E1,7E1,3E0,3E0,2E1,2.84E2,4.71E2,1.23E2,2E0,5E0,8E0,1E0,9E0,5E0,2E0,6.8E1,1E0,2E0,1E0,2E0],"tree_param":{"num_deleted":"0","num_feature":"11","num_nodes":"31","size_leaf_vector":"1"}},{"base_weights":[-1.4655106E-3,-4.9856298E-2,6.3348815E-2,-2.0049462E-2,-1.586809E-1,1.3444206E-1,-5.0272692E-2,5.0847914E-2,-1.1319996E-1,-4.9216872E-1,-9.236678E-2,1.701891E-1,-1.145217E-1,-6.6452704E-2,6.45901E-2,-5.0074863E-3,1.6589679E-2,-1.3243273E-2,5.4034825E-2,4.604063E-2,-6.166717E-2,-7.430419E-3,-6.997894E-2,3.0219877E-2,1.0103826E-2,-3.9217733E-2,8.925717E-3,-5.3008266E-2,-4.3147197E-3],"categories":[],"categories_nodes":[],"categories_segments":[],"categories_sizes":[],"default_left":[0,0,0,0,0,0,0,0,0,0,0,0,0,0,0,0,0,0,0,0,0,0,0,0,0,0,0,0,0],"id":23,"left_children":[1,3,5,7,9,11,13,15,17,19,21,23,25,27,-1,-1,-1,-1,-1,-1,-1,-1,-1,-1,-1,-1,-1,-1,-1],"loss_changes":[3.2650309E0,1.9300736E0,3.6013446E0,3.1030908E0,2.7852538E0,2.4580126E0,1.9803467E0,3.108458E0,2.6231773E0,2.7744856E0,1.1329381E0,2.160325E0,2.015317E0,1.8031957E0,0E0,0E0,0E0,0E0,0E0,0E0,0E0,0E0,0E0,0E0,0E0,0E0,0E0,0E0,0E0],"parents":[2147483647,0,0,1,1,2,2,3,3,4,4,5,5,6,6,7,7,8,8,9,9,10,10,11,11,12,12,13,13],"right_children":[2,4,6,8,10,12,14,16,18,20,22,24,26,28,-1,-1,-1,-1,-1,-1,-1,-1,-1,-1,-1,-1,-1,-1,-1],"split_conditions":[-4.808883E-2,7.703007E-1,1.6183885E-2,8.1262134E-2,-8.487156E-1,1.0942646E0,3.5502996E0,-2.0930812E-1,1.7328894E0,-1.5299795E0,2.4189749E0,-6.873526E-2,1.8796347E-1,-6.305879E-1,6.45901E-2,-5.0074863E-3,1.6589679E-2,-1.3243273E-2,5.4034825E-2,4.604063E-2,-6.166717E-2,-7.430419E-3,-6.997894E-2,3.0219877E-2,1.0103826E-2,-3.9217733E-2,8.925717E-3,-5.3008266E-2,-4.3147197E-3],"split_indices":[9,8,6,7,5,8,5,10,4,7,10,0,9,3,0,0,0,0,0,0,0,0,0,0,0,0,0,0,0],"split_type":[0,0,0,0,0,0,0,0,0,0,0,0,0,0,0,0,0,0,0,0,0,0,0,0,0,0,0,0,0],"sum_hessian":[1.039E3,5.95E2,4.44E2,4.68E2,1.27E2,2.73E2,1.71E2,2.66E2,2.02E2,2E1,1.07E2,2.39E2,3.4E1,1.68E2,3E0,1.42E2,1.24E2,1.97E2,5E0,2E0,1.8E1,1.05E2,2E0,8.1E1,1.58E2,1.4E1,2E1,7E0,1.61E2],"tree_param":{"num_deleted":"0","num_feature":"11","num_nodes":"29","size_leaf_vector":"1"}},{"base_weights":[-2.2617067E-4,-3.380439E-2,9.174977E-2,-2.9904017E-2,-7.5959826E-1,1.3072966E-1,-1.225071E-1,6.4169453E-3,-1.0002703E-1,-9.075583E-2,-1.5785908E-2,2.884178E-1,6.303938E-2,-3.4959763E-1,1.1634163E-2,2.8148983E-3,-2.3597227E-2,-1.1575908E-2,7.1602024E-2,-1.9646924E-2,3.3694576E-2,1.1389062E-2,-2.7267054E-2,-5.2822478E-2,-4.447351E-3,2.2825822E-2,-1.2139355E-2],"categories":[],"categories_nodes":[],"categories_segments":[],"categories_sizes":[],"default_left":[0,0,0,0,0,0,0,0,0,0,0,0,0,0,0,0,0,0,0,0,0,0,0,0,0,0,0],"id":24,"left_children":[1,3,5,7,9,11,13,15,17,-1,-1,19,21,23,25,-1,-1,-1,-1,-1,-1,-1,-1,-1,-1,-1,-1],"loss_changes":[3.1872299E0,2.1174195E0,2.3210876E0,1.9184843E0,2.1286702E-1,2.4795234E0,1.3139424E0,2.624645E0,3.382277E0,0E0,0E0,1.7133408E0,2.8478131E0,8.485632E-1,8.3458513E-1,0E0,0E0,0E0,0E0,0E0,0E0,0E0,0E0,0E0,0E0,0E0,0E0],"parents":[2147483647,0,0,1,1,2,2,3,3,4,4,5,5,6,6,7,7,8,8,11,11,12,12,13,13,14,14],"right_children":[2,4,6,8,10,12,14,16,18,-1,-1,20,22,24,26,-1,-1,-1,-1,-1,-1,-1,-1,-1,-1,-1,-1],"split_conditions":[4.240158E-1,3.1568887E0,5.1495856E-1,2.932676E-1,1.1247003E0,7.1908116E-1,6.825528E-1,1.547814E0,2.0490086E0,-9.075583E-2,-1.5785908E-2,-1.2887714E0,1.5420536E0,3.2027355E-1,-2.2708786E-1,2.8148983E-3,-2.3597227E-2,-1.1575908E-2,7.1602024E-2,-1.9646924E-2,3.3694576E-2,1.1389062E-2,-2.7267054E-2,-5.2822478E-2,-4.447351E-3,2.2825822E-2,-1.2139355E-2],"split_indices":[9,4,1,7,2,9,1,8,2,0,0,2,5,6,6,0,0,0,0,0,0,0,0,0,0,0,0],"split_type":[0,0,0,0,0,0,0,0,0,0,0,0,0,0,0,0,0,0,0,0,0,0,0,0,0,0,0],"sum_hessian":[1.03E3,7.55E2,2.75E2,7.52E2,3E0,2.33E2,4.2E1,4.96E2,2.56E2,2E0,1E0,6.9E1,1.64E2,1.5E1,2.7E1,4.56E2,4E1,2.52E2,4E0,6E0,6.3E1,1.43E2,2.1E1,9E0,6E0,1E1,1.7E1],"tree_param":{"num_deleted":"0","num_feature":"11","num_nodes":"27","size_leaf_vector":"1"}},{"base_weights":[2.6262787E-3,-6.644225E-2,3.7655797E-2,-1.6985953E-1,-1.5980521E-2,-5.3445935E-1,4.5128576E-2,-5.3682667E-1,-1.1782621E-1,-3.445976E-1,1.5388844E-3,-1.1254438E-2,-6.389287E-2,6.2468518E-2,-1.7599127E-1,-2.6002346E-2,-8.6256035E-2,3.0949203E-2,-1.7288107E-2,-1.0158825E-2,-5.7067562E-2,2.387735E-2,-3.4596026E-3,9.393785E-3,-8.217587E-3,4.5768548E-2,-2.2617672E-2],"categories":[],"categories_nodes":[],"categories_segments":[],"categories_sizes":[],"default_left":[0,0,0,0,0,0,0,0,0,0,0,0,0,0,0,0,0,0,0,0,0,0,0,0,0,0,0],"id":25,"left_children":[1,3,5,7,9,11,13,15,17,19,21,-1,-1,23,25,-1,-1,-1,-1,-1,-1,-1,-1,-1,-1,-1,-1],"loss_changes":[2.5235555E0,1.8290195E0,2.9826195E0,2.1326172E0,1.364981E0,3.247869E-1,2.6335907E0,1.038012E0,2.4531522E0,6.01295E-1,1.9456347E0,0E0,0E0,2.8981519E0,1.6935849E0,0E0,0E0,0E0,0E0,0E0,0E0,0E0,0E0,0E0,0E0,0E0,0E0],"parents":[2147483647,0,0,1,1,2,2,3,3,4,4,5,5,6,6,7,7,8,8,9,9,10,10,13,13,14,14],"right_children":[2,4,6,8,10,12,14,16,18,20,22,-1,-1,24,26,-1,-1,-1,-1,-1,-1,-1,-1,-1,-1,-1,-1],"split_conditions":[-4.6118036E-1,-5.919955E-1,-1.1393569E0,-6.0502E-1,-6.305879E-1,-2.649604E-1,1.5974501E0,-4.532184E-1,-9.9339014E-1,-3.7122902E-1,-4.3995062E-1,-1.1254438E-2,-6.389287E-2,2.238752E-1,-2.4045455E0,-2.6002346E-2,-8.6256035E-2,3.0949203E-2,-1.7288107E-2,-1.0158825E-2,-5.7067562E-2,2.387735E-2,-3.4596026E-3,9.393785E-3,-8.217587E-3,4.5768548E-2,-2.2617672E-2],"split_indices":[9,6,6,4,3,4,6,3,1,4,6,0,0,4,8,0,0,0,0,0,0,0,0,0,0,0,0],"split_type":[0,0,0,0,0,0,0,0,0,0,0,0,0,0,0,0,0,0,0,0,0,0,0,0,0,0,0],"sum_hessian":[1.041E3,3.5E2,6.91E2,1.14E2,2.36E2,8E0,6.83E2,1.3E1,1.01E2,1.1E1,2.25E2,2E0,6E0,6.34E2,4.9E1,8E0,5E0,1.1E1,9E1,6E0,5E0,2.9E1,1.96E2,5.21E2,1.13E2,3E0,4.6E1],"tree_param":{"num_deleted":"0","num_feature":"11","num_nodes":"27","size_leaf_vector":"1"}},{"base_weights":[-5.2077384E-3,-3.0684592E-2,9.343333E-2,-5.414377E-2,6.3341536E-2,-6.67755E-2,1.4967883E-1,-2.7538685E-2,-2.0317702E-1,2.3216474E-1,-2.8038314E-2,-3.016164E-1,1.5417208E-1,1.9030671E-1,-2.5947588E-2,-3.937322E-3,4.2921275E-2,-9.127662E-2,-1.5521238E-2,4.0123582E-2,-3.521146E-3,2.301966E-2,-1.2368926E-2,-5.0608404E-2,4.179872E-3,3.475232E-2,1.6706228E-3,2.4495956E-2,-1.91596E-3,-1.8528024E-2,1.6938118E-2],"categories":[],"categories_nodes":[],"categories_segments":[],"categories_sizes":[],"default_left":[0,0,0,0,0,0,0,0,0,0,0,0,0,0,0,0,0,0,0,0,0,0,0,0,0,0,0,0,0,0,0],"id":26,"left_children":[1,3,5,7,9,11,13,15,17,19,21,23,25,27,29,-1,-1,-1,-1,-1,-1,-1,-1,-1,-1,-1,-1,-1,-1,-1,-1],"loss_changes":[2.5586529E0,1.7879024E0,1.8932993E0,2.563752E0,2.5056896E0,2.9003146E0,1.1109138E0,2.9952981E0,3.193777E0,2.5908463E0,2.6467166E0,1.9170206E0,7.649902E-1,1.4471321E0,9.6505046E-1,0E0,0E0,0E0,0E0,0E0,0E0,0E0,0E0,0E0,0E0,0E0,0E0,0E0,0E0,0E0,0E0],"parents":[2147483647,0,0,1,1,2,2,3,3,4,4,5,5,6,6,7,7,8,8,9,9,10,10,11,11,12,12,13,13,14,14],"right_children":[2,4,6,8,10,12,14,16,18,20,22,24,26,28,30,-1,-1,-1,-1,-1,-1,-1,-1,-1,-1,-1,-1,-1,-1,-1,-1],"split_conditions":[8.2323164E-1,8.762827E-1,-6.0502E-1,5.5827445E-1,5.5984527E-1,-1.7930022E-1,1.0228726E0,1.2526847E0,-6.305879E-1,3.944844E-1,-9.9339014E-1,2.4697655E-1,-8.8131833E-1,6.600681E-1,1.4803023E0,-3.937322E-3,4.2921275E-2,-9.127662E-2,-1.5521238E-2,4.0123582E-2,-3.521146E-3,2.301966E-2,-1.2368926E-2,-5.0608404E-2,4.179872E-3,3.475232E-2,1.6706228E-3,2.4495956E-2,-1.91596E-3,-1.8528024E-2,1.6938118E-2],"split_indices":[10,7,4,7,2,5,0,0,3,5,1,9,4,9,10,0,0,0,0,0,0,0,0,0,0,0,0,0,0,0,0],"split_type":[0,0,0,0,0,0,0,0,0,0,0,0,0,0,0,0,0,0,0,0,0,0,0,0,0,0,0,0,0,0,0],"sum_hessian":[1.016E3,8.08E2,2.08E2,6.47E2,1.61E2,5.4E1,1.54E2,5.5E2,9.7E1,5.6E1,1.05E2,2.6E1,2.8E1,1.25E2,2.9E1,5.37E2,1.3E1,5E0,9.2E1,3.4E1,2.2E1,2.8E1,7.7E1,1.6E1,1E1,1.1E1,1.7E1,9.9E1,2.6E1,1.6E1,1.3E1],"tree_param":{"num_deleted":"0","num_feature":"11","num_nodes":"31","size_leaf_vector":"1"}},{"base_weights":[4.895394E-3,-6.325984E-2,4.1493762E-2,-4.2948365E-1,-4.6191137E-2,1.4924977E-2,1.8214402E-1,-2.3535828E-1,-8.094878E-1,-8.3133064E-2,1.0118098E-1,1.0084335E-1,-2.0202389E-2,5.1140743E-1,1.3116707E-1,-1.900568E-3,-3.411589E-2,-3.1745054E-2,-1.0316958E-1,-6.984182E-2,-7.614398E-3,1.5649624E-2,-2.911221E-2,-4.7918096E-2,1.2196398E-2,-5.5478424E-2,-8.0017856E-4,7.506995E-2,-6.9458107E-3,2.1529581E-2,-6.482134E-3],"categories":[],"categories_nodes":[],"categories_segments":[],"categories_sizes":[],"default_left":[0,0,0,0,0,0,0,0,0,0,0,0,0,0,0,0,0,0,0,0,0,0,0,0,0,0,0,0,0,0,0],"id":27,"left_children":[1,3,5,7,9,11,13,15,17,19,21,23,25,27,29,-1,-1,-1,-1,-1,-1,-1,-1,-1,-1,-1,-1,-1,-1,-1,-1],"loss_changes":[2.5842981E0,2.2430115E0,2.5159564E0,9.897754E-1,1.8975525E0,1.7163101E0,1.728898E0,2.681988E-1,2.191608E-1,1.1422981E0,1.5645841E0,2.079773E0,2.6305382E0,1.9980934E0,1.5638522E0,0E0,0E0,0E0,0E0,0E0,0E0,0E0,0E0,0E0,0E0,0E0,0E0,0E0,0E0,0E0,0E0],"parents":[2147483647,0,0,1,1,2,2,3,3,4,4,5,5,6,6,7,7,8,8,9,9,10,10,11,11,12,12,13,13,14,14],"right_children":[2,4,6,8,10,12,14,16,18,20,22,24,26,28,30,-1,-1,-1,-1,-1,-1,-1,-1,-1,-1,-1,-1,-1,-1,-1,-1],"split_conditions":[-5.847771E-1,-4.562439E-1,8.961204E-1,-3.822706E-1,5.759223E-1,-4.6076217E-1,-3.6575353E-1,-6.262737E-1,-6.432657E-1,-1.8050513E0,2.517425E-1,-2.4693384E0,-1.1089479E0,-1.3679826E-1,1.07335E0,-1.900568E-3,-3.411589E-2,-3.1745054E-2,-1.0316958E-1,-6.984182E-2,-7.614398E-3,1.5649624E-2,-2.911221E-2,-4.7918096E-2,1.2196398E-2,-5.5478424E-2,-8.0017856E-4,7.506995E-2,-6.9458107E-3,2.1529581E-2,-6.482134E-3],"split_indices":[10,4,9,3,8,8,10,4,0,10,2,8,6,8,2,0,0,0,0,0,0,0,0,0,0,0,0,0,0,0,0],"split_type":[0,0,0,0,0,0,0,0,0,0,0,0,0,0,0,0,0,0,0,0,0,0,0,0,0,0,0,0,0,0,0],"sum_hessian":[1.034E3,3.61E2,6.73E2,1.5E1,3.46E2,5.67E2,1.06E2,1.1E1,4E0,2.77E2,6.9E1,1.64E2,4.03E2,1.3E1,9.3E1,4E0,7E0,2E0,2E0,2E0,2.75E2,6.1E1,8E0,5E0,1.59E2,8E0,3.95E2,9E0,4E0,6.5E1,2.8E1],"tree_param":{"num_deleted":"0","num_feature":"11","num_nodes":"31","size_leaf_vector":"1"}},{"base_weights":[-9.900884E-3,2.7063841E-2,-6.882949E-2,5.6069862E-2,-1.2311642E-1,-3.0477592E-1,-4.1744914E-2,7.4368596E-2,-2.0875815E-1,-5.667571E-2,-6.11162E-1,-3.972243E-1,2.8530225E-1,2.2030517E-1,-6.338678E-2,3.7605294E-3,2.0684728E-2,-2.838325E-2,2.8343955E-2,-3.0300792E-3,-6.1616123E-2,-7.895785E-2,1.8728001E-2,-6.753526E-2,-1.2746612E-2,-1.0206779E-2,5.0450422E-2,3.0140756E-2,-9.441783E-2,-1.7357673E-2,-1.5746428E-3],"categories":[],"categories_nodes":[],"categories_segments":[],"categories_sizes":[],"default_left":[0,0,0,0,0,0,0,0,0,0,0,0,0,0,0,0,0,0,0,0,0,0,0,0,0,0,0,0,0,0,0],"id":28,"left_children":[1,3,5,7,9,11,13,15,17,19,21,23,25,27,29,-1,-1,-1,-1,-1,-1,-1,-1,-1,-1,-1,-1,-1,-1,-1,-1],"loss_changes":[2.2041037E0,2.716417E0,2.479576E0,2.5451465E0,3.2403975E0,2.2953997E0,2.0045745E0,2.3738244E0,1.3367975E0,1.3094044E0,1.8573341E0,2.5398736E0,5.609672E-1,2.8345265E0,1.7033507E0,0E0,0E0,0E0,0E0,0E0,0E0,0E0,0E0,0E0,0E0,0E0,0E0,0E0,0E0,0E0,0E0],"parents":[2147483647,0,0,1,1,2,2,3,3,4,4,5,5,6,6,7,7,8,8,9,9,10,10,11,11,12,12,13,13,14,14],"right_children":[2,4,6,8,10,12,14,16,18,20,22,24,26,28,30,-1,-1,-1,-1,-1,-1,-1,-1,-1,-1,-1,-1,-1,-1,-1,-1],"split_conditions":[2.635671E-1,2.238752E-1,-9.5690304E-1,1.810313E0,3.81544E-1,-8.487156E-1,-8.352672E-1,-7.3676914E-2,3.0874896E0,2.305761E0,6.804042E-2,-5.242319E-2,7.384176E-1,1.3002937E0,-2.7493098E-1,3.7605294E-3,2.0684728E-2,-2.838325E-2,2.8343955E-2,-3.0300792E-3,-6.1616123E-2,-7.895785E-2,1.8728001E-2,-6.753526E-2,-1.2746612E-2,-1.0206779E-2,5.0450422E-2,3.0140756E-2,-9.441783E-2,-1.7357673E-2,-1.5746428E-3],"split_indices":[1,4,6,6,8,5,6,4,6,2,1,4,1,7,5,0,0,0,0,0,0,0,0,0,0,0,0,0,0,0,0],"split_type":[0,0,0,0,0,0,0,0,0,0,0,0,0,0,0,0,0,0,0,0,0,0,0,0,0,0,0,0,0,0,0],"sum_hessian":[1.01E3,6.21E2,3.89E2,5.21E2,1E2,3.9E1,3.5E2,4.88E2,3.3E1,8.9E1,1.1E1,3.4E1,5E0,2.6E1,3.24E2,3.83E2,1.05E2,2.9E1,4E0,8.6E1,3E0,9E0,2E0,1.6E1,1.8E1,2E0,3E0,2.5E1,1E0,9.7E1,2.27E2],"tree_param":{"num_deleted":"0","num_feature":"11","num_nodes":"31","size_leaf_vector":"1"}},{"base_weights":[1.6589678E-3,-8.969694E-2,3.4107703E-3,2.2311148E-1,-2.9831429E-3,-6.741004E-2,3.7956545E-1,1.7520735E-2,-7.028994E-2,3.2097578E-2,-1.383462E-2,5.3700674E-2,9.595782E-3,5.402854E-3,-4.847146E-3,-5.9253303E-3,-6.8732396E-2],"categories":[],"categories_nodes":[],"categories_segments":[],"categories_sizes":[],"default_left":[0,0,0,0,0,0,0,0,0,0,0,0,0,0,0,0,0],"id":29,"left_children":[1,-1,3,5,7,9,11,13,15,-1,-1,-1,-1,-1,-1,-1,-1],"loss_changes":[1.6182084E0,0E0,1.4405315E0,1.3437304E0,1.3771418E0,3.4746236E-1,7.968495E-1,1.84568E0,1.5459988E0,0E0,0E0,0E0,0E0,0E0,0E0,0E0,0E0],"parents":[2147483647,0,0,2,2,3,3,4,4,5,5,6,6,7,7,8,8],"right_children":[2,-1,4,6,8,10,12,14,16,-1,-1,-1,-1,-1,-1,-1,-1],"split_conditions":[-1.8050513E0,-8.969694E-2,-2.0599933E0,-6.582015E-1,5.635453E-1,-1.136363E0,9.5972806E-2,2.635671E-1,2.4189749E0,3.2097578E-2,-1.383462E-2,5.3700674E-2,9.595782E-3,5.402854E-3,-4.847146E-3,-5.9253303E-3,-6.8732396E-2],"split_indices":[10,0,7,1,6,4,1,1,10,0,0,0,0,0,0,0,0],"split_type":[0,0,0,0,0,0,0,0,0,0,0,0,0,0,0,0,0],"sum_hessian":[1.025E3,1E0,1.024E3,2.8E1,9.96E2,1E1,1.8E1,7.64E2,2.32E2,1E0,9E0,1.1E1,7E0,4.92E2,2.72E2,2.29E2,3E0],"tree_param":{"num_deleted":"0","num_feature":"11","num_nodes":"17","size_leaf_vector":"1"}},{"base_weights":[8.717906E-3,1.5288568E-2,-3.837156E-1,1.0589012E-2,4.4283998E-1,-7.3781097E-1,-1.2349892E-1,-8.521209E-2,1.2298713E-2,-9.790516E-2,5.738839E-1,-2.8560225E-2,-8.6157404E-2,-2.6166052E-1,9.46271E-2,2.2193536E-3,-1.2851405E-2,-1.5621901E-2,9.3612674E-4,1.8450148E-2,6.587787E-2,-3.140771E-2,-8.707937E-3,2.127955E-2,1.188612E-3],"categories":[],"categories_nodes":[],"categories_segments":[],"categories_sizes":[],"default_left":[0,0,0,0,0,0,0,0,0,0,0,0,0,0,0,0,0,0,0,0,0,0,0,0,0],"id":30,"left_children":[1,3,5,7,9,11,13,-1,15,17,19,-1,-1,21,23,-1,-1,-1,-1,-1,-1,-1,-1,-1,-1],"loss_changes":[2.6617708E0,2.0327427E0,1.475287E0,1.4913565E0,8.356612E-1,1.4569974E-1,3.5626316E-1,0E0,1.4003495E0,2.0227764E-2,1.7596316E-1,0E0,0E0,3.6706984E-2,4.635753E-2,0E0,0E0,0E0,0E0,0E0,0E0,0E0,0E0,0E0,0E0],"parents":[2147483647,0,0,1,1,2,2,3,3,4,4,5,5,6,6,8,8,9,9,10,10,13,13,14,14],"right_children":[2,4,6,8,10,12,14,-1,16,18,20,-1,-1,22,24,-1,-1,-1,-1,-1,-1,-1,-1,-1,-1],"split_conditions":[2.4981577E0,2.2544105E0,-1.0833695E0,-1.8050513E0,-4.532184E-1,-1.10289E0,1.1717247E0,-8.521209E-2,1.810313E0,-2.9854745E-1,1.6548561E0,-2.8560225E-2,-8.6157404E-2,-4.1345352E-1,-1.3901553E0,2.2193536E-3,-1.2851405E-2,-1.5621901E-2,9.3612674E-4,1.8450148E-2,6.587787E-2,-3.140771E-2,-8.707937E-3,2.127955E-2,1.188612E-3],"split_indices":[1,2,2,10,3,0,6,0,6,0,0,0,0,0,0,0,0,0,0,0,0,0,0,0,0],"split_type":[0,0,0,0,0,0,0,0,0,0,0,0,0,0,0,0,0,0,0,0,0,0,0,0,0],"sum_hessian":[1.029E3,1.013E3,1.6E1,1.003E3,1E1,6E0,1E1,1E0,1.002E3,2E0,8E0,2E0,4E0,6E0,4E0,9.37E2,6.5E1,1E0,1E0,2E0,6E0,4E0,2E0,1E0,3E0],"tree_param":{"num_deleted":"0","num_feature":"11","num_nodes":"25","size_leaf_vector":"1"}},{"base_weights":[7.717658E-4,-8.31606E-2,2.023198E-2,-9.605003E-2,4.2584773E-2,6.0942266E-2,-4.5574173E-2,-8.845432E-2,-7.696178E-2,-1.2747775E-1,8.30499E-2,-5.712488E-2,4.823684E-1,-4.9147833E-2,-7.936047E-3,7.2554587E-3,-3.8887598E-2,1.857413E-2,3.1272066E-3,-5.452767E-4,-1.3708934E-2,5.806442E-2,-5.3643226E-3],"categories":[],"categories_nodes":[],"categories_segments":[],"categories_sizes":[],"default_left":[0,0,0,0,0,0,0,0,0,0,0,0,0,0,0,0,0,0,0,0,0,0,0],"id":31,"left_children":[1,3,5,7,-1,9,11,13,-1,15,17,19,21,-1,-1,-1,-1,-1,-1,-1,-1,-1,-1],"loss_changes":[1.6921915E0,1.320264E0,2.2558057E0,9.091234E-1,0E0,2.1766582E0,1.991147E0,6.5735376E-1,0E0,2.90406E0,2.471978E0,1.3049432E0,3.9988637E-1,0E0,0E0,0E0,0E0,0E0,0E0,0E0,0E0,0E0,0E0],"parents":[2147483647,0,0,1,1,2,2,3,3,5,5,6,6,7,7,9,9,10,10,11,11,12,12],"right_children":[2,4,6,8,-1,10,12,14,-1,16,18,20,22,-1,-1,-1,-1,-1,-1,-1,-1,-1,-1],"split_conditions":[-6.9723266E-1,3.9455447E0,1.6183885E-2,1.839158E0,4.2584773E-2,-9.8798394E-1,3.5502996E0,-1.5824288E0,-7.696178E-2,-9.893655E-1,-4.158135E-1,2.517425E-1,9.5972806E-2,-4.9147833E-2,-7.936047E-3,7.2554587E-3,-3.8887598E-2,1.857413E-2,3.1272066E-3,-5.452767E-4,-1.3708934E-2,5.806442E-2,-5.3643226E-3],"split_indices":[9,3,6,4,0,0,5,9,0,7,2,2,1,0,0,0,0,0,0,0,0,0,0],"split_type":[0,0,0,0,0,0,0,0,0,0,0,0,0,0,0,0,0,0,0,0,0,0,0],"sum_hessian":[1.034E3,1.94E2,8.4E2,1.9E2,4E0,5.19E2,3.21E2,1.89E2,1E0,5.4E1,4.65E2,3.15E2,6E0,3E0,1.86E2,3.1E1,2.3E1,1.55E2,3.1E2,1.92E2,1.23E2,5E0,1E0],"tree_param":{"num_deleted":"0","num_feature":"11","num_nodes":"23","size_leaf_vector":"1"}}]},"name":"gbtree"},"learner_model_param":{"base_score":"5.6325254E0","boost_from_average":"1","num_class":"0","num_feature":"11","num_target":"1"},"objective":{"name":"reg:squarederror","reg_loss_param":{"scale_pos_weight":"1"}}},"version":[2,0,0]}