{"learner":{"attributes":{"best_iteration":"31","best_score":"0.5185759617718925"},"feature_names":["fixed_acidity","volatile_acidity","citric_acid","residual_sugar","chlorides","free_sulfur_dioxide","total_sulfur_dioxide","density","pH","sulphates","alcohol"],"feature_types":["float","float","float","float","float","float","float","float","float","float","float"],"gradient_booster":{"model":{"gbtree_model_param":{"num_parallel_tree":"1","num_trees":"32"},"iteration_indptr":[0,1,2,3,4,5,6,7,8,9,10,11,12,13,14,15,16,17,18,19,20,21,22,23,24,25,26,27,28,29,30,31,32],"tree_info":[0,0,0,0,0,0,0,0,0,0,0,0,0,0,0,0,0,0,0,0,0,0,0,0,0,0,0,0,0,0,0,0],"trees":[{"base_weights":[-1.2172717E-3,-3.1770396E-1,4.0158755E-1,-1.4742577E-1,-5.003124E-1,7.1279484E-1,1.126011E-1,-5.175759E-1,-4.470227E-2,-8.306122E-1,-4.6862635E-1,3.5981885E-1,8.515132E-1,-4.624607E-1,2.719926E-1,-5.7130393E-2,-1.1359324E-2,1.3540337E-2,-2.9965347E-2,-9.054926E-2,1.8373728E-2,-4.8182797E-2,2.7560592E-2,6.6103324E-2,3.6713143E-4,1.0007991E-1,3.1682737E-2,3.0622879E-2,-5.8450997E-2,1.3540337E-2,6.628225E-2],"categories":[],"categories_nodes":[],"categories_segments":[],"categories_sizes":[],"default_left":[0,0,0,0,0,0,0,0,0,0,0,0,0,0,0,0,0,0,0,0,0,0,0,0,0,0,0,0,0,0,0],"id":0,"left_children":[1,3,5,7,9,11,13,15,17,19,21,23,25,27,29,-1,-1,-1,-1,-1,-1,-1,-1,-1,-1,-1,-1,-1,-1,-1,-1],"loss_changes":[9.8798935E1,1.3421135E1,3.0587467E1,8.570088E0,1.79813E0,7.7237473E0,1.6441257E1,9.986572E-1,8.214005E0,1.4576063E0,2.0290298E0,5.146858E0,9.02198E0,3.8378954E0,7.383893E0,0E0,0E0,0E0,0E0,0E0,0E0,0E0,0E0,0E0,0E0,0E0,0E0,0E0,0E0,0E0,0E0],"parents":[2147483647,0,0,1,1,2,2,3,3,4,4,5,5,6,6,7,7,8,8,9,9,10,10,11,11,12,12,13,13,14,14],"right_children":[2,4,6,8,10,12,14,16,18,20,22,24,26,28,30,-1,-1,-1,-1,-1,-1,-1,-1,-1,-1,-1,-1,-1,-1,-1,-1],"split_conditions":[7.229363E-2,3.1943187E-1,-4.3474248E-1,-6.9723266E-1,-9.5690304E-1,-2.2512805E-1,-5.792065E-1,-2.0930812E-1,1.6183885E-2,-2.617621E-1,-2.1573618E-2,-6.3955647E-1,7.700182E-2,-2.208397E0,1.1987007E0,-5.7130393E-2,-1.1359324E-2,1.3540337E-2,-2.9965347E-2,-9.054926E-2,1.8373728E-2,-4.8182797E-2,2.7560592E-2,6.6103324E-2,3.6713143E-4,1.0007991E-1,3.1682737E-2,3.0622879E-2,-5.8450997E-2,1.3540337E-2,6.628225E-2],"split_indices":[10,1,1,9,6,9,9,10,6,2,10,7,6,7,10,0,0,0,0,0,0,0,0,0,0,0,0,0,0,0,0],"split_type":[0,0,0,0,0,0,0,0,0,0,0,0,0,0,0,0,0,0,0,0,0,0,0,0,0,0,0,0,0,0,0],"sum_hessian":[7.73E2,4.33E2,3.4E2,2.25E2,2.08E2,1.63E2,1.77E2,4.8E1,1.77E2,1.6E1,1.92E2,4.7E1,1.16E2,3.8E1,1.39E2,4.2E1,6E0,1.04E2,7.3E1,1.5E1,1E0,1.89E2,3E0,2.5E1,2.2E1,9E1,2.6E1,5E0,3.3E1,1.04E2,3.5E1],"tree_param":{"num_deleted":"0","num_feature":"11","num_nodes":"31","size_leaf_vector":"1"}},{"base_weights":[-3.17701E-2,-2.4986893E-1,3.349687E-1,2.860307E-1,-3.0325022E-1,-7.8659646E-2,5.1660305E-1,-1.2103937E-1,7.1824884E-1,-4.6290842E-1,-1.883606E-1,3.4547827E-1,-4.9137035E-1,3.792853E-1,7.3901623E-1,-6.539102E-2,1.0549798E-2,2.0683605E-2,9.591813E-2,-4.2659637E-2,-1.0302911E-1,-6.439035E-3,-3.5343867E-2,6.4305216E-2,3.112702E-4,-3.633676E-2,-1.6805558E-1,4.705749E-2,6.258698E-4,8.162927E-2,9.108484E-4],"categories":[],"categories_nodes":[],"categories_segments":[],"categories_sizes":[],"default_left":[0,0,0,0,0,0,0,0,0,0,0,0,0,0,0,0,0,0,0,0,0,0,0,0,0,0,0,0,0,0,0],"id":1,"left_children":[1,3,5,7,9,11,13,15,17,19,21,23,25,27,29,-1,-1,-1,-1,-1,-1,-1,-1,-1,-1,-1,-1,-1,-1,-1,-1],"loss_changes":[5.9832718E1,1.35034275E1,2.1001661E1,7.6524878E0,7.7452965E0,1.5223737E1,5.6447067E0,2.8454342E0,2.389141E0,3.227787E0,5.0934353E0,4.378798E0,6.086974E0,4.151573E0,4.1101074E0,0E0,0E0,0E0,0E0,0E0,0E0,0E0,0E0,0E0,0E0,0E0,0E0,0E0,0E0,0E0,0E0],"parents":[2147483647,0,0,1,1,2,2,3,3,4,4,5,5,6,6,7,7,8,8,9,9,10,10,11,11,12,12,13,13,14,14],"right_children":[2,4,6,8,10,12,14,16,18,20,22,24,26,28,30,-1,-1,-1,-1,-1,-1,-1,-1,-1,-1,-1,-1,-1,-1,-1,-1],"split_conditions":[1.1922725E-1,-1.0492549E0,-4.021673E-1,-5.847771E-1,-4.6118036E-1,-9.9553876E-2,1.1048334E0,-4.021673E-1,-4.808883E-2,3.301438E-1,4.659285E-2,-1.0794679E0,2.442293E0,1.6011404E-1,1.5355041E0,-6.539102E-2,1.0549798E-2,2.0683605E-2,9.591813E-2,-4.2659637E-2,-1.0302911E-1,-6.439035E-3,-3.5343867E-2,6.4305216E-2,3.112702E-4,-3.633676E-2,-1.6805558E-1,4.705749E-2,6.258698E-4,8.162927E-2,9.108484E-4],"split_indices":[10,1,9,10,9,1,10,9,9,4,6,7,1,4,2,0,0,0,0,0,0,0,0,0,0,0,0,0,0,0,0],"split_type":[0,0,0,0,0,0,0,0,0,0,0,0,0,0,0,0,0,0,0,0,0,0,0,0,0,0,0,0,0,0,0],"sum_hessian":[7.46E2,4.68E2,2.78E2,4.2E1,4.26E2,8.5E1,1.93E2,2.2E1,2E1,1.77E2,2.49E2,4.2E1,4.3E1,1.21E2,7.2E1,6E0,1.6E1,7E0,1.3E1,1.68E2,9E0,1.43E2,1.06E2,2.2E1,2E1,4E1,3E0,9.7E1,2.4E1,6.5E1,7E0],"tree_param":{"num_deleted":"0","num_feature":"11","num_nodes":"31","size_leaf_vector":"1"}},{"base_weights":[5.6493003E-3,-3.3352712E-1,2.6041287E-1,-3.606528E-1,6.529302E-1,4.592722E-2,5.388839E-1,-2.3917715E-1,-4.739034E-1,1.6949256E-1,1.2148541E-1,8.4972076E-2,-1.5170142E-1,6.73414E-1,1.9507062E-1,-2.7896577E-2,2.1383539E-2,-4.5348283E-2,-1.1671462E-1,3.1172762E-2,-2.7084136E-2,4.5270424E-2,-3.0031784E-3,5.975445E-2,1.4674509E-1,-3.7611105E-2,4.0438697E-2],"categories":[],"categories_nodes":[],"categories_segments":[],"categories_sizes":[],"default_left":[0,0,0,0,0,0,0,0,0,0,0,0,0,0,0,0,0,0,0,0,0,0,0,0,0,0,0],"id":2,"left_children":[1,3,5,7,9,11,13,15,17,19,-1,21,-1,23,25,-1,-1,-1,-1,-1,-1,-1,-1,-1,-1,-1,-1],"loss_changes":[6.506702E1,8.878422E0,2.5658312E1,4.2201653E0,2.238988E0,1.5018961E1,8.517986E0,2.8354645E0,1.764061E0,4.6021426E-1,0E0,1.0121054E1,0E0,7.1957245E0,6.6082087E0,0E0,0E0,0E0,0E0,0E0,0E0,0E0,0E0,0E0,0E0,0E0,0E0],"parents":[2147483647,0,0,1,1,2,2,3,3,4,4,5,5,6,6,7,7,8,8,9,9,11,11,13,13,14,14],"right_children":[2,4,6,8,10,12,14,16,18,20,-1,22,-1,24,26,-1,-1,-1,-1,-1,-1,-1,-1,-1,-1,-1,-1],"split_conditions":[-3.970426E-1,2.3442926E0,1.289504E-1,2.635671E-1,9.551335E-1,2.7495492E0,1.3781975E-1,-4.9090987E-1,1.0228726E0,3.7529662E-1,1.2148541E-1,-7.140663E-1,-1.5170142E-1,2.043506E0,2.6002812E-1,-2.7896577E-2,2.1383539E-2,-4.5348283E-2,-1.1671462E-1,3.1172762E-2,-2.7084136E-2,4.5270424E-2,-3.0031784E-3,5.975445E-2,1.4674509E-1,-3.7611105E-2,4.0438697E-2],"split_indices":[10,0,9,1,9,1,6,10,0,1,0,1,0,10,10,0,0,0,0,0,0,0,0,0,0,0,0],"split_type":[0,0,0,0,0,0,0,0,0,0,0,0,0,0,0,0,0,0,0,0,0,0,0,0,0,0,0],"sum_hessian":[7.51E2,3.22E2,4.29E2,3.14E2,8E0,2.43E2,1.86E2,1.53E2,1.61E2,5E0,3E0,2.38E2,5E0,1.33E2,5.3E1,1.41E2,1.2E1,1.58E2,3E0,4E0,1E0,5.6E1,1.82E2,1.23E2,1E1,1.4E1,3.9E1],"tree_param":{"num_deleted":"0","num_feature":"11","num_nodes":"27","size_leaf_vector":"1"}},{"base_weights":[5.5447198E-3,-2.0799778E-1,3.4920725E-1,3.043724E-1,-2.5167596E-1,3.0883664E-2,5.803675E-1,1.9569857E-1,7.576853E-1,-2.2493652E-1,-7.278562E-1,1.0433298E-1,-1.4554916E-1,3.8446084E-1,7.587472E-1,2.9081643E-2,-1.2600702E-2,8.509226E-2,9.913087E-3,-3.0895451E-2,-4.9739233E-3,-4.5765724E-2,-1.03334926E-1,-1.9593282E-2,3.0445207E-2,5.3983957E-2,5.4423334E-3,8.0828704E-2,6.2954496E-3],"categories":[],"categories_nodes":[],"categories_segments":[],"categories_sizes":[],"default_left":[0,0,0,0,0,0,0,0,0,0,0,0,0,0,0,0,0,0,0,0,0,0,0,0,0,0,0,0,0],"id":3,"left_children":[1,3,5,7,9,11,13,15,17,19,21,23,-1,25,27,-1,-1,-1,-1,-1,-1,-1,-1,-1,-1,-1,-1,-1,-1],"loss_changes":[5.6873833E1,1.07739525E1,2.1836452E1,1.7237256E0,5.451437E0,1.3907685E1,5.7189674E0,1.015843E0,3.4545994E-1,6.152199E0,1.4255905E0,7.330411E0,0E0,4.2782087E0,3.0168915E0,0E0,0E0,0E0,0E0,0E0,0E0,0E0,0E0,0E0,0E0,0E0,0E0,0E0,0E0],"parents":[2147483647,0,0,1,1,2,2,3,3,4,4,5,5,6,6,7,7,8,8,9,9,10,10,11,11,13,13,14,14],"right_children":[2,4,6,8,10,12,14,16,18,20,22,24,-1,26,28,-1,-1,-1,-1,-1,-1,-1,-1,-1,-1,-1,-1,-1,-1],"split_conditions":[1.1922725E-1,-1.1889168E0,1.4904158E-1,1.9421213E0,1.7998482E0,2.1350367E0,1.0109661E0,3.25917E-2,-9.847944E-2,-4.9090987E-1,3.167512E-1,-4.021673E-1,-1.4554916E-1,-6.582015E-1,2.3251076E0,2.9081643E-2,-1.2600702E-2,8.509226E-2,9.913087E-3,-3.0895451E-2,-4.9739233E-3,-4.5765724E-2,-1.03334926E-1,-1.9593282E-2,3.0445207E-2,5.3983957E-2,5.4423334E-3,8.0828704E-2,6.2954496E-3],"split_indices":[10,1,2,0,1,1,10,4,3,10,8,9,0,1,10,0,0,0,0,0,0,0,0,0,0,0,0,0,0],"split_type":[0,0,0,0,0,0,0,0,0,0,0,0,0,0,0,0,0,0,0,0,0,0,0,0,0,0,0,0,0],"sum_hessian":[7.73E2,4.77E2,2.96E2,3.7E1,4.4E2,1.25E2,1.71E2,3.1E1,6E0,4.18E2,2.2E1,1.2E2,5E0,8.3E1,8.8E1,2.4E1,7E0,5E0,1E0,2.82E2,1.36E2,1.3E1,9E0,4.8E1,7.2E1,5.6E1,2.7E1,8.2E1,6E0],"tree_param":{"num_deleted":"0","num_feature":"11","num_nodes":"29","size_leaf_vector":"1"}},{"base_weights":[-2.6081486E-2,-1.3950391E-1,5.639238E-1,-2.9453E-1,8.827866E-2,2.7080604E-1,9.088571E-1,-2.4848354E-1,-1.0471882E0,-1.6283521E-1,2.6591897E-1,5.4494774E-1,-1.0374306E-1,9.689831E-1,-1.3005805E-1,-1.2350482E-2,-3.8418315E-2,-1.5091956E-2,-1.1807611E-1,-2.3612976E-2,4.022188E-2,3.4293544E-2,-1.909989E-2,6.680981E-2,1.0868688E-2,-5.146703E-2,1.6125012E-2,7.4834384E-2,1.2558974E-1,7.5406875E-3,-3.732264E-2],"categories":[],"categories_nodes":[],"categories_segments":[],"categories_sizes":[],"default_left":[0,0,0,0,0,0,0,0,0,0,0,0,0,0,0,0,0,0,0,0,0,0,0,0,0,0,0,0,0,0,0],"id":4,"left_children":[1,3,5,7,9,11,13,15,17,19,21,23,25,27,29,-1,-1,-1,-1,-1,-1,-1,-1,-1,-1,-1,-1,-1,-1,-1,-1],"loss_changes":[5.187462E1,2.2978958E1,1.2392136E1,1.3152149E1,1.18197975E1,7.141422E0,3.686573E0,6.15975E0,2.4555798E0,4.650669E0,5.5199814E0,2.076414E0,3.3497787E0,2.4786034E0,2.2799408E-1,0E0,0E0,0E0,0E0,0E0,0E0,0E0,0E0,0E0,0E0,0E0,0E0,0E0,0E0,0E0,0E0],"parents":[2147483647,0,0,1,1,2,2,3,3,4,4,5,5,6,6,7,7,8,8,9,9,10,10,11,11,12,12,13,13,14,14],"right_children":[2,4,6,8,10,12,14,16,18,20,22,24,26,28,30,-1,-1,-1,-1,-1,-1,-1,-1,-1,-1,-1,-1,-1,-1,-1,-1],"split_conditions":[1.1048334E0,-4.808883E-2,1.8796347E-1,1.9395101E0,-4.4397622E-1,-2.1128342E-1,1.7697622E0,8.1262134E-2,-5.596401E-1,1.425044E0,5.635453E-1,-4.808883E-2,-6.0502E-1,1.8557713E0,2.4591987E0,-1.2350482E-2,-3.8418315E-2,-1.5091956E-2,-1.1807611E-1,-2.3612976E-2,4.022188E-2,3.4293544E-2,-1.909989E-2,6.680981E-2,1.0868688E-2,-5.146703E-2,1.6125012E-2,7.4834384E-2,1.2558974E-1,7.5406875E-3,-3.732264E-2],"split_indices":[10,9,9,1,10,1,0,7,3,0,6,9,4,10,0,0,0,0,0,0,0,0,0,0,0,0,0,0,0,0,0],"split_type":[0,0,0,0,0,0,0,0,0,0,0,0,0,0,0,0,0,0,0,0,0,0,0,0,0,0,0,0,0,0,0],"sum_hessian":[7.73E2,6.49E2,1.24E2,3.86E2,2.63E2,6.8E1,5.6E1,3.65E2,2.1E1,1.09E2,1.54E2,3.9E1,2.9E1,5.3E1,3E0,1.91E2,1.74E2,3E0,1.8E1,9.7E1,1.2E1,1.32E2,2.2E1,3E1,9E0,1.1E1,1.8E1,3.2E1,2.1E1,2E0,1E0],"tree_param":{"num_deleted":"0","num_feature":"11","num_nodes":"31","size_leaf_vector":"1"}},{"base_weights":[-2.215687E-3,3.6097145E-1,-1.19287774E-1,5.583924E-1,8.046047E-2,-1.9201869E-1,3.484654E-1,6.71709E-2,6.421814E-1,5.129491E-1,-1.3322191E-1,-3.590908E-1,-9.019611E-2,-5.377865E-2,5.506216E-1,-3.4954533E-2,3.262475E-2,8.1342384E-2,3.610192E-2,3.0358562E-2,9.4606884E-2,-5.4445602E-2,-1.2554498E-3,-7.4260026E-2,-2.9610096E-2,-1.7999428E-3,-3.1809762E-2,1.4608345E-2,-5.4671157E-2,1.13315664E-1,4.348238E-2],"categories":[],"categories_nodes":[],"categories_segments":[],"categories_sizes":[],"default_left":[0,0,0,0,0,0,0,0,0,0,0,0,0,0,0,0,0,0,0,0,0,0,0,0,0,0,0,0,0,0,0],"id":5,"left_children":[1,3,5,7,9,11,13,15,17,19,21,23,25,27,29,-1,-1,-1,-1,-1,-1,-1,-1,-1,-1,-1,-1,-1,-1,-1,-1],"loss_changes":[3.2442593E1,1.0255518E1,1.9696518E1,4.4431877E0,7.276722E0,8.473469E0,6.3722715E0,1.9493828E0,4.1840057E0,2.0704527E0,2.62316E0,4.345827E0,5.127839E0,2.739868E0,3.0150042E0,0E0,0E0,0E0,0E0,0E0,0E0,0E0,0E0,0E0,0E0,0E0,0E0,0E0,0E0,0E0,0E0],"parents":[2147483647,0,0,1,1,2,2,3,3,4,4,5,5,6,6,7,7,8,8,9,9,10,10,11,11,12,12,13,13,14,14],"right_children":[2,4,6,8,10,12,14,16,18,20,22,24,26,28,30,-1,-1,-1,-1,-1,-1,-1,-1,-1,-1,-1,-1,-1,-1,-1,-1],"split_conditions":[-7.699311E-1,-3.791327E-1,1.0109661E0,-5.847771E-1,-7.243587E-1,-4.6118036E-1,-2.2512805E-1,-8.048582E-1,-2.6638383E-1,9.192985E-1,-5.2019346E-1,-9.5690304E-1,2.238752E-1,-2.7531648E-2,-1.741985E0,-3.4954533E-2,3.262475E-2,8.1342384E-2,3.610192E-2,3.0358562E-2,9.4606884E-2,-5.4445602E-2,-1.2554498E-3,-7.4260026E-2,-2.9610096E-2,-1.7999428E-3,-3.1809762E-2,1.4608345E-2,-5.4671157E-2,1.13315664E-1,4.348238E-2],"split_indices":[1,6,10,10,7,9,9,6,8,2,9,6,4,3,7,0,0,0,0,0,0,0,0,0,0,0,0,0,0,0,0],"split_type":[0,0,0,0,0,0,0,0,0,0,0,0,0,0,0,0,0,0,0,0,0,0,0,0,0,0,0,0,0,0,0],"sum_hessian":[7.61E2,1.85E2,5.76E2,1.08E2,7.7E1,4.99E2,7.7E1,1.6E1,9.2E1,2.5E1,5.2E1,1.88E2,3.11E2,2.6E1,5.1E1,6E0,1E1,5.6E1,3.6E1,1.8E1,7E0,1.1E1,4.1E1,2.5E1,1.63E2,2.37E2,7.4E1,1.9E1,7E0,7E0,4.4E1],"tree_param":{"num_deleted":"0","num_feature":"11","num_nodes":"31","size_leaf_vector":"1"}},{"base_weights":[2.5368653E-2,-1.2777446E-1,2.638445E-1,-2.1178906E-1,3.2791782E-2,3.041171E-1,-6.5793794E-1,-6.216009E-1,-1.9175823E-1,1.894892E-1,-1.7809892E-1,9.462455E-2,4.2363918E-1,6.9979824E-2,-7.9664844E-1,2.7730752E-2,-7.12079E-2,-2.8303355E-2,-8.309336E-3,1.2914628E-2,9.2101604E-2,-9.232112E-2,-1.0657935E-2,-1.460316E-2,1.6597128E-2,3.102891E-2,6.330934E-2,-1.6140223E-2,2.6637197E-2,-1.1902309E-2,-1.0358801E-1],"categories":[],"categories_nodes":[],"categories_segments":[],"categories_sizes":[],"default_left":[0,0,0,0,0,0,0,0,0,0,0,0,0,0,0,0,0,0,0,0,0,0,0,0,0,0,0,0,0,0,0],"id":6,"left_children":[1,3,5,7,9,11,13,15,17,19,21,23,25,27,29,-1,-1,-1,-1,-1,-1,-1,-1,-1,-1,-1,-1,-1,-1,-1,-1],"loss_changes":[2.8300917E1,6.3741817E0,1.1448231E1,2.4255514E0,5.420251E0,7.2462597E0,1.3683572E0,1.3361068E0,2.9222527E0,4.0304456E0,3.6319125E0,1.8614304E0,4.1957626E0,1.7931788E-1,1.6599097E0,0E0,0E0,0E0,0E0,0E0,0E0,0E0,0E0,0E0,0E0,0E0,0E0,0E0,0E0,0E0,0E0],"parents":[2147483647,0,0,1,1,2,2,3,3,4,4,5,5,6,6,7,7,8,8,9,9,10,10,11,11,12,12,13,13,14,14],"right_children":[2,4,6,8,10,12,14,16,18,20,22,24,26,28,30,-1,-1,-1,-1,-1,-1,-1,-1,-1,-1,-1,-1,-1,-1,-1,-1],"split_conditions":[1.1922725E-1,-4.808883E-2,1.7998482E0,-7.370096E-1,4.659285E-2,-1.6611499E-1,4.4776264E-1,-1.1479806E0,-6.7864436E-1,6.109985E-1,-6.305879E-1,-9.4434637E-1,6.2070125E-1,-9.8798394E-1,-8.388109E-1,2.7730752E-2,-7.12079E-2,-2.8303355E-2,-8.309336E-3,1.2914628E-2,9.2101604E-2,-9.232112E-2,-1.0657935E-2,-1.460316E-2,1.6597128E-2,3.102891E-2,6.330934E-2,-1.6140223E-2,2.6637197E-2,-1.1902309E-2,-1.0358801E-1],"split_indices":[10,9,1,3,6,9,10,10,10,3,3,5,0,0,4,0,0,0,0,0,0,0,0,0,0,0,0,0,0,0,0],"split_type":[0,0,0,0,0,0,0,0,0,0,0,0,0,0,0,0,0,0,0,0,0,0,0,0,0,0,0,0,0,0,0],"sum_hessian":[7.73E2,4.71E2,3.02E2,3.09E2,1.62E2,2.9E2,1.2E1,1.3E1,2.96E2,9.3E1,6.9E1,1.06E2,1.84E2,2E0,1E1,1E0,1.2E1,1.6E2,1.36E2,8.7E1,6E0,5E0,6.4E1,2.4E1,8.2E1,1.21E2,6.3E1,1E0,1E0,3E0,7E0],"tree_param":{"num_deleted":"0","num_feature":"11","num_nodes":"31","size_leaf_vector":"1"}},{"base_weights":[4.0135134E-2,-4.8556443E-2,4.3863946E-1,3.4039035E-2,-3.9287183E-1,1.915788E-1,7.012781E-1,-1.4491563E-1,1.4992808E-1,-3.028819E-1,-1.2652364E0,5.2113265E-1,4.8467956E-2,7.24266E-1,-4.079609E-2,-3.0863648E-2,-3.905379E-3,4.6172094E-2,8.305115E-3,-5.5135813E-2,-2.520792E-2,-1.3643022E-1,-1.3728953E-2,1.919387E-2,8.328777E-2,-3.81905E-2,1.6003069E-2,4.969604E-2,8.9988284E-2],"categories":[],"categories_nodes":[],"categories_segments":[],"categories_sizes":[],"default_left":[0,0,0,0,0,0,0,0,0,0,0,0,0,0,0,0,0,0,0,0,0,0,0,0,0,0,0,0,0],"id":7,"left_children":[1,3,5,7,9,11,13,15,17,19,21,23,25,27,-1,-1,-1,-1,-1,-1,-1,-1,-1,-1,-1,-1,-1,-1,-1],"loss_changes":[2.6988752E1,1.7787682E1,8.885036E0,1.04948635E1,9.11577E0,3.4176211E0,2.0039062E0,3.4369726E0,6.363141E0,1.2621956E0,1.0418453E0,2.09788E0,2.5578225E0,2.1874313E0,0E0,0E0,0E0,0E0,0E0,0E0,0E0,0E0,0E0,0E0,0E0,0E0,0E0,0E0,0E0],"parents":[2147483647,0,0,1,1,2,2,3,3,4,4,5,5,6,6,7,7,8,8,9,9,10,10,11,11,12,12,13,13],"right_children":[2,4,6,8,10,12,14,16,18,20,22,24,26,28,-1,-1,-1,-1,-1,-1,-1,-1,-1,-1,-1,-1,-1,-1,-1],"split_conditions":[1.0109661E0,8.222148E-1,2.4697655E-1,-5.847771E-1,2.4981577E0,-7.5308484E-1,1.9421213E0,-4.6118036E-1,-1.0492549E0,-9.264941E-1,4.6170834E-2,-6.382196E-1,-4.661925E-1,-1.6942723E-1,-4.079609E-2,-3.0863648E-2,-3.905379E-3,4.6172094E-2,8.305115E-3,-5.5135813E-2,-2.520792E-2,-1.3643022E-1,-1.3728953E-2,1.919387E-2,8.328777E-2,-3.81905E-2,1.6003069E-2,4.969604E-2,8.9988284E-2],"split_indices":[10,1,9,10,1,5,0,9,1,6,0,9,5,3,0,0,0,0,0,0,0,0,0,0,0,0,0,0,0],"split_type":[0,0,0,0,0,0,0,0,0,0,0,0,0,0,0,0,0,0,0,0,0,0,0,0,0,0,0,0,0],"sum_hessian":[7.62E2,6.24E2,1.38E2,5.04E2,1.2E2,7.2E1,6.6E1,1.98E2,3.06E2,1.1E2,1E1,2.1E1,5.1E1,6.5E1,1E0,7.7E1,1.21E2,5.3E1,2.53E2,1.7E1,9.3E1,9E0,1E0,1.1E1,1E1,1E1,4.1E1,3E1,3.5E1],"tree_param":{"num_deleted":"0","num_feature":"11","num_nodes":"29","size_leaf_vector":"1"}},{"base_weights":[1.5543822E-3,1.4432316E-1,-2.2551662E-1,-9.112961E-3,3.2819998E-1,-1.9288541E-1,-8.174225E-1,-6.99443E-2,2.8419062E-1,4.473163E-1,3.9380163E-2,-2.2144882E-1,3.6359674E-1,-1.7957361E-2,-1.1183896E0,-3.1209374E-3,-4.207615E-2,8.5016405E-3,6.6359304E-2,5.6416806E-2,1.9494496E-2,8.7178685E-2,-1.676995E-3,-8.315235E-2,-1.91871E-2,-7.335838E-3,6.1450053E-2,-5.660623E-2,-1.3922642E-1],"categories":[],"categories_nodes":[],"categories_segments":[],"categories_sizes":[],"default_left":[0,0,0,0,0,0,0,0,0,0,0,0,0,0,0,0,0,0,0,0,0,0,0,0,0,0,0,0,0],"id":8,"left_children":[1,3,5,7,9,11,13,15,17,19,21,23,25,-1,27,-1,-1,-1,-1,-1,-1,-1,-1,-1,-1,-1,-1,-1,-1],"loss_changes":[2.4605883E1,1.3150411E1,5.5015097E0,4.5696006E0,7.275854E0,4.51523E0,2.6787395E0,2.867711E0,3.2685385E0,4.3135223E0,2.9592228E0,4.64034E0,1.5799505E0,0E0,7.2457695E-1,0E0,0E0,0E0,0E0,0E0,0E0,0E0,0E0,0E0,0E0,0E0,0E0,0E0,0E0],"parents":[2147483647,0,0,1,1,2,2,3,3,4,4,5,5,6,6,7,7,8,8,9,9,10,10,11,11,12,12,14,14],"right_children":[2,4,6,8,10,12,14,16,18,20,22,24,26,-1,28,-1,-1,-1,-1,-1,-1,-1,-1,-1,-1,-1,-1,-1,-1],"split_conditions":[2.635671E-1,1.289504E-1,2.442293E0,1.1048334E0,1.3781975E-1,1.7619041E0,-7.212705E-3,1.0942646E0,9.192985E-1,-5.46472E-1,-8.1755716E-1,-1.0399771E0,1.0294718E0,-1.7957361E-2,-5.858126E-1,-3.1209374E-3,-4.207615E-2,8.5016405E-3,6.6359304E-2,5.6416806E-2,1.9494496E-2,8.7178685E-2,-1.676995E-3,-8.315235E-2,-1.91871E-2,-7.335838E-3,6.1450053E-2,-5.660623E-2,-1.3922642E-1],"split_indices":[1,9,1,10,6,10,8,8,2,1,4,5,8,0,0,0,0,0,0,0,0,0,0,0,0,0,0,0,0],"split_type":[0,0,0,0,0,0,0,0,0,0,0,0,0,0,0,0,0,0,0,0,0,0,0,0,0,0,0,0,0],"sum_hessian":[7.57E2,4.65E2,2.92E2,2.54E2,2.11E2,2.78E2,1.4E1,2.11E2,4.3E1,1.49E2,6.2E1,2.65E2,1.3E1,5E0,9E0,1.91E2,2E1,2.9E1,1.4E1,1.01E2,4.8E1,3E0,5.9E1,1.1E1,2.54E2,5E0,8E0,4E0,5E0],"tree_param":{"num_deleted":"0","num_feature":"11","num_nodes":"29","size_leaf_vector":"1"}},{"base_weights":[-1.7817855E-2,-1.999729E-1,1.4077632E-1,-2.2838055E-1,7.117558E-1,4.7116987E-2,3.7412167E-1,7.62701E-2,-2.6291123E-1,4.412969E-3,8.684528E-1,1.03704885E-1,-3.3534667E-1,1.652928E-1,5.910417E-1,-3.521433E-2,2.5458846E-2,-5.4995883E-2,-2.2801703E-2,2.1782184E-2,-2.1120239E-2,2.2768624E-2,1.01900235E-1,1.4393969E-2,-1.9296516E-2,-1.0875559E-1,-2.1486452E-2,-1.8692805E-3,5.7298165E-2,6.4617984E-2,1.7254805E-2],"categories":[],"categories_nodes":[],"categories_segments":[],"categories_sizes":[],"default_left":[0,0,0,0,0,0,0,0,0,0,0,0,0,0,0,0,0,0,0,0,0,0,0,0,0,0,0,0,0,0,0],"id":9,"left_children":[1,3,5,7,9,11,13,15,17,19,21,23,25,27,29,-1,-1,-1,-1,-1,-1,-1,-1,-1,-1,-1,-1,-1,-1,-1,-1],"loss_changes":[2.2099138E1,9.382973E0,8.921054E0,3.6599026E0,1.2153916E0,6.3761215E0,5.2023087E0,2.8398345E0,2.989666E0,1.8404718E-1,6.3619137E-1,3.0835092E0,3.2101784E0,4.586252E0,1.2037735E0,0E0,0E0,0E0,0E0,0E0,0E0,0E0,0E0,0E0,0E0,0E0,0E0,0E0,0E0,0E0,0E0],"parents":[2147483647,0,0,1,1,2,2,3,3,4,4,5,5,6,6,7,7,8,8,9,9,10,10,11,11,12,12,13,13,14,14],"right_children":[2,4,6,8,10,12,14,16,18,20,22,24,26,28,30,-1,-1,-1,-1,-1,-1,-1,-1,-1,-1,-1,-1,-1,-1,-1,-1],"split_conditions":[-3.6575353E-1,2.3442926E0,1.1987007E0,-7.699311E-1,-4.9875134E-1,1.1590574E0,1.8796347E-1,-4.6118036E-1,-6.305879E-1,2.4017456E0,-1.2887815E0,9.6573746E-1,-9.4434637E-1,-1.16184354E-1,1.350792E0,-3.521433E-2,2.5458846E-2,-5.4995883E-2,-2.2801703E-2,2.1782184E-2,-2.1120239E-2,2.2768624E-2,1.01900235E-1,1.4393969E-2,-1.9296516E-2,-1.0875559E-1,-2.1486452E-2,-1.8692805E-3,5.7298165E-2,6.4617984E-2,1.7254805E-2],"split_indices":[10,0,10,1,4,8,9,9,3,0,10,3,5,4,5,0,0,0,0,0,0,0,0,0,0,0,0,0,0,0,0],"split_type":[0,0,0,0,0,0,0,0,0,0,0,0,0,0,0,0,0,0,0,0,0,0,0,0,0,0,0,0,0,0,0],"sum_hessian":[7.63E2,3.55E2,4.08E2,3.45E2,1E1,2.92E2,1.16E2,3.5E1,3.1E2,2E0,8E0,2.55E2,3.7E1,6E1,5.6E1,1E1,2.5E1,3.2E1,2.78E2,1E0,1E0,2E0,6E0,2.25E2,3E1,4E0,3.3E1,4.2E1,1.8E1,4.9E1,7E0],"tree_param":{"num_deleted":"0","num_feature":"11","num_nodes":"31","size_leaf_vector":"1"}},{"base_weights":[-1.4723948E-2,-1.4065716E-1,1.5975101E-1,-3.1761202E-1,-8.4554724E-2,-1.3868402E-2,2.6572818E-1,-1.7040586E-1,-5.0190914E-1,7.1136594E-2,-1.6134667E-1,1.0512448E-1,-1.9571733E-1,2.9157493E-1,-4.8855639E-1,-2.2537937E-2,3.710812E-2,-6.397733E-2,-1.948115E-2,-1.1429341E-1,9.218128E-3,-9.468595E-3,-3.0446319E-2,-8.74713E-2,1.3018598E-2,-6.417503E-2,-7.931615E-3,4.574723E-2,2.004521E-2,-5.9872057E-2,8.621431E-3],"categories":[],"categories_nodes":[],"categories_segments":[],"categories_sizes":[],"default_left":[0,0,0,0,0,0,0,0,0,0,0,0,0,0,0,0,0,0,0,0,0,0,0,0,0,0,0,0,0,0,0],"id":10,"left_children":[1,3,5,7,9,11,13,15,17,19,21,23,25,27,29,-1,-1,-1,-1,-1,-1,-1,-1,-1,-1,-1,-1,-1,-1,-1,-1],"loss_changes":[1.6875143E1,4.400854E0,5.9283857E0,2.8173475E0,4.076463E0,2.6821382E0,4.041607E0,1.899448E0,1.8652391E0,2.9924772E0,2.146348E0,1.9555893E0,2.4931188E0,2.8410053E0,4.948523E-1,0E0,0E0,0E0,0E0,0E0,0E0,0E0,0E0,0E0,0E0,0E0,0E0,0E0,0E0,0E0,0E0],"parents":[2147483647,0,0,1,1,2,2,3,3,4,4,5,5,6,6,7,7,8,8,9,9,10,10,11,11,12,12,13,13,14,14],"right_children":[2,4,6,8,10,12,14,16,18,20,22,24,26,28,30,-1,-1,-1,-1,-1,-1,-1,-1,-1,-1,-1,-1,-1,-1,-1,-1],"split_conditions":[7.229363E-2,-6.9723266E-1,-1.6611499E-1,-7.212705E-3,-5.0076854E-1,1.7976995E-1,1.4149964E0,9.6573746E-1,1.0759209E-1,-1.8050513E0,2.517425E-1,-1.1697658E0,-9.87312E-1,-7.243587E-1,-4.1345352E-1,-2.2537937E-2,3.710812E-2,-6.397733E-2,-1.948115E-2,-1.1429341E-1,9.218128E-3,-9.468595E-3,-3.0446319E-2,-8.74713E-2,1.3018598E-2,-6.417503E-2,-7.931615E-3,4.574723E-2,2.004521E-2,-5.9872057E-2,8.621431E-3],"split_indices":[10,9,9,8,6,1,6,3,5,10,2,6,6,7,0,0,0,0,0,0,0,0,0,0,0,0,0,0,0,0,0],"split_type":[0,0,0,0,0,0,0,0,0,0,0,0,0,0,0,0,0,0,0,0,0,0,0,0,0,0,0,0,0,0,0],"sum_hessian":[7.66E2,4.45E2,3.21E2,1.06E2,3.39E2,1.22E2,1.99E2,6E1,4.6E1,1.12E2,2.27E2,7.4E1,4.8E1,1.93E2,6E0,5.5E1,5E0,3.1E1,1.5E1,1E0,1.11E2,1.56E2,7.1E1,1E0,7.3E1,9E0,3.9E1,6.7E1,1.26E2,5E0,1E0],"tree_param":{"num_deleted":"0","num_feature":"11","num_nodes":"31","size_leaf_vector":"1"}},{"base_weights":[1.4911798E-2,-8.258316E-2,2.2135817E-1,-1.301128E-1,1.2185833E-1,3.1488445E-1,-1.3927709E-1,-1.1274088E-1,-6.8803185E-1,3.0205492E-2,4.184715E-1,2.5781336E-1,7.945061E-1,-5.7348043E-2,-9.212824E-2,-8.3287805E-3,-3.2709703E-2,-3.6798235E-2,-9.0979114E-2,-4.889007E-2,1.3986127E-2,5.185299E-3,6.349857E-2,4.3012343E-2,6.4714747E-3,1.728201E-2,9.3061924E-2,-2.4182973E-2,7.3887073E-3],"categories":[],"categories_nodes":[],"categories_segments":[],"categories_sizes":[],"default_left":[0,0,0,0,0,0,0,0,0,0,0,0,0,0,0,0,0,0,0,0,0,0,0,0,0,0,0,0,0],"id":11,"left_children":[1,3,5,7,9,11,13,15,17,19,21,23,25,-1,27,-1,-1,-1,-1,-1,-1,-1,-1,-1,-1,-1,-1,-1,-1],"loss_changes":[1.5939117E1,5.243617E0,8.610991E0,4.1578865E0,2.7602744E0,5.324415E0,1.0321923E0,2.6559725E0,5.878744E-1,4.5652947E0,1.872149E0,6.0278206E0,1.6161833E0,0E0,1.2356524E0,0E0,0E0,0E0,0E0,0E0,0E0,0E0,0E0,0E0,0E0,0E0,0E0,0E0,0E0],"parents":[2147483647,0,0,1,1,2,2,3,3,4,4,5,5,6,6,7,7,8,8,9,9,10,10,11,11,12,12,14,14],"right_children":[2,4,6,8,10,12,14,16,18,20,22,24,26,-1,28,-1,-1,-1,-1,-1,-1,-1,-1,-1,-1,-1,-1,-1,-1],"split_conditions":[1.8796347E-1,8.2323164E-1,2.0262147E-1,1.6773996E0,2.9885364E-1,2.043506E0,2.6638263E-1,1.4758143E0,-4.4397622E-1,-6.262737E-1,-1.05451986E-1,-5.46472E-1,-1.3401219E0,-5.7348043E-2,-2.7584893E-1,-8.3287805E-3,-3.2709703E-2,-3.6798235E-2,-9.0979114E-2,-4.889007E-2,1.3986127E-2,5.185299E-3,6.349857E-2,4.3012343E-2,6.4714747E-3,1.728201E-2,9.3061924E-2,-2.4182973E-2,7.3887073E-3],"split_indices":[9,10,4,8,5,10,4,6,10,4,6,1,2,0,3,0,0,0,0,0,0,0,0,0,0,0,0,0,0],"split_type":[0,0,0,0,0,0,0,0,0,0,0,0,0,0,0,0,0,0,0,0,0,0,0,0,0,0,0,0,0],"sum_hessian":[7.9E2,5.37E2,2.53E2,4.36E2,1.01E2,2.01E2,5.2E1,4.24E2,1.2E1,7.8E1,2.3E1,1.81E2,2E1,4E0,4.8E1,3.74E2,5E1,6E0,6E0,1.3E1,6.5E1,9E0,1.4E1,9.5E1,8.6E1,4E0,1.6E1,2.5E1,2.3E1],"tree_param":{"num_deleted":"0","num_feature":"11","num_nodes":"29","size_leaf_vector":"1"}},{"base_weights":[1.0677884E-2,-7.290348E-2,1.768234E-1,9.411919E-3,-1.918923E-1,3.0384752E-1,-2.4530324E-1,1.318386E-1,-8.714448E-2,-4.1695964E-1,-1.4422381E-1,3.3294094E-1,-5.3755034E-2,-3.749127E-2,-4.1419512E-1,-4.4316497E-2,1.7186394E-2,5.821054E-2,-1.026526E-2,-2.814647E-2,-1.2007356E-1,-2.7484914E-2,-7.654175E-3,3.852526E-2,-8.879679E-3,-1.1068734E-2,6.0937185E-2,-1.02921896E-1,-3.1838547E-2],"categories":[],"categories_nodes":[],"categories_segments":[],"categories_sizes":[],"default_left":[0,0,0,0,0,0,0,0,0,0,0,0,0,0,0,0,0,0,0,0,0,0,0,0,0,0,0,0,0],"id":12,"left_children":[1,3,5,7,9,11,13,15,17,19,21,23,-1,25,27,-1,-1,-1,-1,-1,-1,-1,-1,-1,-1,-1,-1,-1,-1],"loss_changes":[1.0663968E1,5.0068526E0,1.3854942E1,3.5932763E0,2.182146E0,5.0258427E0,2.0903363E0,3.1601365E0,1.8241514E0,3.4851522E0,1.5172954E0,4.270073E0,0E0,1.3931893E0,1.6168447E0,0E0,0E0,0E0,0E0,0E0,0E0,0E0,0E0,0E0,0E0,0E0,0E0,0E0,0E0],"parents":[2147483647,0,0,1,1,2,2,3,3,4,4,5,5,6,6,7,7,8,8,9,9,10,10,11,11,13,13,14,14],"right_children":[2,4,6,8,10,12,14,16,18,20,22,24,-1,26,28,-1,-1,-1,-1,-1,-1,-1,-1,-1,-1,-1,-1,-1,-1],"split_conditions":[1.8796347E-1,3.7529662E-1,2.0262147E-1,-3.1831476E-1,-8.487156E-1,1.6886771E0,3.0386788E-1,-1.0513111E0,-1.8862034E0,-1.6611499E-1,-6.9723266E-1,6.2668806E-1,-5.3755034E-2,4.9011517E-1,-6.305879E-1,-4.4316497E-2,1.7186394E-2,5.821054E-2,-1.026526E-2,-2.814647E-2,-1.2007356E-1,-2.7484914E-2,-7.654175E-3,3.852526E-2,-8.879679E-3,-1.1068734E-2,6.0937185E-2,-1.02921896E-1,-3.1838547E-2],"split_indices":[9,1,4,6,5,6,7,9,8,9,9,1,0,5,3,0,0,0,0,0,0,0,0,0,0,0,0,0,0],"split_type":[0,0,0,0,0,0,0,0,0,0,0,0,0,0,0,0,0,0,0,0,0,0,0,0,0,0,0,0,0],"sum_hessian":[7.66E2,5.1E2,2.56E2,3.02E2,2.08E2,1.97E2,5.9E1,1.33E2,1.69E2,3.5E1,1.73E2,1.91E2,6E0,2.7E1,3.2E1,8E0,1.25E2,3E0,1.66E2,3.1E1,4E0,5.8E1,1.15E2,1.7E2,2.1E1,2.5E1,2E0,3E0,2.9E1],"tree_param":{"num_deleted":"0","num_feature":"11","num_nodes":"29","size_leaf_vector":"1"}},{"base_weights":[-2.4498396E-2,1.7826295E-1,-7.7440225E-2,2.7346957E-1,-1.9920865E-1,-2.0558678E-1,6.20419E-4,1.6214065E-1,4.8200056E-1,-2.825121E-1,4.545436E-2,-1.6644657E-1,-4.46422E-1,3.005333E-2,-3.3591655E-1,5.117136E-2,7.750378E-3,5.6272574E-2,-2.4405614E-2,9.810076E-3,-4.5869295E-2,-2.0766938E-2,3.1028932E-2,-6.955719E-2,-2.7461097E-2,-6.401468E-4,2.4891278E-2,2.7167415E-2,-3.6623605E-2],"categories":[],"categories_nodes":[],"categories_segments":[],"categories_sizes":[],"default_left":[0,0,0,0,0,0,0,0,0,0,0,0,0,0,0,0,0,0,0,0,0,0,0,0,0,0,0,0,0],"id":13,"left_children":[1,3,5,7,9,11,13,15,17,19,-1,21,23,25,27,-1,-1,-1,-1,-1,-1,-1,-1,-1,-1,-1,-1,-1,-1],"loss_changes":[8.086191E0,5.6607733E0,5.972039E0,2.8237906E0,1.8711287E0,2.0560465E0,3.694853E0,2.4160411E0,2.6576128E0,1.9896419E0,0E0,3.916306E0,1.1359959E0,2.7382112E0,6.521518E-1,0E0,0E0,0E0,0E0,0E0,0E0,0E0,0E0,0E0,0E0,0E0,0E0,0E0,0E0],"parents":[2147483647,0,0,1,1,2,2,3,3,4,4,5,5,6,6,7,7,8,8,9,9,11,11,12,12,13,13,14,14],"right_children":[2,4,6,8,10,12,14,16,18,20,-1,22,24,26,28,-1,-1,-1,-1,-1,-1,-1,-1,-1,-1,-1,-1,-1,-1],"split_conditions":[-9.09593E-1,3.5068253E-1,-4.6118036E-1,8.961204E-1,1.1952317E0,4.057939E-1,1.749495E0,-1.0785389E0,6.407151E-1,-6.382196E-1,4.545436E-2,9.8228544E-1,-2.0119925E-1,1.1048334E0,-2.4045455E0,5.117136E-2,7.750378E-3,5.6272574E-2,-2.4405614E-2,9.810076E-3,-4.5869295E-2,-2.0766938E-2,3.1028932E-2,-6.955719E-2,-2.7461097E-2,-6.401468E-4,2.4891278E-2,2.7167415E-2,-3.6623605E-2],"split_indices":[1,6,9,9,0,2,6,6,8,9,0,7,4,10,8,0,0,0,0,0,0,0,0,0,0,0,0,0,0],"split_type":[0,0,0,0,0,0,0,0,0,0,0,0,0,0,0,0,0,0,0,0,0,0,0,0,0,0,0,0,0],"sum_hessian":[7.51E2,1.55E2,5.96E2,1.24E2,3.1E1,2.25E2,3.71E2,8.2E1,4.2E1,2.8E1,3E0,1.95E2,3E1,3.42E2,2.9E1,1.5E1,6.7E1,3.8E1,4E0,9E0,1.9E1,1.8E2,1.5E1,1.1E1,1.9E1,2.94E2,4.8E1,1E0,2.8E1],"tree_param":{"num_deleted":"0","num_feature":"11","num_nodes":"29","size_leaf_vector":"1"}},{"base_weights":[-8.6238235E-3,-8.665862E-2,1.0756117E-1,-9.893056E-2,5.311127E-1,1.3648567E-1,-6.7791945E-1,-5.4619785E-2,-2.599113E-1,7.163809E-1,1.2043214E-1,3.0153063E-1,5.2851465E-2,-7.9287404E-1,2.3581339E-2,-2.136982E-2,1.050269E-3,-1.2792475E-2,-5.0800916E-2,4.7918796E-3,8.404896E-2,1.4620559E-2,2.15559E-3,5.781104E-2,1.8431451E-2,7.3155547E-3,-9.451095E-2,-9.350032E-2,-4.6374425E-2],"categories":[],"categories_nodes":[],"categories_segments":[],"categories_sizes":[],"default_left":[0,0,0,0,0,0,0,0,0,0,0,0,0,0,0,0,0,0,0,0,0,0,0,0,0,0,0,0,0],"id":14,"left_children":[1,3,5,7,9,11,13,15,17,19,21,23,25,27,-1,-1,-1,-1,-1,-1,-1,-1,-1,-1,-1,-1,-1,-1,-1],"loss_changes":[6.881707E0,3.49443E0,7.0220137E0,3.1672025E0,5.984993E-1,4.056068E0,1.3423858E0,3.638457E0,3.0785894E0,4.574964E-1,7.041931E-3,3.1029863E0,4.0608883E0,3.4187317E-2,0E0,0E0,0E0,0E0,0E0,0E0,0E0,0E0,0E0,0E0,0E0,0E0,0E0,0E0,0E0],"parents":[2147483647,0,0,1,1,2,2,3,3,4,4,5,5,6,6,7,7,8,8,9,9,10,10,11,11,12,12,13,13],"right_children":[2,4,6,8,10,12,14,16,18,20,22,24,26,28,-1,-1,-1,-1,-1,-1,-1,-1,-1,-1,-1,-1,-1,-1,-1],"split_conditions":[1.1922725E-1,2.4591987E0,2.1350367E0,5.5984527E-1,-4.661925E-1,-2.0159104E-1,-2.1041165E-1,-6.9723266E-1,-3.959694E-1,-7.440403E-1,2.918823E0,-8.6567616E-1,2.526589E0,-3.7056175E-1,2.3581339E-2,-2.136982E-2,1.050269E-3,-1.2792475E-2,-5.0800916E-2,4.7918796E-3,8.404896E-2,1.4620559E-2,2.15559E-3,5.781104E-2,1.8431451E-2,7.3155547E-3,-9.451095E-2,-9.350032E-2,-4.6374425E-2],"split_indices":[10,0,1,2,5,8,2,9,8,6,0,6,3,5,0,0,0,0,0,0,0,0,0,0,0,0,0,0,0],"split_type":[0,0,0,0,0,0,0,0,0,0,0,0,0,0,0,0,0,0,0,0,0,0,0,0,0,0,0,0,0],"sum_hessian":[7.57E2,4.53E2,3.04E2,4.45E2,8E0,2.94E2,1E1,3.5E2,9.5E1,5E0,3E0,9.8E1,1.96E2,9E0,1E0,1.01E2,2.49E2,6.3E1,3.2E1,1E0,4E0,2E0,1E0,2.8E1,7E1,1.93E2,3E0,5E0,4E0],"tree_param":{"num_deleted":"0","num_feature":"11","num_nodes":"29","size_leaf_vector":"1"}},{"base_weights":[-1.2037129E-2,-6.7700036E-2,2.2797221E-1,-2.3453562E-2,-2.5564343E-1,-4.2742807E-2,3.177748E-1,3.6641665E-2,-1.4386083E-1,-1.2849838E-1,-2.179451E-1,-1.9340925E-1,4.4748715E-1,4.8468612E-2,3.740898E-1,6.51194E-3,-2.386016E-2,-1.9883884E-2,1.4009415E-2,2.6331514E-2,-2.5126746E-2,-6.0317766E-2,2.114544E-3,6.6091664E-2,-1.9967731E-2,3.7894953E-2,-3.2142696E-3,4.1766535E-2,-1.247676E-2],"categories":[],"categories_nodes":[],"categories_segments":[],"categories_sizes":[],"default_left":[0,0,0,0,0,0,0,0,0,0,0,0,0,0,0,0,0,0,0,0,0,0,0,0,0,0,0,0,0],"id":15,"left_children":[1,3,5,7,9,11,13,15,17,-1,19,21,23,25,27,-1,-1,-1,-1,-1,-1,-1,-1,-1,-1,-1,-1,-1,-1],"loss_changes":[1.028898E1,5.1913986E0,3.5386653E0,3.6738734E0,4.3376675E0,2.8194125E0,1.6349583E0,2.6727228E0,2.666163E0,0E0,1.9264226E0,2.5623689E0,1.3750856E0,5.449904E-1,2.0085297E0,0E0,0E0,0E0,0E0,0E0,0E0,0E0,0E0,0E0,0E0,0E0,0E0,0E0,0E0],"parents":[2147483647,0,0,1,1,2,2,3,3,4,4,5,5,6,6,7,7,8,8,10,10,11,11,12,12,13,13,14,14],"right_children":[2,4,6,8,10,12,14,16,18,-1,20,22,24,26,28,-1,-1,-1,-1,-1,-1,-1,-1,-1,-1,-1,-1,-1,-1],"split_conditions":[9.170989E-1,1.8136775E-1,-6.0502E-1,4.5909378E-1,-6.6606176E-1,9.892708E-1,-6.382196E-1,1.3845874E0,8.232813E-1,-1.2849838E-1,-5.653546E-1,-4.021673E-1,1.7421924E0,-1.2283504E0,1.2472923E0,6.51194E-3,-2.386016E-2,-1.9883884E-2,1.4009415E-2,2.6331514E-2,-2.5126746E-2,-6.0317766E-2,2.114544E-3,6.6091664E-2,-1.9967731E-2,3.7894953E-2,-3.2142696E-3,4.1766535E-2,-1.247676E-2],"split_indices":[10,4,4,1,3,6,9,6,7,0,7,9,8,9,7,0,0,0,0,0,0,0,0,0,0,0,0,0,0],"split_type":[0,0,0,0,0,0,0,0,0,0,0,0,0,0,0,0,0,0,0,0,0,0,0,0,0,0,0,0,0],"sum_hessian":[7.68E2,6.24E2,1.44E2,5.06E2,1.18E2,3.6E1,1.08E2,3.38E2,1.68E2,3E0,1.15E2,2.8E1,8E0,1.9E1,8.9E1,3.07E2,3.1E1,1.41E2,2.7E1,7E0,1.08E2,9E0,1.9E1,6E0,2E0,3E0,1.6E1,8.2E1,7E0],"tree_param":{"num_deleted":"0","num_feature":"11","num_nodes":"29","size_leaf_vector":"1"}},{"base_weights":[-5.1531463E-4,-1.2249784E-1,6.633915E-2,-9.728502E-2,-4.6727124E-1,-1.9695463E-2,1.7791308E-1,-4.5642853E-3,-1.7440619E-1,-1.2738883E-1,-1.458172E-1,9.979897E-3,-4.0152282E-1,3.754015E-1,1.1179633E-1,4.85132E-2,-5.5822334E-3,-6.80057E-2,-1.501008E-2,-7.7029265E-2,9.452088E-3,7.7093127E-3,-1.4306265E-2,-4.9475368E-2,2.9170308E-2,2.2369733E-2,6.350986E-2,8.112862E-3,5.6676585E-2],"categories":[],"categories_nodes":[],"categories_segments":[],"categories_sizes":[],"default_left":[0,0,0,0,0,0,0,0,0,0,0,0,0,0,0,0,0,0,0,0,0,0,0,0,0,0,0,0,0],"id":16,"left_children":[1,3,5,7,9,11,13,15,17,-1,19,21,23,25,27,-1,-1,-1,-1,-1,-1,-1,-1,-1,-1,-1,-1,-1,-1],"loss_changes":[6.173364E0,2.2841878E0,4.697523E0,1.7940371E0,4.481471E0,3.1426566E0,2.7392354E0,2.9136817E0,1.5816588E0,0E0,2.174002E0,2.6609936E0,1.4369214E0,1.9459782E0,2.2004316E0,0E0,0E0,0E0,0E0,0E0,0E0,0E0,0E0,0E0,0E0,0E0,0E0,0E0,0E0],"parents":[2147483647,0,0,1,1,2,2,3,3,4,4,5,5,6,6,7,7,8,8,10,10,11,11,12,12,13,13,14,14],"right_children":[2,4,6,8,10,12,14,16,18,-1,20,22,24,26,28,-1,-1,-1,-1,-1,-1,-1,-1,-1,-1,-1,-1,-1,-1],"split_conditions":[-4.6118036E-1,1.107633E0,1.1922725E-1,2.635671E-1,-8.487156E-1,1.4830213E0,-1.0492549E0,-1.0785389E0,-1.0481299E0,-1.2738883E-1,1.4623721E0,5.5984527E-1,1.1321727E0,-2.4370669E-1,1.8880588E0,4.85132E-2,-5.5822334E-3,-6.80057E-2,-1.501008E-2,-7.7029265E-2,9.452088E-3,7.7093127E-3,-1.4306265E-2,-4.9475368E-2,2.9170308E-2,2.2369733E-2,6.350986E-2,8.112862E-3,5.6676585E-2],"split_indices":[9,3,10,1,5,8,1,6,6,0,3,2,9,4,3,0,0,0,0,0,0,0,0,0,0,0,0,0,0],"split_type":[0,0,0,0,0,0,0,0,0,0,0,0,0,0,0,0,0,0,0,0,0,0,0,0,0,0,0,0,0],"sum_hessian":[7.55E2,2.67E2,4.88E2,2.5E2,1.7E1,2.76E2,2.12E2,1.14E2,1.36E2,4E0,1.3E1,2.57E2,1.9E1,5.2E1,1.6E2,1E1,1.04E2,5E0,1.31E2,3E0,1E1,1.79E2,7.8E1,1.7E1,2E0,3.4E1,1.8E1,1.51E2,9E0],"tree_param":{"num_deleted":"0","num_feature":"11","num_nodes":"29","size_leaf_vector":"1"}},{"base_weights":[-6.321706E-3,-9.386094E-2,7.007606E-2,-1.1200366E-1,4.8534295E-1,8.276337E-2,-6.685488E-2,-9.430687E-2,-4.962257E-1,8.035374E-2,8.0944166E-2,6.994744E-2,6.346204E-1,-1.1762017E-3,-1.674048E-2,-1.0887485E-1,-3.7613492E-2,1.724288E-2,-1.900108E-2,8.342245E-3,-3.6595874E-2,3.0793702E-2,7.466393E-2],"categories":[],"categories_nodes":[],"categories_segments":[],"categories_sizes":[],"default_left":[0,0,0,0,0,0,0,0,0,0,0,0,0,0,0,0,0,0,0,0,0,0,0],"id":17,"left_children":[1,3,5,7,9,11,-1,13,15,17,-1,19,21,-1,-1,-1,-1,-1,-1,-1,-1,-1,-1],"loss_changes":[5.1093707E0,3.7953267E0,3.8787649E0,2.3058286E0,1.3787796E0,2.79878E0,0E0,2.0012722E0,6.5783167E-1,1.8212631E-1,0E0,2.344821E0,9.943414E-2,0E0,0E0,0E0,0E0,0E0,0E0,0E0,0E0,0E0,0E0],"parents":[2147483647,0,0,1,1,2,2,3,3,4,4,5,5,7,7,8,8,9,9,11,11,12,12],"right_children":[2,4,6,8,10,12,-1,14,16,18,-1,20,22,-1,-1,-1,-1,-1,-1,-1,-1,-1,-1],"split_conditions":[-3.6575353E-1,2.3442926E0,2.4981577E0,1.4830213E0,3.0598962E-1,2.2030602E0,-6.685488E-2,-8.366945E-2,-8.487156E-1,3.7529662E-1,8.0944166E-2,2.1719334E0,1.6548561E0,-1.1762017E-3,-1.674048E-2,-1.0887485E-1,-3.7613492E-2,1.724288E-2,-1.900108E-2,8.342245E-3,-3.6595874E-2,3.0793702E-2,7.466393E-2],"split_indices":[10,0,1,8,9,2,0,5,5,1,0,0,0,0,0,0,0,0,0,0,0,0,0],"split_type":[0,0,0,0,0,0,0,0,0,0,0,0,0,0,0,0,0,0,0,0,0,0,0],"sum_hessian":[7.62E2,3.55E2,4.07E2,3.45E2,1E1,4.01E2,6E0,3.31E2,1.4E1,5E0,5E0,3.93E2,8E0,1.56E2,1.75E2,1E0,1.3E1,4E0,1E0,3.82E2,1.1E1,3E0,5E0],"tree_param":{"num_deleted":"0","num_feature":"11","num_nodes":"23","size_leaf_vector":"1"}},{"base_weights":[1.7925289E-2,2.3565003E-1,-3.4427796E-2,1.3831322E-1,4.575326E-1,4.5919853E-1,-4.57562E-2,4.1233653E-1,7.687923E-2,5.853185E-1,2.126312E-1,-2.1062454E-2,5.883878E-1,-5.3917044E-1,-3.5744913E-2,2.2448843E-2,7.81926E-2,3.1355694E-3,4.679326E-2,3.3854213E-2,7.173185E-2,-2.4717713E-2,3.2881707E-2,1.3311815E-2,7.9938285E-2,2.288946E-2,-8.206249E-2,-1.8098025E-3,-2.3237245E-2],"categories":[],"categories_nodes":[],"categories_segments":[],"categories_sizes":[],"default_left":[0,0,0,0,0,0,0,0,0,0,0,0,0,0,0,0,0,0,0,0,0,0,0,0,0,0,0,0,0],"id":18,"left_children":[1,3,5,7,9,11,13,15,17,19,21,-1,23,25,27,-1,-1,-1,-1,-1,-1,-1,-1,-1,-1,-1,-1,-1,-1],"loss_changes":[8.762208E0,3.1547222E0,3.48805E0,1.7359056E0,1.2838144E0,1.3354042E0,2.9791324E0,1.1435738E0,1.5341134E0,7.018175E-1,9.894708E-1,0E0,1.0463028E0,2.7819402E0,2.0638332E0,0E0,0E0,0E0,0E0,0E0,0E0,0E0,0E0,0E0,0E0,0E0,0E0,0E0,0E0],"parents":[2147483647,0,0,1,1,2,2,3,3,4,4,5,5,6,6,7,7,8,8,9,9,10,10,12,12,13,13,14,14],"right_children":[2,4,6,8,10,12,14,16,18,20,22,-1,24,26,28,-1,-1,-1,-1,-1,-1,-1,-1,-1,-1,-1,-1,-1,-1],"split_conditions":[-9.09593E-1,9.551335E-1,-2.0599933E0,-1.1483697E0,1.6042774E0,-6.582015E-1,-1.1089479E0,-3.0746785E-1,1.7697622E0,7.652471E-1,-4.1373646E-1,-2.1062454E-2,-5.792065E-1,-5.2555496E-1,1.4830213E0,2.2448843E-2,7.81926E-2,3.1355694E-3,4.679326E-2,3.3854213E-2,7.173185E-2,-2.4717713E-2,3.2881707E-2,1.3311815E-2,7.9938285E-2,2.288946E-2,-8.206249E-2,-1.8098025E-3,-2.3237245E-2],"split_indices":[1,9,7,7,9,1,6,4,0,2,4,0,9,8,8,0,0,0,0,0,0,0,0,0,0,0,0,0,0],"split_type":[0,0,0,0,0,0,0,0,0,0,0,0,0,0,0,0,0,0,0,0,0,0,0,0,0,0,0,0,0],"sum_hessian":[7.67E2,1.48E2,6.19E2,1.04E2,4.4E1,1.3E1,6.06E2,1.8E1,8.6E1,2.8E1,1.6E1,2E0,1.1E1,1.1E1,5.95E2,1.3E1,5E0,7.8E1,8E0,1.1E1,1.7E1,3E0,1.3E1,4E0,7E0,3E0,8E0,5.47E2,4.8E1],"tree_param":{"num_deleted":"0","num_feature":"11","num_nodes":"29","size_leaf_vector":"1"}},{"base_weights":[8.67825E-3,-4.049766E-2,1.6524567E-1,-4.9768174E-3,-2.0701796E-1,4.729093E-2,2.9621485E-1,-4.5142668E-1,1.1251013E-2,-1.3089547E-1,-1.7223749E-1,1.8213844E-2,7.2604895E-2,4.0208167E-1,5.8778305E-2,-9.86759E-2,-2.108045E-2,3.6073234E-3,-2.413761E-2,-1.0999137E-2,-4.960456E-2,-3.1082792E-2,6.9531063E-3,2.9953042E-2,8.316708E-2,-9.362921E-3,5.2937645E-2],"categories":[],"categories_nodes":[],"categories_segments":[],"categories_sizes":[],"default_left":[0,0,0,0,0,0,0,0,0,0,0,0,0,0,0,0,0,0,0,0,0,0,0,0,0,0,0],"id":19,"left_children":[1,3,5,7,9,11,13,15,17,-1,19,21,-1,23,25,-1,-1,-1,-1,-1,-1,-1,-1,-1,-1,-1,-1],"loss_changes":[5.9274893E0,3.4651258E0,2.828504E0,3.5116165E0,3.7221146E0,1.9209335E0,2.1632547E0,1.9818048E0,2.9434257E0,0E0,1.981175E0,1.6257354E0,0E0,2.394184E0,2.0578003E0,0E0,0E0,0E0,0E0,0E0,0E0,0E0,0E0,0E0,0E0,0E0,0E0],"parents":[2147483647,0,0,1,1,2,2,3,3,4,4,5,5,6,6,7,7,8,8,10,10,11,11,13,13,14,14],"right_children":[2,4,6,8,10,12,14,16,18,-1,20,22,-1,24,26,-1,-1,-1,-1,-1,-1,-1,-1,-1,-1,-1,-1],"split_conditions":[7.293644E-1,1.8136775E-1,1.289504E-1,-1.017721E0,-6.6606176E-1,1.5420536E0,1.3781975E-1,-1.2374209E0,1.5974501E0,-1.3089547E-1,4.4633678E-1,-6.9003487E-1,7.2604895E-2,6.804042E-2,1.0804977E0,-9.86759E-2,-2.108045E-2,3.6073234E-3,-2.413761E-2,-1.0999137E-2,-4.960456E-2,-3.1082792E-2,6.9531063E-3,2.9953042E-2,8.316708E-2,-9.362921E-3,5.2937645E-2],"split_indices":[10,4,9,6,3,5,6,2,6,0,8,4,0,1,6,0,0,0,0,0,0,0,0,0,0,0,0],"split_type":[0,0,0,0,0,0,0,0,0,0,0,0,0,0,0,0,0,0,0,0,0,0,0,0,0,0,0],"sum_hessian":[7.68E2,5.85E2,1.83E2,4.83E2,1.02E2,9.7E1,8.6E1,1.6E1,4.67E2,2E0,1E2,9.4E1,3E0,5.9E1,2.7E1,4E0,1.2E1,4.26E2,4.1E1,8.5E1,1.5E1,1.2E1,8.2E1,4.9E1,1E1,2.1E1,6E0],"tree_param":{"num_deleted":"0","num_feature":"11","num_nodes":"27","size_leaf_vector":"1"}},{"base_weights":[-1.8236427E-2,6.426345E-4,-3.9991698E-1,-6.313133E-2,5.074922E-2,-4.67753E-1,2.766682E-1,-9.881606E-2,-5.7316165E-2,3.6771426E-3,1.6703744E-1,-1.3198717E-1,-6.2259805E-1,4.3580916E-2,-1.0037732E-2,-1.5583877E-3,-1.8283192E-2,2.0947326E-3,-4.1255288E-2,3.265953E-2,4.7412544E-4,-3.1676292E-3,-2.2701867E-2,-3.9900478E-2,-9.2607595E-2],"categories":[],"categories_nodes":[],"categories_segments":[],"categories_sizes":[],"default_left":[0,0,0,0,0,0,0,0,0,0,0,0,0,0,0,0,0,0,0,0,0,0,0,0,0],"id":20,"left_children":[1,3,5,7,9,11,13,-1,15,17,19,21,23,-1,-1,-1,-1,-1,-1,-1,-1,-1,-1,-1,-1],"loss_changes":[5.656787E0,2.3966303E0,1.8275952E0,1.7184983E0,2.2984357E0,1.6855421E0,2.8375885E-1,0E0,1.7204723E0,2.1651525E0,3.1318233E0,1.0720122E-1,1.1911707E0,0E0,0E0,0E0,0E0,0E0,0E0,0E0,0E0,0E0,0E0,0E0,0E0],"parents":[2147483647,0,0,1,1,2,2,3,3,4,4,5,5,6,6,8,8,9,9,10,10,11,11,12,12],"right_children":[2,4,6,8,10,12,14,-1,16,18,20,22,24,-1,-1,-1,-1,-1,-1,-1,-1,-1,-1,-1,-1],"split_conditions":[1.7998482E0,-4.4397622E-1,1.0109661E0,-1.8050513E0,6.2070125E-1,-7.212705E-3,-9.305309E-1,-9.881606E-2,7.7700746E-1,1.3814527E0,-7.3676914E-2,-4.6118036E-1,1.760083E-3,4.3580916E-2,-1.0037732E-2,-1.5583877E-3,-1.8283192E-2,2.0947326E-3,-4.1255288E-2,3.265953E-2,4.7412544E-4,-3.1676292E-3,-2.2701867E-2,-3.9900478E-2,-9.2607595E-2],"split_indices":[1,10,10,10,0,8,0,0,5,2,4,9,7,0,0,0,0,0,0,0,0,0,0,0,0],"split_type":[0,0,0,0,0,0,0,0,0,0,0,0,0,0,0,0,0,0,0,0,0,0,0,0,0],"sum_hessian":[7.84E2,7.48E2,3.6E1,3.29E2,4.19E2,3.3E1,3E0,1E0,3.28E2,2.99E2,1.2E2,1.1E1,2.2E1,2E0,1E0,2.47E2,8.1E1,2.88E2,1.1E1,6E1,6E1,6E0,5E0,1.4E1,8E0],"tree_param":{"num_deleted":"0","num_feature":"11","num_nodes":"25","size_leaf_vector":"1"}},{"base_weights":[-6.6741183E-3,-3.2185923E-2,2.0410189E-1,-1.1983203E-1,1.565676E-2,2.2427264E-1,-4.219896E-2,-9.175434E-2,-3.5604328E-1,5.7706382E-2,-1.5088367E-1,1.5973319E-1,4.4845772E-1,2.8839959E-3,-1.782475E-2,-2.1314232E-2,-6.0228486E-2,4.1550403E-3,5.7238925E-2,-1.8505618E-2,4.807293E-2,5.797771E-3,4.0839266E-2,5.611528E-2,-3.0206872E-2],"categories":[],"categories_nodes":[],"categories_segments":[],"categories_sizes":[],"default_left":[0,0,0,0,0,0,0,0,0,0,0,0,0,0,0,0,0,0,0,0,0,0,0,0,0],"id":21,"left_children":[1,3,5,7,9,11,-1,13,15,17,19,21,23,-1,-1,-1,-1,-1,-1,-1,-1,-1,-1,-1,-1],"loss_changes":[4.2331085E0,2.9455202E0,1.1680834E0,1.6121333E0,3.195055E0,1.1292753E0,0E0,2.33116E0,7.8652E-1,3.0029526E0,2.074672E0,1.6462848E0,1.6919582E0,0E0,0E0,0E0,0E0,0E0,0E0,0E0,0E0,0E0,0E0,0E0,0E0],"parents":[2147483647,0,0,1,1,2,2,3,3,4,4,5,5,7,7,8,8,9,9,10,10,11,11,12,12],"right_children":[2,4,6,8,10,12,-1,14,16,18,20,22,24,-1,-1,-1,-1,-1,-1,-1,-1,-1,-1,-1,-1],"split_conditions":[1.4803023E0,-4.6118036E-1,2.6890109E0,1.07335E0,6.2436324E-1,6.109985E-1,-4.219896E-2,-7.200549E-2,6.804042E-2,1.8880588E0,3.454669E0,1.0294718E0,5.428909E-1,2.8839959E-3,-1.782475E-2,-2.1314232E-2,-6.0228486E-2,4.1550403E-3,5.7238925E-2,-1.8505618E-2,4.807293E-2,5.797771E-3,4.0839266E-2,5.611528E-2,-3.0206872E-2],"split_indices":[10,9,0,2,6,3,0,8,1,3,5,8,1,0,0,0,0,0,0,0,0,0,0,0,0],"split_type":[0,0,0,0,0,0,0,0,0,0,0,0,0,0,0,0,0,0,0,0,0,0,0,0,0],"sum_hessian":[7.85E2,7.01E2,8.4E1,2.47E2,4.54E2,8.2E1,2E0,2.22E2,2.5E1,3.63E2,9.1E1,6.5E1,1.7E1,9.3E1,1.29E2,1.7E1,8E0,3.53E2,1E1,8.7E1,4E0,4.7E1,1.8E1,1.5E1,2E0],"tree_param":{"num_deleted":"0","num_feature":"11","num_nodes":"25","size_leaf_vector":"1"}},{"base_weights":[1.1909666E-3,-2.9727984E-2,1.670427E-1,-7.7914886E-2,-2.2520576E-2,3.4323296E-1,7.9061925E-2,-1.1296076E-2,-4.8047537E-1,8.023262E-3,4.7463593E-1,-3.881317E-1,1.1538326E-1,5.172157E-4,-2.3570089E-2,-7.3511995E-2,-1.6577138E-2,1.4163303E-2,-7.308421E-2,5.3788017E-2,-3.929961E-3,-5.344788E-2,1.718018E-2,4.6250638E-2,7.849565E-3],"categories":[],"categories_nodes":[],"categories_segments":[],"categories_sizes":[],"default_left":[0,0,0,0,0,0,0,0,0,0,0,0,0,0,0,0,0,0,0,0,0,0,0,0,0],"id":22,"left_children":[1,3,5,-1,7,9,11,13,15,17,19,21,23,-1,-1,-1,-1,-1,-1,-1,-1,-1,-1,-1,-1],"loss_changes":[3.8509374E0,3.4015288E0,1.8020234E0,0E0,3.2226894E0,1.7140465E0,1.4023114E0,2.270287E0,1.0802028E0,1.288147E0,9.312358E-1,5.834923E-1,9.2403585E-1,0E0,0E0,0E0,0E0,0E0,0E0,0E0,0E0,0E0,0E0,0E0,0E0],"parents":[2147483647,0,0,1,1,2,2,4,4,5,5,6,6,7,7,8,8,9,9,10,10,11,11,12,12],"right_children":[2,4,6,-1,8,10,12,14,16,18,20,22,24,-1,-1,-1,-1,-1,-1,-1,-1,-1,-1,-1,-1],"split_conditions":[1.1987007E0,-1.1393569E0,-8.048582E-1,-7.7914886E-2,2.0013635E0,-4.562439E-1,-6.8322235E-1,7.339645E-1,-6.224044E-1,6.109985E-1,3.513975E-1,1.3204764E0,-9.025721E-1,5.172157E-4,-2.3570089E-2,-7.3511995E-2,-1.6577138E-2,1.4163303E-2,-7.308421E-2,5.3788017E-2,-3.929961E-3,-5.344788E-2,1.718018E-2,4.6250638E-2,7.849565E-3],"split_indices":[10,6,6,0,8,4,6,4,6,3,4,3,4,0,0,0,0,0,0,0,0,0,0,0,0],"split_type":[0,0,0,0,0,0,0,0,0,0,0,0,0,0,0,0,0,0,0,0,0,0,0,0,0],"sum_hessian":[7.49E2,6.32E2,1.17E2,5E0,6.27E2,3.8E1,7.9E1,6.13E2,1.4E1,1.1E1,2.7E1,5E0,7.4E1,5.72E2,4.1E1,7E0,7E0,1E1,1E0,2.4E1,3E0,4E0,1E0,6E0,6.8E1],"tree_param":{"num_deleted":"0","num_feature":"11","num_nodes":"25","size_leaf_vector":"1"}},{"base_weights":[2.1820203E-3,3.618918E-2,-1.0621611E-1,-7.6848385E-3,1.1229957E-1,-1.8345222E-2,-1.8931928E-1,-2.609562E-1,2.2134393E-2,-7.3237784E-2,1.8818402E-1,-1.548569E-1,1.4081593E-1,-1.1001652E-1,-6.102198E-1,-4.9617026E-2,-9.336233E-5,1.6628793E-2,-3.3624624E-3,5.903263E-4,-3.3215877E-2,2.091789E-2,-3.6805216E-2,2.862007E-2,-1.9943152E-2,2.7210657E-3,5.1299226E-2,-1.968104E-2,1.2118562E-2,-8.6506896E-2,-2.7909322E-2],"categories":[],"categories_nodes":[],"categories_segments":[],"categories_sizes":[],"default_left":[0,0,0,0,0,0,0,0,0,0,0,0,0,0,0,0,0,0,0,0,0,0,0,0,0,0,0,0,0,0,0],"id":23,"left_children":[1,3,5,7,9,11,13,15,17,19,21,23,25,27,29,-1,-1,-1,-1,-1,-1,-1,-1,-1,-1,-1,-1,-1,-1,-1,-1],"loss_changes":[2.8865402E0,1.9910672E0,1.3620663E0,2.8681195E0,3.0830915E0,2.0207233E0,3.137209E0,2.4459755E0,2.7384632E0,1.3134025E0,1.8870964E0,1.0400757E0,1.8041328E0,1.6693385E0,1.024375E0,0E0,0E0,0E0,0E0,0E0,0E0,0E0,0E0,0E0,0E0,0E0,0E0,0E0,0E0,0E0,0E0],"parents":[2147483647,0,0,1,1,2,2,3,3,4,4,5,5,6,6,7,7,8,8,9,9,10,10,11,11,12,12,13,13,14,14],"right_children":[2,4,6,8,10,12,14,16,18,20,22,24,26,28,30,-1,-1,-1,-1,-1,-1,-1,-1,-1,-1,-1,-1,-1,-1,-1,-1],"split_conditions":[6.2668806E-1,1.8796347E-1,3.81544E-1,-9.8798394E-1,-4.4397622E-1,-2.7584893E-1,5.400507E-1,-8.366945E-2,-4.158135E-1,1.1595305E0,1.810313E0,-1.1479806E0,2.4512891E-1,8.2323164E-1,1.3914242E0,-4.9617026E-2,-9.336233E-5,1.6628793E-2,-3.3624624E-3,5.903263E-4,-3.3215877E-2,2.091789E-2,-3.6805216E-2,2.862007E-2,-1.9943152E-2,2.7210657E-3,5.1299226E-2,-1.968104E-2,1.2118562E-2,-8.6506896E-2,-2.7909322E-2],"split_indices":[1,9,8,0,10,3,3,5,2,5,6,10,4,10,3,0,0,0,0,0,0,0,0,0,0,0,0,0,0,0,0],"split_type":[0,0,0,0,0,0,0,0,0,0,0,0,0,0,0,0,0,0,0,0,0,0,0,0,0,0,0,0,0,0,0],"sum_hessian":[7.81E2,5.95E2,1.86E2,3.78E2,2.17E2,9.1E1,9.5E1,3.9E1,3.39E2,6.3E1,1.54E2,4.9E1,4.2E1,8.1E1,1.4E1,2E1,1.9E1,9.4E1,2.45E2,4.9E1,1.4E1,1.49E2,5E0,4E0,4.5E1,3.3E1,9E0,5.9E1,2.2E1,7E0,7E0],"tree_param":{"num_deleted":"0","num_feature":"11","num_nodes":"31","size_leaf_vector":"1"}},{"base_weights":[-2.2893792E-2,-6.0296826E-2,1.5878987E-1,-1.0134172E-1,6.1920583E-2,3.494802E-1,5.2473847E-2,4.2148633E-3,-1.4097649E-1,1.5472108E-1,-1.605385E-1,-2.1351637E-1,4.392676E-1,-2.21846E-1,1.2538852E-1,1.2788807E-2,-1.01850955E-2,-9.1063855E-3,-2.8127894E-2,2.2947585E-2,-1.8014371E-2,-2.207649E-2,5.4208662E-2,1.6018903E-2,-5.338427E-2,6.275939E-2,2.8756699E-2,-8.346926E-3,-6.8529725E-2,1.4907206E-2,-7.188628E-2],"categories":[],"categories_nodes":[],"categories_segments":[],"categories_sizes":[],"default_left":[0,0,0,0,0,0,0,0,0,0,0,0,0,0,0,0,0,0,0,0,0,0,0,0,0,0,0,0,0,0,0],"id":24,"left_children":[1,3,5,7,9,11,13,15,17,19,21,23,25,27,29,-1,-1,-1,-1,-1,-1,-1,-1,-1,-1,-1,-1,-1,-1,-1,-1],"loss_changes":[5.1333966E0,3.1465414E0,2.596935E0,1.9627542E0,3.28664E0,2.4190903E0,1.7079802E0,1.7051831E0,2.362362E0,2.8450062E0,2.1085532E0,9.234694E-1,9.6229315E-1,1.0971544E0,1.4468184E0,0E0,0E0,0E0,0E0,0E0,0E0,0E0,0E0,0E0,0E0,0E0,0E0,0E0,0E0,0E0,0E0],"parents":[2147483647,0,0,1,1,2,2,3,3,4,4,5,5,6,6,7,7,8,8,9,9,10,10,11,11,12,12,13,13,14,14],"right_children":[2,4,6,8,10,12,14,16,18,20,22,24,26,28,30,-1,-1,-1,-1,-1,-1,-1,-1,-1,-1,-1,-1,-1,-1,-1,-1],"split_conditions":[1.0109661E0,4.240158E-1,-8.048582E-1,-4.6076217E-1,3.5068253E-1,-6.475274E-1,-5.615865E-1,-3.1831476E-1,-1.261883E-1,2.0262147E-1,3.5502996E0,-9.9339014E-1,-3.311766E-1,4.311614E-1,4.300284E0,1.2788807E-2,-1.01850955E-2,-9.1063855E-3,-2.8127894E-2,2.2947585E-2,-1.8014371E-2,-2.207649E-2,5.4208662E-2,1.6018903E-2,-5.338427E-2,6.275939E-2,2.8756699E-2,-8.346926E-3,-6.8529725E-2,1.4907206E-2,-7.188628E-2],"split_indices":[10,9,6,8,6,4,6,6,0,4,5,1,8,1,3,0,0,0,0,0,0,0,0,0,0,0,0,0,0,0,0],"split_type":[0,0,0,0,0,0,0,0,0,0,0,0,0,0,0,0,0,0,0,0,0,0,0,0,0,0,0,0,0,0,0],"sum_hessian":[7.53E2,6.25E2,1.28E2,4.68E2,1.57E2,4.5E1,8.3E1,1.28E2,3.4E2,1.11E2,4.6E1,6E0,3.9E1,1.7E1,6.6E1,5.9E1,6.9E1,2.52E2,8.8E1,9.1E1,2E1,4.3E1,3E0,3E0,3E0,1.6E1,2.3E1,1.4E1,3E0,6.5E1,1E0],"tree_param":{"num_deleted":"0","num_feature":"11","num_nodes":"31","size_leaf_vector":"1"}},{"base_weights":[4.0621846E-3,5.7646282E-2,-7.890876E-2,-3.2966226E-1,7.037191E-2,-3.0094087E-1,-5.4129813E-2,-5.3610235E-2,-1.7283197E-1,1.0889237E-1,-5.4847263E-2,-3.581852E-1,6.795726E-2,-1.5248865E-2,-2.2645624E-1,-2.199936E-2,-4.709113E-3,1.3974843E-2,-7.2328867E-3,2.1845212E-2,-1.3227986E-2,7.758347E-3,-4.52203E-2,-3.4661887E-3,3.6204405E-2,-5.4498922E-2,-1.1152505E-2],"categories":[],"categories_nodes":[],"categories_segments":[],"categories_sizes":[],"default_left":[0,0,0,0,0,0,0,0,0,0,0,0,0,0,0,0,0,0,0,0,0,0,0,0,0,0,0],"id":25,"left_children":[1,3,5,7,9,11,13,-1,15,17,19,21,-1,23,25,-1,-1,-1,-1,-1,-1,-1,-1,-1,-1,-1,-1],"loss_changes":[3.410126E0,2.3199933E0,1.6397278E0,3.9298522E-1,2.1861947E0,1.9272783E0,1.8190053E0,0E0,4.89417E-2,1.9448605E0,2.2932606E0,1.2232137E0,0E0,1.6458889E0,1.7696893E0,0E0,0E0,0E0,0E0,0E0,0E0,0E0,0E0,0E0,0E0,0E0,0E0],"parents":[2147483647,0,0,1,1,2,2,3,3,4,4,5,5,6,6,8,8,9,9,10,10,11,11,13,13,14,14],"right_children":[2,4,6,8,10,12,14,-1,16,18,20,22,-1,24,26,-1,-1,-1,-1,-1,-1,-1,-1,-1,-1,-1,-1],"split_conditions":[2.635671E-1,-1.1103243E0,-9.5690304E-1,-3.822706E-1,3.5068253E-1,2.3137455E0,3.0598962E-1,-5.3610235E-2,-7.212705E-3,2.238752E-1,-3.822706E-1,-9.305309E-1,6.795726E-2,1.7461631E0,-6.224044E-1,-2.199936E-2,-4.709113E-3,1.3974843E-2,-7.2328867E-3,2.1845212E-2,-1.3227986E-2,7.758347E-3,-4.52203E-2,-3.4661887E-3,3.6204405E-2,-5.4498922E-2,-1.1152505E-2],"split_indices":[1,9,6,3,6,3,9,0,8,4,3,0,0,3,6,0,0,0,0,0,0,0,0,0,0,0,0],"split_type":[0,0,0,0,0,0,0,0,0,0,0,0,0,0,0,0,0,0,0,0,0,0,0,0,0,0,0],"sum_hessian":[7.65E2,4.65E2,3E2,1.4E1,4.51E2,2.9E1,2.71E2,5E0,9E0,3.45E2,1.06E2,2.8E1,1E0,2.22E2,4.9E1,6E0,3E0,2.95E2,5E1,2.3E1,8.3E1,5E0,2.3E1,2.12E2,1E1,1.2E1,3.7E1],"tree_param":{"num_deleted":"0","num_feature":"11","num_nodes":"27","size_leaf_vector":"1"}},{"base_weights":[-1.5866332E-2,-4.5142945E-2,1.02114946E-1,-1.8692105E-1,-1.5072987E-2,-1.1462993E-1,1.8054731E-1,-1.08985305E-1,-3.7447363E-1,-2.5664654E-1,3.4232363E-3,1.4465947E-1,-3.6846077E-1,3.0997768E-1,2.5243465E-2,-1.7008042E-2,3.1735986E-2,-5.7727825E-2,-1.196635E-2,2.8235516E-2,-5.051015E-2,3.3709393E-3,-1.4728415E-2,-7.737871E-3,3.535468E-2,1.6604412E-2,-4.667696E-2,6.88115E-2,2.3129787E-2,-3.3435132E-2,9.822323E-3],"categories":[],"categories_nodes":[],"categories_segments":[],"categories_sizes":[],"default_left":[0,0,0,0,0,0,0,0,0,0,0,0,0,0,0,0,0,0,0,0,0,0,0,0,0,0,0,0,0,0,0],"id":26,"left_children":[1,3,5,7,9,11,13,15,17,19,21,23,25,27,29,-1,-1,-1,-1,-1,-1,-1,-1,-1,-1,-1,-1,-1,-1,-1,-1],"loss_changes":[2.6400824E0,2.6062987E0,2.6046677E0,1.5232124E0,2.261787E0,2.7517428E0,2.2434907E0,2.0596418E0,1.5328975E0,4.9636536E0,2.1547725E0,1.0013571E0,1.1809814E0,1.6556993E0,1.3974845E0,0E0,0E0,0E0,0E0,0E0,0E0,0E0,0E0,0E0,0E0,0E0,0E0,0E0,0E0,0E0,0E0],"parents":[2147483647,0,0,1,1,2,2,3,3,4,4,5,5,6,6,7,7,8,8,9,9,10,10,11,11,12,12,13,13,14,14],"right_children":[2,4,6,8,10,12,14,16,18,20,22,24,26,28,30,-1,-1,-1,-1,-1,-1,-1,-1,-1,-1,-1,-1,-1,-1,-1,-1],"split_conditions":[8.2323164E-1,-7.5624573E-1,-6.0502E-1,3.81544E-1,-9.5690304E-1,-1.8373874E0,7.652471E-1,6.464724E-1,4.659285E-2,-3.311766E-1,2.238752E-1,1.0500888E0,-5.792065E-1,-3.959694E-1,9.192985E-1,-1.7008042E-2,3.1735986E-2,-5.7727825E-2,-1.196635E-2,2.8235516E-2,-5.051015E-2,3.3709393E-3,-1.4728415E-2,-7.737871E-3,3.535468E-2,1.6604412E-2,-4.667696E-2,6.88115E-2,2.3129787E-2,-3.3435132E-2,9.822323E-3],"split_indices":[10,9,4,8,6,7,2,3,6,8,4,6,9,8,2,0,0,0,0,0,0,0,0,0,0,0,0,0,0,0,0],"split_type":[0,0,0,0,0,0,0,0,0,0,0,0,0,0,0,0,0,0,0,0,0,0,0,0,0,0,0,0,0,0,0],"sum_hessian":[7.62E2,6.11E2,1.51E2,1.06E2,5.05E2,4E1,1.11E2,7.6E1,3E1,3.5E1,4.7E2,2E1,2E1,6E1,5.1E1,6.7E1,9E0,1.6E1,1.4E1,1.1E1,2.4E1,3.92E2,7.8E1,1E1,1E1,3E0,1.7E1,9E0,5.1E1,8E0,4.3E1],"tree_param":{"num_deleted":"0","num_feature":"11","num_nodes":"31","size_leaf_vector":"1"}},{"base_weights":[1.7858962E-2,-7.390679E-2,6.981797E-2,-1.1786335E-1,1.0794883E-1,4.398985E-2,2.189568E-1,-5.132755E-1,-9.943807E-2,-4.2047024E-2,2.393468E-1,8.008133E-2,-6.9913074E-2,6.035202E-1,1.4223112E-1,-2.0086218E-2,-7.855164E-2,-5.4508257E-3,-2.4813535E-2,2.8272895E-2,-1.4830343E-2,3.188016E-2,-2.2168731E-2,6.17768E-3,4.1023582E-2,-7.0900194E-2,-4.3910416E-3,9.146427E-2,3.336286E-2,2.8653434E-2,-1.2118904E-2],"categories":[],"categories_nodes":[],"categories_segments":[],"categories_sizes":[],"default_left":[0,0,0,0,0,0,0,0,0,0,0,0,0,0,0,0,0,0,0,0,0,0,0,0,0,0,0,0,0,0,0],"id":27,"left_children":[1,3,5,7,9,11,13,15,17,19,21,23,25,27,29,-1,-1,-1,-1,-1,-1,-1,-1,-1,-1,-1,-1,-1,-1,-1,-1],"loss_changes":[3.757621E0,2.2909412E0,1.9279118E0,1.6246436E0,1.1137764E0,1.7732965E0,2.0975962E0,6.927366E-1,1.4629626E0,9.7368693E-1,1.1696149E0,1.9508233E0,1.6971402E0,7.0248127E-1,2.4295049E0,0E0,0E0,0E0,0E0,0E0,0E0,0E0,0E0,0E0,0E0,0E0,0E0,0E0,0E0,0E0,0E0],"parents":[2147483647,0,0,1,1,2,2,3,3,4,4,5,5,6,6,7,7,8,8,9,9,10,10,11,11,12,12,13,13,14,14],"right_children":[2,4,6,8,10,12,14,16,18,20,22,24,26,28,30,-1,-1,-1,-1,-1,-1,-1,-1,-1,-1,-1,-1,-1,-1,-1,-1],"split_conditions":[-5.847771E-1,7.055079E-1,9.551335E-1,-4.9875134E-1,-4.021673E-1,2.5945562E-1,-3.6575353E-1,-4.532184E-1,9.70649E-1,-7.581718E-1,2.517425E-1,2.2312403E0,-6.574541E-1,-8.487156E-1,1.07335E0,-2.0086218E-2,-7.855164E-2,-5.4508257E-3,-2.4813535E-2,2.8272895E-2,-1.4830343E-2,3.188016E-2,-2.2168731E-2,6.17768E-3,4.1023582E-2,-7.0900194E-2,-4.3910416E-3,9.146427E-2,3.336286E-2,2.8653434E-2,-1.2118904E-2],"split_indices":[10,8,9,4,9,6,10,3,2,0,2,10,5,5,2,0,0,0,0,0,0,0,0,0,0,0,0,0,0,0,0],"split_type":[0,0,0,0,0,0,0,0,0,0,0,0,0,0,0,0,0,0,0,0,0,0,0,0,0,0,0,0,0,0,0],"sum_hessian":[7.86E2,2.84E2,5.02E2,2.29E2,5.5E1,4.29E2,7.3E1,9E0,2.2E2,2.6E1,2.9E1,3.26E2,1.03E2,1.1E1,6.2E1,5E0,4E0,1.7E2,5E1,6E0,2E1,2.5E1,4E0,3.1E2,1.6E1,3E0,1E2,4E0,7E0,4E1,2.2E1],"tree_param":{"num_deleted":"0","num_feature":"11","num_nodes":"31","size_leaf_vector":"1"}},{"base_weights":[-2.4219071E-2,-1.2528623E-2,-2.8447884E-1,-1.887767E-1,1.2389981E-3,-1.0787678E-1,-5.00983E-1,-1.0102472E-1,-6.916915E-1,1.7079702E-2,-1.6045642E-1,-3.186682E-1,1.3478145E-1,-1.0649411E-1,-3.3230165E-1,-1.8923087E-2,3.0222757E-2,-6.009245E-3,-1.0586325E-1,4.2620403E-4,2.9845828E-2,-8.774602E-3,-2.919737E-2,-4.1399397E-2,7.3531787E-3,5.6638766E-2,-4.391855E-3,-4.2499807E-2,-9.898777E-3],"categories":[],"categories_nodes":[],"categories_segments":[],"categories_sizes":[],"default_left":[0,0,0,0,0,0,0,0,0,0,0,0,0,0,0,0,0,0,0,0,0,0,0,0,0,0,0,0,0],"id":28,"left_children":[1,3,5,7,9,11,13,15,17,19,21,23,25,-1,27,-1,-1,-1,-1,-1,-1,-1,-1,-1,-1,-1,-1,-1,-1],"loss_changes":[2.4061382E0,1.8419601E0,1.2459483E0,2.3573694E0,1.8085059E0,1.065956E0,1.0730565E0,1.7645185E0,1.7904603E0,2.3177817E0,5.768291E-1,4.4169605E-1,7.961552E-1,0E0,2.3908603E-1,0E0,0E0,0E0,0E0,0E0,0E0,0E0,0E0,0E0,0E0,0E0,0E0,0E0,0E0],"parents":[2147483647,0,0,1,1,2,2,3,3,4,4,5,5,6,6,7,7,8,8,9,9,10,10,11,11,12,12,14,14],"right_children":[2,4,6,8,10,12,14,16,18,20,22,24,26,-1,28,-1,-1,-1,-1,-1,-1,-1,-1,-1,-1,-1,-1,-1,-1],"split_conditions":[1.8557129E0,-6.305879E-1,1.4486378E-1,5.79475E-1,1.5974501E0,-4.9645278E-1,-5.283596E-1,5.632482E-1,-7.699311E-1,1.8525848E0,-7.200549E-2,1.1802927E0,-4.3285114E-1,-1.0649411E-1,-5.009801E-3,-1.8923087E-2,3.0222757E-2,-6.009245E-3,-1.0586325E-1,4.2620403E-4,2.9845828E-2,-8.774602E-3,-2.919737E-2,-4.1399397E-2,7.3531787E-3,5.6638766E-2,-4.391855E-3,-4.2499807E-2,-9.898777E-3],"split_indices":[1,3,7,7,6,7,0,0,1,3,8,4,7,0,2,0,0,0,0,0,0,0,0,0,0,0,0,0,0],"split_type":[0,0,0,0,0,0,0,0,0,0,0,0,0,0,0,0,0,0,0,0,0,0,0,0,0,0,0,0,0],"sum_hessian":[7.91E2,7.58E2,3.3E1,5.4E1,7.04E2,1.9E1,1.4E1,4.7E1,7E0,6.42E2,6.2E1,1E1,9E0,2E0,1.2E1,3.9E1,8E0,3E0,4E0,6.15E2,2.7E1,4.1E1,2.1E1,8E0,2E0,2E0,7E0,8E0,4E0],"tree_param":{"num_deleted":"0","num_feature":"11","num_nodes":"29","size_leaf_vector":"1"}},{"base_weights":[-8.604787E-4,-1.0055435E-2,2.654727E-1,-9.1246724E-2,-7.642032E-3,-2.1066237E-2,4.18409E-1,3.5262823E-5,-2.748867E-1,-2.1568495E-1,5.0493907E-2,4.113114E-2,4.9631628E-1,3.0260012E-3,-6.4418516E-3,-6.0723044E-2,-1.3307738E-2,-2.2878245E-2,-6.200123E-3,2.9506255E-2,-3.6033154E-2,5.427217E-2,-5.347681E-3],"categories":[],"categories_nodes":[],"categories_segments":[],"categories_sizes":[],"default_left":[0,0,0,0,0,0,0,0,0,0,0,0,0,0,0,0,0,0,0,0,0,0,0],"id":29,"left_children":[1,3,5,-1,7,9,11,13,15,17,-1,19,21,-1,-1,-1,-1,-1,-1,-1,-1,-1,-1],"loss_changes":[1.9079309E0,1.6329731E0,1.1481916E0,0E0,1.5429003E0,1.1326126E0,4.7926188E-1,1.427958E0,9.0890944E-1,1.9181669E-3,0E0,5.140962E-1,3.8620996E-1,0E0,0E0,0E0,0E0,0E0,0E0,0E0,0E0,0E0,0E0],"parents":[2147483647,0,0,1,1,2,2,4,4,5,5,6,6,7,7,8,8,9,9,11,11,12,12],"right_children":[2,4,6,-1,8,10,12,14,16,18,-1,20,22,-1,-1,-1,-1,-1,-1,-1,-1,-1,-1],"split_conditions":[1.9976583E0,-1.8050513E0,-2.7531648E-2,-9.1246724E-2,1.6382049E0,6.2668806E-1,-1.6611499E-1,4.311614E-1,-9.264941E-1,1.7976995E-1,5.0493907E-2,-1.8364134E-1,2.918823E0,3.0260012E-3,-6.4418516E-3,-6.0723044E-2,-1.3307738E-2,-2.2878245E-2,-6.200123E-3,2.9506255E-2,-3.6033154E-2,5.427217E-2,-5.347681E-3],"split_indices":[2,10,3,0,2,1,9,1,6,1,0,0,0,0,0,0,0,0,0,0,0,0,0],"split_type":[0,0,0,0,0,0,0,0,0,0,0,0,0,0,0,0,0,0,0,0,0,0,0],"sum_hessian":[7.77E2,7.52E2,2.5E1,1E0,7.51E2,9E0,1.6E1,7.31E2,2E1,7E0,2E0,3E0,1.3E1,4.98E2,2.33E2,5E0,1.5E1,6E0,1E0,2E0,1E0,1.2E1,1E0],"tree_param":{"num_deleted":"0","num_feature":"11","num_nodes":"23","size_leaf_vector":"1"}},{"base_weights":[3.5911216E-3,1.6760904E-2,-2.057419E-1,1.2144743E-2,4.8191765E-1,-2.6749384E-1,3.417724E-2,-8.66844E-2,1.4610609E-2,6.5423013E-3,5.404296E-2,-7.1222E-2,-4.7001818E-1,-6.0626335E-2,1.7228188E-3,-1.4432916E-2,4.398998E-2,-8.147791E-2,-3.0077925E-2],"categories":[],"categories_nodes":[],"categories_segments":[],"categories_sizes":[],"default_left":[0,0,0,0,0,0,0,0,0,0,0,0,0,0,0,0,0,0,0],"id":30,"left_children":[1,3,5,7,9,11,-1,-1,13,-1,-1,15,17,-1,-1,-1,-1,-1,-1],"loss_changes":[2.0959132E0,1.5294228E0,1.6128752E0,1.5493997E0,1.3523269E-1,1.596267E0,0E0,0E0,1.1610773E0,0E0,0E0,8.8555694E-1,9.218712E-1,0E0,0E0,0E0,0E0,0E0,0E0],"parents":[2147483647,0,0,1,1,2,2,3,3,4,4,5,5,8,8,11,11,12,12],"right_children":[2,4,6,8,10,12,-1,-1,14,-1,-1,16,18,-1,-1,-1,-1,-1,-1],"split_conditions":[1.6773996E0,2.4084618E0,9.551335E-1,-1.8050513E0,-4.532184E-1,-9.893655E-1,3.417724E-2,-8.66844E-2,-8.789052E-1,6.5423013E-3,5.404296E-2,-1.0771073E-1,-5.919955E-1,-6.0626335E-2,1.7228188E-3,-1.4432916E-2,4.398998E-2,-8.147791E-2,-3.0077925E-2],"split_indices":[8,2,9,10,3,7,0,0,3,0,0,2,6,0,0,0,0,0,0],"split_type":[0,0,0,0,0,0,0,0,0,0,0,0,0,0,0,0,0,0,0],"sum_hessian":[7.58E2,7.14E2,4.4E1,7.08E2,6E0,4E1,4E0,1E0,7.07E2,1E0,5E0,2.1E1,1.9E1,2E0,7.05E2,1.9E1,2E0,5E0,1.4E1],"tree_param":{"num_deleted":"0","num_feature":"11","num_nodes":"19","size_leaf_vector":"1"}},{"base_weights":[2.9408846E-3,-1.7650406E-1,2.0830065E-2,-1.1216126E-1,-7.3956627E-1,1.3650228E-2,4.0031144E-1,-3.595065E-1,-7.558636E-3,-1.0239824E-2,-9.739538E-2,1.19914174E-1,-1.0302204E-2,-7.1410895E-3,4.4557255E-2,-1.52728455E-2,-6.921648E-2,-6.364272E-3,2.3008067E-2,1.8379577E-2,-2.771352E-2,5.063928E-2,-1.4897155E-3],"categories":[],"categories_nodes":[],"categories_segments":[],"categories_sizes":[],"default_left":[0,0,0,0,0,0,0,0,0,0,0,0,0,0,0,0,0,0,0,0,0,0,0],"id":31,"left_children":[1,3,5,7,9,11,13,15,17,-1,-1,19,21,-1,-1,-1,-1,-1,-1,-1,-1,-1,-1],"loss_changes":[2.4786813E0,2.4530795E0,1.9072151E0,1.6531521E0,9.456785E-1,1.7574786E0,3.0937743E-1,1.2012289E0,6.277209E-1,0E0,0E0,3.2721825E0,1.3465859E0,0E0,0E0,0E0,0E0,0E0,0E0,0E0,0E0,0E0,0E0],"parents":[2147483647,0,0,1,1,2,2,3,3,4,4,5,5,6,6,7,7,8,8,11,11,12,12],"right_children":[2,4,6,8,10,12,14,16,18,-1,-1,20,22,-1,-1,-1,-1,-1,-1,-1,-1,-1,-1],"split_conditions":[-5.95114E-1,5.79475E-1,4.0874405E0,-1.13472E0,-7.699311E-1,-8.048582E-1,-1.335715E0,-3.499753E-1,8.371073E-1,-1.0239824E-2,-9.739538E-2,7.055079E-1,-2.534131E0,-7.1410895E-3,4.4557255E-2,-1.52728455E-2,-6.921648E-2,-6.364272E-3,2.3008067E-2,1.8379577E-2,-2.771352E-2,5.063928E-2,-1.4897155E-3],"split_indices":[3,7,3,2,1,6,10,4,9,0,0,8,8,0,0,0,0,0,0,0,0,0,0],"split_type":[0,0,0,0,0,0,0,0,0,0,0,0,0,0,0,0,0,0,0,0,0,0,0],"sum_hessian":[7.7E2,6.9E1,7.01E2,6.3E1,6E0,6.89E2,1.2E1,1.8E1,4.5E1,2E0,4E0,1.26E2,5.63E2,1E0,1.1E1,1.2E1,6E0,3.7E1,8E0,1.09E2,1.7E1,4E0,5.59E2],"tree_param":{"num_deleted":"0","num_feature":"11","num_nodes":"23","size_leaf_vector":"1"}}]},"name":"gbtree"},"learner_model_param":{"base_score":"5.6325254E0","boost_from_average":"1","num_class":"0","num_feature":"11","num_target":"1"},"objective":{"name":"reg:squarederror","reg_loss_param":{"scale_pos_weight":"1"}}},"version":[2,0,0]}