{"learner":{"attributes":{"best_iteration":"31","best_score":"0.45213581103873557"},"feature_names":["fixed_acidity","volatile_acidity","citric_acid","residual_sugar","chlorides","free_sulfur_dioxide","total_sulfur_dioxide","density","pH","sulphates","alcohol"],"feature_types":["float","float","float","float","float","float","float","float","float","float","float"],"gradient_booster":{"model":{"gbtree_model_param":{"num_parallel_tree":"1","num_trees":"32"},"iteration_indptr":[0,1,2,3,4,5,6,7,8,9,10,11,12,13,14,15,16,17,18,19,20,21,22,23,24,25,26,27,28,29,30,31,32],"tree_info":[0,0,0,0,0,0,0,0,0,0,0,0,0,0,0,0,0,0,0,0,0,0,0,0,0,0,0,0,0,0,0,0],"trees":[{"base_weights":[-3.1106297E-3,-3.1233343E-1,4.1250327E-1,3.9283708E-2,-4.0486914E-1,5.8992043E-2,6.4259773E-1,-3.3717752E-1,1.9284417E-1,-5.6245E-1,-3.160287E-1,-1.4034054E-1,4.0926066E-1,4.182541E-1,1.0372906E0,-8.0247365E-2,5.5121183E-2,5.0922688E-2,-1.3875423E-1,-1.0545126E-1,-2.2356008E-1,-6.689113E-2,1.2791243E-1,1.0202769E-2,-1.1146208E-1,6.51787E-3,1.1936408E-1,9.8827206E-2,-6.8598524E-2,2.1248959E-1,-1.767006E-2],"categories":[],"categories_nodes":[],"categories_segments":[],"categories_sizes":[],"default_left":[0,0,0,0,0,0,0,0,0,0,0,0,0,0,0,0,0,0,0,0,0,0,0,0,0,0,0,0,0,0,0],"id":0,"left_children":[1,3,5,7,9,11,13,15,17,19,21,23,25,27,29,-1,-1,-1,-1,-1,-1,-1,-1,-1,-1,-1,-1,-1,-1,-1,-1],"loss_changes":[1.31345E2,1.9082668E1,3.5426765E1,7.175599E0,6.3180466E0,1.2136286E1,2.2942505E1,1.5237441E0,4.9960136E0,2.6550713E0,5.47888E0,8.885012E0,4.4313974E0,9.989508E0,2.7840805E0,0E0,0E0,0E0,0E0,0E0,0E0,0E0,0E0,0E0,0E0,0E0,0E0,0E0,0E0,0E0,0E0],"parents":[2147483647,0,0,1,1,2,2,3,3,4,4,5,5,6,6,7,7,8,8,9,9,10,10,11,11,12,12,13,13,14,14],"right_children":[2,4,6,8,10,12,14,16,18,20,22,24,26,28,30,-1,-1,-1,-1,-1,-1,-1,-1,-1,-1,-1,-1,-1,-1,-1,-1],"split_conditions":[7.229363E-2,-6.3026917E-1,-1.6611499E-1,-4.021673E-1,-5.792065E-1,1.1987007E0,1.1048334E0,-2.0930812E-1,1.1109067E0,1.9395101E0,2.4591987E0,5.987557E-1,-9.8798394E-1,1.2021337E0,2.6890109E0,-8.0247365E-2,5.5121183E-2,5.0922688E-2,-1.3875423E-1,-1.0545126E-1,-2.2356008E-1,-6.689113E-2,1.2791243E-1,1.0202769E-2,-1.1146208E-1,6.51787E-3,1.1936408E-1,9.8827206E-2,-6.8598524E-2,2.1248959E-1,-1.767006E-2],"split_indices":[10,1,9,9,9,10,10,10,6,1,0,1,0,6,0,0,0,0,0,0,0,0,0,0,0,0,0,0,0,0,0],"split_type":[0,0,0,0,0,0,0,0,0,0,0,0,0,0,0,0,0,0,0,0,0,0,0,0,0,0,0,0,0,0,0],"sum_hessian":[1.02E3,5.85E2,4.35E2,1.22E2,4.63E2,1.72E2,2.63E2,3.5E1,8.7E1,1.65E2,2.98E2,1.1E2,6.2E1,1.69E2,9.4E1,3.2E1,3E0,8.2E1,5E0,1.57E2,8E0,2.93E2,5E0,7.6E1,3.4E1,2.1E1,4.1E1,1.54E2,1.5E1,9.2E1,2E0],"tree_param":{"num_deleted":"0","num_feature":"11","num_nodes":"31","size_leaf_vector":"1"}},{"base_weights":[-1.2159782E-2,-1.604077E-1,5.127728E-1,3.092305E-1,-2.4716236E-1,2.8905392E-1,7.593066E-1,-1.85734E-1,4.9278122E-1,-3.8671005E-1,-1.5809488E-1,5.3206456E-1,-8.811738E-3,8.481243E-1,2.4965455E-1,8.852671E-2,-6.1867293E-2,1.4905716E-1,4.2372163E-2,-7.106742E-2,-1.6780344E-1,-7.84473E-3,-6.608734E-2,1.7430346E-1,6.5084666E-2,1.7029984E-2,-1.5493934E-1,1.3662834E-1,2.2996376E-1,8.8645585E-2,-9.805317E-2],"categories":[],"categories_nodes":[],"categories_segments":[],"categories_sizes":[],"default_left":[0,0,0,0,0,0,0,0,0,0,0,0,0,0,0,0,0,0,0,0,0,0,0,0,0,0,0,0,0,0,0],"id":1,"left_children":[1,3,5,7,9,11,13,15,17,19,21,23,25,27,29,-1,-1,-1,-1,-1,-1,-1,-1,-1,-1,-1,-1,-1,-1,-1,-1],"loss_changes":[7.844716E1,3.210067E1,1.2024761E1,1.1266209E1,8.191826E0,8.5460615E0,4.5412064E0,2.777627E0,6.2261353E0,3.3629417E0,8.325039E0,4.2758083E0,3.9520116E0,3.6444244E0,2.6521902E0,0E0,0E0,0E0,0E0,0E0,0E0,0E0,0E0,0E0,0E0,0E0,0E0,0E0,0E0,0E0,0E0],"parents":[2147483647,0,0,1,1,2,2,3,3,4,4,5,5,6,6,7,7,8,8,9,9,10,10,11,11,12,12,13,13,14,14],"right_children":[2,4,6,8,10,12,14,16,18,20,22,24,26,28,30,-1,-1,-1,-1,-1,-1,-1,-1,-1,-1,-1,-1,-1,-1,-1,-1],"split_conditions":[7.293644E-1,-9.09593E-1,1.8796347E-1,-1.0710191E-1,-4.6118036E-1,3.81544E-1,1.3886032E-1,-1.0481299E0,-2.4370669E-1,4.4776264E-1,1.3781975E-1,-9.264941E-1,1.7719158E0,1.9496386E0,8.5931575E-1,8.852671E-2,-6.1867293E-2,1.4905716E-1,4.2372163E-2,-7.106742E-2,-1.6780344E-1,-7.84473E-3,-6.608734E-2,1.7430346E-1,6.5084666E-2,1.7029984E-2,-1.5493934E-1,1.3662834E-1,2.2996376E-1,8.8645585E-2,-9.805317E-2],"split_indices":[10,1,9,9,9,8,4,6,4,10,6,6,1,10,3,0,0,0,0,0,0,0,0,0,0,0,0,0,0,0,0],"split_type":[0,0,0,0,0,0,0,0,0,0,0,0,0,0,0,0,0,0,0,0,0,0,0,0,0,0,0,0,0,0,0],"sum_hessian":[1.006E3,7.85E2,2.21E2,1.22E2,6.63E2,1.17E2,1.04E2,3.3E1,8.9E1,2.57E2,4.06E2,6.4E1,5.3E1,8.8E1,1.6E1,5E0,2.8E1,4.6E1,4.3E1,2.42E2,1.5E1,2.41E2,1.65E2,2.3E1,4.1E1,4.8E1,5E0,5.9E1,2.9E1,1.3E1,3E0],"tree_param":{"num_deleted":"0","num_feature":"11","num_nodes":"31","size_leaf_vector":"1"}},{"base_weights":[1.1433014E-2,-2.8358507E-1,1.9325566E-1,-5.104325E-1,-2.340292E-1,-1.14428885E-2,3.8219488E-1,-8.2139575E-1,-3.7309167E-1,-2.7407044E-1,7.639301E-2,1.5360811E-1,-2.7457213E-1,2.3386334E-1,6.017522E-1,-1.8401051E-2,-1.8893994E-1,2.1261215E-2,-9.110448E-2,-3.155942E-2,-6.981238E-2,3.3622157E-2,-2.0382242E-1,8.679609E-3,8.266312E-2,-1.7039998E-1,-2.2935586E-2,6.7759566E-2,-1.2244383E-2,1.2785386E-1,2.7554253E-2],"categories":[],"categories_nodes":[],"categories_segments":[],"categories_sizes":[],"default_left":[0,0,0,0,0,0,0,0,0,0,0,0,0,0,0,0,0,0,0,0,0,0,0,0,0,0,0,0,0,0,0],"id":2,"left_children":[1,3,5,7,9,11,13,15,17,19,21,23,25,27,29,-1,-1,-1,-1,-1,-1,-1,-1,-1,-1,-1,-1,-1,-1,-1,-1],"loss_changes":[5.401762E1,4.1973248E0,2.4099266E1,2.597683E0,3.9611492E0,1.30711E1,1.0411068E1,1.7118177E0,1.9847631E0,2.3951015E0,3.8889837E0,5.277203E0,1.0612266E1,6.0588436E0,2.174858E0,0E0,0E0,0E0,0E0,0E0,0E0,0E0,0E0,0E0,0E0,0E0,0E0,0E0,0E0,0E0,0E0],"parents":[2147483647,0,0,1,1,2,2,3,3,4,4,5,5,6,6,7,7,8,8,9,9,10,10,11,11,12,12,13,13,14,14],"right_children":[2,4,6,8,10,12,14,16,18,20,22,24,26,28,30,-1,-1,-1,-1,-1,-1,-1,-1,-1,-1,-1,-1,-1,-1,-1,-1],"split_conditions":[-4.9090987E-1,-8.152588E-1,-4.808883E-2,-8.7796766E-1,1.0228726E0,4.0322903E-1,7.293644E-1,6.804042E-2,-7.239163E-1,-1.3586095E-1,4.0322903E-1,1.1048334E0,-8.487156E-1,3.5068253E-1,4.7891986E-1,-1.8401051E-2,-1.8893994E-1,2.1261215E-2,-9.110448E-2,-3.155942E-2,-6.981238E-2,3.3622157E-2,-2.0382242E-1,8.679609E-3,8.266312E-2,-1.7039998E-1,-2.2935586E-2,6.7759566E-2,-1.2244383E-2,1.2785386E-1,2.7554253E-2],"split_indices":[10,9,9,2,0,1,10,1,2,6,1,10,5,6,4,0,0,0,0,0,0,0,0,0,0,0,0,0,0,0,0],"split_type":[0,0,0,0,0,0,0,0,0,0,0,0,0,0,0,0,0,0,0,0,0,0,0,0,0,0,0,0,0,0,0],"sum_hessian":[1.005E3,3.83E2,6.22E2,6.7E1,3.16E2,2.99E2,3.23E2,1.9E1,4.8E1,2.8E2,3.6E1,1.84E2,1.15E2,1.94E2,1.29E2,3E0,1.6E1,7E0,4.1E1,1.11E2,1.69E2,3.4E1,2E0,1.3E2,5.4E1,2.4E1,9.1E1,1.43E2,5.1E1,1.19E2,1E1],"tree_param":{"num_deleted":"0","num_feature":"11","num_nodes":"31","size_leaf_vector":"1"}},{"base_weights":[4.4618174E-3,-2.1783233E-1,1.72309E-1,2.7158944E-2,-2.750724E-1,-9.713423E-2,2.812184E-1,-8.41626E-2,5.977298E-1,-2.5288647E-1,-2.6601332E-1,2.4618186E-1,-2.5051236E-1,1.9093277E-1,5.04589E-1,-2.379272E-2,1.5118293E-1,1.5982248E-1,3.9206874E-2,-4.5891237E-2,-9.6314766E-2,6.306087E-2,-9.609099E-2,-3.8721446E-2,-2.0175143E-1,4.59992E-2,-5.3575512E-2,1.4421335E-1,7.909531E-2],"categories":[],"categories_nodes":[],"categories_segments":[],"categories_sizes":[],"default_left":[0,0,0,0,0,0,0,0,0,0,0,0,0,0,0,0,0,0,0,0,0,0,0,0,0,0,0,0,0],"id":3,"left_children":[1,3,5,7,9,11,13,15,17,-1,19,21,23,25,27,-1,-1,-1,-1,-1,-1,-1,-1,-1,-1,-1,-1,-1,-1],"loss_changes":[3.850564E1,6.2338257E0,1.7282112E1,5.449237E0,2.890213E0,9.0133915E0,8.353695E0,2.1948838E0,9.758692E-1,0E0,2.710638E0,2.813518E0,4.896163E0,5.4383945E0,2.5492878E0,0E0,0E0,0E0,0E0,0E0,0E0,0E0,0E0,0E0,0E0,0E0,0E0,0E0,0E0],"parents":[2147483647,0,0,1,1,2,2,3,3,4,4,5,5,6,6,7,7,8,8,10,10,11,11,12,12,13,13,14,14],"right_children":[2,4,6,8,10,12,14,16,18,-1,20,22,24,26,28,-1,-1,-1,-1,-1,-1,-1,-1,-1,-1,-1,-1,-1,-1],"split_conditions":[-3.970426E-1,-6.3026917E-1,-4.021673E-1,-5.847771E-1,-8.0795735E-1,-3.788777E-1,1.1048334E0,3.8380718E0,-1.3586095E-1,-2.5288647E-1,5.5984527E-1,4.5757186E-1,2.7495492E0,1.2021337E0,-7.440403E-1,-2.379272E-2,1.5118293E-1,1.5982248E-1,3.9206874E-2,-4.5891237E-2,-9.6314766E-2,6.306087E-2,-9.609099E-2,-3.8721446E-2,-2.0175143E-1,4.59992E-2,-5.3575512E-2,1.4421335E-1,7.909531E-2],"split_indices":[10,1,9,10,3,1,10,0,6,0,2,7,1,6,6,0,0,0,0,0,0,0,0,0,0,0,0,0,0],"split_type":[0,0,0,0,0,0,0,0,0,0,0,0,0,0,0,0,0,0,0,0,0,0,0,0,0,0,0,0,0],"sum_hessian":[1.03E3,4.43E2,5.87E2,8.4E1,3.59E2,1.69E2,4.18E2,7.1E1,1.3E1,2E0,3.57E2,5.2E1,1.17E2,2.99E2,1.19E2,6.9E1,2E0,8E0,5E0,3.07E2,5E1,4.8E1,4E0,1.1E2,7E0,2.76E2,2.3E1,3.8E1,8.1E1],"tree_param":{"num_deleted":"0","num_feature":"11","num_nodes":"29","size_leaf_vector":"1"}},{"base_weights":[1.35816485E-2,-1.259493E-1,1.7377697E-1,-4.9065158E-2,-3.2289502E-1,6.779337E-2,3.9218602E-1,7.109818E-2,-1.4674887E-1,-5.206493E-1,-1.918396E-1,9.7894825E-2,-6.4827895E-1,4.2578477E-1,-5.075478E-1,7.396072E-3,1.7790338E-1,-1.3354932E-1,-2.2565736E-2,-6.454686E-2,-1.6500048E-1,-6.669616E-2,-7.973941E-3,3.7252721E-3,5.0942343E-2,-4.4319164E-2,-2.5733057E-1,1.209022E-1,6.1045673E-2,-2.355051E-3,-1.2086945E-1],"categories":[],"categories_nodes":[],"categories_segments":[],"categories_sizes":[],"default_left":[0,0,0,0,0,0,0,0,0,0,0,0,0,0,0,0,0,0,0,0,0,0,0,0,0,0,0,0,0,0,0],"id":4,"left_children":[1,3,5,7,9,11,13,15,17,19,21,23,25,27,29,-1,-1,-1,-1,-1,-1,-1,-1,-1,-1,-1,-1,-1,-1,-1,-1],"loss_changes":[2.266467E1,8.191121E0,1.0899163E1,4.5999923E0,3.839469E0,6.93945E0,4.8715153E0,4.8814936E0,3.7418852E0,3.347906E0,1.9885473E0,3.8114603E0,3.255866E0,3.0259285E0,2.8082657E-1,0E0,0E0,0E0,0E0,0E0,0E0,0E0,0E0,0E0,0E0,0E0,0E0,0E0,0E0,0E0,0E0],"parents":[2147483647,0,0,1,1,2,2,3,3,4,4,5,5,6,6,7,7,8,8,9,9,10,10,11,11,12,12,13,13,14,14],"right_children":[2,4,6,8,10,12,14,16,18,20,22,24,26,28,30,-1,-1,-1,-1,-1,-1,-1,-1,-1,-1,-1,-1,-1,-1,-1,-1],"split_conditions":[-1.1544087E-1,7.104852E-1,4.8302886E-1,-1.05451986E-1,-9.806686E-1,2.1350367E0,2.631558E0,1.9976583E0,-6.305879E-1,1.2132682E0,-2.7584893E-1,1.0109661E0,-3.4679672E-1,-1.0492549E0,3.9815512E-1,7.396072E-3,1.7790338E-1,-1.3354932E-1,-2.2565736E-2,-6.454686E-2,-1.6500048E-1,-6.669616E-2,-7.973941E-3,3.7252721E-3,5.0942343E-2,-4.4319164E-2,-2.5733057E-1,1.209022E-1,6.1045673E-2,-2.355051E-3,-1.2086945E-1],"split_indices":[10,1,9,6,2,1,0,2,3,1,3,10,3,1,3,0,0,0,0,0,0,0,0,0,0,0,0,0,0,0,0],"split_type":[0,0,0,0,0,0,0,0,0,0,0,0,0,0,0,0,0,0,0,0,0,0,0,0,0,0,0,0,0,0,0],"sum_hessian":[1.012E3,5.41E2,4.71E2,3.9E2,1.51E2,3.18E2,1.53E2,1.75E2,2.15E2,5.9E1,9.2E1,3.06E2,1.2E1,1.48E2,5E0,1.69E2,6E0,1.2E1,2.03E2,3.7E1,2.2E1,4.7E1,4.5E1,2.04E2,1.02E2,8E0,4E0,5.8E1,9E1,1E0,4E0],"tree_param":{"num_deleted":"0","num_feature":"11","num_nodes":"31","size_leaf_vector":"1"}},{"base_weights":[3.929487E-3,-1.1340138E-1,1.595744E-1,-4.7467455E-2,-2.187453E-1,2.8650314E-1,2.8033827E-3,-2.2940397E-1,-3.6669148E-3,-2.2913903E-1,1.2743269E-1,5.2914387E-1,2.1092597E-1,-9.9872805E-2,3.93884E-1,-2.4227055E-2,-7.151419E-2,1.0088387E-2,-3.4541227E-2,-2.265048E-1,-4.4018112E-2,-1.4663505E-2,1.1502568E-1,4.7894195E-2,-9.368139E-2,-9.262032E-3,-1.09541014E-1,4.1968055E-2,1.3596801E-1],"categories":[],"categories_nodes":[],"categories_segments":[],"categories_sizes":[],"default_left":[0,0,0,0,0,0,0,0,0,0,0,0,0,0,0,0,0,0,0,0,0,0,0,0,0,0,0,0,0],"id":5,"left_children":[1,3,5,7,9,11,13,15,17,19,-1,21,23,25,27,-1,-1,-1,-1,-1,-1,-1,-1,-1,-1,-1,-1,-1,-1],"loss_changes":[1.8992266E1,4.1084394E0,8.893936E0,2.9157827E0,2.174305E0,4.417902E0,8.110427E0,9.419155E-1,2.7160804E0,1.5981264E0,0E0,1.6489906E0,3.796568E0,3.8125684E0,2.0677357E0,0E0,0E0,0E0,0E0,0E0,0E0,0E0,0E0,0E0,0E0,0E0,0E0,0E0,0E0],"parents":[2147483647,0,0,1,1,2,2,3,3,4,4,5,5,6,6,7,7,8,8,9,9,11,11,12,12,13,13,14,14],"right_children":[2,4,6,8,10,12,14,16,18,20,-1,22,24,26,28,-1,-1,-1,-1,-1,-1,-1,-1,-1,-1,-1,-1,-1,-1],"split_conditions":[7.229363E-2,4.5909378E-1,3.167512E-1,-7.5624573E-1,2.1719334E0,-1.1889168E0,1.6680368E0,-1.590612E-1,1.07335E0,-1.8050513E0,1.2743269E-1,-1.8872263E0,1.6278591E0,1.8136775E-1,1.289504E-1,-2.4227055E-2,-7.151419E-2,1.0088387E-2,-3.4541227E-2,-2.265048E-1,-4.4018112E-2,-1.4663505E-2,1.1502568E-1,4.7894195E-2,-9.368139E-2,-9.262032E-3,-1.09541014E-1,4.1968055E-2,1.3596801E-1],"split_indices":[10,1,8,9,0,1,10,2,2,10,0,1,6,4,9,0,0,0,0,0,0,0,0,0,0,0,0,0,0],"split_type":[0,0,0,0,0,0,0,0,0,0,0,0,0,0,0,0,0,0,0,0,0,0,0,0,0,0,0,0,0],"sum_hessian":[1.038E3,5.92E2,4.46E2,3.65E2,2.27E2,2.46E2,2E2,7E1,2.95E2,2.25E2,2E0,5.7E1,1.89E2,1.59E2,4.1E1,3.9E1,3.1E1,2.24E2,7.1E1,1E0,2.24E2,4E0,5.3E1,1.82E2,7E0,1.43E2,1.6E1,2.6E1,1.5E1],"tree_param":{"num_deleted":"0","num_feature":"11","num_nodes":"29","size_leaf_vector":"1"}},{"base_weights":[-2.0893181E-3,2.0085157E-1,-7.777796E-2,-3.6650982E-1,2.3717578E-1,-1.910944E-1,-7.187925E-3,1.2422333E-1,-5.270603E-1,1.6376026E-1,4.380251E-1,-6.340428E-2,-2.580311E-1,7.071887E-1,-1.987198E-2,4.27735E-2,-1.3657253E-3,-6.1267197E-2,-1.894212E-1,1.03834786E-1,2.5700016E-2,1.0877359E-1,1.645565E-2,-2.4060644E-2,3.6500398E-2,-1.0095829E-1,-3.9902747E-2,8.717979E-2,2.0280774E-1,4.111869E-3,-4.3198925E-2],"categories":[],"categories_nodes":[],"categories_segments":[],"categories_sizes":[],"default_left":[0,0,0,0,0,0,0,0,0,0,0,0,0,0,0,0,0,0,0,0,0,0,0,0,0,0,0,0,0,0,0],"id":6,"left_children":[1,3,5,7,9,11,13,15,17,19,21,23,25,27,29,-1,-1,-1,-1,-1,-1,-1,-1,-1,-1,-1,-1,-1,-1,-1,-1],"loss_changes":[1.5606347E1,5.7749968E0,5.9178944E0,1.4048595E0,3.7620869E0,2.4110327E0,4.1550183E0,6.020064E-2,9.1515326E-1,2.3394203E0,2.5533266E0,1.4071447E0,2.585084E0,2.2394371E-1,3.5727148E0,0E0,0E0,0E0,0E0,0E0,0E0,0E0,0E0,0E0,0E0,0E0,0E0,0E0,0E0,0E0,0E0],"parents":[2147483647,0,0,1,1,2,2,3,3,4,4,5,5,6,6,7,7,8,8,9,9,10,10,11,11,12,12,13,13,14,14],"right_children":[2,4,6,8,10,12,14,16,18,20,22,24,26,28,30,-1,-1,-1,-1,-1,-1,-1,-1,-1,-1,-1,-1,-1,-1,-1,-1],"split_conditions":[-6.582015E-1,-1.10289E0,-4.6118036E-1,-1.1889168E0,8.961204E-1,-2.0159104E-1,-2.2931993E0,-1.3327023E0,-5.4415405E-1,-6.687811E-1,-7.3676914E-2,-3.6575353E-1,-8.487156E-1,-1.6774205E0,9.436574E-1,4.27735E-2,-1.3657253E-3,-6.1267197E-2,-1.894212E-1,1.03834786E-1,2.5700016E-2,1.0877359E-1,1.645565E-2,-2.4060644E-2,3.6500398E-2,-1.0095829E-1,-3.9902747E-2,8.717979E-2,2.0280774E-1,4.111869E-3,-4.3198925E-2],"split_indices":[1,0,9,1,9,8,7,0,7,4,4,10,5,0,6,0,0,0,0,0,0,0,0,0,0,0,0,0,0,0,0],"split_type":[0,0,0,0,0,0,0,0,0,0,0,0,0,0,0,0,0,0,0,0,0,0,0,0,0,0,0,0,0,0,0],"sum_hessian":[1.014E3,2.75E2,7.39E2,1.6E1,2.59E2,2.83E2,4.56E2,4E0,1.2E1,1.91E2,6.8E1,9.8E1,1.85E2,7E0,4.49E2,2E0,2E0,9E0,3E0,1.6E1,1.75E2,5.2E1,1.6E1,8E1,1.8E1,3.4E1,1.51E2,5E0,2E0,3.73E2,7.6E1],"tree_param":{"num_deleted":"0","num_feature":"11","num_nodes":"31","size_leaf_vector":"1"}},{"base_weights":[2.3538184E-3,-3.7570763E-2,2.1371922E-1,-1.0219379E-1,4.8404228E-2,8.152548E-2,3.7558103E-1,-2.184095E-1,-6.0840312E-2,1.2385637E-1,-1.3174911E-1,2.7064482E-2,6.431753E-1,4.1017765E-1,-3.2375515E-1,-8.601723E-2,-1.0027163E-2,6.8140894E-2,-1.5565403E-2,3.5569645E-2,-2.8091291E-2,-3.107892E-2,1.0674105E-1,7.3967464E-2,-1.8612713E-2,-8.886656E-3,1.7595674E-1,6.719261E-2,1.5553914E-1,-7.320118E-3,-8.145463E-2],"categories":[],"categories_nodes":[],"categories_segments":[],"categories_sizes":[],"default_left":[0,0,0,0,0,0,0,0,0,0,0,0,0,0,0,0,0,0,0,0,0,0,0,0,0,0,0,0,0,0,0],"id":7,"left_children":[1,3,5,7,9,11,13,15,17,19,21,23,25,27,29,-1,-1,-1,-1,-1,-1,-1,-1,-1,-1,-1,-1,-1,-1,-1,-1],"loss_changes":[8.657672E0,4.7997437E0,3.4571114E0,2.356032E0,5.059304E0,2.7661018E0,1.8990078E0,4.5733657E0,2.516152E0,3.7639127E0,1.813785E0,3.4932554E0,1.3406434E0,1.6479874E0,8.102387E-2,0E0,0E0,0E0,0E0,0E0,0E0,0E0,0E0,0E0,0E0,0E0,0E0,0E0,0E0,0E0,0E0],"parents":[2147483647,0,0,1,1,2,2,3,3,4,4,5,5,6,6,7,7,8,8,9,9,10,10,11,11,12,12,13,13,14,14],"right_children":[2,4,6,8,10,12,14,16,18,20,22,24,26,28,30,-1,-1,-1,-1,-1,-1,-1,-1,-1,-1,-1,-1,-1,-1,-1,-1],"split_conditions":[1.1048334E0,-4.808883E-2,1.8796347E-1,-7.5308484E-1,2.5945562E-1,1.5420536E0,1.8846682E0,-2.9854745E-1,-8.048582E-1,2.0262147E-1,3.5502996E0,-9.264941E-1,-1.719632E0,6.464724E-1,3.9815512E-1,-8.601723E-2,-1.0027163E-2,6.8140894E-2,-1.5565403E-2,3.5569645E-2,-2.8091291E-2,-3.107892E-2,1.0674105E-1,7.3967464E-2,-1.8612713E-2,-8.886656E-3,1.7595674E-1,6.719261E-2,1.5553914E-1,-7.320118E-3,-8.145463E-2],"split_indices":[10,9,9,5,6,5,0,0,6,4,5,6,1,3,3,0,0,0,0,0,0,0,0,0,0,0,0,0,0,0,0],"split_type":[0,0,0,0,0,0,0,0,0,0,0,0,0,0,0,0,0,0,0,0,0,0,0,0,0,0,0,0,0,0,0],"sum_hessian":[1.024E3,8.62E2,1.62E2,4.92E2,3.7E2,9E1,7.2E1,1.28E2,3.64E2,2.61E2,1.09E2,8.3E1,7E0,6.9E1,3E0,5.6E1,7.2E1,1.4E1,3.5E2,2.17E2,4.4E1,1.06E2,3E0,2.1E1,6.2E1,2E0,5E0,5.9E1,1E1,1E0,2E0],"tree_param":{"num_deleted":"0","num_feature":"11","num_nodes":"31","size_leaf_vector":"1"}},{"base_weights":[1.8870648E-3,-7.2535954E-2,1.0541256E-1,8.8412605E-2,-9.632071E-2,1.8336326E-1,-8.983371E-3,2.567163E-2,5.0620997E-1,-3.054734E-1,-7.1321316E-2,5.1918167E-1,1.5400271E-1,-9.9446714E-2,1.8341164E-1,4.9140997E-2,-3.534774E-2,4.954383E-2,1.664033E-1,-4.177888E-2,-2.1187721E-1,-8.897853E-3,-4.538486E-2,1.8240134E-1,7.2795E-2,2.1372365E-2,7.013346E-2,2.8047664E-2,-4.4516277E-2,1.0003884E-2,1.1600311E-1],"categories":[],"categories_nodes":[],"categories_segments":[],"categories_sizes":[],"default_left":[0,0,0,0,0,0,0,0,0,0,0,0,0,0,0,0,0,0,0,0,0,0,0,0,0,0,0,0,0,0,0],"id":8,"left_children":[1,3,5,7,9,11,13,15,17,19,21,23,25,27,29,-1,-1,-1,-1,-1,-1,-1,-1,-1,-1,-1,-1,-1,-1,-1,-1],"loss_changes":[7.86642E0,2.2824206E0,3.8093104E0,2.0054069E0,2.6866746E0,2.4244375E0,3.046657E0,3.0719433E0,6.360736E-1,3.7833667E0,1.9271727E0,8.874335E-1,2.1411982E0,3.5433257E0,2.9336047E0,0E0,0E0,0E0,0E0,0E0,0E0,0E0,0E0,0E0,0E0,0E0,0E0,0E0,0E0,0E0,0E0],"parents":[2147483647,0,0,1,1,2,2,3,3,4,4,5,5,6,6,7,7,8,8,9,9,10,10,11,11,12,12,13,13,14,14],"right_children":[2,4,6,8,10,12,14,16,18,20,22,24,26,28,30,-1,-1,-1,-1,-1,-1,-1,-1,-1,-1,-1,-1,-1,-1,-1,-1],"split_conditions":[7.229363E-2,-9.09593E-1,3.81544E-1,1.8846682E0,-6.305879E-1,-1.032019E0,3.0598962E-1,4.6170834E-2,9.551335E-1,5.688747E-1,9.192985E-1,-8.352672E-1,1.5741696E0,-1.1860704E0,1.6680368E0,4.9140997E-2,-3.534774E-2,4.954383E-2,1.664033E-1,-4.177888E-2,-2.1187721E-1,-8.897853E-3,-4.538486E-2,1.8240134E-1,7.2795E-2,2.1372365E-2,7.013346E-2,2.8047664E-2,-4.4516277E-2,1.0003884E-2,1.1600311E-1],"split_indices":[10,1,8,0,3,2,9,0,9,7,2,6,10,2,10,0,0,0,0,0,0,0,0,0,0,0,0,0,0,0,0],"split_type":[0,0,0,0,0,0,0,0,0,0,0,0,0,0,0,0,0,0,0,0,0,0,0,0,0,0,0,0,0,0,0],"sum_hessian":[1.019E3,5.93E2,4.26E2,7.6E1,5.17E2,2.53E2,1.73E2,6.7E1,9E0,5.4E1,4.63E2,1.9E1,2.34E2,1.18E2,5.5E1,3.2E1,3.5E1,6E0,3E0,4.9E1,5E0,3.96E2,6.7E1,4E0,1.5E1,1.9E2,4.4E1,4E1,7.8E1,4.2E1,1.3E1],"tree_param":{"num_deleted":"0","num_feature":"11","num_nodes":"31","size_leaf_vector":"1"}},{"base_weights":[1.1616811E-3,-8.129812E-2,5.811936E-2,-2.0826468E-2,-1.7506886E-1,-1.0678321E-1,9.245373E-2,-3.569973E-2,3.8306564E-1,1.4040762E-1,-2.0844251E-1,-6.4286955E-2,-7.8309155E-1,1.3629727E-1,-1.6879931E-2,-1.6125527E-3,-6.8689756E-2,-1.4397971E-2,1.0467316E-1,-1.72771E-1,8.772218E-2,-3.724185E-2,-1.5963574E-1,3.4696173E-2,-2.7079424E-2,-1.9415839E-1,1.5541029E-2,2.3536082E-2,1.0397929E-1,-2.0921325E-2,2.5603846E-2],"categories":[],"categories_nodes":[],"categories_segments":[],"categories_sizes":[],"default_left":[0,0,0,0,0,0,0,0,0,0,0,0,0,0,0,0,0,0,0,0,0,0,0,0,0,0,0,0,0,0,0],"id":9,"left_children":[1,3,5,7,9,11,13,15,17,19,21,23,25,27,29,-1,-1,-1,-1,-1,-1,-1,-1,-1,-1,-1,-1,-1,-1,-1,-1],"loss_changes":[4.724928E0,2.3269174E0,3.3786588E0,1.5214808E0,1.7243724E0,2.9099364E0,2.3655338E0,2.0640068E0,6.122762E-1,5.1704874E0,1.7656884E0,1.6804445E0,1.0448668E0,2.4525967E0,1.818428E0,0E0,0E0,0E0,0E0,0E0,0E0,0E0,0E0,0E0,0E0,0E0,0E0,0E0,0E0,0E0,0E0],"parents":[2147483647,0,0,1,1,2,2,3,3,4,4,5,5,6,6,7,7,8,8,9,9,10,10,11,11,12,12,13,13,14,14],"right_children":[2,4,6,8,10,12,14,16,18,20,22,24,26,28,30,-1,-1,-1,-1,-1,-1,-1,-1,-1,-1,-1,-1,-1,-1,-1,-1],"split_conditions":[-4.9090987E-1,4.5909378E-1,-6.382196E-1,2.4017456E0,-1.1479806E0,2.7495492E0,7.700182E-2,1.3814527E0,-3.822706E-1,5.708233E-1,2.4981577E0,-4.562439E-1,-3.5600048E-1,1.8525848E0,1.03623874E-1,-1.6125527E-3,-6.8689756E-2,-1.4397971E-2,1.0467316E-1,-1.72771E-1,8.772218E-2,-3.724185E-2,-1.5963574E-1,3.4696173E-2,-2.7079424E-2,-1.9415839E-1,1.5541029E-2,2.3536082E-2,1.0397929E-1,-2.0921325E-2,2.5603846E-2],"split_indices":[10,1,9,0,10,1,6,2,3,1,1,4,0,3,0,0,0,0,0,0,0,0,0,0,0,0,0,0,0,0,0],"split_type":[0,0,0,0,0,0,0,0,0,0,0,0,0,0,0,0,0,0,0,0,0,0,0,0,0,0,0,0,0,0,0],"sum_hessian":[1.004E3,4.1E2,5.94E2,2.5E2,1.6E2,1.02E2,4.92E2,2.42E2,8E0,1.5E1,1.45E2,9.7E1,5E0,3.51E2,1.41E2,2.23E2,1.9E1,2E0,6E0,3E0,1.2E1,1.41E2,4E0,2.2E1,7.5E1,4E0,1E0,3.36E2,1.5E1,8.8E1,5.3E1],"tree_param":{"num_deleted":"0","num_feature":"11","num_nodes":"31","size_leaf_vector":"1"}},{"base_weights":[3.101406E-3,-1.3536164E-1,2.901937E-2,-1.6503838E-1,1.6449438E-1,1.692545E-1,-5.270737E-3,-1.5611245E-1,-1.511652E-1,2.9744434E-1,-1.696805E-1,1.4162782E-1,7.075379E-1,6.3875075E-3,-4.9823081E-1,-6.763752E-2,-2.299291E-2,7.3205405E-3,9.770005E-2,-1.6689721E-1,3.0574758E-2,1.636524E-1,5.0048735E-2,5.307033E-3,-4.5309637E-2,-1.22914635E-1,8.8791846E-4],"categories":[],"categories_nodes":[],"categories_segments":[],"categories_sizes":[],"default_left":[0,0,0,0,0,0,0,0,0,0,0,0,0,0,0,0,0,0,0,0,0,0,0,0,0,0,0],"id":10,"left_children":[1,3,5,7,9,11,13,-1,15,17,-1,19,21,23,25,-1,-1,-1,-1,-1,-1,-1,-1,-1,-1,-1,-1],"loss_changes":[3.6643822E0,1.459846E0,4.136355E0,1.1372786E0,2.2723212E0,2.4129891E0,3.9801407E0,0E0,9.4281864E-1,6.7981434E-1,0E0,1.9058995E0,2.0030308E-1,3.1832461E0,9.3843794E-1,0E0,0E0,0E0,0E0,0E0,0E0,0E0,0E0,0E0,0E0,0E0,0E0],"parents":[2147483647,0,0,1,1,2,2,3,3,4,4,5,5,6,6,8,8,9,9,11,11,12,12,13,13,14,14],"right_children":[2,4,6,8,10,12,14,-1,16,18,-1,20,22,24,26,-1,-1,-1,-1,-1,-1,-1,-1,-1,-1,-1,-1],"split_conditions":[-7.5624573E-1,1.0366852E0,-7.0845824E-1,-1.2418479E0,1.4646596E0,5.057952E-1,1.8069851E0,-1.5611245E-1,-1.0158662E0,-8.1944525E-1,-1.696805E-1,-2.0795918E0,-3.822706E-1,1.810313E0,4.8302886E-1,-6.763752E-2,-2.299291E-2,7.3205405E-3,9.770005E-2,-1.6689721E-1,3.0574758E-2,1.636524E-1,5.0048735E-2,5.307033E-3,-4.5309637E-2,-1.22914635E-1,8.8791846E-4],"split_indices":[9,3,7,10,1,0,8,0,7,10,0,0,3,6,9,0,0,0,0,0,0,0,0,0,0,0,0],"split_type":[0,0,0,0,0,0,0,0,0,0,0,0,0,0,0,0,0,0,0,0,0,0,0,0,0,0,0],"sum_hessian":[1.019E3,1.6E2,8.59E2,1.46E2,1.4E1,1.68E2,6.91E2,2E0,1.44E2,1.3E1,1E0,1.61E2,7E0,6.76E2,1.5E1,2.2E1,1.22E2,6E0,7E0,1E0,1.6E2,5E0,2E0,6.23E2,5.3E1,1.2E1,3E0],"tree_param":{"num_deleted":"0","num_feature":"11","num_nodes":"27","size_leaf_vector":"1"}},{"base_weights":[6.1620353E-3,1.0855115E-1,-2.3698427E-2,3.8615055E-2,3.3874366E-1,-2.9565299E-2,4.3218058E-1,1.1048976E-1,-2.761902E-1,-2.5412798E-1,3.793985E-1,-2.048533E-2,-3.7040186E-1,-8.240763E-2,5.711286E-1,7.902658E-2,1.385533E-2,-7.319734E-2,9.326623E-2,-7.99695E-2,-1.4454461E-2,8.2967736E-2,-6.282209E-2,-8.679472E-2,-2.868879E-3,9.1099404E-2,-8.756875E-2,-4.716158E-3,-2.0006133E-2,1.5112196E-1,3.9548993E-2],"categories":[],"categories_nodes":[],"categories_segments":[],"categories_sizes":[],"default_left":[0,0,0,0,0,0,0,0,0,0,0,0,0,0,0,0,0,0,0,0,0,0,0,0,0,0,0,0,0,0,0],"id":11,"left_children":[1,3,5,7,9,11,13,15,17,19,21,23,25,27,29,-1,-1,-1,-1,-1,-1,-1,-1,-1,-1,-1,-1,-1,-1,-1,-1],"loss_changes":[3.0874753E0,3.6574373E0,2.1043022E0,4.012787E0,1.3738809E0,2.384681E0,7.620754E-1,1.6618948E0,2.3709726E0,7.71018E-2,1.3592086E0,1.9083351E0,1.3134406E0,7.513203E-4,4.0164018E-1,0E0,0E0,0E0,0E0,0E0,0E0,0E0,0E0,0E0,0E0,0E0,0E0,0E0,0E0,0E0,0E0],"parents":[2147483647,0,0,1,1,2,2,3,3,4,4,5,5,6,6,7,7,8,8,9,9,10,10,11,11,12,12,13,13,14,14],"right_children":[2,4,6,8,10,12,14,16,18,20,22,24,26,28,30,-1,-1,-1,-1,-1,-1,-1,-1,-1,-1,-1,-1,-1,-1,-1,-1],"split_conditions":[-7.699311E-1,9.551335E-1,2.7944438E0,1.4328032E0,-5.6360263E-2,2.0661564E0,6.9937326E-2,-1.0785389E0,1.2021337E0,-1.2177961E0,1.8833086E0,-1.1089479E0,-1.1356078E0,-1.8497796E0,1.0141466E0,7.902658E-2,1.385533E-2,-7.319734E-2,9.326623E-2,-7.99695E-2,-1.4454461E-2,8.2967736E-2,-6.282209E-2,-8.679472E-2,-2.868879E-3,9.1099404E-2,-8.756875E-2,-4.716158E-3,-2.0006133E-2,1.5112196E-1,3.9548993E-2],"split_indices":[1,9,10,2,2,8,9,6,6,0,7,6,5,0,9,0,0,0,0,0,0,0,0,0,0,0,0,0,0,0,0],"split_type":[0,0,0,0,0,0,0,0,0,0,0,0,0,0,0,0,0,0,0,0,0,0,0,0,0,0,0,0,0,0,0],"sum_hessian":[1.008E3,2.27E2,7.81E2,1.75E2,5.2E1,7.72E2,9E0,1.43E2,3.2E1,3E0,4.9E1,7.53E2,1.9E1,2E0,7E0,1.7E1,1.26E2,2.9E1,3E0,1E0,2E0,4.7E1,2E0,1E1,7.43E2,1E0,1.8E1,1E0,1E0,4E0,3E0],"tree_param":{"num_deleted":"0","num_feature":"11","num_nodes":"31","size_leaf_vector":"1"}},{"base_weights":[-5.5296146E-3,1.6960492E-2,-1.1573817E-1,6.0541153E-2,-7.2613314E-2,-1.0976424E0,-9.195373E-2,3.2397978E-2,2.49119E-1,-2.2556059E-1,-1.7652861E-3,-5.94512E-2,-2.5307053E-1,-5.9195787E-1,-6.6849515E-2,1.627798E-2,-1.1698437E-2,1.637016E-1,4.0977903E-2,1.7753291E-1,-4.9711864E-2,-4.711062E-3,8.829894E-2,-1.8691404E-1,-3.989529E-2,4.1017145E-2,-2.3990927E-2],"categories":[],"categories_nodes":[],"categories_segments":[],"categories_sizes":[],"default_left":[0,0,0,0,0,0,0,0,0,0,0,0,0,0,0,0,0,0,0,0,0,0,0,0,0,0,0],"id":12,"left_children":[1,3,5,7,9,11,13,15,17,19,21,-1,-1,23,25,-1,-1,-1,-1,-1,-1,-1,-1,-1,-1,-1,-1],"loss_changes":[2.530137E0,3.3147216E0,3.939317E0,3.0223284E0,3.0120134E0,1.6079807E-1,2.0943038E0,2.2222962E0,1.6958957E0,2.473681E0,1.8552008E0,0E0,0E0,8.8932705E-1,2.3785093E0,0E0,0E0,0E0,0E0,0E0,0E0,0E0,0E0,0E0,0E0,0E0,0E0],"parents":[2147483647,0,0,1,1,2,2,3,3,4,4,5,5,6,6,7,7,8,8,9,9,10,10,13,13,14,14],"right_children":[2,4,6,8,10,12,14,16,18,20,22,-1,-1,24,26,-1,-1,-1,-1,-1,-1,-1,-1,-1,-1,-1,-1],"split_conditions":[2.238752E-1,4.0322903E-1,-6.6606176E-1,1.1337977E-2,-5.919955E-1,-1.4476084E0,-1.1089479E0,4.659285E-2,-1.2887714E0,-8.789052E-1,1.4803023E0,-5.94512E-2,-2.5307053E-1,-3.5600048E-1,-9.264941E-1,1.627798E-2,-1.1698437E-2,1.637016E-1,4.0977903E-2,1.7753291E-1,-4.9711864E-2,-4.711062E-3,8.829894E-2,-1.8691404E-1,-3.989529E-2,4.1017145E-2,-2.3990927E-2],"split_indices":[4,1,3,4,6,0,6,6,2,3,10,0,0,0,6,0,0,0,0,0,0,0,0,0,0,0,0],"split_type":[0,0,0,0,0,0,0,0,0,0,0,0,0,0,0,0,0,0,0,0,0,0,0,0,0,0,0],"sum_hessian":[1.019E3,8.47E2,1.72E2,5.7E2,2.77E2,3E0,1.69E2,4.97E2,7.3E1,8.7E1,1.9E2,1E0,2E0,7E0,1.62E2,3.23E2,1.74E2,4E0,6.9E1,1E0,8.6E1,1.82E2,8E0,3E0,4E0,2.6E1,1.36E2],"tree_param":{"num_deleted":"0","num_feature":"11","num_nodes":"27","size_leaf_vector":"1"}},{"base_weights":[-3.4270207E-3,-4.5784228E-2,4.3575555E-2,-5.638647E-2,1.831882E-1,8.964602E-2,-7.258406E-2,-2.3539446E-1,-3.7866622E-2,7.856637E-2,4.839593E-1,7.1113504E-2,4.9509153E-1,-2.0427065E-1,5.4560613E-2,-1.0730209E-1,-1.912516E-2,-4.2623817E-4,-2.8236765E-2,-8.6922926E-4,1.04443036E-1,1.13606095E-1,4.210892E-2,2.1624625E-2,-2.442103E-2,-2.783916E-2,1.330526E-1,4.9075093E-2,-5.1978387E-2,1.5236434E-1,-2.1125043E-3],"categories":[],"categories_nodes":[],"categories_segments":[],"categories_sizes":[],"default_left":[0,0,0,0,0,0,0,0,0,0,0,0,0,0,0,0,0,0,0,0,0,0,0,0,0,0,0,0,0,0,0],"id":13,"left_children":[1,3,5,7,9,11,13,15,17,19,21,23,25,27,29,-1,-1,-1,-1,-1,-1,-1,-1,-1,-1,-1,-1,-1,-1,-1,-1],"loss_changes":[2.0327108E0,1.3139621E0,2.596646E0,1.6950996E0,7.1719044E-1,2.572125E0,2.3217134E0,1.9688518E0,1.7239027E0,7.0116645E-1,1.8321991E-2,2.3944683E0,1.7116656E0,1.7644434E0,3.2782395E0,0E0,0E0,0E0,0E0,0E0,0E0,0E0,0E0,0E0,0E0,0E0,0E0,0E0,0E0,0E0,0E0],"parents":[2147483647,0,0,1,1,2,2,3,3,4,4,5,5,6,6,7,7,8,8,9,9,10,10,11,11,12,12,13,13,14,14],"right_children":[2,4,6,8,10,12,14,16,18,20,22,24,26,28,30,-1,-1,-1,-1,-1,-1,-1,-1,-1,-1,-1,-1,-1,-1,-1,-1],"split_conditions":[-1.6611499E-1,1.7619041E0,3.2027355E-1,-9.8798394E-1,1.2132682E0,1.9976583E0,-6.873526E-2,-3.7056175E-1,4.5757186E-1,6.2070125E-1,-9.305309E-1,2.238752E-1,1.3956365E-1,-2.2931993E0,-1.3285787E0,-1.0730209E-1,-1.912516E-2,-4.2623817E-4,-2.8236765E-2,-8.6922926E-4,1.04443036E-1,1.13606095E-1,4.210892E-2,2.1624625E-2,-2.442103E-2,-2.783916E-2,1.330526E-1,4.9075093E-2,-5.1978387E-2,1.5236434E-1,-2.1125043E-3],"split_indices":[9,10,6,0,1,2,0,5,7,0,0,4,7,7,1,0,0,0,0,0,0,0,0,0,0,0,0,0,0,0,0],"split_type":[0,0,0,0,0,0,0,0,0,0,0,0,0,0,0,0,0,0,0,0,0,0,0,0,0,0,0,0,0,0,0],"sum_hessian":[1.019E3,5.36E2,4.83E2,5.13E2,2.3E1,3.46E2,1.37E2,4.7E1,4.66E2,1.8E1,5E0,3.32E2,1.4E1,6.7E1,7E1,1.4E1,3.3E1,3.47E2,1.19E2,1.6E1,2E0,3E0,2E0,2.79E2,5.3E1,3E0,1.1E1,7E0,6E1,5E0,6.5E1],"tree_param":{"num_deleted":"0","num_feature":"11","num_nodes":"31","size_leaf_vector":"1"}},{"base_weights":[-1.5216873E-3,3.026928E-1,-9.893012E-3,2.6593018E-2,3.4955394E-1,-1.9026734E-1,8.1948144E-4,-4.0570576E-2,1.6978456E-2,5.0658417E-1,1.8979344E-1,-5.331868E-1,-8.216921E-2,-5.3971E-2,4.124388E-2,1.0693073E-3,-1.3240481E-2,1.6452506E-1,5.704812E-2,9.355414E-3,6.976994E-2,-1.4509223E-1,-5.294857E-2,-2.8535772E-2,8.124798E-2,-1.2966819E-2,5.944806E-2,6.4333873E-3,8.050912E-2],"categories":[],"categories_nodes":[],"categories_segments":[],"categories_sizes":[],"default_left":[0,0,0,0,0,0,0,0,0,0,0,0,0,0,0,0,0,0,0,0,0,0,0,0,0,0,0,0,0],"id":14,"left_children":[1,3,5,7,9,11,13,15,-1,17,19,21,23,25,27,-1,-1,-1,-1,-1,-1,-1,-1,-1,-1,-1,-1,-1,-1],"loss_changes":[2.5674996E0,3.4003973E-1,1.8957019E0,2.3022067E-2,4.8085976E-1,1.9949808E0,2.0554125E0,3.8847718E-3,0E0,5.3484416E-1,2.794013E-1,4.7893262E-1,1.3287607E0,1.5224762E0,1.7383128E0,0E0,0E0,0E0,0E0,0E0,0E0,0E0,0E0,0E0,0E0,0E0,0E0,0E0,0E0],"parents":[2147483647,0,0,1,1,2,2,3,3,4,4,5,5,6,6,7,7,9,9,10,10,11,11,12,12,13,13,14,14],"right_children":[2,4,6,8,10,12,14,16,-1,18,20,22,24,26,28,-1,-1,-1,-1,-1,-1,-1,-1,-1,-1,-1,-1,-1,-1],"split_conditions":[-1.8903888E0,-8.0795735E-1,-1.160343E0,-2.9508054E-1,-3.4679672E-1,-6.9003487E-1,-4.9090987E-1,-1.7923266E0,1.6978456E-2,-1.5050614E0,-9.8798394E-1,2.0770234E-1,2.3253274E0,2.4017456E0,2.253421E0,1.0693073E-3,-1.3240481E-2,1.6452506E-1,5.704812E-2,9.355414E-3,6.976994E-2,-1.4509223E-1,-5.294857E-2,-2.8535772E-2,8.124798E-2,-1.2966819E-2,5.944806E-2,6.4333873E-3,8.050912E-2],"split_indices":[7,3,0,1,3,4,10,0,0,0,0,1,8,0,9,0,0,0,0,0,0,0,0,0,0,0,0,0,0],"split_type":[0,0,0,0,0,0,0,0,0,0,0,0,0,0,0,0,0,0,0,0,0,0,0,0,0,0,0,0,0],"sum_hessian":[1.006E3,2.6E1,9.8E2,4E0,2.2E1,5.4E1,9.26E2,2E0,2E0,1E1,1.2E1,1.2E1,4.2E1,3.93E2,5.33E2,1E0,1E0,3E0,7E0,7E0,5E0,6E0,6E0,3.8E1,4E0,3.82E2,1.1E1,5.21E2,1.2E1],"tree_param":{"num_deleted":"0","num_feature":"11","num_nodes":"29","size_leaf_vector":"1"}},{"base_weights":[-1.3230869E-2,-4.2405194E-3,-2.1844675E-1,-1.7555319E-1,-2.4571267E-3,-4.6440747E-1,-2.2778722E-2,-1.1475255E-2,1.5583186E-1,-1.5210937E-1,-7.9450434E-1,1.696998E-1,-3.838183E-1,-1.6345961E-2,1.1222534E-3,7.8438066E-2,-4.911543E-3,-1.04964785E-1,1.0652316E-2,-6.493919E-2,-1.9505851E-1,1.15586355E-1,8.188139E-3,-1.1256137E-1,-3.8761855E-3],"categories":[],"categories_nodes":[],"categories_segments":[],"categories_sizes":[],"default_left":[0,0,0,0,0,0,0,0,0,0,0,0,0,0,0,0,0,0,0,0,0,0,0,0,0],"id":15,"left_children":[1,3,5,-1,7,9,11,13,15,17,19,21,23,-1,-1,-1,-1,-1,-1,-1,-1,-1,-1,-1,-1],"loss_changes":[1.8901602E0,1.5291983E0,2.0588675E0,0E0,1.4035641E0,1.8378325E0,1.8024431E0,1.1168362E0,2.2693713E0,8.6994505E-1,4.4774866E-1,8.6992E-1,5.761633E-1,0E0,0E0,0E0,0E0,0E0,0E0,0E0,0E0,0E0,0E0,0E0,0E0],"parents":[2147483647,0,0,1,1,2,2,4,4,5,5,6,6,7,7,8,8,9,9,10,10,11,11,12,12],"right_children":[2,4,6,-1,8,10,12,14,16,18,20,22,24,-1,-1,-1,-1,-1,-1,-1,-1,-1,-1,-1,-1],"split_conditions":[1.9115777E0,-1.8050513E0,-3.5600048E-1,-1.7555319E-1,1.8880588E0,-8.1562483E-1,1.1337977E-2,-6.9723266E-1,1.3781975E-1,-8.742719E-1,-1.1103243E0,-4.562439E-1,6.464724E-1,-1.6345961E-2,1.1222534E-3,7.8438066E-2,-4.911543E-3,-1.04964785E-1,1.0652316E-2,-6.493919E-2,-1.9505851E-1,1.15586355E-1,8.188139E-3,-1.1256137E-1,-3.8761855E-3],"split_indices":[1,10,0,0,3,0,4,9,6,9,9,4,3,0,0,0,0,0,0,0,0,0,0,0,0],"split_type":[0,0,0,0,0,0,0,0,0,0,0,0,0,0,0,0,0,0,0,0,0,0,0,0,0],"sum_hessian":[1.024E3,9.82E2,4.2E1,1E0,9.81E2,1.8E1,2.4E1,9.29E2,5.2E1,1E1,8E0,1.6E1,8E0,1.81E2,7.48E2,2.2E1,3E1,3E0,7E0,3E0,5E0,3E0,1.3E1,5E0,3E0],"tree_param":{"num_deleted":"0","num_feature":"11","num_nodes":"25","size_leaf_vector":"1"}},{"base_weights":[4.492901E-3,1.4493556E-2,-1.4050879E-1,2.026023E-2,-3.004731E-1,-1.7294872E-1,1.5298618E-1,7.4791475E-3,1.5172064E-1,-1.6413188E-1,-1.4050983E-1,6.2128782E-2,-1.8664245E-1,4.1322995E-2,1.2609482E-2,5.3618457E-3,-1.4590262E-2,9.448118E-4,6.1189797E-2,-1.2015348E-1,1.9131488E-3,-3.198365E-2,-7.1700394E-2,7.0191384E-3,-3.2362938E-3],"categories":[],"categories_nodes":[],"categories_segments":[],"categories_sizes":[],"default_left":[0,0,0,0,0,0,0,0,0,0,0,0,0,0,0,0,0,0,0,0,0,0,0,0,0],"id":16,"left_children":[1,3,5,7,9,11,13,15,17,19,-1,-1,21,-1,23,-1,-1,-1,-1,-1,-1,-1,-1,-1,-1],"loss_changes":[1.460849E0,1.7170515E0,6.45321E-1,1.5547364E0,8.1662154E-1,4.4868863E-1,5.0092325E-2,1.3157004E0,1.8575797E0,1.0675424E0,0E0,0E0,2.0905185E-1,0E0,2.510098E-3,0E0,0E0,0E0,0E0,0E0,0E0,0E0,0E0,0E0,0E0],"parents":[2147483647,0,0,1,1,2,2,3,3,4,4,5,5,6,6,7,7,8,8,9,9,12,12,14,14],"right_children":[2,4,6,8,10,12,14,16,18,20,-1,-1,22,-1,24,-1,-1,-1,-1,-1,-1,-1,-1,-1,-1],"split_conditions":[1.810313E0,2.0661564E0,3.0874896E0,1.350792E0,2.043506E0,-2.4045455E0,-1.586918E-1,8.222148E-1,-3.540054E-3,-6.224044E-1,-1.4050983E-1,6.2128782E-2,7.1908116E-1,4.1322995E-2,-6.873526E-2,5.3618457E-3,-1.4590262E-2,9.448118E-4,6.1189797E-2,-1.2015348E-1,1.9131488E-3,-3.198365E-2,-7.1700394E-2,7.0191384E-3,-3.2362938E-3],"split_indices":[6,8,6,5,10,8,4,1,7,6,0,0,9,0,0,0,0,0,0,0,0,0,0,0,0],"split_type":[0,0,0,0,0,0,0,0,0,0,0,0,0,0,0,0,0,0,0,0,0,0,0,0,0],"sum_hessian":[1.005E3,9.41E2,6.4E1,9.25E2,1.6E1,5.8E1,6E0,8.44E2,8.1E1,1.3E1,3E0,1E0,5.7E1,4E0,2E0,6.81E2,1.63E2,4.2E1,3.9E1,3E0,1E1,5.1E1,6E0,1E0,1E0],"tree_param":{"num_deleted":"0","num_feature":"11","num_nodes":"25","size_leaf_vector":"1"}},{"base_weights":[-9.010963E-4,2.3831618E-3,-1.3295959E-1,7.7784345E-2,-1.4935437E-2,2.3349191E-1,3.1708088E-2,-6.303958E-1,-8.120616E-3,7.655293E-2,-2.8085409E-2,-5.6712824E-4,7.7598475E-2,-3.4449037E-2,-1.473379E-1,-9.054473E-4,-1.1786854E-1],"categories":[],"categories_nodes":[],"categories_segments":[],"categories_sizes":[],"default_left":[0,0,0,0,0,0,0,0,0,0,0,0,0,0,0,0,0],"id":17,"left_children":[1,3,-1,5,7,9,11,13,15,-1,-1,-1,-1,-1,-1,-1,-1],"loss_changes":[2.2146988E0,1.3213687E0,0E0,1.3485622E0,3.4467502E0,2.4538343E0,1.810286E0,3.1139565E-1,1.6995015E0,0E0,0E0,0E0,0E0,0E0,0E0,0E0,0E0],"parents":[2147483647,0,0,1,1,3,3,4,4,5,5,6,6,7,7,8,8],"right_children":[2,4,-1,6,8,10,12,14,16,-1,-1,-1,-1,-1,-1,-1,-1],"split_conditions":[4.125337E0,-9.09593E-1,-1.3295959E-1,-8.6567616E-1,-1.1089479E0,1.4328032E0,1.8846682E0,-4.562439E-1,2.4084618E0,7.655293E-2,-2.8085409E-2,-5.6712824E-4,7.7598475E-2,-3.4449037E-2,-1.473379E-1,-9.054473E-4,-1.1786854E-1],"split_indices":[0,1,0,6,6,2,0,4,2,0,0,0,0,0,0,0,0],"split_type":[0,0,0,0,0,0,0,0,0,0,0,0,0,0,0,0,0],"sum_hessian":[1.014E3,1.01E3,4E0,1.88E2,8.22E2,4.2E1,1.46E2,8E0,8.14E2,3E1,1.2E1,1.34E2,1.2E1,2E0,6E0,8.1E2,4E0],"tree_param":{"num_deleted":"0","num_feature":"11","num_nodes":"17","size_leaf_vector":"1"}},{"base_weights":[-9.403628E-4,6.649981E-3,-1.8364106E-1,-3.1603258E-3,1.6100803E-1,-3.5843527E-1,3.7617255E-2,3.412012E-3,-3.784076E-1,3.1421214E-1,1.2494226E-2,-1.6381007E-1,-8.825717E-1,2.9836622E-1,-1.7914256E-1,-2.1908262E-4,5.4726012E-2,-8.082628E-3,-1.2736037E-1,-5.2621175E-2,7.8189045E-2,7.9515986E-2,-8.592848E-3,8.269175E-3,-9.842091E-2,-7.144712E-2,-2.1118617E-1,-1.220901E-2,9.764921E-2,2.2076797E-3,-5.7878863E-2],"categories":[],"categories_nodes":[],"categories_segments":[],"categories_sizes":[],"default_left":[0,0,0,0,0,0,0,0,0,0,0,0,0,0,0,0,0,0,0,0,0,0,0,0,0,0,0,0,0,0,0],"id":18,"left_children":[1,3,5,7,9,11,13,15,17,19,21,23,25,27,29,-1,-1,-1,-1,-1,-1,-1,-1,-1,-1,-1,-1,-1,-1,-1,-1],"loss_changes":[1.4254248E0,1.4951227E0,1.5991448E0,2.292439E0,1.3384968E0,2.20166E0,1.1273282E0,1.1135403E0,1.3716378E0,1.3875422E0,6.791258E-1,1.2326746E0,1.6921473E-1,6.4400953E-1,2.3384011E-1,0E0,0E0,0E0,0E0,0E0,0E0,0E0,0E0,0E0,0E0,0E0,0E0,0E0,0E0,0E0,0E0],"parents":[2147483647,0,0,1,1,2,2,3,3,4,4,5,5,6,6,7,7,8,8,9,9,10,10,11,11,12,12,13,13,14,14],"right_children":[2,4,6,8,10,12,14,16,18,20,22,24,26,28,30,-1,-1,-1,-1,-1,-1,-1,-1,-1,-1,-1,-1,-1,-1,-1,-1],"split_conditions":[1.9115777E0,1.4978459E0,-1.032019E0,1.1785809E0,1.3781975E-1,-1.13472E0,-1.586918E-1,1.6881186E0,9.5972806E-2,-1.3285787E0,2.0299544E0,-3.791327E-1,-1.2283504E0,-2.9854745E-1,2.0233073E0,-2.1908262E-4,5.4726012E-2,-8.082628E-3,-1.2736037E-1,-5.2621175E-2,7.8189045E-2,7.9515986E-2,-8.592848E-3,8.269175E-3,-9.842091E-2,-7.144712E-2,-2.1118617E-1,-1.220901E-2,9.764921E-2,2.2076797E-3,-5.7878863E-2],"split_indices":[1,3,2,3,6,2,4,1,1,1,3,6,9,0,1,0,0,0,0,0,0,0,0,0,0,0,0,0,0,0,0],"split_type":[0,0,0,0,0,0,0,0,0,0,0,0,0,0,0,0,0,0,0,0,0,0,0,0,0,0,0,0,0,0,0],"sum_hessian":[1.026E3,9.86E2,4E1,9.28E2,5.8E1,2.2E1,1.8E1,9.13E2,1.5E1,2.8E1,3E1,1.7E1,5E0,8E0,1E1,8.99E2,1.4E1,7E0,8E0,3E0,2.5E1,3E0,2.7E1,1.1E1,6E0,2E0,3E0,3E0,5E0,4E0,6E0],"tree_param":{"num_deleted":"0","num_feature":"11","num_nodes":"31","size_leaf_vector":"1"}},{"base_weights":[-8.7932445E-4,1.7712314E-2,-9.515242E-2,1.2906199E-2,4.6912104E-1,-4.066331E-4,-2.4673943E-1,2.4521852E-2,-1.3754718E-1,5.308244E-1,-2.4506093E-3,-1.2867992E-1,3.1428725E-2,-1.7476779E-1,-9.253327E-1,-1.0258957E-2,1.0174702E-2,-3.2446235E-2,3.4271967E-2,2.744255E-2,1.13490574E-1,5.4863613E-2,-1.2180013E-2,-1.2729017E-1,-2.2336708E-2,-2.1705368E-1,-8.072818E-2],"categories":[],"categories_nodes":[],"categories_segments":[],"categories_sizes":[],"default_left":[0,0,0,0,0,0,0,0,0,0,0,0,0,0,0,0,0,0,0,0,0,0,0,0,0,0,0],"id":19,"left_children":[1,3,5,7,9,11,13,15,17,19,-1,-1,21,23,25,-1,-1,-1,-1,-1,-1,-1,-1,-1,-1,-1,-1],"loss_changes":[1.798194E0,1.8532257E0,2.4271169E0,1.4870974E0,2.7382588E-1,2.1695616E0,3.0128477E0,1.5789478E0,4.929285E-1,3.7477016E-2,0E0,0E0,2.2816994E0,1.6764147E0,6.256437E-2,0E0,0E0,0E0,0E0,0E0,0E0,0E0,0E0,0E0,0E0,0E0,0E0],"parents":[2147483647,0,0,1,1,2,2,3,3,4,4,5,5,6,6,7,7,8,8,9,9,12,12,13,13,14,14],"right_children":[2,4,6,8,10,12,14,16,18,20,-1,-1,22,24,26,-1,-1,-1,-1,-1,-1,-1,-1,-1,-1,-1,-1],"split_conditions":[2.238752E-1,2.2030602E0,4.4834214E-1,1.6582681E0,2.631558E0,-1.1089479E0,5.7580076E-2,-5.792065E-1,1.4803023E0,-1.5050614E0,-2.4506093E-3,-1.2867992E-1,-7.5308484E-1,2.8763637E-1,-1.3395333E-1,-1.0258957E-2,1.0174702E-2,-3.2446235E-2,3.4271967E-2,2.744255E-2,1.13490574E-1,5.4863613E-2,-1.2180013E-2,-1.2729017E-1,-2.2336708E-2,-2.1705368E-1,-8.072818E-2],"split_indices":[4,2,0,6,0,6,8,9,10,0,0,0,5,4,3,0,0,0,0,0,0,0,0,0,0,0,0],"split_type":[0,0,0,0,0,0,0,0,0,0,0,0,0,0,0,0,0,0,0,0,0,0,0,0,0,0,0],"sum_hessian":[1.024E3,8.56E2,1.68E2,8.48E2,8E0,1.04E2,6.4E1,7.88E2,6E1,7E0,1E0,4E0,1E2,5.9E1,5E0,2.03E2,5.85E2,5.6E1,4E0,1E0,6E0,2.7E1,7.3E1,6E0,5.3E1,3E0,2E0],"tree_param":{"num_deleted":"0","num_feature":"11","num_nodes":"27","size_leaf_vector":"1"}},{"base_weights":[-4.1562538E-3,-2.611617E-1,1.8831664E-3,-4.9090952E-1,9.495179E-3,4.289561E-3,-9.768707E-2,-5.98927E-1,-1.9627666E-2,-3.275091E-1,2.1893597E-1,3.630901E-1,-1.4383536E-3,-1.4691706E-1,-4.2358663E-2,-1.5744528E-2,-9.342518E-2,-1.9011116E-2,5.547425E-2,1.5138054E-2,1.1564266E-1,-1.5618797E-1,2.3794602E-5],"categories":[],"categories_nodes":[],"categories_segments":[],"categories_sizes":[],"default_left":[0,0,0,0,0,0,0,0,0,0,0,0,0,0,0,0,0,0,0,0,0,0,0],"id":20,"left_children":[1,3,5,7,9,11,-1,13,-1,15,17,19,21,-1,-1,-1,-1,-1,-1,-1,-1,-1,-1],"loss_changes":[1.6225034E0,1.497049E0,1.2079529E0,4.9276257E-1,9.186929E-1,2.092694E0,0E0,3.6959887E-1,0E0,1.3690048E-1,1.7315122E-1,9.4545674E-1,1.2176731E0,0E0,0E0,0E0,0E0,0E0,0E0,0E0,0E0,0E0,0E0],"parents":[2147483647,0,0,1,1,2,2,3,3,4,4,5,5,7,7,9,9,10,10,11,11,12,12],"right_children":[2,4,6,8,10,12,-1,14,-1,16,18,20,22,-1,-1,-1,-1,-1,-1,-1,-1,-1,-1],"split_conditions":[-1.6079025E0,8.165976E-1,3.8380718E0,6.547722E-1,3.6500272E-1,-2.0805817E0,-9.768707E-2,-3.1624815E-1,-1.9627666E-2,-6.432657E-1,-1.1282211E-2,-6.574541E-1,-1.8050513E0,-1.4691706E-1,-4.2358663E-2,-1.5744528E-2,-9.342518E-2,-1.9011116E-2,5.547425E-2,1.5138054E-2,1.1564266E-1,-1.5618797E-1,2.3794602E-5],"split_indices":[1,2,0,6,9,8,0,7,0,0,0,5,10,0,0,0,0,0,0,0,0,0,0],"split_type":[0,0,0,0,0,0,0,0,0,0,0,0,0,0,0,0,0,0,0,0,0,0,0],"sum_hessian":[1.044E3,2.3E1,1.021E3,1.2E1,1.1E1,1.017E3,4E0,9E0,3E0,4E0,7E0,1.5E1,1.002E3,6E0,3E0,2E0,2E0,1E0,6E0,7E0,8E0,1E0,1.001E3],"tree_param":{"num_deleted":"0","num_feature":"11","num_nodes":"23","size_leaf_vector":"1"}},{"base_weights":[-8.546933E-3,-4.7063187E-4,-1.5082811E-1,-7.213559E-3,2.9041612E-1,1.519527E-1,-1.8176061E-1,-1.0431113E-2,6.023468E-1,5.7345152E-2,5.182739E-1,-4.7716156E-1,-1.2001345E-1,2.3726E-3,-1.53415175E-2,1.4060788E-1,1.9957637E-2,5.483563E-2,-6.0211338E-2,1.464706E-1,-7.890582E-3,-1.0589611E-1,-5.8609964E-3,-5.4503012E-2,-5.9190877E-3],"categories":[],"categories_nodes":[],"categories_segments":[],"categories_sizes":[],"default_left":[0,0,0,0,0,0,0,0,0,0,0,0,0,0,0,0,0,0,0,0,0,0,0,0,0],"id":21,"left_children":[1,3,5,7,9,-1,11,13,15,17,19,21,23,-1,-1,-1,-1,-1,-1,-1,-1,-1,-1,-1,-1],"loss_changes":[1.1766131E0,1.9046801E0,1.6872731E0,1.8675503E0,1.1386342E0,0E0,9.2770326E-1,1.3972185E0,1.8286467E-1,1.0151032E0,1.3422678E0,1.9536614E-1,6.262238E-1,0E0,0E0,0E0,0E0,0E0,0E0,0E0,0E0,0E0,0E0,0E0,0E0],"parents":[2147483647,0,0,1,1,2,2,3,3,4,4,6,6,7,7,8,8,9,9,10,10,11,11,12,12],"right_children":[2,4,6,8,10,-1,12,14,16,18,20,22,24,-1,-1,-1,-1,-1,-1,-1,-1,-1,-1,-1,-1],"split_conditions":[1.6042774E0,1.9976583E0,-1.1356078E0,1.5452642E0,6.9937326E-2,1.519527E-1,-7.440403E-1,6.625462E-1,-1.16184354E-1,-7.419987E-1,-4.661925E-1,8.7807953E-1,2.0173688E0,2.3726E-3,-1.53415175E-2,1.4060788E-1,1.9957637E-2,5.483563E-2,-6.0211338E-2,1.464706E-1,-7.890582E-3,-1.0589611E-1,-5.8609964E-3,-5.4503012E-2,-5.9190877E-3],"split_indices":[9,2,5,9,9,0,6,2,4,1,5,1,9,0,0,0,0,0,0,0,0,0,0,0,0],"split_type":[0,0,0,0,0,0,0,0,0,0,0,0,0,0,0,0,0,0,0,0,0,0,0,0,0],"sum_hessian":[1.023E3,9.69E2,5.4E1,9.48E2,2.1E1,1E0,5.3E1,9.44E2,4E0,1.1E1,1E1,8E0,4.5E1,7.07E2,2.37E2,3E0,1E0,7E0,4E0,7E0,3E0,7E0,1E0,1.6E1,2.9E1],"tree_param":{"num_deleted":"0","num_feature":"11","num_nodes":"25","size_leaf_vector":"1"}},{"base_weights":[-9.690988E-3,-8.232802E-2,8.457751E-3,1.8486921E-1,-1.01787776E-1,1.0496026E-2,-1.0798794E-1,-1.8589089E-2,3.397866E-1,-3.566307E-2,-1.6895103E-1,4.426662E-3,2.4789028E-1,-2.0583408E-2,4.873786E-2,9.12739E-2,2.1822263E-2,8.7103225E-2,-1.1109074E-2,-3.870494E-2,4.392419E-2,1.4838851E-3,-9.266596E-2,9.074248E-2,-1.0816511E-2],"categories":[],"categories_nodes":[],"categories_segments":[],"categories_sizes":[],"default_left":[0,0,0,0,0,0,0,0,0,0,0,0,0,0,0,0,0,0,0,0,0,0,0,0,0],"id":22,"left_children":[1,3,5,7,9,11,-1,13,15,17,19,21,23,-1,-1,-1,-1,-1,-1,-1,-1,-1,-1,-1,-1],"loss_changes":[1.3255582E0,1.0639354E0,9.054839E-1,4.475855E-1,8.2891107E-1,1.1558907E0,0E0,1.7990157E-1,1.6534734E-1,9.235309E-1,9.305246E-1,1.1009471E0,1.2675917E0,0E0,0E0,0E0,0E0,0E0,0E0,0E0,0E0,0E0,0E0,0E0,0E0],"parents":[2147483647,0,0,1,1,2,2,3,3,4,4,5,5,7,7,8,8,9,9,10,10,11,11,12,12],"right_children":[2,4,6,8,10,12,-1,14,16,18,20,22,24,-1,-1,-1,-1,-1,-1,-1,-1,-1,-1,-1,-1],"split_conditions":[-6.9723266E-1,-1.1889168E0,2.6138637E0,-3.4679672E-1,5.7580076E-2,2.6680532E0,-1.0798794E-1,1.2237286E-1,1.1760508E0,-4.9875134E-1,2.1373732E0,7.351039E0,5.7923503E0,-2.0583408E-2,4.873786E-2,9.12739E-2,2.1822263E-2,8.7103225E-2,-1.1109074E-2,-3.870494E-2,4.392419E-2,1.4838851E-3,-9.266596E-2,9.074248E-2,-1.0816511E-2],"split_indices":[9,1,2,3,8,4,0,8,2,4,10,3,4,0,0,0,0,0,0,0,0,0,0,0,0],"split_type":[0,0,0,0,0,0,0,0,0,0,0,0,0,0,0,0,0,0,0,0,0,0,0,0,0],"sum_hessian":[1.004E3,2E2,8.04E2,1.3E1,1.87E2,8.02E2,2E0,6E0,7E0,9.5E1,9.2E1,7.83E2,1.9E1,5E0,1E0,4E0,3E0,3E0,9.2E1,8.7E1,5E0,7.79E2,4E0,1.1E1,8E0],"tree_param":{"num_deleted":"0","num_feature":"11","num_nodes":"25","size_leaf_vector":"1"}},{"base_weights":[4.8300466E-3,9.756154E-3,-1.73562E-1,-5.256608E-1,1.1335279E-2,-4.239872E-1,4.0756106E-2,-1.3918343E-1,-1.8514825E-2,1.5276115E-2,-1.952219E-1,-4.4917822E-2,-6.5529084E-1,-6.029469E-2,1.5565181E-1,1.4306038E-2,-2.785316E-4,-1.056744E-1,-1.632617E-4,-7.027495E-2,7.5732805E-2,-1.4790712E-1,-5.367422E-2,3.0130705E-2,-3.6166828E-2],"categories":[],"categories_nodes":[],"categories_segments":[],"categories_sizes":[],"default_left":[0,0,0,0,0,0,0,0,0,0,0,0,0,0,0,0,0,0,0,0,0,0,0,0,0],"id":23,"left_children":[1,3,5,7,9,11,13,-1,-1,15,17,19,21,23,-1,-1,-1,-1,-1,-1,-1,-1,-1,-1,-1],"loss_changes":[9.1562283E-1,8.6244E-1,1.5200585E0,1.5678322E-1,8.2594454E-1,1.1104074E0,1.239329E0,0E0,0E0,9.312222E-1,1.2301273E0,9.1191053E-1,6.229782E-2,4.08657E-1,0E0,0E0,0E0,0E0,0E0,0E0,0E0,0E0,0E0,0E0,0E0],"parents":[2147483647,0,0,1,1,2,2,3,3,4,4,5,5,6,6,9,9,10,10,11,11,12,12,13,13],"right_children":[2,4,6,8,10,12,14,-1,-1,16,18,20,22,24,-1,-1,-1,-1,-1,-1,-1,-1,-1,-1,-1],"split_conditions":[2.1350367E0,-1.8050513E0,-1.032019E0,1.2526847E0,2.4189749E0,-1.1103243E0,-4.808883E-2,-1.3918343E-1,-1.8514825E-2,-6.0775566E-1,2.7944438E0,-1.2283504E0,-4.808883E-2,-8.1944525E-1,1.5565181E-1,1.4306038E-2,-2.785316E-4,-1.056744E-1,-1.632617E-4,-7.027495E-2,7.5732805E-2,-1.4790712E-1,-5.367422E-2,3.0130705E-2,-3.6166828E-2],"split_indices":[1,10,2,0,10,9,9,0,0,7,10,9,9,10,0,0,0,0,0,0,0,0,0,0,0],"split_type":[0,0,0,0,0,0,0,0,0,0,0,0,0,0,0,0,0,0,0,0,0,0,0,0,0],"sum_hessian":[1.039E3,1.012E3,2.7E1,2E0,1.01E3,1.2E1,1.5E1,1E0,1E0,9.92E2,1.8E1,5E0,7E0,1.4E1,1E0,2.26E2,7.66E2,6E0,1.2E1,3E0,2E0,5E0,2E0,5E0,9E0],"tree_param":{"num_deleted":"0","num_feature":"11","num_nodes":"25","size_leaf_vector":"1"}},{"base_weights":[-8.877787E-3,-1.4756752E-2,1.5402019E-1,-1.166548E-2,-4.4984287E-1,-9.317951E-2,3.155645E-1,9.468135E-3,-5.2095827E-2,-1.0802778E-1,-2.9880365E-2,-2.366198E-1,1.1189099E-1,4.0716568E-1,6.1109815E-2,1.8803935E-2,-2.5256868E-3,-3.9641694E-3,-6.1615076E-2,-6.50165E-2,8.738375E-3,9.604743E-2,-1.3911279E-2,-2.1180233E-2,1.0631757E-1],"categories":[],"categories_nodes":[],"categories_segments":[],"categories_sizes":[],"default_left":[0,0,0,0,0,0,0,0,0,0,0,0,0,0,0,0,0,0,0,0,0,0,0,0,0],"id":24,"left_children":[1,3,5,7,9,11,13,15,17,-1,-1,19,-1,21,23,-1,-1,-1,-1,-1,-1,-1,-1,-1,-1],"loss_changes":[9.896322E-1,1.3343421E0,1.4670179E0,8.463882E-1,1.0920274E-1,1.5365891E0,4.879017E-1,1.2174499E0,2.8028836E0,0E0,0E0,3.3656615E-1,0E0,5.9076023E-1,6.063207E-1,0E0,0E0,0E0,0E0,0E0,0E0,0E0,0E0,0E0,0E0],"parents":[2147483647,0,0,1,1,2,2,3,3,4,4,5,5,6,6,7,7,8,8,11,11,13,13,14,14],"right_children":[2,4,6,8,10,12,14,16,18,-1,-1,20,-1,22,24,-1,-1,-1,-1,-1,-1,-1,-1,-1,-1],"split_conditions":[1.9976583E0,1.9463078E0,1.289504E-1,4.4633678E-1,-8.257958E-1,2.1144805E0,2.631558E0,-6.725658E-1,1.8136775E-1,-1.0802778E-1,-2.9880365E-2,-2.7493098E-1,1.1189099E-1,6.961305E0,3.8380718E0,1.8803935E-2,-2.5256868E-3,-3.9641694E-3,-6.1615076E-2,-6.50165E-2,8.738375E-3,9.604743E-2,-1.3911279E-2,-2.1180233E-2,1.0631757E-1],"split_indices":[2,2,9,8,1,0,0,2,4,0,0,5,0,4,0,0,0,0,0,0,0,0,0,0,0],"split_type":[0,0,0,0,0,0,0,0,0,0,0,0,0,0,0,0,0,0,0,0,0,0,0,0,0],"sum_hessian":[1.03E3,9.95E2,3.5E1,9.89E2,6E0,1.4E1,2.1E1,6.5E2,3.39E2,4E0,2E0,1.2E1,2E0,1.5E1,6E0,1.34E2,5.16E2,3.02E2,3.7E1,9E0,3E0,1.3E1,2E0,5E0,1E0],"tree_param":{"num_deleted":"0","num_feature":"11","num_nodes":"25","size_leaf_vector":"1"}},{"base_weights":[6.6309073E-3,-1.2447707E-1,1.51950335E-2,-3.9611813E-1,-5.417302E-2,7.434076E-2,-5.29936E-3,-6.205451E-1,8.7074E-2,2.920692E-2,-2.0052803E-1,3.525708E-2,2.8060287E-1,2.2889867E-3,-1.5561402E-1,-3.0859819E-2,-1.463431E-1,8.828483E-2,-2.2373915E-2,3.7960697E-2,-2.15139E-2,-7.68572E-2,9.269196E-3,-4.580012E-2,1.4644678E-2,2.2730466E-2,1.3213663E-1,-2.6942257E-4,7.186773E-2,1.0627862E-1,-5.7565667E-2],"categories":[],"categories_nodes":[],"categories_segments":[],"categories_sizes":[],"default_left":[0,0,0,0,0,0,0,0,0,0,0,0,0,0,0,0,0,0,0,0,0,0,0,0,0,0,0,0,0,0,0],"id":25,"left_children":[1,3,5,7,9,11,13,15,17,19,21,23,25,27,29,-1,-1,-1,-1,-1,-1,-1,-1,-1,-1,-1,-1,-1,-1,-1,-1],"loss_changes":[1.1718755E0,1.2007791E0,1.1870946E0,1.4637709E0,6.404165E-1,2.0216002E0,8.3074194E-1,3.5359168E-1,4.0186033E-1,7.67255E-1,8.797465E-1,2.1537735E0,2.4630957E0,9.0148205E-1,3.3320756E0,0E0,0E0,0E0,0E0,0E0,0E0,0E0,0E0,0E0,0E0,0E0,0E0,0E0,0E0,0E0,0E0],"parents":[2147483647,0,0,1,1,2,2,3,3,4,4,5,5,6,6,7,7,8,8,9,9,10,10,11,11,12,12,13,13,14,14],"right_children":[2,4,6,8,10,12,14,16,18,20,22,24,26,28,30,-1,-1,-1,-1,-1,-1,-1,-1,-1,-1,-1,-1,-1,-1,-1,-1],"split_conditions":[-1.160343E0,-5.618233E-1,-8.266172E-1,-1.3743807E-1,5.8574593E-1,-9.2931813E-1,1.0942646E0,-1.1356078E0,-1.5050614E0,-3.4679672E-1,5.331363E-1,-9.9216175E-1,1.289504E-1,1.0294718E0,-6.7864436E-1,-3.0859819E-2,-1.463431E-1,8.828483E-2,-2.2373915E-2,3.7960697E-2,-2.15139E-2,-7.68572E-2,9.269196E-3,-4.580012E-2,1.4644678E-2,2.2730466E-2,1.3213663E-1,-2.6942257E-4,7.186773E-2,1.0627862E-1,-5.7565667E-2],"split_indices":[0,5,2,4,5,2,8,5,0,3,6,5,9,8,10,0,0,0,0,0,0,0,0,0,0,0,0,0,0,0,0],"split_type":[0,0,0,0,0,0,0,0,0,0,0,0,0,0,0,0,0,0,0,0,0,0,0,0,0,0,0,0,0,0,0],"sum_hessian":[1.041E3,6.3E1,9.78E2,1.2E1,5.1E1,2.51E2,7.27E2,8E0,4E0,3.3E1,1.8E1,2.12E2,3.9E1,6.93E2,3.4E1,2E0,6E0,1E0,3E0,1.5E1,1.8E1,1E1,8E0,2.6E1,1.86E2,2.8E1,1.1E1,6.87E2,6E0,5E0,2.9E1],"tree_param":{"num_deleted":"0","num_feature":"11","num_nodes":"31","size_leaf_vector":"1"}},{"base_weights":[-7.369688E-3,1.8432018E-1,-1.2584882E-2,2.6042715E-1,-2.8987229E-2,1.1187913E-2,-6.411569E-2,2.3779074E-2,4.1621092E-1,4.9576823E-2,-1.625917E-1,-4.303771E-1,1.5102159E-2,-5.630021E-2,-1.7058967E-1,-6.188407E-2,2.0821309E-2,9.3938865E-2,-1.7210627E-2,-5.821214E-2,-1.5737152E-2,-1.3508248E-2,-1.5413985E-1,-5.2940995E-2,3.942955E-3,-3.5316024E-3,-3.7334606E-2],"categories":[],"categories_nodes":[],"categories_segments":[],"categories_sizes":[],"default_left":[0,0,0,0,0,0,0,0,0,0,0,0,0,0,0,0,0,0,0,0,0,0,0,0,0,0,0],"id":26,"left_children":[1,3,5,7,9,11,13,15,17,-1,19,21,23,25,-1,-1,-1,-1,-1,-1,-1,-1,-1,-1,-1,-1,-1],"loss_changes":[1.0190144E0,4.458719E-1,1.2147233E0,7.2742164E-1,3.3623388E-1,1.1800792E0,1.8816564E0,2.730983E-1,3.62772E-1,0E0,4.1773543E-2,6.888324E-1,8.7511164E-1,1.5634882E0,0E0,0E0,0E0,0E0,0E0,0E0,0E0,0E0,0E0,0E0,0E0,0E0,0E0],"parents":[2147483647,0,0,1,1,2,2,3,3,4,4,5,5,6,6,7,7,8,8,10,10,11,11,12,12,13,13],"right_children":[2,4,6,8,10,12,14,16,18,-1,20,22,24,26,-1,-1,-1,-1,-1,-1,-1,-1,-1,-1,-1,-1,-1],"split_conditions":[-2.0175922E0,-5.625125E-1,4.4633678E-1,-1.2374209E0,-1.0399771E0,-8.0795735E-1,1.1377786E0,-7.699311E-1,-8.7307787E-1,4.9576823E-2,-1.5050614E0,-3.499753E-1,-1.1393569E0,7.942248E-3,-1.7058967E-1,-6.188407E-2,2.0821309E-2,9.3938865E-2,-1.7210627E-2,-5.821214E-2,-1.5737152E-2,-1.3508248E-2,-1.5413985E-1,-5.2940995E-2,3.942955E-3,-3.5316024E-3,-3.7334606E-2],"split_indices":[7,4,8,2,5,3,0,1,0,0,0,4,6,3,0,0,0,0,0,0,0,0,0,0,0,0,0],"split_type":[0,0,0,0,0,0,0,0,0,0,0,0,0,0,0,0,0,0,0,0,0,0,0,0,0,0,0],"sum_hessian":[1.016E3,2.6E1,9.9E2,1.9E1,7E0,6.78E2,3.12E2,8E0,1.1E1,2E0,5E0,5E0,6.73E2,3.1E2,2E0,1E0,7E0,1E1,1E0,1E0,4E0,3E0,2E0,1E1,6.63E2,2.4E2,7E1],"tree_param":{"num_deleted":"0","num_feature":"11","num_nodes":"27","size_leaf_vector":"1"}},{"base_weights":[1.7496485E-3,-4.6764183E-1,3.1111438E-3,-1.2537985E-1,-1.4912701E-2,1.7495239E-1,-1.1496514E-3,2.8848836E-1,-2.4200391E-2,-3.691362E-2,1.9794006E-2,-2.3616767E-2,7.827922E-2,-2.7227784E-2,3.5548426E-2,-1.4776374E-2,1.0895923E-2,3.0143938E-3,6.952252E-2],"categories":[],"categories_nodes":[],"categories_segments":[],"categories_sizes":[],"default_left":[0,0,0,0,0,0,0,0,0,0,0,0,0,0,0,0,0,0,0],"id":27,"left_children":[1,3,5,-1,-1,7,9,11,13,15,17,-1,-1,-1,-1,-1,-1,-1,-1],"loss_changes":[6.628969E-1,1.4105809E-1,7.5654346E-1,0E0,0E0,5.722567E-1,7.565002E-1,7.156484E-1,2.5024906E-1,1.2642608E0,9.8081857E-1,0E0,0E0,0E0,0E0,0E0,0E0,0E0,0E0],"parents":[2147483647,0,0,1,1,2,2,5,5,6,6,7,7,8,8,9,9,10,10],"right_children":[2,4,6,-1,-1,8,10,12,14,16,18,-1,-1,-1,-1,-1,-1,-1,-1],"split_conditions":[-1.8050513E0,1.2526847E0,-1.2887815E0,-1.2537985E-1,-1.4912701E-2,6.1119574E-1,-4.9090987E-1,-4.532184E-1,1.2526847E0,8.37226E-1,2.2030602E0,-2.3616767E-2,7.827922E-2,-2.7227784E-2,3.5548426E-2,-1.4776374E-2,1.0895923E-2,3.0143938E-3,6.952252E-2],"split_indices":[10,0,10,0,0,2,10,3,0,6,2,0,0,0,0,0,0,0,0],"split_type":[0,0,0,0,0,0,0,0,0,0,0,0,0,0,0,0,0,0,0],"sum_hessian":[1.034E3,2E0,1.032E3,1E0,1E0,2.4E1,1.008E3,1.5E1,9E0,3.72E2,6.36E2,3E0,1.2E1,6E0,3E0,2.65E2,1.07E2,6.28E2,8E0],"tree_param":{"num_deleted":"0","num_feature":"11","num_nodes":"19","size_leaf_vector":"1"}},{"base_weights":[2.7231688E-3,-9.927774E-4,2.8806987E-1,4.9894787E-2,-1.6885491E-2,3.641538E-1,2.5842547E-2,7.981851E-2,-1.3199516E-1,7.2463095E-2,-3.470056E-2,2.821881E-2,8.04564E-2,1.2038374E-2,-1.1342367E-3,5.822112E-2,8.386882E-3,1.3230047E-2,-9.143293E-2,-1.382606E-4,4.4106025E-2,-8.6722374E-2,-6.0426267E-3],"categories":[],"categories_nodes":[],"categories_segments":[],"categories_sizes":[],"default_left":[0,0,0,0,0,0,0,0,0,0,0,0,0,0,0,0,0,0,0,0,0,0,0],"id":28,"left_children":[1,3,5,7,9,11,13,15,17,19,21,-1,-1,-1,-1,-1,-1,-1,-1,-1,-1,-1,-1],"loss_changes":[1.0722828E0,8.0877525E-1,2.4995613E-1,1.305928E0,1.215429E0,2.828896E-2,4.67126E-3,1.628699E0,2.22089E0,1.375785E0,1.1253937E0,0E0,0E0,0E0,0E0,0E0,0E0,0E0,0E0,0E0,0E0,0E0,0E0],"parents":[2147483647,0,0,1,1,2,2,3,3,4,4,5,5,6,6,7,7,8,8,9,9,10,10],"right_children":[2,4,6,8,10,12,14,16,18,20,22,-1,-1,-1,-1,-1,-1,-1,-1,-1,-1,-1,-1],"split_conditions":[4.0874405E0,-7.699311E-1,7.652471E-1,1.5355041E0,-1.2374209E0,4.442179E0,-1.5050614E0,-9.791044E-1,-5.618233E-1,-1.16184354E-1,-1.1089479E0,2.821881E-2,8.04564E-2,1.2038374E-2,-1.1342367E-3,5.822112E-2,8.386882E-3,1.3230047E-2,-9.143293E-2,-1.382606E-4,4.4106025E-2,-8.6722374E-2,-6.0426267E-3],"split_indices":[3,1,2,2,2,3,0,8,5,4,6,0,0,0,0,0,0,0,0,0,0,0,0],"split_type":[0,0,0,0,0,0,0,0,0,0,0,0,0,0,0,0,0,0,0,0,0,0,0],"sum_hessian":[1.01E3,9.98E2,1.2E1,2.37E2,7.61E2,9E0,3E0,2.04E2,3.3E1,1.26E2,6.35E2,2E0,7E0,1E0,2E0,3E1,1.74E2,2.1E1,1.2E1,8.5E1,4.1E1,6E0,6.29E2],"tree_param":{"num_deleted":"0","num_feature":"11","num_nodes":"23","size_leaf_vector":"1"}},{"base_weights":[-3.7220684E-3,-6.2169037E-3,2.5037488E-1,-8.390608E-5,-1.686562E-1,3.882975E-1,-9.909286E-2,-1.4936007E-3,1.3814168E-1,-7.078297E-1,-1.00263536E-1,-5.009127E-3,4.430961E-1,1.0828232E-2,-2.8158198E-3,-1.3586665E-2,-1.7969681E-1,-7.959046E-2,-4.452103E-3,2.4237728E-2,9.435405E-2],"categories":[],"categories_nodes":[],"categories_segments":[],"categories_sizes":[],"default_left":[0,0,0,0,0,0,0,0,0,0,0,0,0,0,0,0,0,0,0,0,0],"id":29,"left_children":[1,3,5,7,9,11,-1,13,-1,15,17,-1,19,-1,-1,-1,-1,-1,-1,-1,-1],"loss_changes":[6.519688E-1,1.0131617E0,1.2210686E0,9.563355E-1,1.2934242E0,2.1495318E-1,0E0,6.869497E-1,0E0,4.2695928E-1,7.8064257E-1,0E0,1.6670108E-2,0E0,0E0,0E0,0E0,0E0,0E0,0E0,0E0],"parents":[2147483647,0,0,1,1,2,2,3,3,4,4,5,5,7,7,9,9,10,10,12,12],"right_children":[2,4,6,8,10,12,-1,14,-1,16,18,-1,20,-1,-1,-1,-1,-1,-1,-1,-1],"split_conditions":[3.9648004E0,1.2228001E0,2.1517096E0,1.1802927E0,-6.6606176E-1,-4.1345352E-1,-9.909286E-2,-8.352672E-1,1.3814168E-1,-1.6774205E0,1.6691283E0,-5.009127E-3,1.6107692E-1,1.0828232E-2,-2.8158198E-3,-1.3586665E-2,-1.7969681E-1,-7.959046E-2,-4.452103E-3,2.4237728E-2,9.435405E-2],"split_indices":[9,4,2,4,3,0,0,6,0,0,4,0,0,0,0,0,0,0,0,0,0],"split_type":[0,0,0,0,0,0,0,0,0,0,0,0,0,0,0,0,0,0,0,0,0],"sum_hessian":[1.025E3,1.016E3,9E0,9.8E2,3.6E1,8E0,1E0,9.79E2,1E0,3E0,3.3E1,1E0,7E0,1.8E2,7.99E2,1E0,2E0,6E0,2.7E1,1E0,6E0],"tree_param":{"num_deleted":"0","num_feature":"11","num_nodes":"21","size_leaf_vector":"1"}},{"base_weights":[8.174893E-3,1.5237023E-2,-8.195272E-2,1.7136276E-2,-4.4106913E-1,-4.3943578E-1,-3.869071E-2,4.0350493E-2,-1.0600082E-2,1.1116124E-2,-1.2502919E-1,-4.404688E-2,-1.1277819E-1,-1.3388267E-1,7.924431E-2,3.8643216E-3,2.9200763E-2,-2.2342367E-2,4.062019E-3,-1.5542698E-2,2.3286343E-3,1.3398982E-2,-4.3640595E-2,-3.184104E-3,7.096665E-2],"categories":[],"categories_nodes":[],"categories_segments":[],"categories_sizes":[],"default_left":[0,0,0,0,0,0,0,0,0,0,0,0,0,0,0,0,0,0,0,0,0,0,0,0,0],"id":30,"left_children":[1,3,5,7,9,11,13,15,17,-1,-1,19,-1,21,23,-1,-1,-1,-1,-1,-1,-1,-1,-1,-1],"loss_changes":[6.568365E-1,8.3606666E-1,1.1429057E0,6.140433E-1,4.0043277E-1,3.6882782E-1,7.740091E-1,1.1502784E0,1.36181E0,0E0,0E0,6.5295175E-3,0E0,6.582647E-1,8.186667E-1,0E0,0E0,0E0,0E0,0E0,0E0,0E0,0E0,0E0,0E0],"parents":[2147483647,0,0,1,1,2,2,3,3,4,4,5,5,6,6,7,7,8,8,11,11,13,13,14,14],"right_children":[2,4,6,8,10,12,14,16,18,-1,-1,20,-1,22,24,-1,-1,-1,-1,-1,-1,-1,-1,-1,-1],"split_conditions":[1.7333151E0,7.351039E0,2.2904666E-1,-1.261883E-1,-1.5050614E0,-6.551405E-1,1.3956365E-1,-2.9854745E-1,2.1852997E-1,1.1116124E-2,-1.2502919E-1,-4.1345352E-1,-1.1277819E-1,-8.7307787E-1,-2.0930812E-1,3.8643216E-3,2.9200763E-2,-2.2342367E-2,4.062019E-3,-1.5542698E-2,2.3286343E-3,1.3398982E-2,-4.3640595E-2,-3.184104E-3,7.096665E-2],"split_indices":[5,3,6,0,0,8,7,0,0,0,0,0,0,0,10,0,0,0,0,0,0,0,0,0,0],"split_type":[0,0,0,0,0,0,0,0,0,0,0,0,0,0,0,0,0,0,0,0,0,0,0,0,0],"sum_hessian":[1.029E3,9.55E2,7.4E1,9.52E2,3E0,7E0,6.7E1,5.18E2,4.34E2,1E0,2E0,2E0,5E0,3.7E1,3E1,4.33E2,8.5E1,1.01E2,3.33E2,1E0,1E0,1.1E1,2.6E1,2.3E1,7E0],"tree_param":{"num_deleted":"0","num_feature":"11","num_nodes":"25","size_leaf_vector":"1"}},{"base_weights":[7.963505E-3,7.6987006E-2,-7.348266E-3,2.991191E-2,2.3037113E-1,-2.0144917E-2,8.857212E-2,8.970203E-2,-1.8402514E-1,1.0707291E-1,1.5820035E-1,-2.1243043E-1,-7.5521907E-3,2.481386E-1,-1.3228924E-2,-5.0846655E-3,3.8747713E-2,-7.857489E-2,-4.0901285E-3,5.641674E-2,-4.4053495E-3,-1.8038192E-1,-2.867052E-2,9.86478E-3,-5.826058E-3,2.463758E-4,8.04808E-2,1.3910094E-2,-6.611872E-2],"categories":[],"categories_nodes":[],"categories_segments":[],"categories_sizes":[],"default_left":[0,0,0,0,0,0,0,0,0,0,0,0,0,0,0,0,0,0,0,0,0,0,0,0,0,0,0,0,0],"id":31,"left_children":[1,3,5,7,9,11,13,15,17,-1,19,21,23,25,27,-1,-1,-1,-1,-1,-1,-1,-1,-1,-1,-1,-1,-1,-1],"loss_changes":[1.0944282E0,1.3505766E0,1.04267E0,1.871249E0,8.8381624E-1,1.8120234E0,1.6276863E0,1.3703313E0,1.0851629E0,0E0,8.323173E-1,2.0615842E0,8.654405E-1,1.4849815E0,1.6518105E0,0E0,0E0,0E0,0E0,0E0,0E0,0E0,0E0,0E0,0E0,0E0,0E0,0E0,0E0],"parents":[2147483647,0,0,1,1,2,2,3,3,4,4,5,5,6,6,7,7,8,8,10,10,11,11,12,12,13,13,14,14],"right_children":[2,4,6,8,10,12,14,16,18,-1,20,22,24,26,28,-1,-1,-1,-1,-1,-1,-1,-1,-1,-1,-1,-1,-1,-1],"split_conditions":[-4.349902E-1,1.760083E-3,1.0109661E0,6.625462E-1,1.2366323E-1,-7.7736E-1,-8.048582E-1,-6.0502E-1,8.6794806E-1,1.0707291E-1,1.289504E-1,-3.9248273E-1,-7.239163E-1,-9.9216175E-1,1.1377786E0,-5.0846655E-3,3.8747713E-2,-7.857489E-2,-4.0901285E-3,5.641674E-2,-4.4053495E-3,-1.8038192E-1,-2.867052E-2,9.86478E-3,-5.826058E-3,2.463758E-4,8.04808E-2,1.3910094E-2,-6.611872E-2],"split_indices":[4,7,10,2,7,7,6,4,2,0,9,4,2,5,0,0,0,0,0,0,0,0,0,0,0,0,0,0,0],"split_type":[0,0,0,0,0,0,0,0,0,0,0,0,0,0,0,0,0,0,0,0,0,0,0,0,0,0,0,0,0],"sum_hessian":[1.034E3,1.87E2,8.47E2,1.44E2,4.3E1,7.48E2,9.9E1,1.13E2,3.1E1,7E0,3.6E1,4.5E1,7.03E2,3.8E1,6.1E1,5.4E1,5.9E1,1.3E1,1.8E1,2.1E1,1.5E1,3E0,4.2E1,1.93E2,5.1E2,1.5E1,2.3E1,4.9E1,1.2E1],"tree_param":{"num_deleted":"0","num_feature":"11","num_nodes":"29","size_leaf_vector":"1"}}]},"name":"gbtree"},"learner_model_param":{"base_score":"5.6325254E0","boost_from_average":"1","num_class":"0","num_feature":"11","num_target":"1"},"objective":{"name":"reg:squarederror","reg_loss_param":{"scale_pos_weight":"1"}}},"version":[2,0,0]}